1.872853548973697269e+00,2.845877018636036593e-01,1.147867932170130612e+00,3.587646484652181056e-01,-3.394640288815495982e-02,-2.367719743541997490e-01,-7.797436778784508915e-01,3.600572100733910874e-01,-1.722542279967016476e-01,-5.611401629690540016e-01,-1.043700984088199002e+00,-3.587898586672539913e-01,-1.636468146970824433e+00,2.141638104536906437e-02,1.034454876096158937e+00,9.762397650757202727e-02,-1.202287500008898613e+00,6.992976198770086693e-01,-1.692600828861680062e+00,-3.116210277267091877e-01,2.575338823432447466e+00,3.632500258387056924e-01,1.840504972610862211e+00,-4.416374851629515513e-02,-1.039962189394354919e+00,2.760701797410983205e-01,6.875411768979441396e-01,-1.973071218220530387e-01,-1.870154961930026909e-03,-1.262429407820308214e+00,-2.642339176277853641e-01,-2.054566135510929939e-02,-2.635111104271000482e+00,-2.851067544890552585e-01,-2.620894749821149339e-01,3.085411672277161177e+00,-7.803946352170074152e-02,1.819617491338626714e+00,-2.204339993674838405e-01,-1.110754350052212819e-01,1.578317335894044326e+00,-2.828408292153487547e-01,-7.189537627029919387e-01,-5.942668684197072171e-01,-1.177770741203979094e-01,5.705546877643257186e-01,-1.100540950870320334e+00,1.833610647591390030e+00,-1.677621904711243062e+00,-2.030476354381759163e-01,9.165007537360396750e-01,-1.300354249421500130e+00,4.173753218636058748e-01,1.025219910505218879e+00,-5.501559406563820698e-01,1.113506689850026904e-01,-1.246144067687520618e+00,-1.503094091474618921e+00,8.264231721339418968e-01,-1.008644246161202185e+00,-4.333203268082162496e-01,-4.545845298459404993e-01,8.773158632677749980e-01,5.685593390378637091e-01,-1.104457501116405505e+00,-4.689483112870210246e-01,-1.831784929543542662e+00,1.470252977659621374e+00,8.106941361534520940e-01,-3.038165120800793151e-01,-7.760670372569072883e-01,1.756735750914515393e+00,-1.339750352643815701e+00,-2.378965291151677042e-01,2.778798260702384781e-01,-8.537417806661149466e-01,1.092043773719586941e+00,1.617457759732060074e+00,-9.336122181661439534e-02,2.087357220815747372e+00,3.333787725720278039e-01,-2.022148603971360981e-01,-2.360885374973222817e-01,9.066461832946862698e-01,-1.449987419192600435e-01,-6.082744816016677492e-01,-4.559268610501264196e-01,3.593003140019943031e-01,-3.498810133033590786e-01,-3.494720881367477938e-01,-1.667873988147487108e+00,1.146089144726656350e+00,-1.106637421199397009e+00,-9.185159477885693757e-01,-8.422259554901376788e-01,-2.290772827804922473e-01,-1.291752285616259988e+00,7.926361657858821408e-02,1.620095918644241406e+00,-2.304244171329522251e-01,-1.502792287925544645e+00,2.199668224198698230e+00,-6.143382195224297293e-01,5.379617226389166174e-01,3.369395157319822198e-01,-9.295830434892141669e-01,1.872805549724350538e+00,-1.381167981208548667e-01,7.376913848242496741e-01,-7.214600805943877093e-02,-3.785431391691327363e-01,-7.106509386465823530e-01,1.431696726696322364e-01,7.056474975858489929e-02,-1.573952910862682075e-01,-1.552226823412722334e-01,4.337882897446335151e-02,-4.483589013139039903e-01,1.236163670713786189e+00,-2.615722354160367136e+00,3.516919891525214781e-01,-1.373834009867708206e+00,-6.923075239430993566e-01,5.735213792059082882e-01,9.117315760668383007e-01,-1.674780323243215685e+00,3.151625687924025643e-01,7.669258038540104350e-01,-6.448951127910160785e-01,-2.602964789606875273e-01,-1.890623387444186065e-01,-9.759068645749123805e-01,-1.274656987167577693e+00,-2.286424189896968731e-02,-1.327622162165620567e+00,-1.033446910780748684e+00,4.133354142798251751e-01,1.395433947694341703e-01,-1.069464687589560148e+00,-5.378394934190235954e-01,-9.283513234241123069e-01,2.798502112081982171e-02,-2.111533340897608468e+00,-1.267557433161866198e+00,-6.767214955194145176e-02,1.576124827348696744e+00,1.367207988035295807e-01,9.550440829914809415e-02,-4.817205648532774803e-02,1.013722098441069752e+00,-7.590250194112933002e-01,-3.320353602391429293e-01,-1.088106148585336719e+00,-1.647041079916138795e+00,2.112072206562556898e-01,-9.932664011334039200e-01,-5.006329704499125066e-01,-9.361656141740966053e-01,4.718485265723528777e-01,-2.281541818769277086e+00,6.314177783571138514e-02,1.054705939317112762e+00,-1.100576031160034329e+00,-4.148105959690932543e-01,-2.350890904816961557e-01,5.001747284204779986e-02,-3.123701849692913646e-01,8.361942716890184979e-01,-1.086925083479789000e+00,1.660366246982311278e+00,3.665810836497713221e-01,2.308639377628403377e-01,9.432845900449112753e-01,-4.152043909213211093e-01,-6.682265144330120643e-01,-6.725044356938256751e-01,-5.461540984668578763e-02,-1.231865481868096746e+00,-1.056950500115499958e-01,-5.180962458712576879e-01,7.641748616127796989e-01,8.848769075851885546e-01,-3.550237243932313769e-01,1.527027708153430918e+00,-3.029890657553639399e-01,2.040743414813521284e+00,8.589544255054728517e-01,-1.071457312241659521e+00,4.429704605489906966e-01,3.813513949629299127e-01,1.330069743423320627e+00,-5.284436257760019018e-01,9.979408033391916344e-02,1.481064645991730266e+00,-1.140981487750298840e+00,-1.000312383333618049e+00,3.269945988217289323e-01,3.900260302412337787e-01,4.249375665707429972e-01,-9.224591885200840446e-02,-1.023382124794134818e+00,-1.965114627123292879e+00,8.971213700359810250e-01,5.963705461188002488e-01,2.952262527450910667e-01,1.152597483705370518e+00,1.953155466351693681e+00,-7.005058093051470813e-02,-8.617154822803455017e-02,5.349014507504457061e-01,-1.837074482401100495e+00,-1.688448347574859953e+00,-1.464308890991124601e+00,-1.067863203817475570e+00,-6.627094555531204412e-01,-8.876463845857764934e-01,7.858848518014768247e-01,5.063720538882706679e-01,-2.905182695801800108e+00,5.278123848531627305e-01,-1.896728013164078908e+00,-5.524322981239782049e-01,-1.217492349356832371e+00,1.407620459864201923e+00,7.493956354609085935e-01,-7.392688897610871779e-01,-6.576146923498805696e-01,-9.888985024868557350e-01,-1.174992348491740835e+00,-6.251491703499959529e-01,5.302648201151307639e-01,1.086146805070628898e-02,-5.475584040782046635e-01,6.262579747027613442e-01,-9.592120564376224179e-01,1.207469580555496247e+00,8.167609325824657374e-01,1.192876026918021859e+00,8.434295140208553088e-01,8.760445680450769101e-01,1.032824617300716952e+00,-2.202925061600150780e+00,-6.254928462666502487e-01,-8.305348350959831372e-01,9.090083790910322148e-02,-1.434858383925587816e-02,8.845015666025961565e-01,-5.411081196463557452e-01,-7.915600572025273118e-01,-5.871651307613511284e-01,2.599527664973654950e+00,-2.682032147608507389e-01,1.007177917118126986e+00,1.638212053345643182e-01,-5.830475878173146942e-01,9.743485676577032795e-01,-6.149750121413205539e-01,3.378524330862727187e-01,-1.577826913248406404e+00,-5.334558658404593423e-01,2.015374898369520995e+00,5.507651108661375527e-01,1.202413840378653953e+00,1.372473827213428477e+00,-3.580859555506022418e-01,-2.349796808204029919e+00,-3.327817290282262253e-01,-9.975781513433287229e-01,-1.182829820938375853e+00,-1.121190559137924952e-01,-3.003034852915131836e-01,-7.680173317989736903e-01,-1.835831940740286550e+00,-8.375741733817885226e-01,-1.662167316909778925e-01,6.909909581927436983e-01,-4.122903669665949344e-01,-6.342550089078445863e-01,1.496391498994019686e+00,2.367593062446207708e-01,-1.230051759316098225e+00,-9.100895237993573694e-01,1.088456817579462443e+00,-4.364520997675466751e-01,1.250278297464481714e+00,6.750177486529196358e-01,8.113013202473010610e-01,-5.016872400884503369e-01,3.986660698526759382e-04,9.272663224774190249e-01,3.763951940006778685e+00,-5.245069775448089056e-01,-2.247904052208859749e-01,2.572899807410685136e-01,-8.940458877382283509e-01,-2.234933443392589147e+00,1.084805198389952263e+00,4.928542843320350419e-01,4.178341689885706894e-02,1.934608135558653519e+00,1.222894550556686832e+00,-1.571953796540440873e+00,-1.146709301180266483e-01,1.350255707551538009e+00,-7.894724214005145457e-01,-3.391593216139563993e-01,6.921106642145536947e-01,9.014498941918821506e-01,2.736463798416945842e-02,5.398159485422432402e-01,6.109837285176265009e-01,4.454873166058301304e-01,1.280923910699463542e-01,1.099615986748873064e-01,2.264637831582315686e-01,3.801454330162925555e-01,1.918154105833149270e+00,3.029796542662591130e-01,-6.279550634159708489e-01,1.619610153325007351e+00,6.463990260242202801e-01,-8.105112135239121995e-01,5.354290508763185352e-01,1.348172715893031448e+00,1.352943780399941121e+00,1.815275358070571610e+00,1.181574392773064641e+00,-5.741992714710933976e-01,2.872323358425024620e-01,1.228768479565798266e+00,-1.953019698224756073e-01,1.295906128264206592e+00,1.187483078268420228e-01,-8.447889186993614574e-01,-6.576943338838247000e-01,-3.332690511949802925e-01,1.228070770950531410e+00,4.143432768529731747e-01,1.436938458120107676e+00,-2.814243984785144703e-01,2.459139661072624050e-01,3.830083296232528745e-01,-4.680621948752192174e-01,-3.383388952098191627e-02,1.802568709752349063e+00,-3.733649487518703736e-01,2.798578971047161607e-02,1.918181291194963681e-02,-1.802915582500356440e+00,-1.073942036753574580e+00,3.583033909082269375e-01,-1.435820626378157439e+00,4.496841770088092494e-01,-1.194221907242482561e-01,1.892728331469400116e+00,-1.950038214951924434e-02,5.488925336148804401e-01,-2.377799935001675968e-01,5.309420615374167429e-01,1.992106034862402231e+00,-8.453687888972705178e-01,-4.147998414737030237e-01,6.539185252130914616e-01,-1.155013236960802603e+00,-2.622142871024051303e+00,2.620882345624852006e-01,5.669115012236550788e-01,7.760369389428019016e-01,-5.379042512555451960e-01,-3.053538366855219621e-01,-1.318201862990920681e+00,1.610039746117328363e+00,-8.340536662648372346e-01,-2.648214401886920255e-01,-1.246628577414512495e+00,-2.294001811342559538e+00,3.667216680714261989e-01,-1.405468827724075664e+00,-2.430691937091457866e-01,-1.029049098313685046e-01,-5.107617213842839954e-01,3.075282783981450607e-01,6.891747224428436923e-03,1.256548376747036899e+00,1.692203367033672246e+00,7.909196959319998443e-01,-3.018949786868978524e+00,-5.721891246136650011e-01,-1.725633591929138344e+00,-5.757287085993022524e-01,1.451883308635144809e+00,-5.142673866914143632e-01,-1.913684255852143412e+00,3.024539972050712122e-01,-2.486527976096251535e+00,-1.386634993349947109e+00,-1.876781071914957577e+00,2.912111476433181245e-01,2.072036820966046550e-02,5.162660595225568860e-01,6.524108798395437947e-02,1.392645686462142152e+00,-4.366862452761460789e-01,-1.231567886605983597e+00,-3.819491849021178775e-01,-5.797317362174378985e-01,-2.993086391232743781e-01,5.527548912881213861e-01,-1.155377704411796103e+00,-3.979916501443268861e-02,-6.468242566958120054e-01,-4.058591029034936959e-01,4.982849321509915524e-02,-1.858457381375984596e+00,8.695174094336052817e-02,-2.185552269021795724e-01,-4.409096918037626045e-01,-1.846303397856022821e-01,2.406352941759044850e-01,2.928278198971338564e-01,-9.973979343249589347e-01,4.594955732465460518e-01,-4.972190172062601055e-01,1.341315276357750941e+00,9.296528166338092758e-01,-1.400581870777805049e-01,2.042870026575552278e-01,1.739633514093802125e-01,1.859818220512295506e+00,-8.996817728443794460e-01,1.686512536065287449e-01,-1.065773761327486469e+00,-9.422067716461777209e-01,-4.808558022814484190e-01,5.506311544658033519e-01,-2.663894774526878728e-01,-1.096241585539936780e+00,3.562202674327969443e-01,3.092099016274705292e-01,-1.227214968033134568e+00,-1.625118566416998700e-01,-6.533114178557057894e-01,-6.775922962147675754e-01,-3.846585461798469607e-01,-6.046122177556918498e-01,-1.383591507012637001e+00,-1.566285283156697794e+00,-1.225111097156971418e+00,1.641533623831668898e+00,1.552837081175999057e+00,6.568583330297791401e-01,7.522692861578952339e-01,3.907998889451524405e-01,-2.673195315697818319e-01,7.097638161103450027e-01,-1.453067216712933485e+00,-1.142061318769207849e-02,-4.085389731926158396e-01,-1.439403385593320817e-01,1.385036425946351679e+00,8.534203041250901789e-01,1.528301347136249155e-01,-3.126056263134235902e-01,-1.377263695202861626e-01,2.245207495096253947e+00,-3.054111711314207445e-01,2.380239526396658867e-01,-1.038810927760835501e+00,3.859135504822060886e-02,3.761741144831295958e-01,-7.691968644574533887e-01,-1.653332609474462145e-01,-5.024231416033466541e-02,-8.268453908598815127e-01,-1.363134782416940860e+00,7.143913271153595757e-01,9.920507216563140274e-02,1.535226507344978480e-02,-2.760289981857763086e-01,-6.620974876237465390e-01,3.847243730133805273e-01,9.711964946416180577e-01,4.607457554275732892e-01,-5.501901028746102318e-01,5.524560691133245660e-01,7.369481016371073889e-02,-9.599600432174478781e-01,1.409941562912402579e+00,1.356603888231560640e-01,-9.954143451696664258e-01,-7.335190767653673172e-01,7.197428687987109663e-01,-2.155328449261913804e+00,2.348508732890576545e-01,-1.272070522721689301e+00,6.801051719772062132e-01,1.834187154393454589e-01,1.320839347824265486e+00,-2.236674151084404594e-01,-1.233564563212182552e+00,-1.404386766465991698e+00,3.848308818338304627e-01,1.220630312327110056e+00,3.955466889563946098e-01,4.231482418427512937e-01,4.002832737434620647e-01,-5.964016015710288388e-01,6.990443377243843459e-01,1.662293201147144461e-01,-6.697629809433738313e-01,5.048860531534666851e-01,2.882612617165463131e+00,9.536223335477292951e-01,-1.664778623965072202e-01,8.464929620163725854e-01,-7.382434089705880442e-02,7.352211158515613576e-01,1.373327110782428750e+00,-2.609265977887617050e-01,-2.219985302609854827e+00,1.562497790051025959e+00,2.388655031578661880e+00,-3.897128821486639527e-01,-2.314387878592524928e+00,1.075809554996684625e+00,1.501758367247044479e+00,2.146421784990870940e-01,9.733923545532326971e-01,-6.458013524906768277e-01,-3.064083366424196764e-01,-4.164738820104862405e-01,-1.010325067168828861e+00,-1.047722529807897152e+00,-6.094061498109197839e-01,-3.603863853521062366e-02,-6.387916645935859394e-01,2.194956853072282665e-01,1.834963189916901105e-01,-1.157531009509871200e+00,7.287606328717914639e-02,-9.205010578887427020e-01,-1.605879306026377851e+00,-8.248657407495580962e-01,-1.129297591338899842e+00,7.106808710121321759e-01,-5.553111681721775161e-01,1.415102651069120254e+00,-1.363218065611389695e+00,-1.601917673400832687e+00,-1.899315549470622644e-01,-6.992902075396795203e-03,6.139810148762609998e-01,2.677448479007416449e+00,3.505489791062920135e-01,1.060238012958949483e+00,-3.955828609046776467e-01,-3.248047591189659467e-02,-6.661971884954918099e-01,-1.514109449077093716e-01,-2.720366138679783385e-01,-8.202941400850893849e-01,-5.374199351002828529e-01,2.209438339127468787e+00,2.091784155728512729e-03,9.008915998726142460e-01,6.994129915088223015e-01,-5.622919717979179000e-01,1.025694761956471357e+00,1.040944724929378840e+00,6.082040798865302467e-01,-3.828825141926552877e-01,1.624676470810735573e-01,8.355001654076751327e-01,5.452526509428088364e-01,8.963783673179500644e-01,-1.206835612428823312e+00,-1.128921685674466380e+00,8.496290865434370509e-01,1.862757811355691961e+00,3.085052902617112583e-02,-7.974472485968290281e-01,-1.434664835654502202e+00,2.218463000008549790e-01,2.029725073536939650e+00,-5.943691752838783371e-01,-1.851971528798982858e+00,-5.742221881559009811e-01,-1.923544106815610333e-01,4.742762406837465472e-02,-5.237304747971153196e-01,1.888861354329386399e-01,9.460981105667736202e-01,-2.294972696740622542e+00,-1.617471631538242027e+00,-1.185112357124066929e+00,1.762722938906122527e+00,-1.290833852933903625e-02,-8.483620823027509736e-03,1.009434592496337268e+00,7.678785029755965663e-01,1.008643308653303539e+00,1.649653455497404331e-01,1.149107210017710878e+00,-2.140622674717675977e+00,4.653319402758194778e-01,-4.072774170667370353e-02,-9.907624298999533341e-01,3.886068904043085692e-01,-2.709243752187560084e-01,5.559393429446295443e-01,1.401003497979161627e-01,2.334728677186602430e-01,1.084771777225575828e+00,1.163513321436697501e+00,-1.232801224249808758e+00,-5.812890335634691708e-01,5.128706280777027837e-01,-1.684190166889484974e+00,-1.294170219877076144e+00,1.064073400072710784e+00,1.425438672864364209e+00,5.611866559272348232e-01,-8.302634344019335089e-01,-4.109305458347959905e-01,-1.523439866904076519e-02,1.284464270151589149e+00,-6.640254776738934162e-01,-7.880230490910523633e-01,-5.362949009997131089e-01,-6.922657837776581280e-01,-6.325054319832534855e-01,2.535916494058560455e-01,-2.804247511637815826e+00,-1.543584518334475408e-01,-9.088334525510445572e-02,8.885540288852304958e-01,1.036661118671998061e+00,6.542393613177358569e-01,5.950477666061358972e-01,1.649341818545956961e+00,1.134399617528786264e+00,-2.843731619954616985e-01,-1.512652548389622487e-01,4.002818236459362300e-01,8.561420395527771232e-01,-1.195136284196403054e-01,-7.024104935479925649e-01,-2.154423498743321397e-02,6.971784200147577160e-01,-9.882746327671503295e-01,2.133660974432443902e-01,-9.276562679863334937e-01,7.331728341942508331e-01,5.202741033977199558e-01,5.210210393424496989e-01,-5.887519581443587668e-01,6.415063795932142154e-01,7.924526505488613815e-01,2.131063692845919899e+00,6.485255158339959802e-01,2.590743169425916911e-02,1.169291390618280468e+00,1.278770133838131595e-01,5.706635566214997290e-02,3.092556533469812963e-01,-6.447571135533738396e-01,-8.048118552240486334e-01,5.702796086698835171e-03,5.470754274740441403e-01,4.016336277575932034e-01,1.742427899672198688e+00,-5.385051328451331137e-02,2.136184420005518003e+00,-5.987022182665323600e-01,7.849100278823436527e-01,8.107608622939473930e-01,2.229389844827562861e+00,1.626742610074988660e+00,6.805107892741550299e-03,-3.925768099172845527e-01,-3.832206985472221272e-01,7.214710403037596365e-01,-2.593500386495148913e-01,1.374385456894692548e-01,-3.460384953170578815e-01,-1.461217351175082113e+00,1.098347111251537722e+00,-1.732060007681927027e-01,-1.785226184469140831e-01,-3.840788631453274093e-01,-1.893638129395488034e+00,4.965579633940767623e-01,5.743733910650499208e-01,-9.526977026552244654e-01,-5.949574760673563834e-01,1.330913370731409584e+00,1.070302992003230314e+00,-1.429745252678600309e+00,4.367999518928852160e-02,-2.628243385462313841e-01,-3.193052288050810678e-02,-9.285645290715580646e-01,-7.616914680486863709e-01,-5.497825128483264656e-01,2.146224620378671677e-01,-1.014777229611822484e+00,-4.307390626145032181e-02,-2.239378378695893623e+00,2.311316514460319826e-01,1.729367202861256336e+00,-1.588221193727465952e+00,1.264772967638073231e+00,-9.244638136298457542e-01,-1.078888846919193290e+00,-2.157745755832786438e-01,8.675811608377804740e-01,-5.860980478594194354e-01,9.730205810095167163e-01,2.438579058492787097e-02,-1.174949662182154242e+00,8.243153994820067165e-01,-1.072156489239122656e+00,-7.267131477787274196e-01,-5.112830636856990907e-01,1.356656016237815510e-01,2.179719359646520582e-01,-3.280660021964591500e-01,-6.097507018670123013e-01,8.582360929521780646e-01,1.207996277839449295e+00,-2.358738915253982549e-01,1.132893005618814231e+00,1.338144670455471807e+00,-1.643526698703405620e+00,1.402161518328670198e+00,-5.052736666607309662e-02,8.051759721085752775e-01,1.719042703942801897e-01,-1.255255918182298869e+00,-2.802505374025137524e-02,5.598454369874370506e-01,1.186660036606933533e+00,5.926403674329521198e-01,-3.153681047811517368e-01,-1.056496819336021575e+00,1.074299693009403978e+00,-5.698428468503466959e-01,6.717522605923670342e-01,2.192557797088235116e-01,4.944659216390143164e-02,-4.577990265259355152e-01,1.504579063312172726e+00,3.687813491917497077e-01,-2.460436030108120065e+00,-2.260463885168218778e-01,7.774321080509896120e-01,9.372094903902696839e-01,1.057607595031651443e-01,5.629032874526410657e-01,8.217808915757068844e-02,-1.786471168558519812e-02,4.180819552147116980e-01,-1.117563378832634680e+00,-1.537456996994754244e+00,-9.355417801494139152e-01,1.963434348818829278e+00,-4.485350746200099104e-01,-1.250612483255008289e+00,1.419182401608526600e+00,-1.552166122765238798e+00,4.856751311312928476e-01,-1.215315673565142474e+00,-1.763122266241931468e+00,1.096483204902031355e-01,1.363408047468384510e+00,-1.279674498730045684e-01,6.889794597475513704e-01,-4.252090560603248304e-01,-7.849537523768729264e-02,-2.018003750781944827e+00,-1.699690875181339544e+00,8.158861833663369478e-02,1.428509834185109906e+00,-2.559967114173664071e-01
-9.021364148809499772e-01,1.567073947103201137e+00,8.272064079848405749e-01,-5.966926023905175791e-01,1.011994030698913916e+00,5.679165584843336445e-01,-6.261352542919887965e-01,-9.185668900046867202e-01,1.669639895370544691e+00,-1.126558779157117218e+00,-2.826493934675111674e-01,-1.177470069270287523e+00,3.696629574477027780e-01,-2.880663010365702159e-01,-1.732990214789781602e-01,-2.693588378223287894e+00,-4.081192112690487650e-01,-2.237769697281993153e+00,-1.279426442915679307e-01,-6.658029895799840725e-01,1.316454286488385250e+00,-4.970726953493839195e-01,1.773456890344859538e+00,-1.251348627548350967e+00,-9.187395567182136125e-01,2.389729941581011374e+00,5.501660335726654694e-01,-1.168451157789775596e+00,2.668551747859606027e-01,-2.932458170680948273e-01,-5.792863000538485130e-01,-2.469565116077696576e-01,-1.760263619637632893e+00,-9.292660552809955954e-01,-3.243489471789130496e-01,4.351411955143569266e-01,3.037762053842746557e+00,-1.699798963393215123e+00,-6.060913973441073299e-01,-5.453214244790621779e-01,7.852273543774609399e-01,7.444599010351310442e-01,8.220582962652656089e-01,-4.517938641675183775e-01,4.312877658664789893e-01,-1.632583346906199898e-02,4.366201783508579237e-01,-8.651080256010046377e-01,-1.727787606296622147e-01,3.778700085514126172e-01,-1.707566369298093800e+00,1.150342155147688450e+00,1.780532491784569293e+00,-3.357493502888775350e-01,-2.485245091874152545e-02,3.109834118515070189e-01,-3.441009835243803022e-02,1.053447194613437166e+00,4.916513422442226888e-01,1.391558940861171267e+00,-7.202151042609791221e-01,-6.264252515366255381e-01,-1.175033148979654163e+00,-2.026724816035663235e+00,8.482870895447475190e-01,1.031596101259482312e+00,-9.063344481632412686e-01,-3.584434115235276552e-01,1.144478499920330794e+00,-1.120019101751462243e+00,-7.381165210748609207e-01,-1.759594952153076264e+00,-7.901306692077277871e-01,3.155842041942907850e-02,-1.148838216679896052e-01,-7.596412593719276130e-01,-2.077851404138975067e+00,2.326139474350378267e-01,-1.156153922327885830e+00,-1.039613063701316342e+00,-1.552681661333412455e+00,-3.066878825402425957e-01,1.779355705942719801e-01,-1.476373121077386275e+00,-2.249221227164732273e+00,-3.090940898248920043e-01,4.555758581535657714e-01,-1.258434540325870765e+00,-5.788038915054892763e-01,1.072704947940310571e+00,-5.011245149066134025e-02,-3.213821803218221418e-01,3.910168388588359245e-01,2.233375101302989829e-01,2.233002448861038172e-02,-1.327404470685497884e-01,-3.172829774524443813e-01,8.861607783630996993e-01,-1.066357862085023089e-01,1.352132138970018271e+00,1.210772858514908901e+00,1.505192757066547982e+00,-9.637496656514874527e-01,-5.864927976760834216e-01,-5.640788913749783529e-01,-3.972261905473371546e-01,1.220821623278527612e+00,-1.421738336799668989e+00,4.465032249051444913e-01,-2.057694293066430202e-01,1.660034221570029001e+00,9.490726135672880037e-01,-8.694849611694973612e-01,4.919366836945375243e-01,1.553645501252902683e+00,2.020729205842420884e-01,1.022090015012218078e-01,1.020615292626374293e+00,6.583713890154654358e-01,3.588395537096550347e-02,9.260302612497638419e-01,-6.959307376748229412e-01,1.279620709993452454e+00,-4.354019288534128340e-01,8.735194458514915494e-01,-3.608918751547719739e-02,-2.281353105511703949e-01,2.292096694580176286e-01,2.913319668962651918e-02,2.784140403293964283e-01,-2.030247037836781843e+00,1.954848637105513209e-01,1.263439884067938390e+00,9.092197591956152625e-01,-2.115440780325240855e+00,-8.174411653613851136e-01,-8.650541871002499772e-02,-6.939721981483817359e-01,-2.874295890263719233e+00,4.783933557575667517e-01,-9.320715301280183551e-01,1.325789112464316410e+00,2.688730994892911050e-02,-1.319471646051344260e+00,-6.079630978765964144e-01,9.131491985629902608e-01,-1.815444969423723465e-01,-1.356871592802201487e+00,7.933200868275831485e-01,-1.384051749847754031e+00,6.248350097546198079e-01,-7.324294701822211540e-01,1.919935641340870525e-01,1.372942537675059804e-01,-1.121360969333642821e+00,-3.363840215767668895e-02,-2.591504520763168035e-02,2.292487983897021353e-01,1.844969762915247280e+00,3.105884958793186379e-01,7.068799579723356041e-01,-4.186667075905947666e-01,1.291782890376381721e-01,-1.809673485018434835e+00,4.720757491559050001e-01,-5.439790571850310341e-01,5.853514582346596162e-01,-1.343239067469193249e-01,-1.671568904923308230e+00,6.810443961331986706e-01,-8.118095810041918714e-01,-1.106115169850103941e+00,1.273219830746610826e-01,5.922052285611349998e-01,-1.838005310073361487e-01,9.446370447020481231e-01,1.886181901474784928e+00,9.422295609829077767e-01,-1.316276792117546668e-01,4.776616176395387381e-01,2.639519846511110823e-01,-8.197271130359017333e-01,-9.591310257686823659e-01,-2.896276769587869282e+00,4.038943427846936607e-01,1.314777086886612933e-01,1.428543815358299440e+00,2.960298085144125180e-01,-6.490309839584819385e-02,3.571649321583164061e-01,2.557864170947632410e-01,-2.266812170917358316e-01,-6.811942033991067458e-01,-1.149690147082437885e+00,-1.604809425374275345e-01,1.201828092235111667e+00,-3.956763562348997870e-02,-3.597079736275637374e-01,1.336954797921590110e+00,-1.920109639707985538e+00,-6.692827056663923635e-01,1.430747304573359413e+00,-3.759764099634960860e-02,1.608300803202416640e+00,-2.128042082205708341e-01,-1.038722034555690010e+00,-4.226123523341883126e-01,2.012462493209709602e-01,-2.646789347909624723e+00,6.469015198965378799e-01,3.791750065349105414e-01,-3.339715616446604640e-01,-1.088413860647181375e+00,1.491353982972272840e+00,2.409850958143416877e-02,-1.275650899810774896e-01,1.025627921970822420e+00,-1.228689475589447522e+00,7.614373028782442931e-01,-3.425947538691812011e-02,-2.655796337314854760e+00,2.050976307418757916e+00,6.531304286040807705e-01,-1.115061401871494384e+00,-1.432534086001888973e-01,-5.478259496852880828e-01,-8.410096679171167322e-01,1.216210984067018774e+00,-1.196230842919947940e-01,1.002487100922796914e+00,-1.499602050524331265e+00,1.689162624415596170e+00,2.441247769284834446e-01,3.750943051446984922e-01,5.252370607831844396e-01,-3.526538279040664081e-01,-8.203583879762975650e-01,1.018160973816275260e-02,-1.087655920793829667e+00,7.914659150631546680e-01,-1.877958910467391884e-01,1.012441708870505108e+00,6.530180976991861730e-01,-5.781128589124512329e-01,1.219308924316089664e-02,-1.248871637925888789e-01,-6.691925641802032310e-01,-1.584927550259391249e-01,-1.430100837529132418e+00,7.426422172502512575e-01,-2.154734247999919583e-01,9.624349572771945249e-01,1.041881993940471318e+00,1.959078703359372176e+00,2.080690566547682252e+00,2.612602483545889975e-01,-1.536604642216873318e+00,-5.883802139984399826e-01,-4.697223894813187250e-01,1.812560622812452671e+00,-4.625286661455880743e-01,2.566469590733621575e-01,-8.641908049340354947e-02,-3.402116118306886539e-01,-3.805363279013289080e-01,3.945254255735834714e-02,4.433349669426426831e-01,-1.158567746882311456e+00,1.195537655660049853e-01,1.277419724859781169e+00,7.351207385874634070e-01,2.136053290843445140e-01,1.632397174724939948e+00,-9.413290146685029391e-01,1.795286697253474784e-01,-7.241361987867396544e-02,-7.135376466295877407e-01,-4.548199686697152466e-01,8.961722085101413438e-01,-5.865771851431986761e-01,6.057396465333106939e-01,1.994671596250089107e-01,1.442629304849402105e+00,-3.953322546501885637e-01,9.895949027655537300e-01,8.302734634936594083e-02,2.997185391085108730e-01,-1.035174286119612930e+00,1.205161720239171563e+00,3.579366550474519793e-01,3.069227785352674487e-01,-1.752775193521601382e+00,1.313578730567833142e-01,-3.816939578209133099e-01,8.493101481379736750e-01,9.008998042488335356e-01,2.074001017144131431e-01,-6.643867329153303469e-01,5.305967821248539495e-01,2.724273139749620931e+00,1.486786931535106326e+00,-6.913056736259768353e-01,2.067938039500955005e-01,7.414001637097525910e-01,-2.853197777990128969e+00,-7.775164657018387437e-01,1.209029761459127217e+00,1.397983597785573684e-01,6.799869793803300366e-01,-5.218410014147498166e-02,-1.785077631516584384e+00,-7.112850075855484677e-01,5.482006653414366049e-02,-1.230744844978106878e+00,-1.512538529374266305e-01,-2.772189973033488686e-01,-7.426387899622943767e-01,-9.978026004369638935e-01,4.443362158416521712e-01,1.010919698842344117e+00,-9.270488039112292356e-01,-1.467894553864913521e+00,-6.541986832477419966e-01,7.073065598191466963e-01,-8.603723218774156356e-01,-8.304415587944063981e-01,-9.316884232864214299e-01,-3.054105895218811040e-01,-1.159647101292737847e+00,1.822298033103061821e+00,-2.866109688268442257e-01,1.380121969215551692e-01,-1.092569572892025276e+00,-1.665780803520323206e+00,-1.409305062767122863e+00,3.101569345440281289e+00,-4.764821836539530168e-03,1.093732881064118090e-01,-8.593264095027908223e-02,2.686457171510530539e+00,1.988466604300213048e-01,-1.004500418944261453e+00,7.708317384992579013e-01,1.038029750488907554e+00,-6.910165334937709014e-01,1.315443935195010072e-01,1.060594935439618913e+00,1.417303942964898811e+00,-5.884641867841490862e-03,1.671138651100119998e-01,1.024605624558758921e+00,1.025166796899272370e+00,-1.557877806907724150e+00,-2.891065571168068282e-01,4.913371682139031082e-01,-4.215320787517706780e-01,4.598093111937929245e-01,-3.393385261800810349e-01,-8.634532600526344526e-01,6.025672532844494889e-01,5.738068086396193035e-01,-1.633311178432881094e+00,-8.429796100745570175e-01,2.759928277528075347e-01,1.152080251227990126e-01,3.382492916938330541e-01,-8.033661882036659263e-02,7.050140082599685165e-01,-8.299272041991786475e-01,7.510204369764458265e-01,4.952923205830030984e-01,-1.720373827213599993e+00,-4.373768768772366422e-01,-8.722650810163947721e-01,-3.883048849879200959e-01,-1.981271059442879734e+00,-4.818435810207236103e-01,-4.644402691062405886e-01,-2.950697523806519174e-01,5.325349004761421590e-01,-2.522893613081245157e-01,-3.966009499269503719e-02,-1.243788179425641127e+00,2.408637750051247917e+00,8.201686922522682943e-02,-7.707566219811132213e-02,-2.701802733294103920e+00,5.855968819876765652e-01,7.709886490655024627e-01,7.958420569714165504e-02,-2.925980034667248209e-01,7.777672911749912155e-01,-1.291480541997934939e+00,8.667219593910224784e-02,-3.958381354519358020e-01,2.901374631539554994e+00,7.368032679717323452e-01,-5.986975568617416421e-01,-3.608993436852273029e-02,4.700653786784799171e-01,-2.565854210397704449e-01,-3.204324112810509328e-01,1.040076372495693846e+00,1.029084990834349789e+00,1.848629025404247228e+00,1.493823072813653452e+00,6.632910889263792242e-01,3.355274700872569182e-01,-3.970129816584545140e-02,2.002742099112817531e+00,-4.048147670181173052e-01,3.151936193726962987e-01,1.362563025490855395e+00,-1.054237233670892948e+00,2.113614297786272633e+00,1.020822992074148061e+00,-1.486750637888852589e-01,-1.090130571613839860e+00,3.405199906602971449e-01,-8.479418601677555234e-01,-4.815646664077871675e-01,-5.550961709841207847e-01,1.563803981684002906e-02,1.173023084392529336e+00,-1.974728053078883827e-01,5.831050687570926705e-01,-1.454095848967429383e+00,-1.652613716734691707e+00,-4.112685169915488159e-01,-2.697189884362730439e+00,-7.564215277546335603e-01,8.009705224617696961e-01,-1.368170993345097619e+00,-3.882027343536779695e-01,-1.319036549846742679e+00,8.125264865224117727e-01,-4.927050723278461608e-02,1.733105904770772421e+00,5.626716664332259699e-01,-1.024533355363641540e+00,-6.313852686801721958e-01,6.086912976632052191e-02,8.674935195904581731e-01,8.623773443621034485e-01,2.732953617201348440e+00,5.556333807373022848e-01,-5.071220226255878094e-01,-1.242140423273430327e+00,1.990388604473025236e+00,3.566934929926485753e-01,-1.115075236011374926e+00,1.603743871741002192e+00,8.241392241830012289e-01,1.459518494195947813e+00,-7.496228201162973281e-01,-7.054584700855980328e-01,-4.987362366472218311e-01,-1.614403591286661943e-01,-3.013039500256294301e-01,9.487536097719225792e-01,5.558503075043786934e-01,3.878010270946889437e-01,-1.067127877703322847e+00,4.335054133961862566e-01,-9.526764333927266737e-01,-5.765987820580401602e-01,-2.838198116375712399e+00,9.703344794339052726e-02,2.393936169202494357e-01,-1.488464509588109941e+00,2.368916221701513614e+00,-4.698209431163787864e-01,7.405736103482028765e-02,-1.429447489078544908e+00,-1.139196366620205181e+00,-8.763326225317451534e-01,9.196176147693295444e-02,-4.229673947223243080e-01,-4.880709050189168119e-01,1.683097132372273763e-01,-1.029521725731659787e+00,-5.309426507209353829e-01,-2.899570322799624889e-03,1.557273069650761288e+00,-8.441920584359524637e-02,-8.122817416705718774e-01,-1.275321313418468661e+00,-1.028514818736174119e+00,1.472576771273470086e+00,3.589738319393555033e-01,4.902012298512968824e-01,-6.605428382151672384e-01,7.274271171530709568e-01,-1.207279630006661275e+00,9.014879147187923047e-01,-5.395803489839975375e-01,4.404092234697372099e-01,1.082906878429009012e+00,-6.660660405916258853e-01,2.322124554345103231e+00,-4.707947962233890449e-01,-1.767372317051176811e-01,8.848490323766456944e-01,3.133440664118978813e-01,4.005284709326312198e-01,1.309527709753627311e+00,5.311244007157739366e-01,8.839843679669343590e-01,1.508549323087684080e+00,-1.263599565050782081e+00,-1.023001080487666581e+00,7.222722837680215502e-01,8.609203950812656103e-01,3.433319987968244114e-01,2.144503734330073519e-01,-1.824653052701767364e-01,-1.196374452192285887e+00,-2.990970060647619722e-01,2.689041976688586466e-01,-6.738671599305278148e-01,4.884467820383451286e-01,-6.067609211092158672e-01,1.362580621951477555e+00,6.724731136790979003e-02,1.550431380698277017e+00,-2.639723483705488927e-01,-1.584856914031114394e+00,-4.262522419051487654e-01,-5.202001450143919348e-01,-6.073943178053748948e-01,8.413232901543976627e-01,8.452673366276133304e-01,-9.864560297117721532e-01,7.056150063127851757e-01,7.449098815271905094e-01,-3.738967947616260723e-01,1.542642699426328701e-01,2.728306117840657019e-01,-7.161172042858402476e-01,-7.242002035262638804e-02,-2.291267097632826433e-01,-4.043976475380479108e-01,-8.322138125732752023e-01,1.816319385279329568e+00,-1.403564977335636454e+00,8.019989853927019796e-01,-3.765326201353261237e-01,1.341826145405132786e+00,-9.351990273384609420e-01,-1.263856259734430720e+00,-8.439857198289438811e-01,-2.990323957393219878e+00,-2.212715753351961190e-01,7.376613273745822319e-01,1.232312054048107786e-01,7.980473624780343167e-01,7.459996789444434118e-01,-2.287736098690665298e-01,-1.589518706609346355e+00,1.399987494583862790e-01,1.625885764938252986e+00,-4.432038477895401951e-01,-8.828658343386671659e-01,4.251897438025519227e-01,-2.331975729655060281e-01,1.129717765982971162e-01,-1.297427938824706528e+00,-5.818747809428350681e-01,1.200964791775947837e+00,-1.550363509838566800e-01,-2.430144981810598015e+00,-2.035437604168451875e-01,1.390953764343349219e-01,1.977318188693190371e-01,-2.991833755693457664e-01,8.733702577561429647e-01,-1.911128054432020384e+00,-4.559086437097527034e-01,-1.264033387791810625e+00,-9.950747897007268250e-01,2.362417912418499633e-01,4.733139563421502084e-03,6.029802201638262416e-01,7.561531910896172048e-01,-9.167085097423041118e-01,-2.651071584445418239e+00,6.040128257324418604e-01,3.938637601018535328e-01,-5.470918838251928040e-01,9.697440938541029842e-01,-9.887715718959702027e-01,-2.064386892827995368e+00,-2.859298251627634402e-01,5.091825875370378229e-01,-1.005747885965165178e+00,-3.383502038526198241e-01,-1.116981528308741201e+00,-1.969534799439732753e-01,5.313071605108734552e-01,4.591164785596048570e-01,-7.314082775215208221e-01,-1.094283613932089283e+00,-1.766920929612941504e-01,2.601991873653618503e-01,-1.591283425329747203e+00,3.303137408380087403e-01,4.556515345432807784e-01,5.960903393647667414e-01,1.290707828690032810e-01,2.701383349766596220e-01,2.396670613946622896e-01,-1.365510545140787846e+00,1.376110201891147078e+00,2.635910323623996021e+00,-1.047480664106352766e+00,2.659687034651434315e-02,-1.390708539558718648e+00,-4.855031123012932825e-01,1.552354672587277218e+00,-6.415740235404346903e-01,1.267806807204767239e+00,4.635069639163145738e-01,-1.488526090249096656e+00,3.833578083720111107e-01,-3.699672697688826672e-01,-6.920037059658751266e-01,1.080176502596606469e-01,2.267770453391973196e-01,-6.881213451190762997e-01,-1.532070024315477452e+00,-7.903634360940777759e-01,-7.759647723634745253e-02,1.057581995612455611e-01,-1.882242218693326530e+00,2.486535023783336962e-01,-5.240106015184073929e-01,-5.228761657823115527e-01,1.482923402378145683e-01,1.186129533707030781e+00,7.175663631890069061e-01,-1.147125059549277903e+00,-1.255130236200266758e+00,3.129842455269400414e-01,2.583657592416869431e+00,-6.853223939242703011e-01,5.824205676190281622e-01,-4.130992351771404225e-01,-2.659757344333708029e-01,-2.909117554658910976e-01,8.441467869176902949e-01,-7.514825101092277304e-01,2.026844553563899254e+00,-5.449182115838557133e-02,-4.759704850700113843e-01,-5.480645046990386682e-01,-1.245453857430354611e-01,-2.443542940445327272e+00,1.082342920461532021e+00,-2.873718911651454988e-01,2.225068241550584580e-02,-1.323808895719005285e+00,1.146782378094456600e+00,2.070251994746751922e+00,4.929914835480062041e-01,3.064236292096460534e-01,-2.214483944051711117e-01,5.565089059723298259e-01,9.370940313795288468e-01,1.639925767669505041e-01,3.089363047349712177e-02,-1.740957629504273685e+00,8.189099997453682667e-01,-4.832948078065881781e-01,-6.607681975088103288e-01,-1.568830535860550990e+00,4.387416620893076491e-01,-3.618226197945135225e-01,2.959637268708253249e-02,-1.065651045496446292e+00,-1.516397882899595428e+00,5.483580383306105865e-01,-5.752637991978760690e-01,-2.116968268675552961e-02,-8.284874081111945898e-01,2.214811169679208325e-01,2.939447685161439838e-01,-9.268221757019330376e-01,5.021221840127696456e-01,-1.451144405944425175e+00,2.561747844592086529e-02,4.590995386554451163e-01,-7.251111716202216506e-01,-7.380457207143216181e-01,3.675573004167634328e-01,2.017527484452279030e+00,-8.778442162255345460e-02,5.320724463391334202e-01,-4.726219586897112412e-01,-1.278247860939941249e+00,-6.061601225914180491e-01,-1.321714849320009710e+00,-4.192729073733393319e-01,6.004857408407333619e-01,-4.837261092510984350e-01,-7.202049051507863897e-01,1.591101290485449571e+00,1.098587167131192199e+00,1.123742152884677159e+00,-1.713125633644354773e+00,-2.133077020872586049e-01,7.586251480745930253e-01,3.252861525794326081e-01,4.346774658583855977e-02,3.317056756709974019e-01,-7.863844911400691418e-01,-1.117954817331201944e+00,-2.806307488288845020e-01,5.888673720199807393e-01,-4.994073520620281315e-01,1.241647520836955287e+00,-6.899255429574254750e-01,1.671952238837546734e+00,-1.978205944268499050e-01,-1.623775138551315944e+00,4.362956720595421167e-01,-1.394176413512177470e+00,-1.146990183405278474e+00,6.777966109519630855e-01,9.153600090620023222e-02,1.682236324498846969e-01,-5.534805143525912685e-01,2.537263663932179725e+00,5.447945128291026284e-02,-9.288400051292510229e-01,-9.539097496506842022e-01,-7.595774254092479971e-01,2.719842979686065698e-01,8.323046026861065094e-01,-1.493265692013936663e+00,-2.239457704294272600e-01,2.737614790338625537e-01,4.868770330276910863e-01,9.218772600470618306e-01,-6.274127417289933062e-01,6.431442755978380443e-01,1.035705654223127714e-01,-1.650764698777500872e+00,1.248540068352373744e+00,2.110124894619952673e+00,1.236087685227435173e+00,-2.329951063673267320e-01,7.464064598917196092e-01,-5.280595948079537250e-01,-1.802929179785579095e+00,1.405355488651032658e+00,5.004228188429165058e-01,-3.427751139025489446e-01,-4.208205997715655511e-01,-6.787571978828679242e-01,-4.417887860792468063e-02,-1.008883539721852074e+00,-4.667339901894393961e-01,-1.324035718916992899e+00,-1.411824244008151874e+00,3.555443945100076331e-01,-3.931205293485064978e-01,-9.421005529020226588e-01,9.228635210796373722e-02,-1.566770499824242213e+00,1.509698277668229283e+00,-8.447775814857511056e-01,2.880045275674409377e-01,-3.202495275073934111e-02,2.247760818937375671e+00,5.773521271707909852e-01,8.462242985309272880e-01,1.130213605670504773e+00,4.970285765847196613e-01,6.612310969796936222e-01,-1.348466207207273726e+00,-1.598697923228706630e+00,-6.921802105705889691e-03,2.233308228156024033e-01,-1.188079583390718064e+00
-3.038292379575163737e-01,-1.463466640064353230e+00,-4.576002066879578112e-01,-1.089475668481773685e+00,-4.779817149079684802e-01,8.321815462303155941e-01,4.140059091348975429e-01,-7.289639739619103997e-02,-6.730400107262158871e-01,1.887063907855748512e+00,1.377047008196796707e-01,-1.902443914841674411e-01,8.675539002087669926e-01,-1.160593648017228974e+00,1.023061832704541096e+00,8.486004416529077110e-01,-4.506649487924995201e-01,-8.265985750276165778e-01,-3.234335813047422015e-01,9.392853706457714447e-01,1.114787258173900009e+00,1.623851714440630589e+00,1.791766986348179991e+00,-1.321598869694254441e+00,1.338606686229091736e+00,-3.609609083524240591e-01,-9.045609223110728792e-01,-1.050558650930666360e+00,-3.231340068842527002e-01,-1.552275228317802958e+00,1.669545920061211997e-01,3.836045967679994895e-02,2.067390245234383001e-02,1.637153922633730885e-01,2.987654036275921299e-01,6.381779992204695828e-01,9.596992028749382064e-02,9.042185834828259106e-01,3.269042988103672553e-01,3.180729399891468745e-01,1.092246424067775168e+00,1.344823676857453687e-01,-3.047851394498961586e-01,2.953649398796360237e-01,-1.087716420584754706e+00,1.601649306503460268e+00,3.501795142253341653e-01,3.675806019615697195e-01,-9.141339783478651393e-01,-1.368812868577342856e+00,-1.127903779471416179e+00,8.311299032078307558e-01,-6.752464497928226672e-01,-2.757067290826638595e-01,-8.447562445670601106e-01,1.021222338458051881e+00,-1.205278462245038318e+00,-9.910481155711435841e-01,-5.912970595624706949e-01,-7.387140071668595320e-01,-3.292051631967059522e-01,8.544920256754036103e-01,9.374280021422409792e-02,-3.223569758112207473e-01,5.319779869657961235e-01,1.883912673844367891e+00,2.717449386858830085e-01,-3.586389335862760208e-01,-1.544578825825710933e+00,3.657473657121371180e-01,-1.469438808358251247e+00,7.438120331741328028e-01,-5.222984584557055499e-01,9.888984715406036186e-01,1.573660334354721080e+00,6.969502880552033153e-01,-3.317043538230203259e-01,1.125108959297184796e+00,4.011249508586595680e-01,4.613044533316875695e-01,7.273748727664386404e-01,-1.951776319458645437e-01,-3.937772224052864534e-01,-1.905299250615060558e+00,7.468739131440137458e-01,-3.274938751491190958e-01,-9.250802956870113336e-01,1.073913228647252888e-01,-1.181711843726004352e+00,1.861582202416900700e-01,-2.209663338818599887e-01,4.865094676792567907e-01,3.649013776811722565e-01,-5.738984113038642088e-01,-1.369138606270312308e-01,-8.288414023709678169e-02,-9.623695329200149251e-01,9.698503606780925490e-02,-1.163773051370297518e+00,1.462525245184206346e+00,-1.385772734678644591e+00,-1.216515196484911465e+00,-2.397655477706298888e-01,3.310349228141454825e-01,1.580605124546995865e+00,-6.753239362261485024e-01,2.419799989433560061e-01,-1.700278654566579895e-01,-3.659303057511034130e-01,-5.152759006670232234e-02,1.004582737946879023e+00,3.522727429629359808e-01,-6.206473196683953697e-01,-6.421129173690747205e-01,1.050971187587472322e+00,1.689818234932935592e+00,1.380162285370864161e+00,-7.882195559284367326e-01,-9.208473433687270893e-01,1.523711466510126455e-01,8.121951013158643096e-02,-9.059013649416651770e-01,1.295327101183664897e+00,-2.023261784635845384e+00,2.642361016773364657e-01,-3.950980597269871941e-01,-7.280236502667490894e-01,1.192194943786893807e-01,-3.959582841528036523e-01,-1.028192711208156362e+00,-5.378957887593617260e-01,1.248037450016941802e-01,2.288293874145325701e-01,-1.180723847056646125e-01,-1.553677898035798144e+00,-7.866845152702135469e-01,5.991667736037081804e-01,7.330885166679886045e-02,-4.525035493936077069e-01,1.410730508749409973e+00,2.260410472864401443e-01,-7.711895452352710567e-01,1.533623699551589947e+00,-3.364502782065050823e-01,2.453920992353451624e-01,7.168262405501706347e-01,8.611702449277640614e-01,1.149732748069339644e-01,-6.972640261166225262e-01,2.000161857533694576e+00,-4.483056096770305921e-01,3.398052149476788464e-01,4.431009388190402798e-01,-1.530114061680715842e+00,2.470053254049688896e+00,-1.151243487425001599e-01,-5.582540180551804898e-01,-1.497693699426784208e+00,-1.494598603324017061e+00,-1.984786862093691484e+00,3.629883722216624697e-01,-6.216137574415135925e-01,8.317614978098600842e-01,-6.787170147869027170e-01,7.285161431341363736e-01,1.014085453207086013e-01,8.805733701029473393e-01,1.072333498765044579e+00,8.360450869545729136e-01,-9.009895671702956577e-01,-6.516973173552293996e-01,8.068692337372489476e-01,2.639978727772209766e-01,-1.890815128626439912e-01,6.850746083187751745e-02,1.019154750709215795e+00,-5.757266379294800202e-02,6.247181046049001679e-02,6.413482597902315785e-01,8.924045468464497644e-01,2.192944694829822350e+00,-7.891608376490950594e-01,-9.347736366560408516e-01,8.621264406729579610e-01,1.135255937065640097e-01,-1.614559521473659887e+00,-4.222765200313461920e-01,1.210642157514323802e+00,-8.040384755553309226e-01,-6.440101186410771561e-01,-1.230086802563538528e+00,6.574509979422417105e-01,-3.646491660063516105e-01,-1.242458941550139695e-01,4.421812281000539469e-01,4.082328589458396051e-01,-2.774642401294527203e-02,2.639486531845021133e-01,1.123004094226351057e+00,-7.285946150889208717e-01,-6.254455407466377181e-01,2.530484470181482703e-01,-1.136560497715476181e+00,-2.454001063291300355e-01,4.088911409562953625e-01,4.156483601567334540e-01,-7.501959300999908598e-01,-7.669299517574442726e-01,-7.933153139527490127e-01,-1.482946310765187237e+00,-3.678636018302223198e-01,-1.112684978328082108e+00,5.465031249557213838e-02,-1.218227295845812685e+00,-2.489432549077234269e-01,-1.776710443933326333e+00,-7.212368201290626502e-01,1.630012786324344931e-01,-8.581045386672153663e-01,1.378645039406696915e+00,6.011990925921735507e-02,-1.078544034468729151e+00,-1.678268981182102548e+00,3.611607227825254229e-01,-1.349419467961222807e+00,-1.542721309421404285e+00,6.877508604277510207e-01,5.274105855525151876e-01,-6.429013439775592698e-01,1.658502440293367242e+00,-5.564624623453868768e-01,-1.636164928252285655e+00,-1.892937305854872410e+00,1.627168345694655349e-01,4.782645870841013835e-02,5.961537865802231106e-01,1.860169773871491516e+00,1.434938545468937399e+00,-1.372081374465902726e-01,-9.732883378789211060e-01,-6.589139746431660338e-01,-4.355571571496630323e-01,5.152391798330170358e-01,5.656371870861691686e-01,3.666112531681231523e-01,-2.814548548639876913e+00,-1.748405356495790763e-01,7.742781028351100603e-02,3.648869404104433389e-01,-1.928102563746296738e-01,-3.172669411484653201e-01,1.686886737482924614e+00,2.223340578515331234e-01,-1.398860034198595725e-01,-8.294890560530685519e-01,-1.081338008276098162e+00,-4.646851918206239274e-02,2.958911395429101865e-01,3.376022078241659452e-01,-1.906572138678130468e+00,-1.227690984136184937e-01,-1.139302526594189846e+00,-6.899177372232713490e-02,1.505279360518816945e-01,-4.238662659257649845e-01,1.622213318578567431e+00,2.132658640323382704e-01,-3.551239328709545617e-01,9.810166567985256769e-01,8.335592477390441069e-01,-3.344419970205281256e-01,-4.499654068374480120e-01,-3.012787501731812104e-02,-1.566873447222078664e+00,3.560780537592314610e-01,9.686403339540552437e-01,8.335192370012090013e-01,1.985615609275731830e-01,-7.741993439670830091e-01,5.056692573350047848e-01,3.932049448701705474e-01,-1.255151495211376256e+00,-1.061689130958186622e-01,-1.218813051689344035e-01,-6.333574170564030270e-01,-3.972994073100374335e-01,1.645023659474841304e+00,-1.422493764255037707e+00,8.986863067332366839e-01,-2.885254518159615644e-01,-1.545997109602494701e+00,7.303751838100523974e-01,3.104316117090169871e-02,-1.799400461105059357e+00,-8.284668445221279320e-01,5.315984953587761241e-01,-2.209618261474908807e-01,-1.146514561756315054e+00,1.226265592989713049e+00,2.955616583064628156e+00,8.903560883843700813e-01,-2.150607700987970272e+00,5.761222172601517810e-01,2.541653686170811000e+00,6.934017736862946313e-01,-6.650873396275561733e-01,7.686666864095467178e-01,2.024119165851380464e-01,3.450749379028831276e-01,-7.857765209992613187e-01,-4.453335991993218612e-01,4.081206676780786413e-01,-2.324540161747136402e+00,7.290491193924274471e-01,4.398792079321032222e-01,-6.125876981262149412e-01,-2.000633518030025815e-01,-1.252358484413321538e+00,-1.286844517158751033e+00,3.067264580302847543e-01,-1.150295135471834040e+00,9.760192538818586172e-01,-1.262680319833349163e+00,-2.233248316127403321e-01,7.715621026320239606e-01,-1.048725414273279144e+00,9.568196714946795023e-01,-3.151898825715097885e-02,1.702986621197774830e-01,-6.516119942171247348e-02,-8.917374394663728221e-02,-3.134088996336781979e-02,-9.458877472792984187e-02,-5.449230454316141836e-01,2.678252497675820187e+00,8.557707531367836351e-01,9.063588221417850921e-02,-4.816229196882398922e-01,-6.986467925495474240e-01,-2.307579980837885097e-02,-1.731082280524842421e-01,-3.864701730615526798e-01,-1.542595936420176450e+00,5.279171107381963601e-01,8.508226986355869048e-01,6.334579325291228580e-01,1.164987287998354493e+00,8.391924157421676300e-01,-1.053466914465792797e-01,4.471117045623277941e-01,-1.073423433094307988e+00,-9.030263070996218389e-01,-7.623567041023397994e-01,-1.349720247905087156e+00,-7.198862482711108068e-01,-3.685287868192136940e-01,9.540017375980820724e-02,9.731015980270625310e-01,-6.747797114809244157e-01,1.293522497706559804e+00,-2.466346760944712890e-01,1.201026048350457565e+00,-8.634314642562819220e-01,1.059313168261370564e+00,4.160493477190562728e-01,1.296997858334702214e-01,9.505662577287734560e-01,-1.101698205645259110e+00,8.336249840018177260e-01,3.691202305514314497e-01,9.638129080504294066e-01,-3.813656510943233546e-01,-4.427805222335127744e-01,-1.458532912287765271e+00,7.858339460270605814e-01,-1.514934454591456703e+00,1.087922045514307268e+00,-1.026698942205731102e+00,-1.358095691152408024e+00,-7.527091384226199944e-01,2.595805943940329152e-01,-3.008691474099443042e-01,8.860395203051324442e-01,-2.190313603736140646e-01,4.698174555793123708e-01,1.939876914339505043e-01,1.686000263256884679e+00,-3.605397470321041187e-01,4.216967795624622095e-01,2.127208451865124361e-01,-1.520565991537184969e-01,-3.238363928451307161e-01,-5.786316631612645756e-01,-6.870025486534524495e-01,7.745245551746040569e-01,-1.914175939578840677e-03,1.390436915593983580e-01,-6.693384143959603405e-02,-3.527263617501268378e-01,-1.254427587880275530e+00,-1.112821448046923178e+00,-2.240010197889605870e+00,-1.757535527057425995e+00,-4.459370672734236374e-01,1.030271406654101662e+00,3.705084602444015940e-01,6.871325194840663952e-01,1.669881558716422632e+00,-2.440131485778746986e-02,1.475966820239131616e+00,-1.018967252155273506e+00,-2.226671885744912760e-01,8.543117812900433150e-02,-1.098870336547608906e+00,7.206596182554577679e-01,-2.016778362435701411e+00,-4.022766268847889348e-01,5.357062904285227189e-02,4.474248902235901104e-01,-9.743192424263253937e-01,-5.781381403967873478e-01,2.472227177660979991e-01,-5.039013148041697754e-01,4.017227837588702721e-01,2.898251617696816496e-01,1.416892081662432856e+00,-5.503188435279004337e-02,3.433635706735811977e-01,-1.008343224843650576e+00,4.504846776235299499e-02,-8.437806289700814366e-01,-1.407052154877328487e+00,7.362989911407971100e-01,-2.408441188987624049e+00,-1.044111755776226280e+00,-1.411809895424091243e-01,-5.128112962142186149e-01,-1.877343600450930738e+00,-2.345939302679105332e+00,1.555585453670184748e+00,4.269507039759399269e-01,6.520431372586830976e-02,1.014722911577746300e+00,7.178482106412312769e-01,-3.756719807845316783e-01,-6.316057738135215371e-02,-4.429110410519590535e-01,9.483704437694091549e-01,-1.253382544133596843e+00,-9.230948693931239069e-01,-1.210508780708563936e+00,-1.860860573509774296e+00,1.186657766222598775e+00,-8.794414837612889446e-01,1.967552233954372065e+00,-8.251380892383736176e-01,-4.549519199389588930e-01,1.513424995664464090e-01,-1.165038221055888723e+00,-1.053500571639636840e+00,1.588639406863686432e+00,-2.981836887469239361e+00,-4.909128222544332787e-01,-7.086234781528618631e-01,-6.023909609785140784e-01,4.376571326525500738e-01,-1.339539708767801818e-01,1.548922068528590490e+00,9.497331349482969476e-02,-9.380707148241546056e-01,4.420767628447689890e-01,-3.049471662526436200e-01,-3.456494214848556457e+00,-1.023049604760176257e+00,-5.778138858392312116e-01,7.768046185803927361e-01,-1.231531326059219555e+00,-5.111019543406742915e-01,1.883646965617598923e+00,1.528340326653288894e+00,5.008576143587911700e-01,-4.652328888676589003e-01,-2.794708226229071779e-01,-1.482675762364566330e+00,7.215276423930280236e-01,1.063992193390207230e+00,2.284806718245676049e-01,-2.134512292527155908e-01,-7.928033516196798525e-01,-5.563651673783841511e-01,-1.343695120203684645e+00,2.761135085889058205e-01,2.295650417243693675e-01,-8.244379990618377896e-01,-2.928594017047211340e-01,5.051458810430029533e-01,7.870718844343407294e-01,-2.903871749393742152e-01,2.459273377816464656e-01,-8.492629637278715782e-01,-3.769667104961919590e-01,1.059483777558581918e+00,-6.048774255552253898e-01,-6.524977083009569911e-01,-6.486578112161764387e-02,5.481345633841783194e-01,4.242930779899555804e-01,-3.773014396643207813e-01,-6.785622305346556034e-03,-7.001825215060178964e-01,-1.535204428904801688e+00,1.403819488070906729e+00,5.038312150243309251e-01,-1.123469007726227487e+00,7.128872946315535364e-01,3.439365677874128280e-01,1.324658784478533802e+00,-7.299145355186906770e-01,1.304323330051842200e+00,-2.620692038186700046e+00,-6.491384009097936891e-01,-2.312569030865403885e+00,-1.088641906579942198e+00,-8.466686066393619425e-01,7.406245918048796062e-01,-1.345084981619877107e+00,1.895117597969077305e+00,-1.129353317663935652e+00,-9.965781322624152061e-01,1.687464643217616134e+00,1.353845416264367607e+00,1.115683053937205071e-01,1.066398785607896249e+00,1.858298265983157282e+00,-3.346611196538434863e-01,1.745727560613040408e-01,-2.080685354757410774e-02,-1.397017540124900481e-01,-1.648638838336851375e-01,-6.892797824690333197e-01,5.084404718278041635e-01,1.068366286375636465e+00,-3.950250909728930671e-01,8.175416180051744419e-01,-1.706677319267960735e+00,2.363202301877675438e-01,1.564604716211017155e-01,-5.004377858135476975e-01,-1.722001883297538782e+00,-7.230647905411345944e-01,1.587582328883657967e-01,-8.627917288498178350e-02,1.333509928347429874e+00,-1.242371276273320779e+00,-1.298754520941301227e-01,5.803857504622551566e-01,-1.586108303556498011e+00,-1.012609493813103168e+00,-1.342998824372466427e+00,-2.189199042266094797e-02,1.587700239523238688e+00,2.717138247571320164e-01,1.869299052093395808e-01,2.003818153074919950e-01,2.635532302204488531e-01,1.253411920201652929e+00,9.250051569490768122e-01,-6.830420365506560954e-01,-3.667926883924718107e-01,2.009540494235286801e+00,-9.614446786608784601e-01,1.245876204128181453e+00,-4.094251848450906062e-01,2.593470578959533590e-02,-1.548723094426195102e-01,1.170596902407367468e+00,-1.444024637887794782e+00,1.757326390466217303e+00,-9.892245569769508862e-01,-1.757090461878433041e-01,-2.932734941627940906e+00,1.593825521370318965e+00,-7.591317004554789527e-01,3.363140596550972528e-01,4.154922604706480782e-01,3.144780796671892142e-01,3.299030261081351001e-01,1.074088683010357981e+00,-8.380552859251123587e-01,4.325160303308434040e-01,-7.048311304222469598e-02,-1.795713919391719315e-01,-2.823289853352153322e-01,-4.595406905300076228e-01,3.669926510827506427e-01,-3.248158092156403637e-02,-3.864336435783817247e-01,1.187172654072620459e-01,-1.958586248705902477e+00,-1.131914801893149081e+00,-8.937429189694948151e-02,4.231683739141555156e-01,1.783210746259488610e+00,2.709635393173957518e-01,-9.680579107047788956e-02,-3.275531987721240768e-01,-5.954385746987430617e-01,-8.038400800487589537e-01,1.065112955453197729e+00,6.008437479995452080e-01,1.505738594605148251e+00,-7.538065178038760861e-01,-1.876347120570240889e+00,3.317638000759793454e-02,-1.402288493204345343e+00,6.818588546907639047e-01,-2.447935639057938761e+00,-1.868759236091075637e+00,1.650424043149633535e+00,6.745485211178792184e-01,8.728724513822365694e-01,4.738634431991778917e-01,-2.466368530013115512e-01,1.488420708651562174e+00,-9.475636291777812525e-01,5.598314556418924059e-01,1.601144622486806224e+00,-4.938054975519796663e-01,-7.056057873715709805e-01,-8.920451788110441704e-01,7.606917528932509720e-01,-3.601549127795063976e-01,-2.945363707730361269e-01,4.218818376937489845e-01,-2.026132527988766086e+00,-3.390642243704784786e-02,6.488640591184291484e-01,8.378577654589038914e-01,-5.237523003492579043e-01,-8.311165382397985857e-01,-3.210513460659494833e-01,7.509215359549392677e-01,7.085342768455049622e-01,1.734665298396859678e-01,-2.450562876336120632e-01,-1.211351945758015081e+00,1.226305711821046751e+00,6.158421521023305090e-01,5.732509139294904577e-01,5.765918138318759656e-01,-3.297740443358386231e-01,-4.306737804175932438e-01,-3.380768847618473294e-01,1.382174835949377734e+00,-1.615365616006408711e+00,-8.279846614557125895e-01,1.690960439656923553e+00,-1.992132720202100804e-01,-4.210934004009044829e-01,1.201701517867827862e+00,1.015079948336793381e+00,1.367750867198138875e+00,-5.717749803581430035e-01,-2.202424119748464248e-01,-6.396149267430479846e-01,-2.780064815791430388e-01,-1.804867869143511383e+00,-1.648394013653583068e+00,7.734981533543202614e-01,1.042295412213837258e+00,-2.741368176719168659e+00,1.542895955267583386e+00,-2.536101632689839569e+00,-2.044389185026150579e-01,-1.074249275264115067e+00,-2.741532270916626768e+00,1.198644940453586633e-01,-3.054507056542348220e-01,2.743929221429624588e-01,-2.497003525811806401e+00,7.800541530353469755e-01,1.508575936820990782e+00,-1.293074462575249384e-01,-1.962498732222261122e+00,2.227638724963740269e-01,-2.663277310767577233e-01,-3.130123821220739955e-01,6.075697537163038398e-01,7.106515646624597116e-01,-1.999849301626824616e+00,6.561467426783241796e-01,1.228924600930815902e+00,-1.707368581789135975e+00,6.865640257827776427e-01,2.083590621587440683e+00,-1.679248090973320728e+00,3.035347076277823339e-02,-1.073146192955959588e+00,-6.741668221772635361e-01,4.110695915811519302e-02,-6.162889594458226261e-01,1.359639423173480521e+00,-1.051955378575282651e+00,-1.087239692286724013e+00,-2.154327208785981607e-01,9.739202146212300182e-01,4.929575791844374999e-01,7.023220432778487510e-01,5.005038397943500916e-01,5.948101295625346507e-01,6.508482857994164761e-02,6.799062173550636246e-01,-8.048121485544133813e-02,1.144520875157227113e+00,-8.010751570929496301e-01,-2.047537387315680191e-01,1.570973729495263704e+00,-4.975049433612749317e-01,2.773738049440074516e+00,9.953477290539520794e-01,9.588920289038221911e-02,-2.048245854123961429e+00,-4.767207582521748033e-01,4.860951329591551295e-01,1.323235085239431896e+00,-1.601140130351667246e+00,-4.821814575131471575e-02,-4.379421750000888625e-01,8.110391071401740204e-01,-7.773304277587960165e-01,-3.785416234339190195e-02,-1.656509343412860602e+00,6.886474394990471648e-01,1.589757529225479749e+00,-7.202835624834838524e-02,-8.401630722455927236e-02,5.396048826917126950e-01,5.819645395151521461e-01,6.601473980322632995e-01,-1.535240644016389044e+00,1.189368296199066199e-01,-2.624713741328059680e-01,2.843454847394591770e-02,-6.856828839220309169e-01,1.055886145914517682e+00,8.858931450883451852e-02,7.455206083524440475e-01,-5.889616810676260306e-01,7.163176124005241618e-01,-6.093697049244590769e-01,-6.801145562803941891e-01,5.284776324755320331e-01,1.199330540049895699e+00,2.405954094692295708e+00,3.374953095086349886e-01,5.326292812132360499e-01,-7.984013835268354287e-01,-5.302952986263456125e-01,-1.578509094512023703e+00,6.829192679084431505e-01,-3.011035772349144879e-01,2.280643030354983392e+00,3.200929321772322256e-01,2.822662744533118162e-01,5.941926466313517397e-01,1.271798613015535206e+00,-3.454338773945805907e-01,-7.943950403143026362e-01,1.661800482033504389e+00,1.983322621874222813e-01,7.766559860200022980e-01,-8.750352447547936618e-01,-1.857920482511698224e-01,-9.497214765986701224e-01,-1.177925929065586130e+00,4.181665706993713538e-01,6.262989050092797605e-01,3.151320900886277476e-01,2.346772706313965617e+00,-1.235834100879636271e-01,-1.944396740868369111e+00,-1.478599226597546945e+00,8.874414365802291149e-01,-2.796275423417510231e-01
2.562548442653083125e-01,3.678095871820694085e-01,-1.975456007254902668e-01,-1.599929409125850910e+00,1.195091196552561463e+00,-1.414208234426305166e+00,1.162523487243355413e+00,1.252190950037763706e+00,1.148780079703459744e+00,-9.461965773383984590e-01,-3.429809756554434430e-01,-5.399351692249909629e-01,6.276727900271314997e-01,1.925291661052613845e-02,-2.547616146263315673e-01,8.037859468542511987e-01,-9.980722566839793641e-01,1.092072211583536984e-02,-5.682314165797925920e-01,-9.801367917525148910e-01,-1.347395124221236529e+00,-1.272900860570323200e-01,-1.552427588296790617e+00,1.442585448027633999e-01,-2.634085118450777419e+00,1.680642937778693002e-01,-1.275276140876274278e+00,-2.650224826472603601e-01,7.342489035012971232e-01,1.850688365725648099e+00,-9.709670355396351482e-01,9.721221541134732191e-02,6.484825455927353266e-01,-3.653479129773434808e-01,9.156231624371184985e-01,1.229078174037610882e+00,1.298243106031118588e+00,8.450184745349648141e-01,3.241285207981623451e-01,-2.523626101084008519e-02,1.434849838623271090e+00,2.552653652968926323e+00,-1.475912079134717558e+00,-1.182147681362667319e-01,2.133810838265293608e+00,-7.410495751408412435e-01,-7.180136310629927632e-01,8.957804807501910938e-02,1.343856668220592132e+00,-1.466034324738214600e-01,-7.130442452508192197e-01,-1.245527731034865582e+00,2.114346856715302980e+00,-7.807517811374119210e-02,-7.955250656469099457e-01,1.312145857344585442e-01,-5.124312320821385741e-02,1.051183822862596040e+00,1.749671618089548852e-01,4.521201097941828229e-01,2.959207834913648583e-01,-1.690108314121050004e+00,1.348134821117516591e+00,-1.004914314942231490e+00,-2.968510907068822383e-02,-2.753078818037332454e+00,4.053151885808976007e-01,-1.829419620888718401e-01,1.680215852951934208e+00,8.154330670825464533e-02,-1.268201820188201989e-01,-2.074935290145618616e-01,2.485110766663042314e-01,-4.396869868580624563e-02,-1.942859805816220531e+00,1.311355567685125623e+00,-1.646707747431380486e+00,-6.731030123625916239e-01,8.658175354570585291e-01,6.374641489631143187e-01,3.861706689439856066e-02,3.544019603557034270e-01,-8.865319291308954019e-01,9.987440411038325250e-01,2.995107814387456546e-01,1.339682287416507078e+00,-3.489020391860429005e-01,-9.601729440947494032e-01,2.667872302275835494e-01,-4.093509895238542362e-01,-1.190066886890744774e-01,-1.951463504568152763e-01,4.118415693787096932e-01,-8.364231936039102644e-01,-1.294864245567237671e+00,2.203106607012707552e-01,7.399199910423457371e-01,-1.095026798331792062e+00,-1.718231467640335630e+00,-5.690396573188432477e-02,5.000767234678014095e-01,1.237948000029063467e+00,-1.091300217875198042e+00,5.216365717365979010e-02,-7.937261708688027051e-01,-1.130769553297485741e+00,-6.006660283798889166e-01,-6.416989063667797311e-01,-3.860852657347499939e-01,1.392540555551217363e+00,-8.336252588414617692e-01,-1.330125462961334382e+00,-6.308648925439938049e-01,-3.861662996167292694e-01,7.557629904623485162e-01,1.571534755166102304e+00,3.394060187411054308e-01,6.051336651779480880e-01,-3.576525157698779434e-01,-8.319930446996463003e-01,4.330061167820451473e-01,-1.287552653373850831e+00,8.858409551281398731e-01,4.462310807998484674e-01,2.557274872030413260e+00,-7.823543792349360038e-01,-3.320650524118125557e-01,8.028715725403511305e-01,-1.231386983829909632e+00,-5.240620863637983629e-01,-1.483385005863229189e+00,5.136288948481047001e-01,5.047093990500618466e-01,-1.549483321894244980e+00,4.219850420094368171e-01,8.624259262122377923e-01,-1.752662097262552621e+00,1.384763296753909780e-02,5.220539662646990209e-01,-9.042412978155579539e-01,-7.473377639201016498e-01,1.065556364701637060e+00,5.356310623282620753e-01,1.647607559134430355e+00,2.070131252611788486e-01,-6.206078680009592397e-01,-1.938351740892781949e-01,-6.188290302307306590e-01,1.688105180711386044e+00,-2.336975574539084666e-01,-7.672145937933936288e-01,-6.616151319422092225e-01,-8.736440856338530958e-01,-5.381094855288988121e-01,1.954440142269706415e+00,1.218117278823728916e-01,-2.095933779428194921e+00,-2.147458289955195276e+00,8.330033864299964119e-02,-1.183353334166689974e+00,-9.107073944681123301e-01,2.136055536658183929e+00,-2.806718917323122175e-01,4.653169608040006594e-02,-2.087707772443817347e-02,-1.048523009809096962e-01,4.162000030681077822e-01,1.433227398376541561e+00,-1.289584721711777016e-01,-1.949018465213805951e-01,-3.070760340547492029e-01,4.882369906710961049e-01,7.554697322770452528e-02,-3.947738920877387758e-01,-3.347744624738703823e-01,-1.723661252901369512e+00,1.075748832257321430e+00,-3.577815280956719302e-01,1.785019440061897944e+00,-1.068608989009343979e+00,6.562692875720274044e-01,-7.931447588850120134e-01,7.880786280800928800e-01,-7.528280551375536866e-01,1.084554862798210451e+00,1.785840674823706564e-01,3.675166331782069862e-01,3.495111032975530829e-01,8.517160824544793840e-01,1.027002659077054458e+00,3.886526246210607050e-01,2.027000217557378914e+00,8.288695242316372891e-01,7.689322850634548734e-02,1.713998090537973695e+00,1.229581644983735345e+00,-1.794678860397720399e+00,9.469165691494629833e-01,-2.635271560610044084e-01,9.414942359116752479e-01,-9.745478615819248847e-02,-7.350954949080539258e-01,7.639867034835229331e-01,1.489245613436054771e+00,-4.402475171449429237e-01,-9.538981643248756193e-01,-1.158067904279767690e+00,-9.341774239848905648e-01,1.532478938492247145e-01,1.431799829451169126e+00,1.811513405132700427e+00,5.131443781406002103e-01,1.863499897352177470e+00,-5.379837779021046096e-01,7.729663290326710401e-01,1.364545493141125165e+00,5.172492393500316421e-01,-8.179079724366159487e-01,-3.804961715438368586e-01,3.707664941062055464e-01,3.157270662329071387e-01,6.654861327458265752e-01,-1.080371694508214686e+00,-4.600909594454093421e-01,-3.607697675683499972e-01,-1.153303950572774017e+00,-1.151146087751879099e+00,6.540691058805988556e-01,-2.882440554522504250e+00,7.656138187492054215e-01,-5.617651798625505899e-01,7.404355959098314344e-01,1.255192370395275203e+00,3.331919180136403424e-01,-1.555832989418830303e+00,5.986234940380644187e-02,7.806673046370589120e-01,1.201612879746918466e-01,-8.675510352541808690e-01,-3.547454495819286069e-01,6.565271464638681165e-01,1.783706821101436635e+00,5.474939617930902475e-02,-6.571227957746526016e-01,9.580693388041218173e-01,1.052774735884833390e+00,3.217092284643668365e-01,-4.946122393813347923e-02,-1.669454306877600214e-01,1.719007946536839082e-01,-8.196627185130108684e-01,-1.925850135991048040e+00,-4.731573735815632342e-01,3.682290590081387371e-01,-7.587904475433039642e-02,5.581710475099040947e-01,-2.302564754153527127e-01,3.046242375766074595e+00,-8.244757130108674170e-01,-9.482945063294677679e-01,1.060565926205938370e+00,2.210370278825478374e-01,-5.444113432838721955e-01,5.811915203309850897e-01,6.728403909193084176e-02,-9.516236695992140449e-02,2.078253134421736092e+00,8.788211601868968215e-01,-3.456639916466773821e-01,-4.058654250193228785e-01,-4.704247239721103258e-01,-1.816604842001392495e+00,-1.698252750792081656e-01,-4.042849807905359305e-01,1.189608751480229154e+00,9.199691323507268592e-01,-8.467512463752192575e-01,-1.008045121962586110e+00,1.353113293480142865e+00,1.477162103252773750e+00,2.100545220682286107e+00,-6.688764169975564000e-02,2.018209941016323672e+00,3.341534193378547513e-01,-1.751356181430140657e-01,-5.134008521211844839e-02,-3.889484913464499316e-01,4.514894667686875085e-01,-7.133978465888132225e-01,5.133539074198191221e-01,-1.488202755072193462e+00,-7.091575657669758614e-01,1.469913950672248337e-01,8.785590566059322537e-01,-4.024929606647665858e-01,1.204760077684840169e+00,2.834822815574344346e-01,7.049278225789873398e-01,-5.064231514112367272e-01,3.872164810957003378e-01,-7.161873357771080251e-01,-5.973449433357750360e-01,-2.776160699722129421e-01,6.752143790616083052e-01,-4.659036387733505591e-01,-1.686067573098987415e-01,4.179344629458051075e-01,-1.042908395134209965e+00,7.016914553599570836e-02,1.386880404601235073e-01,8.156444597781957739e-01,5.148212328121480885e-01,-7.310134922876950769e-01,-5.693073604364787821e-01,-1.108568763556984749e+00,9.884541903088749082e-02,-1.805909613612847631e+00,4.554960621496231266e-01,1.629559705137836878e-01,2.381125497222961185e-01,3.786716594379012646e-01,-1.248447065533895728e+00,1.669316984788737912e-01,4.439400072157925065e-03,-1.333346859070905222e+00,2.625324313515557062e+00,6.364703979099283204e-01,-1.233476210724827604e+00,-1.032853345968991032e+00,-1.701004156369752551e-01,1.694213969376270779e+00,7.934533761004946006e-01,5.067387566419657707e-01,1.499615531030133730e-01,2.608900764267909622e-01,1.184490640658864447e+00,-1.050501452937023517e-01,6.669531406804057871e-01,5.057223526154855930e-01,9.203527493592048581e-01,4.339815825475482058e-01,-1.552048879760073719e-01,5.879568680076366904e-01,-1.098699666067411290e-01,-1.980293700828385239e-01,1.434091505679536416e-01,-1.204519258857915442e+00,-4.221046640057206645e-01,1.975437054681589366e+00,7.738486590658361086e-02,-5.664904820783457362e-01,9.325729508242858179e-01,-1.098537408751310007e+00,-3.625714172229113630e-01,5.554195207223203701e-01,2.973993966709608319e-02,9.831836313171317121e-01,-1.125025633017814108e+00,-7.046435631682396172e-01,-2.681413511710172282e-01,-1.748149825370004518e+00,-1.425114920251202788e+00,-1.478604434241724164e+00,4.133681893970141824e-02,2.415879598498613112e-01,5.432542680311689201e-03,1.997909445779997961e+00,1.859277872819237842e+00,-1.293808839634859709e+00,5.264831333064954322e-01,-4.459903530892881940e-01,-6.425083574595803482e-01,1.247430442292414066e+00,1.885732508449925016e+00,1.270492332705631666e+00,1.039625064133941762e-01,-4.710483580835059803e-01,-5.030456474736650918e-01,-5.441792830142665460e-01,-1.119512493522148988e+00,9.493724982090181452e-01,-9.924319805214590895e-01,-2.389007963932883172e-01,1.765884950681136933e+00,-4.121952409238133219e-01,8.999572818019763165e-01,-1.478213081214091451e-01,-2.158492177573888338e+00,-1.567284780473660044e+00,1.998708995649071257e-02,-6.342090354125213825e-01,-4.689901071845526404e-01,-3.545723836674744001e-01,-2.816786819419948573e-01,5.772934419778283921e-01,-1.777839191978910494e-01,-1.518404450637050873e+00,4.864295705096248201e-01,-1.091799349936515284e+00,1.277275298359345224e-01,2.274105634605622761e+00,1.098254708455321804e-01,-7.620961814222265707e-01,-1.194248360418435073e+00,1.105535182268808869e+00,1.458465414897345935e+00,-8.978110291993571801e-01,1.342295404249058688e+00,-7.647160379803836783e-01,-3.491599414086369313e-01,-1.277919324467781947e-01,3.663051550522185562e-01,-1.853460172962877878e-02,4.791581927646827443e-01,1.564795096017955744e+00,-3.386190721706613255e-02,4.065027598215632532e-01,8.872701405334940672e-01,-1.282669917843580754e+00,-1.612930400425917732e+00,-2.854777813533957431e-01,1.697621456203998624e+00,-1.997526067474813871e+00,-3.695802041087892231e-01,2.194479363840037056e+00,1.500737815074013604e+00,-1.139112612038650552e+00,-1.090048654130578054e+00,-5.478128113727680493e-01,3.289526333261810209e-01,4.010462659679810415e-01,1.633891512404808850e-03,-3.241167274135980381e-01,7.143270254296337773e-01,-6.974327117035600265e-01,-9.987798914988247345e-01,8.285294751327278162e-02,-1.707651308222570163e+00,1.239458578169274183e+00,4.691365449552195588e-01,-2.446172847382694360e-01,6.985973132683982456e-01,-8.379843505038609974e-01,-1.224420346479803356e+00,2.575042690217925312e+00,1.874423162440303381e+00,9.445351184407305700e-01,-1.409270782578518677e+00,-1.020664474952171219e-01,4.393831412847833406e-01,9.766798266524016059e-01,-3.670146075695084331e-01,6.094334426046744274e-02,2.253266002157657821e-01,9.254331904880391813e-01,-5.848618919121918447e-01,-5.504031490501788415e-01,-5.044875754276120228e-01,1.186915213792780310e+00,9.561576580013160243e-01,1.437535575775638064e+00,-5.642317375126361112e-01,-3.089377130221506729e-01,8.608015987058643959e-02,-8.166421961349491498e-01,8.517677846031136424e-01,-7.452105209674095843e-01,-5.947324565960550313e-02,-2.834121951942016326e-01,8.001994250071056691e-02,-1.124261873548791035e+00,2.188500794722017251e-01,1.250334308471934622e-02,4.417841675201978346e-01,-3.071640881868482054e-01,1.683376781221277568e-02,1.010951420168014481e-01,-3.037372587850994954e-01,3.629991437256062659e-01,-7.955317879947166881e-01,-1.528892232761895897e-01,-7.186418210836186260e-01,9.317096915818859904e-01,-1.664342333836066334e+00,6.287391771858576173e-02,8.346437402257778082e-02,-3.212770390398403952e-01,-6.061677823633141449e-01,-8.991389619958232160e-01,2.310143930811855290e-02,-1.376233076021999402e+00,1.148559875631143035e+00,-1.963340623145460206e+00,-9.216297348229478548e-01,-3.773935593754390583e-01,1.073230691429652328e+00,-8.960042438279240962e-01,-1.321923955008454055e+00,-1.141153843720858374e+00,4.786040479918508006e-01,3.139177014007860089e-01,8.310141379500834979e-01,2.059357674142479888e-01,1.087340010060759143e-01,5.906158650554867995e-01,1.723035153192068236e+00,6.079423806320432000e-01,9.231692863449847408e-02,8.715553424632020707e-02,-1.768863565792180292e+00,-5.664948711860727792e-01,-1.127206225231391690e+00,6.277888345372762968e-01,-5.235488351191491807e-02,-1.779473348422856427e-01,-8.151763493469725841e-01,-1.412942451994345650e+00,9.737835644444789995e-01,7.240356570402698422e-01,-6.996297845161760787e-01,5.227851937233704005e-01,5.344795085654052702e-01,1.237408935690147871e+00,-1.041458674986289301e+00,2.626627173456071440e-01,-1.282550854000551910e+00,-1.102404215028197389e-02,9.207428919030703485e-01,1.642377679429138482e+00,-6.446675346288119890e-01,-9.870237867535106568e-01,-1.206029739149082847e+00,1.914773077481459529e+00,-1.229770966696772883e+00,-6.195809642022986896e-01,2.683098479331737507e-01,-1.433271813889714918e+00,1.093678405170610768e+00,7.493404870452454736e-01,6.417516917916039898e-02,-6.961144608330239736e-01,-8.626994920878174877e-01,-2.870133115252132550e-02,9.927430568943312883e-01,-1.645159593868924242e-01,9.206369528444155459e-02,1.278815368295976307e-01,4.009753480420363281e-01,1.439010799561633858e-01,-1.241038655280634506e+00,6.077934339732259383e-01,1.063718460119548848e+00,-7.888820224298224160e-01,-9.503686017317913848e-01,-1.358823482465272070e+00,-1.701564616901453553e+00,5.363977689603630639e-01,8.010061879685413944e-01,1.840052125017990758e-01,-8.954885373060873510e-01,-5.688201601146619657e-01,1.482184354038305285e+00,1.185639434056735331e+00,7.839946970674690485e-01,-8.601128415038802322e-01,1.864286106372929352e-01,9.223048630737654130e-02,6.791689787134979062e-01,5.983208336741402400e-01,-2.062176430659481863e+00,7.563045266658267041e-01,-1.128191904573183635e+00,-6.810044931766403575e-01,-8.500924333930163224e-01,6.099993626181300366e-01,-1.101608478941258573e+00,-6.174777379501884544e-01,1.450380607018078860e-01,4.620100199476784297e-03,1.901692654084573997e+00,1.070222623845040522e+00,3.802730867067632414e-01,1.843657680937561327e+00,1.710073591212940114e+00,-2.639946622978263768e+00,2.629111739388763011e-02,1.135653253783546424e+00,1.594978165273085668e+00,1.504533234031689981e-01,-7.132203471621417767e-01,-2.609313145971676184e-01,-1.841525554447246416e+00,3.695238029263865354e-01,2.292617999195026013e-01,1.709794132846901293e+00,-7.623414419828167254e-01,5.281647132375623110e-01,1.316432536705710865e-01,6.259079130411657754e-01,-8.652133255548047908e-01,9.115915566293893990e-01,-1.300728805369664176e+00,4.985232614106970273e-01,-3.844678217037245105e-01,5.440959985939887167e-01,-8.733337276437396213e-01,3.885048598659335273e-01,1.192999108200207686e-01,1.468870497465580433e-02,-7.571084470850720782e-01,4.421289500585445231e-01,-1.847968127783309100e+00,-8.899884968459652601e-01,4.250835122657100618e-01,1.975629302329880765e+00,-1.251728926545794263e+00,-4.391999229073835775e-01,-5.194081275892664662e-01,-2.195188350174167802e+00,9.338669131073928931e-02,3.102399492122734359e-01,-1.267949107747647075e-01,9.528167842320932335e-02,3.130236694339219028e-01,-5.501667122275010202e-01,1.886529363262031897e-02,-6.687128917243436721e-01,5.693755899402949128e-01,5.786199932016340419e-01,-5.902681639992731766e-01,4.310395440308758541e-01,-8.410596091353312875e-01,-1.409614000249763910e+00,-1.377140350949136727e-01,-5.413077427674378717e-01,-2.503727383082210989e-01,-6.471170928463697569e-01,-1.994047575444243714e+00,3.419980365544114664e-02,2.488655767020306886e+00,3.432496522739371114e-01,-1.938388644744820644e-02,6.425521879833757943e-02,2.054744215928366646e+00,7.536416415651252532e-01,1.281848778650349852e+00,-3.128660808450258179e-01,-1.060370674235934008e+00,1.832795474352568454e-01,6.019773828715953012e-01,-5.336733936901043307e-02,-2.636888917494770723e-01,-8.398760612976885476e-01,6.598590428655136675e-01,-8.563893707354620632e-01,-8.689996382456119384e-02,8.183176574725562480e-01,-2.949574183728190802e-01,7.933455403933683536e-01,1.965410859000068511e-01,1.103374637885463194e+00,8.124646448575048030e-01,2.242849215512250291e-02,1.347270496966688214e+00,1.480747195232774149e-01,1.624473495418454094e+00,7.614042247657788476e-01,1.517438853409509292e-01,-3.311972688676554366e-01,4.029727899805921609e-01,4.596067587974008162e-01,1.321174589909969610e+00,1.442515318042963735e+00,1.999790752595532461e-01,-2.381304764247931249e-01,2.742626152874618195e-01,1.072137123455324526e+00,1.317950000101658636e-01,1.651691969529246906e+00,-1.148284795209621123e+00,-9.951318933875212200e-03,-3.272846864923852905e-01,-8.275036016678722905e-01,1.498310668980547877e+00,-6.139972083156237659e-01,-1.648850806223846499e+00,1.015583278688604735e-01,6.431493036231769600e-02,-1.415893935910913948e+00,7.761804911365404180e-01,1.250848401655517916e+00,-1.978729074986164127e-01,1.413155454895168361e+00,-2.593354639290794683e-01,6.652406006372083569e-01,2.784891277469007109e-01,-4.010777427977469389e-01,2.692150579644630448e-01,-7.198377226914243199e-02,-1.271684050786879183e+00,-2.446097239621483968e-02,-7.016625016718415486e-02,-2.546021289612224181e-01,-1.049860489316942536e+00,-4.586490972883748851e-01,1.461525415553190710e+00,5.342687116401960701e-01,-7.660322336372308305e-01,1.196856492772644387e+00,1.551842295185927423e+00,2.965519265608840271e-01,1.056374119099086767e-01,-4.713100040872350571e-01,-1.144737512566423421e+00,-1.307675243789086617e+00,7.053752356820556235e-01,8.136878488913472651e-01,5.314342678857554292e-01,2.584559900011891287e-01,-1.184831400550757197e+00,-1.286858282187239577e-01,-1.982833836207978040e+00,1.293038931848814466e+00,-2.227150718045732614e+00,1.283841061608199247e-02,-4.025081381186146334e-01,7.295685172703121335e-01,-6.448811444074812327e-01,3.518249041130444565e-01,9.143094458735556707e-01,-1.016165439809235238e+00,8.564418261283736067e-01,4.016302622360948260e-01,-2.131149029636889014e-01,-1.007893474894589136e+00,-4.489341753607667407e-01,-1.231008107631333059e+00,5.783348674755899310e-01,-1.050000103465668522e+00,4.814583679655038556e-02,-9.132577969850502742e-01,8.832270637203744057e-01,-1.620923035004152024e-01,1.010484161650090140e+00,4.666759725397460756e-01,4.881749618024491810e-01,1.150136890252210664e+00,-2.049502216363135454e-01,-7.294121524812101631e-01,9.948253630572329032e-01,3.484361359434290373e-01,-8.138834816017163076e-01,-7.665171709048157478e-01,-3.384443648064098253e-01,1.086059994958436248e-01,-8.336339391700300361e-01,3.633338324872019132e-01,3.292095147252248333e-02,1.767583995322223878e+00,1.010061688687510006e+00,-1.807550003963299012e+00,5.119652290045662024e-01,2.931541031455216495e-01,-4.123219093875291064e-02,5.364562010670539394e-01,3.238321063213151496e-01,-1.205228886356566109e+00,3.386201918917416953e-01,-5.193388142787265238e-01,-9.123375575453490649e-01,6.176739922358592816e-01,1.754824840312139811e+00,-1.021304020874415963e+00,-7.237512616286086997e-01,1.250851072963927946e+00,-5.744917842443347800e-01,-5.404552463034774101e-01,-1.017626197526892096e+00,-1.045897396885774100e+00,-2.338380105278778931e-01,1.157751621436326372e+00,1.215796011349035810e+00,8.303586693052905643e-02,1.208872296058515206e-01
3.523632306961237970e-01,1.502251544886044510e+00,1.472272158138119014e-01,7.131544727431358144e-01,-7.080399874029900953e-02,9.393366091533695839e-01,2.058154242146276403e+00,4.386284865876258210e-01,-1.262225728468327146e+00,2.041418484547986856e-01,2.858366777106985390e-01,-2.701825289786002227e+00,-6.837119582013680974e-01,1.039152114372232649e+00,-6.717945944704856176e-01,-1.999326823080571636e-01,9.599067951445217073e-01,-1.547564968844015176e+00,-1.001608334078367246e+00,5.623019628802766040e-02,1.596849738041108857e+00,6.320261800561366092e-03,6.001870002028631967e-01,5.179351256619302291e-01,-2.176176618322446910e+00,1.138851312414704137e-01,1.950284530286422235e+00,4.556468779399826530e-01,-2.384573144920185239e+00,-1.414805775492176565e+00,1.545495963027834208e+00,-1.021416495312080563e+00,8.856592845430047434e-02,-1.300887430278603984e+00,-2.337754547816417727e-01,1.429870048692389716e-03,1.150176009895892415e+00,2.623270072680991549e-01,-2.704170565777717083e-01,-9.468955352698270600e-01,-1.034212080932590982e+00,-1.185432663196701597e+00,-1.009665375188812497e+00,-1.409378886846189005e-01,1.244004439843098275e+00,1.691668276268517124e+00,-3.707244330762248796e-01,7.748505847120704670e-01,-1.194487956139914431e+00,-2.143338932615268089e+00,2.344476057313684692e-01,7.089881609449576877e-03,2.687706989798149902e-03,-1.972648885366394822e+00,4.826694978298158856e-01,-1.509139750747807707e+00,-5.685885001727527532e-01,2.087222567333996484e-02,-2.161157124822630227e+00,-1.078801319327271191e+00,3.985222306875243481e-01,1.664717791555757387e+00,2.892634906824282925e+00,-1.289048149825684941e+00,1.378158808381142464e+00,-9.412717834288856222e-01,-1.806428242048497612e+00,1.233239616156806218e+00,-1.744180909426835235e+00,-2.715118376856348270e+00,1.167987084825615973e+00,1.256454677311948272e-02,2.078651606960102427e-01,2.200230273101403400e-01,1.155908502275698524e+00,3.270910764208301291e-01,-3.719480113049777881e-01,6.303136416995950286e-01,-8.419507242077180209e-02,-4.037930317677254632e-01,-1.754851617741188141e+00,-6.720615184203315717e-01,-7.330624388214912468e-01,3.652693065436151687e-01,-5.180562380828984681e-01,4.170050011002073287e-01,-6.868453841816223038e-02,4.544622648325879477e-01,-1.005257450665634655e+00,1.912330033065203994e+00,-3.460840541830568218e-01,3.636937123896110680e-01,1.895773743031753389e-01,-5.350484994149889983e-01,9.699478359388996607e-01,-3.037863803009681174e+00,-1.622574198185121330e-01,1.798102752399444393e+00,-2.341045433745176096e-01,-1.633226641294836412e+00,2.125502294290848859e-01,9.784361247059153444e-01,1.672805859754099289e-01,4.605315122744151335e-01,4.659702894244304727e-01,-2.882293851199987378e-01,-4.468241733277518168e-01,-9.093390011198063672e-01,1.152156221287139320e-01,6.832063615625877384e-01,7.228784494137741046e-01,-1.077676104102330279e-01,-2.507310720332086018e-01,-5.944381498590253221e-01,-1.438457295620901577e-01,9.480526837519680505e-01,1.866045133474636131e-01,-5.769709741803530356e-01,1.008538051437622096e+00,-2.136932102833384750e+00,7.564969941125634367e-01,1.209692964342413468e+00,1.394910611441883441e+00,-1.592176192248364111e-02,-7.448518519149524009e-01,-2.526888538314797206e+00,1.362593972985269186e+00,-5.146589817152714685e-01,-8.972227659029546887e-01,-1.164962160591732188e+00,-6.761817969776420245e-01,-7.158659542924775687e-01,3.935183319469221508e-01,-1.027886781986876163e-01,1.407451733291244400e+00,-1.698180181528685662e+00,-2.534398749505608062e-01,4.969618141548291512e-01,-2.993135524292879768e-01,4.552017479303794301e-01,4.634565638337129756e-01,-1.976584007027019974e+00,1.122690786119452833e+00,7.776309749631274415e-02,8.613653695697761625e-01,-3.024512317593718858e-01,-2.674957047987281400e-01,1.923188538393056091e-01,-9.378902759408630496e-01,-1.743987311242905180e+00,-7.219301418534825876e-01,-5.586498452496213574e-01,-1.236901262654164446e+00,-7.381128879258681552e-01,-9.798374589548903835e-01,-9.086166600992964248e-01,-1.885769361411901768e+00,1.931474645692176972e+00,1.118092204690573466e+00,7.409640695664820864e-02,2.350934294477363462e+00,1.027996151802130997e+00,-4.134573150942327247e-01,8.134223040857507803e-01,-9.939154178135664042e-01,9.130125286190873268e-01,-5.710602226363882261e-01,1.842421661151883105e+00,5.514578177603046694e-02,-6.079454523214851136e-01,1.179388151529717543e+00,-3.494109206369145348e-01,2.584902774847374629e-01,-8.113038246151796917e-01,1.931931469986906125e-01,-2.546573650975821224e+00,1.710554631786538771e+00,3.943181403024514919e-02,-5.484906106405722515e-01,1.516573626941622788e+00,-1.766696959610349227e+00,-2.798861226277492564e-01,-1.335695375002202256e+00,-4.966011592226478588e-01,1.494046054055754580e-01,9.939894455718878419e-01,-9.890971888729692685e-01,1.333486929252504227e+00,8.422096713145020841e-01,-6.452911635797972112e-01,-1.321535268596844670e+00,7.152348907925526467e-01,-7.764877738462494516e-01,5.934946805545516790e-01,8.274147216753399703e-02,-1.665235274926583964e+00,-2.137198340993255452e-01,-1.565918197395482103e+00,8.264099716477593116e-01,-1.106092750039963102e+00,-1.436455941008346615e+00,2.771481343981422318e-01,-1.132267350876779544e+00,-8.379995712186270040e-01,2.133357345457233545e-01,1.487492851440605390e+00,2.789370830343845142e+00,3.110536239306409545e-01,4.909815792874305251e-01,-1.244274907020390897e+00,-1.017352097740654937e+00,-1.819651349214357117e+00,1.288601784570122755e+00,4.715561820109345215e-01,-1.644275486331295166e+00,5.221703215405144594e-01,-4.907809367767171915e-01,1.929536242433974591e-01,-7.322325353154898187e-01,-5.512820379674746585e-01,4.102263428400891240e-03,-9.689246235879472868e-01,-8.863510033653239084e-01,-1.145402246857285755e+00,1.124038248450940802e+00,1.910979326994732608e+00,1.803953208555224785e+00,9.074646267091184271e-01,7.423810365493440644e-01,-1.614977454612074537e+00,-1.190112747780284058e-01,8.258894467869835054e-01,1.849994886807805550e+00,9.350947227849147891e-01,-9.506409010666131421e-01,-1.330094390192458009e+00,4.436745085758100199e-02,-1.256068243047333000e-01,1.052095200142411535e+00,-2.071511493292615136e-01,-1.507132251275014712e+00,2.601571528516010701e-01,8.619129978405875026e-01,2.516460980780986512e-02,1.300566882127663915e+00,-6.134167495698688022e-01,8.084634362419180764e-01,-1.171960675925367568e+00,-2.577676703018465243e-02,1.626944185294957768e+00,1.428266609313319224e-01,1.449857524480594462e+00,1.506941172134454110e+00,9.572677224790109296e-01,7.737496214333267064e-01,-1.019595780792866835e+00,4.534899861516551028e-02,-3.649877949203086391e-01,2.236353478498783187e-01,-2.505496615324331433e+00,-5.964904104880359714e-01,6.945404130609172944e-01,-6.984891693239458910e-02,-8.920946296818933474e-01,-5.797243969519852991e-01,2.334069151929702102e+00,-7.761708018128518072e-01,7.878091319053541486e-02,-3.991081052959216113e-01,-1.390864778652072253e+00,-2.645045845846262011e+00,8.746063424797094754e-01,-2.262742641252345255e+00,-1.364687909988278325e-01,-1.172182471960979133e-01,6.160790042390574817e-01,-1.150013275696675885e+00,-7.349530456415199753e-01,-1.117895172181591623e-01,2.288022633397486516e-01,-1.066857918086735246e+00,1.059514564382873614e+00,-9.035675409168731909e-01,1.616877739053494523e+00,4.170219805064060981e-01,1.140382072301043381e+00,1.299304106922173352e+00,-1.692334943174440332e+00,-4.113598223893093486e-01,1.281034996716538643e+00,-1.242060306683408610e+00,2.494067823397993600e+00,-5.261357342671993953e-01,7.867295259595251666e-01,2.362377098356198690e-01,1.553062262243950054e+00,8.509108843906688924e-02,1.797436034309111585e+00,-1.116469972177787540e+00,6.266975183717728159e-02,2.642740550319160886e-01,1.449309587992469117e+00,6.321359603232916680e-01,7.695999237176988084e-01,6.188086853422429812e-01,-4.596220173564196515e-02,4.240847235448029773e-01,2.745117542370995381e-02,-7.195632902455315616e-01,1.099482865692204658e+00,1.289880541379588408e+00,-1.702571552905457697e+00,3.814091408346316769e-01,4.902389043546311886e-01,1.107719930855945112e+00,2.940635542475221742e-01,6.463967808460040487e-01,-2.112199698800131031e+00,1.226910975561783523e+00,-1.198138057648104216e+00,-6.680000080556250941e-01,-3.910832843271399573e-01,5.302826115248217009e-01,-5.218850326930143391e-01,-1.251231322182007333e-01,7.159393880979444402e-01,1.634708606140400367e-02,-6.784309185990790025e-01,-8.219771268676063780e-01,-7.821117292210494343e-01,-8.745288795071722021e-02,1.206369126289174476e+00,6.263965590884335022e-01,8.954553862851060142e-01,6.271286836425421507e-01,8.158317336020985966e-01,1.460379731632716949e+00,2.490750402645145023e+00,7.934171199146598796e-03,2.339723133501562802e-01,-2.462609864856123210e+00,-1.333776451833007082e+00,1.803402398104457516e-01,-3.414585658528836998e-01,-1.213677852983560124e+00,1.857096722139572220e+00,1.449692244939937424e+00,-1.129380637391671494e+00,-1.364476152468071968e+00,-2.138811890828129947e+00,-1.980038578419159645e+00,1.638045809646313800e-01,-8.674847423857437456e-02,-6.424965344514133037e-01,3.556913377555553368e-01,-2.175108637348245055e-01,1.016257046484366100e+00,2.221574501784473021e+00,-5.063304361728015318e-02,3.766879269974510724e-01,-1.010385083490851654e+00,3.916474731306600621e-01,-2.626160401250185461e-01,1.327549985093520402e+00,-1.307133612020858759e+00,-9.117567947134335160e-01,3.077330422600303983e-01,2.228290843815486921e-01,7.800669084280981158e-02,8.995179259830869689e-02,-4.040599665579365785e-01,-6.774193654873402748e-01,1.078298082036824646e+00,-1.364586974948683418e+00,5.217163904785815376e-01,-1.984015400133083640e+00,-2.942747538610270275e-01,-2.162853677461749058e+00,3.340085342022692139e+00,1.018774089114924175e+00,2.763711756522436169e-01,3.765895469138205720e-01,-3.547926100241657887e-01,1.473354881658350379e+00,-1.678331278189233999e-01,5.695299044802136779e-01,-1.200420713675424356e+00,1.128382716619818149e+00,-2.777076993400585891e+00,7.567463995612710992e-01,3.038078546645425204e-01,6.503632475328304796e-01,-2.025668367936081626e+00,-1.751290067422354643e-02,1.121087896137280306e-02,-3.110678346239877379e-01,-6.301164332343325292e-01,-2.579561951258693142e+00,1.706464967277987743e-01,1.012981597449499338e-01,-9.900188049705822557e-01,7.137792873661396031e-01,-5.713945314741997183e-01,9.466683259827504138e-01,-4.970224949289796523e-01,2.012968369133750546e+00,-4.289517752671556106e-01,9.110852631383861699e-02,-4.393304363121082745e-01,-1.365249692284199012e+00,1.310503199113027262e-01,2.998367745279655883e-01,5.494383163150486915e-01,-1.274521478809027830e-01,-1.698991039567349759e+00,-9.967270551550089230e-01,4.091394655218585918e-01,-7.894679765655907566e-01,5.396137059552262860e-01,-1.162527864306990427e-01,-1.109394805969530218e+00,-2.076719997559302033e+00,5.852594953093778196e-01,-8.448980820230027611e-01,9.766263345565223686e-02,2.783889768301475165e-01,2.119795480011695543e-01,1.037102840568113971e+00,-7.445205826498085822e-02,3.092726366960287243e-01,-1.084592654025172909e+00,-4.307539937447409928e-01,-1.907852750172161216e-01,-4.457084869078183353e-01,-7.116869568499993859e-01,-2.651269992795030728e+00,9.872694957624086332e-01,7.751059404492049998e-01,-6.775667417066294496e-01,-5.987511211882711598e-02,-1.453611051048419700e+00,3.378378391210934972e-01,1.429919779549976289e+00,-1.390882199102582706e-01,-6.655292599182016655e-01,1.501187500755660764e+00,-7.153701510801762087e-01,-2.026470317577079072e+00,1.243680923048485348e-02,2.785734144557837633e-01,9.379224978852674921e-01,-9.748515600547823512e-01,4.033204988205413288e-01,-3.037568846983756260e-02,8.962248015851272953e-01,-3.095673558588254437e-01,9.749826925569571312e-01,1.679189981691481481e+00,-6.276980766875461804e-01,1.057378691757403955e+00,4.194422690043988489e-01,1.163596994581625577e+00,2.108056982775696309e+00,-4.948303571421834579e-02,1.761480196109940222e+00,-6.826491417472511092e-01,-1.161644518606239629e-01,5.560411889761157633e-01,-7.585300603435088940e-01,-8.379563226666917330e-01,7.784029366580559328e-01,-1.845843252437578297e+00,5.464666639913114965e-01,4.647269485926234234e-01,2.628795247526011236e-01,3.278929171266204423e-01,8.126323545427966977e-01,7.541534122324308198e-01,3.843393985974311033e-01,8.722025873863814560e-01,2.045595231897796296e-01,-6.617055531992847017e-01,8.602435887550547999e-01,5.304273331065435526e-01,3.451530347235010621e-01,-1.356122801811570966e+00,-5.323589525548911433e-02,2.663289488207295275e+00,-3.310154499076650159e-01,-6.378802467989749814e-02,1.706592422461673086e+00,-7.272363839368370941e-01,4.219829302252274261e-01,4.059939880266596468e-01,3.968552553655363968e-01,-9.141198365596243658e-01,-1.673751058733144337e+00,-1.982641870011409291e-01,7.984576078195545490e-01,7.630211179869659244e-01,-7.225826164806659069e-01,5.977933717421503035e-01,8.123447860643927543e-01,5.811036277198039501e-01,1.279511130631277582e-01,1.774396366673357539e+00,9.156634348698885484e-01,1.710811679160279208e+00,2.136261539393518316e-01,2.019817266366109310e-01,8.392489954642681771e-02,-4.032279064116632838e-01,5.221311477857208949e-01,5.651456178099978356e-01,7.304814662236994716e-01,3.215390219757919832e-01,1.192795721193061320e+00,1.998249621911323715e+00,1.113785098385838557e-01,1.237228683683565977e+00,-6.953825983955179424e-02,-6.420042887720639468e-01,4.015146016886795288e-01,2.193062824995891946e-01,-6.202427563670933619e-01,8.372249072279617232e-01,1.701991201323416636e+00,-2.306539339131170319e-01,-6.138345350446700044e-01,3.349277312285486863e-01,1.004231404955419293e+00,4.024771594729359414e-01,-1.040700653604373471e+00,-2.824172258383749190e-01,-1.056508143270235456e+00,1.119412054536056633e+00,-3.648750515902364211e-01,1.213396228874196181e+00,5.197560847821709462e-01,-1.235439954023305864e+00,-1.167006297984537255e+00,-5.153213154335065660e-01,1.425643463875496009e+00,-7.880349359878002780e-01,-6.702359030277810215e-01,-8.302843583121665150e-01,7.587485516833556431e-01,4.637641464642288103e-01,-1.227978972527153934e+00,4.991762246276064685e-01,-9.563565005349656811e-01,-1.337927718020615719e+00,-1.073839259787305656e+00,-1.075060782592734077e+00,3.238529821982737839e-02,-1.808289173003108985e+00,-1.964287547358582395e-02,1.500528967687473347e+00,2.914611893104867013e-01,2.585732458273655721e-01,-1.027455930915769922e-01,-1.163236441621734452e+00,-3.999538407179870081e-02,-2.984604172386156606e-01,7.433388160418641366e-01,1.651902880414860109e+00,1.523211369290558448e+00,1.893566367597742328e+00,-8.742626329677164465e-01,-1.873319403686628082e+00,-1.583176971548427403e+00,-7.593403046869020567e-01,-1.152525936919129163e-02,-5.450463945052769210e-01,-1.812393441600011368e+00,-1.191929650390304296e+00,6.475848994608190967e-01,-1.887817762059975646e+00,-1.590619029218525604e+00,-1.157717745542967025e+00,-3.988241418419508078e-01,-2.217123171142423743e+00,1.249230490668518101e+00,3.635662943231175448e-01,1.032060513025812698e+00,1.694739326652887346e-01,-8.063796388411915983e-02,-1.051298601479654371e+00,-5.948724728754765101e-01,2.778980877276240533e-02,8.545261066603009326e-01,1.041994616343133728e+00,1.294154266074611703e+00,-6.679299279391842648e-01,-8.790824002342618737e-01,-3.055906252043581350e+00,-7.207023412622568515e-01,-3.887991424191325485e-01,-2.172264239254081630e+00,-1.511723266528853561e-02,2.987809762536426383e-01,-3.752878892477730099e-01,-7.211295280166734045e-01,-3.982077622966064823e-01,1.819017955173716450e+00,-1.113112887614639446e+00,3.560955220101986729e-01,-1.646792086343429051e-01,-1.946245305199854336e-01,6.594159977266148553e-01,-4.249469643409139463e-01,4.819021564301991800e-01,4.650180170471512331e-01,-7.348971713579336429e-01,-1.573559326560938221e+00,1.392178131399925689e-01,-8.461819370348865055e-02,-8.540419243035499708e-01,-1.037974320781060111e+00,-2.842836273637687483e-02,-7.512589867888079809e-01,-1.006759484024920992e+00,-1.313693749582126313e-01,5.294972434247067206e-01,-3.672130218935606982e-01,7.074279980812797630e-01,1.649330613492441533e-01,4.347264182939812871e-01,4.169436216152818120e-01,1.240229970172448626e+00,-3.910729910047685554e-01,-6.509342138704377057e-01,4.132216361588715858e-01,-6.409982072452906632e-01,2.334254467331677019e-01,-1.215365934830941130e+00,-6.693475479505773817e-01,4.663868381296635834e-01,5.047518209309923565e-01,1.214838624942399692e+00,4.094092247502700288e-01,-8.460712619732970730e-01,1.446035397761362973e-01,5.690228563319059685e-01,9.131984691891361638e-01,9.495645555411089678e-01,5.788511468153410000e-01,-3.379819695787026901e-01,-1.155096150092054241e+00,-1.721347081795995049e+00,1.855208537345180708e-01,-2.528976547484967696e+00,-8.704310022141661385e-01,-2.809031259246676515e-01,1.489159354025459785e-02,-2.923379179321588417e+00,-3.369860638914281559e-01,1.051193523676216657e+00,-3.611756655252558457e-02,-7.606211466730410375e-01,-8.477467806657372762e-01,-1.031836478805747470e+00,-3.385562740203086340e-01,-9.786887300733926320e-01,2.755732228860456323e-01,-1.032743571014059114e+00,-1.587326345322708221e-01,-1.140329830918263010e+00,7.211669120106386499e-01,3.277823820799808385e-01,8.914841402328221864e-02,1.228762907654982639e+00,1.886224473692512449e+00,5.230342818699769136e-01,6.593539839387371204e-01,-1.663333309531653814e-01,-5.856953725114801834e-01,4.472618835543139271e-02,-4.673740791592776583e-02,1.439193183711576340e+00,-3.656707377829769567e-02,9.636342803954874026e-02,-7.046267974723908756e-01,6.787417940145950013e-01,-7.281126664380733748e-01,1.722813136546035073e+00,1.431619645384900830e+00,9.902564169201122368e-01,-1.478038493311269352e+00,-8.041339554946670409e-01,-3.657130876627711635e-01,-8.544413460462386978e-02,-1.084554184637500640e+00,-9.472321352031306541e-01,-1.574856601808027667e+00,-2.991303972851479601e-02,6.224959137824271904e-01,1.266201062709513936e+00,9.934341133662182299e-01,2.018693941258657698e-01,-1.601879089828989855e+00,3.662156191526698325e-03,1.614637823998702704e+00,-9.344027744585691186e-01,-8.763068412530480855e-02,-4.127604471073469949e-01,6.811309995798451311e-01,-3.869013770666351881e-01,-8.453941896331176320e-01,-9.902328301951446310e-01,7.320796509704360355e-01,-1.168509196270763884e+00,8.623577770926608155e-01,1.776234007321444985e-02,8.256657679450287723e-01,-1.964884713088929535e+00,-1.125388462861991234e+00,-2.885185875802170341e-01,-9.893013474555184539e-01,-7.219027225405225123e-02,8.962280342738278005e-01,7.322987355481694882e-01,-9.359663951024603801e-01,-5.116442925155798710e-02,-2.443664228788294146e+00,1.008162196053531412e+00,3.518416935542959673e-02,-4.390829261913810067e-01,-1.360964867578038140e+00,-7.594838613554302231e-01,1.164957738044241298e+00,-9.140185310825698073e-01,-6.970889910480435603e-01,-5.336142854902772292e-01,1.057560568170903270e+00,-3.854019114225371023e-01,-1.058446118206523012e+00,9.619340167315700851e-01,-2.623082388109642671e-01,-1.391999162484934605e+00,1.200459631790451898e+00,3.886906378649060967e-01,1.629826863652164670e+00,-8.942948157951007282e-01,-1.306232587775786325e+00,6.709163015184202994e-01,-1.760686633779427190e-01,-7.768696356833985905e-02,-1.200542751835028232e+00,-1.891748589407458991e-01,-5.363564876862189079e-01,1.838418451945402099e+00,1.383350628729983767e-01,1.670749509217272166e+00,8.751981579189629379e-01,-5.298477233406598819e-01,6.494790616755498069e-01,-1.528780577140342878e-01,7.328195815348742537e-01,1.033327445745658935e+00,1.230888887997548586e+00,-1.030364110754592000e+00,-2.489082108329291554e+00,1.086680591279424624e+00,1.758634844291139532e-01,9.098256744699645404e-01,-1.515712076610563175e+00,4.940495051450269903e-01,-1.564755221543427666e-02,7.601675811512119685e-01,-7.070502962341630449e-01,1.601438531418130751e+00,5.203809465701790815e-01,6.599386765605523841e-01,8.045524274584398006e-01,-1.266841233722972859e+00,1.376976144432234150e+00,-7.804649883384577880e-01,-3.309542503843780903e-01,2.370335179734638087e-02,7.427598169854691124e-01,-6.357907794677207791e-01,-1.119591644008039566e+00,5.803551313593633409e-01
