-6.857612806733114574e+00
5.532778203312895826e-01
-1.215388824143432522e+00
1.426469233542541959e+00
-1.562664465672424896e+00
4.886621368849702662e+00
-1.892274109573902052e+01
-1.051741872608364758e+01
-1.396112136688260064e+00
-1.097441246143006977e+00
-1.971905942430243863e+00
-5.121143861630390592e-01
3.475862595299909596e+00
-1.703051639234497205e+00
-4.758426742408531918e-01
4.195544906247929973e+00
1.414137573107999302e+01
8.826328198510909884e-01
9.265580684954636270e-01
5.627565283891099446e-01
1.434027567037420248e+01
-6.960337859978559472e+00
-5.409911047393449746e-01
1.770029071965137701e+00
3.338866894678386377e+00
-2.658100045231427178e+00
-2.451455937736005897e+00
5.542561260160419501e+00
-4.646329570429649225e-01
-6.933840182657458939e+00
-1.999500199394671274e+00
8.553641543888974574e-01
-9.008394222259260564e-01
-2.650043602689582944e-01
-5.255926654303580747e+00
4.733718225014898806e+00
-1.112133734645304850e+00
-2.119570472140446693e+00
-2.441829416995777713e+00
-2.094279976195904946e-01
-4.674275221678263204e-02
-2.573075121744135885e+00
1.297275492191299617e-01
5.248225597481668281e+00
-3.803262148433955936e+00
-3.892855334671315171e-01
-1.512871564014341752e+00
1.404903688764091330e+00
-2.218359726220048955e+00
-9.823674557797585916e-01
-5.620195657366589437e+00
4.434496285902697621e-02
1.966104153768959506e+01
2.445266419402291724e+00
-3.015964399477935043e+00
3.613929413464488372e-01
-1.018250972020476208e+00
1.051885145742098571e+00
-1.749409025171217547e+00
3.547936389951440894e+00
-1.675116378978655396e+00
-1.514136410705427815e+00
8.161324711878618077e-01
2.021658168734701633e+01
-2.706885176037317209e-02
3.286105515311598668e-01
-1.576299707386670690e+00
2.462485768652994178e+00
-1.562504921657656753e+00
1.050294670729247493e+01
-1.225331943910530796e+00
4.035145657300911459e+00
-1.711823287701650997e+01
-7.994079880069037358e+00
-2.410818062142848994e+00
1.029012265275913496e+00
1.479798993881700220e+00
-4.541891156028778909e-01
1.227688127755729441e+00
-4.599382053831578832e-01
-1.685816764167367410e+01
9.011499648858883882e-01
2.194933519016294632e+00
1.149863643284247772e+01
6.136752504316951295e-01
-3.558370558279010165e+00
1.242012006498596666e+00
4.739720660522404039e+00
-4.953844827474950807e-01
-6.055772015128123575e-01
-1.495414874657257309e+00
-1.938694970409255447e+01
-6.607058133689326596e+00
2.730895229653940603e+00
1.082825743406237784e+01
-1.221918979714642184e+01
1.959853469110081647e+01
-9.811951629468497416e+00
-5.090449657893048041e+00
7.211100080742256779e-02
