-8.041679635571396645e+00
-1.286997068564509128e+00
-3.053780366957622450e-01
-1.139369377120038163e+00
5.547945059572072068e+00
2.978058131475881387e-01
3.031330516111850670e+00
-1.858329001192313701e+00
1.449039024419350730e+00
-3.186968456407897610e-01
2.937619400790272284e+00
-1.194566663133345807e+00
-4.394049044722402542e+00
-1.010761621059008020e+00
-5.249208858308185732e+00
3.930247831473947517e-01
-2.301627522416656468e+00
5.471284359280827125e+00
-6.181772408097213622e-01
2.474173946016048120e+00
2.009446155093904895e+00
1.085318297236675722e+00
1.225807673928116237e-01
1.269580455871770486e+00
-4.382050461200061697e+00
-9.563790788857982061e-01
-3.728415523314370983e+00
-9.553341861734720997e-01
-1.534103848825263405e-01
-2.786244149048963781e+00
-6.685199761169544175e+00
2.704090768417953150e+00
-1.986515551351528908e+00
-6.155883853443739895e-01
-2.856557074574807564e-01
1.012220759696746519e+01
-8.692574058259414649e-01
-4.926696745849790116e-01
2.746892561193766458e+00
-3.207228527836424314e-01
6.160882855854389106e+00
-1.071422484598109293e+01
-3.554957206273380854e-01
-9.598107905160220277e-01
1.530599546031459424e+00
-4.337186129841065885e+00
7.273651231556168550e-01
1.892590472041002225e-01
1.782663065991361373e+00
-4.400247596518263582e-01
-2.245350037243686092e+00
9.557618390907162143e-01
-2.765906817574772969e+00
1.515682900198575433e+00
2.734018282989865600e+00
-2.805775490574405895e-01
-1.021417377040974372e+01
1.232028035400480226e+00
-2.038602753241469223e+00
-1.004020311196108572e+00
2.192419054773900866e-01
6.757342017262082834e+00
7.986632355262852201e+00
-3.099994048425737336e+00
-2.121017408636684198e+00
2.076183196808694953e-01
-3.619387899119411500e+00
-1.829133244022597804e+00
8.999129875487220653e-01
-6.539811953122491861e-01
-4.265429730786786777e+00
-1.044737823052990011e+00
4.947672217046839904e+00
2.472640188530002892e+00
5.029484218383403871e+00
-9.773260782690627035e-01
-6.151574318162130517e+00
-2.263912725384172875e-01
-1.478478436204073709e-01
2.329202651659409706e-01
2.300484951124357913e+00
4.470029056979276660e+00
-1.713979414891328545e+00
-3.377169070707651599e+00
9.874155799482003948e-02
-2.114847738371750108e-01
-3.330123978390783779e-02
-3.057248583992248747e+00
5.065018101324074706e+00
-2.212981828611402524e-01
1.897335623702748997e+00
-2.072113848550335646e+00
-1.294166181677298910e+00
-8.290164693115526617e+00
-7.826780412528784314e-01
-2.260583003246722456e+00
3.883141203958754950e+00
5.200887623440968888e+00
2.154589796450700145e+00
2.716730803439600272e+00
