3.500513575320728599e+00,-2.816305360769891575e+00,2.806308952530613410e-01,-2.564249198161530963e+00,-3.247408185045855822e-01,1.662729446890504281e+00,-1.163728547756391757e-01,-2.198490061460600387e-01,-1.138899343554419463e+00,9.813576149005478477e-01,-4.929733216107906602e-02,1.342984140917587332e+00,6.094120198902641672e-01,-1.640548100850886204e+00,2.570534002257013895e-01,9.192182938577123652e-01,-9.611840743491328887e-01,-7.113909589171478753e-01,5.408638423682509133e-01,-7.216966556075664618e-01,-7.144517962048759774e-01,-7.912563567650289231e-01,-7.727105098063890010e-01,-1.104166992873766295e+00,3.304781015439432479e-01,1.209372470342199524e+00,1.015649229443074564e+00,-7.602417381774851934e-01,-1.426175562097711902e+00,-3.822435319898044082e+00,2.055099040519524911e-01,-2.600543333464949924e+00,-1.883556327370629280e+00,-2.469842542846334421e+00,1.271944196835192331e+00,3.494902637233188170e-01,-1.012214911243394022e+00,-1.188192070714630511e+00,-4.045620823591609683e-01,7.372872072339632377e-01,-3.649239307790918652e+00,4.007276845379482144e-01,-1.212451580077785973e+00,-5.135989474543739552e-01,-3.934683977604968574e-01,-1.070132271990873685e+00,1.179758759405108437e+00,1.199257908843421733e-01,-2.127786602489407652e-01,-6.888171875648727571e-01,8.571994293015046118e-01,-9.887919651442523827e-01,-1.176784260864773168e+00,2.700380337333246672e+00,-6.628805531189565503e-01,-7.862165614317273565e-01,8.984083613142678226e-01,-1.488486362634340088e+00,1.564286875809985267e+00,7.027023578646992563e-01,-1.378035919103232976e+00,1.035287620931067076e+00,4.023179879110035384e-01,1.048953128339354807e-01,6.488019201243769851e-01,-1.498553487830875497e+00,1.500023744330064801e+00,1.732959594717304652e+00,1.303903603270639699e-01,-3.763047062306117962e-01,1.457251236799609329e+00,-2.836674511719805003e-01,4.549809420589672748e-01,-2.449503496975800193e-02,-1.559489645440049532e+00,1.286427037061469991e-01,-8.305584130930581122e-01,3.726624233520041130e-01,2.173441742365172402e+00,1.762364741665525258e-01,1.525252668251047661e+00,-4.657086001915518025e-01,1.734545783862910806e+00,4.461621135182750053e-02,-1.595454259410345133e+00,5.372963876790473048e-01,-1.084635219592497535e+00,-1.907126796959663473e+00,-1.713736707408699100e+00,-1.440102024921044166e-01,-4.229875441775240996e-01,8.112204222983462332e-01,4.504133818085729324e-01,-1.830763662806525360e+00,1.577182729035533082e-01,-3.710367326845227520e-01,3.139537758719185834e-01,7.408620462352578651e-01,1.531796660189441717e+00,-9.000841105851873358e-01,-1.363053943495230236e+00,2.182957605935624823e+00,-2.630853626997248451e+00,-8.009488246372963305e-01,7.137298420477218297e-01,-1.509671824908346283e-01,-2.293438271537676654e-01,-3.135859885027868499e-01,5.657847524077898038e-01,6.966957314049000427e-01,8.082204086566352474e-01,6.525969872512067393e-01,1.771785405108598832e+00,-5.955380604667879219e-01,7.362610029294218428e-02,1.042671464835054351e+00,-3.124640770947718416e+00,4.830045974543238918e-01,1.145090093482035831e+00,-3.530937903079448770e+00,2.380791062312339612e-01,1.459710949890561604e+00,1.113009139210180930e-02,5.333473304486203714e-01,-2.390402214485975452e-01,-6.253497291355269994e-01,4.257542651328385386e-01,-1.179607652464460976e+00,6.273096735703077576e-01,-2.237222514673704588e+00,-2.410457450674495128e+00,-1.334627668604440487e+00,1.398006643333507548e-01,-8.725282438743215963e-01,8.463933889685998357e-03,-3.651882509696752765e-01,-1.662214081856003833e-01,-1.328815082750315124e+00,-1.263775841573894665e+00,-3.524799986653879835e-01,1.104554124715427521e-01,-1.081685141942762551e-01,-7.465658801582244486e-01,3.279429403112598673e-01,-7.896658875405121458e-01,1.456591037450368775e+00,1.194782539137129618e+00,7.503114133116716156e-01,7.933809845971130370e-01,5.224953163109065102e-01,-9.347771556687004546e-01,1.849023973347578620e+00,-1.645747761395354392e+00,-1.825690614759435393e-01,-1.983948650351133436e+00,1.378257356381705101e+00,-2.225387108836907935e+00,-1.953707605224578758e+00,1.289555768978357886e+00,5.668694814631084489e-01,-2.484670703942673253e-01,-4.361656144425098969e-01,1.340893812928099393e+00,3.195381136713961179e-01,6.451591411179021796e-01,9.648741180858403377e-01,5.488052238462255428e-01,-1.234012719407225456e+00,1.075435273789496105e+00,3.833487277207555111e-01,5.259167508843152206e-01,1.870183171666433886e+00,-3.330537287176646100e+00,6.129492802387881412e-01,1.779333606809596180e+00,-5.871476261621098869e-02,6.252182993013692958e-01,-1.386659919484492853e+00,-1.562983943186430080e+00,-5.926211409913219041e-01,-9.529266944893534097e-01,-6.054819915296337784e-01,-1.003498086162375902e+00,-2.143398042559187200e+00,-1.071825068678642134e+00,-2.226710654918336030e-01,-1.550253930990108837e-02,-7.837039421104344816e-01,1.037337359895127875e+00,-9.529873143035338945e-01,2.518695890297526496e-01,1.189221338340958223e+00,-6.102288528121361244e-01,1.411178851276132962e+00,-2.191896903971408239e+00,3.324802524959452055e-01,1.020495015575911130e-01,-1.217517967138046053e+00,8.021630897195433096e-01,8.679193931313446964e-01,-1.054136344674210385e-01,2.154201287272814458e-01,-1.046376559471365653e+00,5.310260179442030104e-01,1.300459544077819496e+00,-1.190101621310744706e+00,6.230976371977297035e-01,1.621302707693015543e+00,-3.073456389247016807e-01,1.675260185667795554e+00,1.406704968507183295e+00,-3.251482062376421789e-01,1.066841304233894672e+00,-1.080744732754341797e+00,-1.410359462044825429e+00,-3.214097367165086871e-01,5.666499262595278141e-01,-9.279284599190478211e-01,7.292160254883910397e-01,1.297217529225807686e+00,-6.477316549134178869e-01,-1.082303901435385907e+00,-1.320058545539314787e+00,-6.948585928602767359e-01,-1.062543857287537641e+00,-2.366941696714273125e-01,4.072723583995341984e-02,3.103536543416593463e-02,4.709101717693927047e-01,-1.258718982582673618e-01,-1.608186123293113001e-01,-8.116556660832045800e-02,-1.218886136269585085e+00,-5.201004232955280804e-01,1.864329836582692357e+00,1.771017310980042669e+00,-2.324332897475932525e-01,1.054744669516010536e+00,1.274462925342768616e-01,2.387955988791756190e-01,-4.681156893238882510e-01,-5.181845514639558115e-01,-1.527493551362626434e+00,4.990567560220764837e-02,1.986459785807022982e+00,1.168513528373672727e+00,-1.296574124606006517e+00,2.448343143072154060e+00,-7.734214714966115567e-01,-8.371151501144981355e-02,3.532139506925742634e+00,-8.368863064602767299e-01,-2.944763117298165311e-01,-6.295142371889613786e-01,5.164386751731956382e-01,2.366489398183652393e-01,-2.468310129997608460e+00,-1.335890375881682302e-01,-1.233798180171536085e+00,-2.880230743895217937e+00,-9.733811475445479644e-01,-2.340800293793207643e-01,-2.035880457554529954e+00,6.100220318097768768e-01,-1.048191477794255588e+00,1.344080694731509817e-01,-1.610201097445360441e+00,-2.697266692740364569e+00,-1.253151705872393773e+00,-2.142774656120839949e-01,-5.006528157423802972e-01,-5.940135713817419338e-01,2.422129109169873562e+00,-1.146013687601665998e+00,2.207292122090278585e+00,-2.668095938366811026e+00,-1.643953599710588076e+00,-2.714514169002107402e-01,-4.238614543461383555e+00,1.265949896295949451e+00,3.332356127806585522e-01,1.026574959920268038e+00,-1.009907536973773112e+00,9.772014910432031964e-01,-8.400848452412573719e-02,9.378178764046436744e-02,1.628146510083727350e+00,-4.997976001544195968e-01,1.457276299723741175e+00,9.025963788453625902e-01,-1.004865881156613128e+00,4.321688444354677694e-01,1.549032703708884906e+00,-1.739310945654513052e-01,2.380195151064226966e+00,1.463831370187964331e-01,-1.535891611068962437e-01,1.597173953592037732e+00,-1.185984885265423339e+00,1.006731850310893073e+00,-1.683233766761723871e+00,-3.890781253378639004e-01,1.092690500426646283e+00,-1.333952800743070322e+00,-2.601021074184418080e-01,-7.278266297823127173e-01,-1.257903849663521534e+00,4.602619080482055480e-01,-1.425084712004686782e+00,-2.262949750804199925e-02,6.333248189448986709e-01,6.808904986021190320e-01,-2.793178366835294968e-01,2.721117072496316291e-01,1.032460296720097981e+00,1.424786503313305377e-02,3.539222799354678206e-01,9.191853323856031821e-01,-2.041437642583874279e-01,-7.949873876876720757e-01,3.844993855883902523e-01,-1.671979078392024365e-01,-4.363241996670737533e-01,-1.008964784761787747e+00,-4.238731739065799142e-01,1.970421070643214867e-01,-2.888306196299832984e-01,-1.587447431165071254e+00,-9.477452297715133200e-01,-1.171196867988308910e+00,4.840970689020407391e-01,2.563010437368334338e-01,-9.042726095048715385e-01,7.049497435123585065e-01,1.024185495054429573e+00,1.205904491124295763e+00,-1.328403033871230488e+00,-2.094943502567795601e+00,1.453899009143052368e+00,2.930465358638394857e+00,-1.838024301001943417e-01,1.417489368221391599e+00,-9.432983230790219498e-01,-4.505508077146381796e-01,-1.390791691281365150e+00,-2.090942159761384200e+00,1.010004654430272236e-02,1.484189957277641803e+00,1.540149545521248831e-01,2.680231194354298560e-02,8.716486778814710457e-01,-1.105109761996771578e+00,-1.502794615285429347e-01,-1.189047934869090550e+00,-1.080651840847917100e+00,4.048563190115857247e-02,-9.697014356521864720e-01,-1.348166247590681488e+00,-6.086178374658980372e-01,1.727548148895803770e+00,-2.094189218657992457e-01,-6.849547413775909366e-01,8.778151856667020247e-01,-7.073586258986075403e-02,1.246498343766154981e+00,-1.422344829215200557e+00,2.288550093804175012e-01,-2.420300891745463534e-01,-1.048938791283186678e+00,4.986658424017200719e-01,-1.912172570422866480e+00,-8.359853391353903040e-01,-1.613232170166536417e+00,-2.792781362208647880e-02,-9.270719714078621276e-01,-9.553632834949001007e-02,-2.213333249582674911e-01,-8.272612857854028112e-02,9.159942959125070075e-03,-6.184478621953819477e-01,-1.098831257376602588e+00,1.851995752505530168e+00,-2.270596521344157015e-01,1.688887088257644831e-01,3.599968850436950640e-02,-5.543637460653835225e-01,9.689160077340589483e-01,1.151933926731551372e+00,6.402971759878176572e-01,8.000571431404324141e-02,7.890327768567247102e-02,6.269190222618137298e-01,2.013001532375931824e+00,2.723347828886356625e-01,1.058473795940624074e+00,-1.383705060285963517e+00,-1.100942319704454331e+00,-2.597931179606530083e+00,-1.096220869777973839e+00,-3.954089271812828432e-01,-5.547513417222389442e-01,-1.080741294092097071e+00,-1.895375885266109284e-01,1.505514490432147356e+00,1.328614573787677333e+00,1.764221871243000228e+00,1.246244503603422649e+00,5.178811706631166745e-01,-1.016343083763860955e-01,1.619576075169985474e+00,5.855897640344470689e-01,-1.258068807234271169e+00,-1.247976194277874873e+00,-1.607326566766698939e+00,2.648267620392139587e-01,5.236603120568809056e-01,-2.233959804910436442e-01,-9.751740984632776277e-01,-2.030137803115820816e+00,-7.164269149546356186e-01,3.972431826309852365e-01,-7.305451571578866488e-02,-1.563838295517874455e+00,4.891545830624783875e-01,-7.031519976492306423e-01,9.049227220741640210e-01,1.258633499637665132e+00,4.007829442318717739e-01,3.304029388835580949e-01,5.208053418845383364e-02,-2.388464073339597871e+00,2.299386121304761443e-01,-3.030226679387435063e+00,1.184054858558909462e+00,5.930021988722673498e-01,5.923878343256929746e-01,-1.572947857518687542e-01,2.221745932031462811e-01,2.575659027777001397e-01,3.914584282821014782e-01,1.057497281387156818e+00,1.830518268336689847e+00,-9.734428015116015631e-01,9.803250271110386382e-01,-2.059607565505026106e+00,1.862878308998452193e+00,-1.834713527989290105e+00,-6.127063231080134287e-01,2.421686752331797254e-01,-7.086722021858350429e-01,-7.948387694460035124e-01,-1.901161788295542721e+00,-8.372431283254078149e-02,-1.447289995674529317e+00,2.033454559268990103e-01,-1.547533107943855679e+00,2.507483661787207052e-01,-1.364098595928768365e+00,-1.317479736326937489e+00,9.664972794975978942e-02,-3.030995851759985538e+00,-1.269000468491821298e-01,1.022638157592079766e+00,7.278228560942460179e-01,2.129547830233402272e-01,6.812514248934445904e-01,1.188088930675535781e+00,-4.670475545592311928e-01,-1.181754120303473377e+00,-6.085663489718837749e-01,-2.584898437950839956e-01,2.244247588519121539e-01,-1.477412364313642978e+00,-1.490492886044352261e-01,7.217120886552553793e-01,-2.139656068950178402e-01,-1.518479139511035081e+00,-4.877930239634704068e-01,-2.196811138508541761e-01,-8.880840907418807717e-01,-9.508361971944284674e-01,-1.378140366395170235e-01,2.443284212495928642e-01,3.996864419325117934e-01,-1.015988705340951315e+00,-2.412593018577326998e+00,-1.619495795096870472e+00,1.958680036851702944e-01,3.131887630383362042e-01,-7.605443976252137528e-01,-4.324682551744594289e-02,-2.972139064314983870e+00,-1.417305450219537910e+00,3.909376680807233662e+00,-3.661391931760442087e-01,3.517598653143811371e-01,-6.910397629622075932e-01,-1.041086669828817035e+00,1.515360914041365081e+00,-2.115103464256565591e+00,4.570454681116966067e-01,1.893298690628863579e+00,2.960457811963482566e+00,2.737817260347321091e-01,4.564447489565533367e+00,2.661149900798949197e+00,-1.480466168248182779e+00,-4.326415404464896697e-01,-1.956376229739303252e+00,-1.378985221404294970e-01,3.913934135689717042e+00,-2.382572355211959536e+00,1.737096210453448419e+00,2.465648498496320062e+00,-1.039566355100461248e+00,1.457091335010665345e+00,1.064009410581330695e+00,-7.495630789369700508e-01,-1.071810019867898589e+00,-4.258364989133349710e+00,2.240747542806253295e-02,-1.220402214298070609e+00,-1.839325435567257694e+00,1.182011379898727732e+00,-1.477462397360419732e+00,-1.228083871517237302e+00,-1.226477322798829706e+00,-1.155244676674054061e+00,5.100143718307763585e-01,-2.097307794858441099e+00,-4.579420350018636454e-01,2.934592777170002553e-01,-2.251523111397980337e+00,-9.051689401818335812e-01,-1.243987175010548146e-01,-1.970869616977000804e+00,3.617436579847737015e-03,-1.606915895639444924e+00,3.260633415541231539e+00,-4.791512131485465842e-01,2.114894931398308309e+00,1.825180095310989126e+00,4.196088978752117171e-01,8.412873779014128361e-01,-1.136367217675670347e-03,5.727056898657159056e-01,1.533805333705283269e+00,-8.182947134579570125e-01,1.258291536156408874e+00,2.331377490040127121e-01,-5.380636105518061818e-01,-8.861269204758800422e-01,-1.098206385530995588e+00,5.053135793892699068e-01,1.198882339524676155e+00,-2.285068249436944310e+00,-9.206740640326385172e-01,-6.899145464423520613e-01,-1.095569398262356220e+00,1.267543011986661083e+00,7.662963875951344095e-01,-1.665339735258139608e+00,-8.253725123548592002e-01,1.321955393696387038e+00,-1.282042669856132966e-01,2.572159690832535595e-01,1.884915799028234473e-01,-5.345442024588943353e-01,8.778111000922268481e-01,2.580421789256707843e+00,7.375255229896849896e-01,-8.232000342106716717e-01,-6.229571584536056639e-01,6.096360919587308080e-01,1.354637782674938729e+00,-9.426239618869391990e-01,2.923772791083411593e-01,6.460432771990088918e-01,-1.914674937730607374e+00,1.920572235001622774e+00,-5.316614456080881457e-01,1.039738444427128261e+00,-4.767133747601034477e-01,2.759062615464318857e-01,4.824538648543134634e-01,9.508738323784657887e-01,2.048040062494389080e+00,1.434698614967941654e-01,1.332307325079828741e+00,-3.341818728511979586e+00,7.739445529712123406e-01,2.041352377506534310e+00,9.612208942241118326e-01,-3.515375297051580583e-01,8.068433330627307054e-01,-2.426535867904568433e-01,1.417930439950015886e+00,5.949494396447201350e-01,1.462820502304767178e-01,1.077949348798029616e+00,2.300505271847933797e-01,1.373819210800328650e+00,-1.902448307620329127e-01,-1.665014207729994977e+00,-2.419782606649546752e-01,-1.433691475037427887e+00,-1.613187065272291054e+00,1.151661246679658968e+00,-7.655725553438281761e-01,5.905033438453071160e-01,1.933008176010541923e-01,-5.477702697142230459e-01,1.014164099986206047e+00,2.912870222914530349e-01,-2.923940836204367844e-01,6.239437917069657891e-01,5.475727040024908066e-02,-5.809656544576166093e-01,2.884150388349678296e-01,8.699077613149579502e-01,-1.156572417223413973e+00,1.135549622952960247e+00,2.360585206454648421e+00,-2.269619118464716034e-01,-1.228545376804444755e+00,1.459121631760525339e+00,-2.713451827949860284e+00,-9.719672023790392190e-01,4.228703054924424776e-01,-3.126490001575101263e-01,-8.121207555059438699e-01,-3.886264898897317521e-01,-2.451500383910049791e-02,9.889696654619136718e-01,-1.519490405248371812e-01,-4.746798061098883581e-01,-3.237399115895456814e-01,-1.385721093007973304e+00,3.899078999665786527e-01,1.250370074672673582e+00,-2.612303388828172146e+00,-3.975841094511271545e-01,2.839115160790443237e+00,-1.428685108078353583e+00,2.047554277199531203e+00,-8.528765094060100083e-01,-8.860351135030873904e-01,-1.288832892227062432e+00,-7.055499680666683648e-01,-5.989017043912231442e-01,-1.331478456070023020e+00,-1.038509066900574984e+00,2.479896409924393641e-01,5.527011645395926709e-02,-1.626558071812988615e+00,1.056095027922915985e+00,-7.595592469405751945e-01,-2.163206208812461506e-01,-1.054983912866257700e+00,-3.000371390718561848e+00,-5.237896102253145614e-01,-1.708640177004727256e+00,-3.061840453958155184e+00,2.563132668773389702e-02,3.545706298103349918e-01,-9.301980278063205487e-01,7.384662853346982692e-01,-2.084230741452471669e+00,1.376856149389092288e+00,-7.376274547427004169e-01,-2.930806820934654500e+00,-2.931924144172264324e-01,-1.922054435530940575e+00,1.110995178608157996e+00,1.159334425885784059e+00,-1.784948874694193721e+00,-1.083114462187231286e+00,1.455874609542979536e+00,-1.070798632394670102e+00,1.102844772085965486e-01,9.190223408592625987e-01,-3.582485399215089572e-01,-1.151273880136101324e+00,3.156901513060060616e+00,-1.704008788251637929e+00,-1.057228100037103102e+00,1.798130445777539554e+00,-1.476764878224709365e+00,1.243288350351763744e-01,1.363385384419133484e+00,4.728705913096787894e-01,1.268607566716900781e+00,-7.278276280014648325e-01,8.931935677704905263e-01,-3.160305742968862464e-01,-1.502039721583207532e+00,-1.562573455426035318e+00,-6.257561137244519456e-01,-2.358444336060934621e+00,6.376457953363460218e-01,-7.645113236141146684e-01,-1.027935100648530220e+00,-9.404329832774405151e-01,-1.552180390474276361e+00,-4.569148820246760057e-01,1.868478239249076189e+00,-8.222317669514197513e-01,-9.845646869413883229e-01,8.564788463867455404e-01,2.103161988438717322e-01,-2.019988781414940870e+00,-9.124574908975262577e-01,9.907942580159095902e-01,2.670227529925712773e-01,-2.863962065254942457e-01,1.710256005081343122e+00,3.200947573706077187e-01,1.628075620655918598e+00,-9.880644258663325852e-01,-1.832153430901263036e+00,3.804502453150771846e+00,-9.871095009797078434e-01,5.040706853027479006e-01,2.395606102089535006e-01,-2.005596847919126180e+00,2.229045204542491998e+00,-7.763106184575856439e-01,-5.488666608156290705e-01,-1.254225862804259295e+00,4.927764476981866260e-01,-8.526078514740916825e-01,-2.447989394925514262e+00,-1.032375983128700270e+00,7.507434106397734563e-01,-1.907799893693170823e+00,-9.680901158949613006e-01,-2.449398627200583878e+00,5.971125914281407709e-01,-2.266765505713580708e+00,3.898836193738773326e-01,-2.018189318059413040e+00,2.136241156044668354e+00,1.694177716635309139e+00,-1.655289698556885014e+00,6.785684688080997340e-01,5.335841610152179948e-01,7.664167056493159658e-01,1.310102233123228599e+00,-2.474575612728306673e-01,-9.553463208477788182e-01,-7.261337526018541988e-01,-1.133419706120009085e+00,5.838965823548651624e-02,1.105135995739021215e+00,-2.674877855308477326e+00,4.229667016806949037e-02,2.343029324209903841e+00,2.015642292276369207e-01,1.478118524149764079e+00,1.225631545219882268e+00,-7.464094893502113415e-01,1.887730138485382403e+00,2.435691058272496878e+00,-4.949530148695502896e-01,2.600287650444316423e+00,-4.476008887921846813e-01,2.698263531564250584e-01,3.724306778371424098e+00,-2.197967362713274808e-01,-1.554923716671681833e+00,1.705105998570843218e+00,-3.124196589934728763e-02,-2.709523820174599695e-01,-3.701364051805507427e-01,-7.967936124687771127e-01,-6.157823172138527923e-01,-1.779070797047116459e+00,1.129124840030669930e+00,7.176999785018328692e-01,3.554267649336818047e-01,4.434272509996543821e-02,-6.043158834527925238e-01,3.052030581745130908e-02,-1.466179190313069425e+00
1.474714723814636752e+00,-8.648623253543162859e-01,-1.965305128038842719e+00,-1.328373969452109338e-01,1.045826158075013446e+00,-1.476709016205287293e-02,-6.289673313936769983e-01,-9.122785839256838392e-01,-9.007570857316927748e-01,-1.261808898585810912e+00,5.535298790855501805e-01,-1.033049432619725039e+00,-3.078197906708561860e-01,4.829436767703110256e-01,-1.888641492846150904e-01,-5.590931152699900597e-01,-1.988923754213957951e+00,3.981781339353285820e-01,-2.816786016258524317e+00,1.403317635652968076e-01,6.299648742831492676e+00,-2.555211998898083259e+00,-3.112761854102515713e+00,3.954457469935369895e-02,-8.722524489294424255e-01,-3.219756890084741197e-01,-8.730554252339671750e-01,-6.848595606169041727e-02,6.380430207605852999e+00,1.021203711417537630e+00,2.128341959513735393e+00,8.593681837547407776e-01,-6.625438420845077836e-01,9.990638307690008491e-01,9.925271131039823391e-01,-6.394706628414720262e-02,1.606135755687156719e+00,2.945884352082648761e+00,-9.291777074547521442e-01,3.555078383066071712e+00,1.920217309637550107e+00,-3.183980072410357853e-01,2.779271760716058637e+00,-4.423850075174428298e+00,-1.311863940970589004e-01,1.798298452949331994e+00,-3.928435329367084172e+00,-6.482357685104714884e-01,2.594876950134615279e-01,-2.311766566849790205e+00,-1.820208240494943508e-01,-1.177392295017711588e+00,-4.706975049967060398e-01,-3.620041582907478350e-01,-6.518918890459003412e-01,9.540931744332220577e-01,-2.057300357498689003e+00,-1.394737192437755180e+00,1.719939130837906838e+00,-1.380488427710352684e-01,1.014959877765970325e-01,-1.313807054742093916e+00,-1.365063755114064303e-01,-1.798810981691642441e+00,-3.546155314900643202e-02,-1.973284974822980598e+00,4.760009726206736458e-01,-1.149524782445979554e+00,4.548034724747734181e+00,-9.851146089870491673e-01,-4.353518171897667599e-02,2.212694759026864855e+00,4.258314525846766951e-01,-2.661064351807690409e-01,4.361630247232584634e-01,6.327923768344061173e-02,-1.608341072840755170e-01,7.396714312044969097e-02,-4.828288398942055526e-01,-2.226518794879294143e-03,-4.896726614534563371e-01,-1.944364337837189538e+00,4.032510914027911952e-01,1.885937473504534266e-03,-1.191786255320318677e+00,9.321926454691891184e-01,-1.015782597514345298e+00,2.113379462945331078e+00,-8.053754129468775336e-01,-1.426092442355521461e+00,1.139861792831328380e+00,-2.260020014994576165e+00,1.380263378520686590e+00,1.408466798954564947e+00,3.268345489066455389e-01,-2.327693554288110533e-01,-1.169015928951588235e+00,1.696507814873454700e+00,1.556622340275278793e+00,-1.483303530477046106e+00,-6.118322793058552644e-01,6.020099963511556240e-02,-1.137688103057358679e+00,-4.338298276247370411e-01,-1.262503488905202698e+00,-1.510020854264098267e+00,1.150496652448743440e+00,3.098256573478694875e-01,-1.214408461993153443e+00,-4.777492146613752655e-01,-7.727239380360876320e-01,2.050877043821169310e-01,-2.466351029679880180e-01,-3.619429756401607357e+00,1.244689263569828341e+00,-4.039434025555441871e-02,-1.710112576366260129e+00,1.027217641308912688e+00,-6.734318152635840882e-01,-3.574858774099544667e-01,3.047923825939941267e+00,-1.683353439154660514e+00,-2.291281184378675118e+00,1.540883876673494468e+00,7.374084674175285237e-01,-3.118731491317610960e+00,1.235045237452837119e+00,-8.142167832025846291e-03,-3.591914910713532860e-01,1.286547185399825821e+00,-1.490049576073224191e+00,1.641065519760766200e+00,4.727092403079711791e-01,-1.749499790634062579e+00,8.602486215282227899e-01,-7.632760844447645798e-01,1.011440962084846129e+00,1.273875796366750413e+00,-9.364253762555420080e-01,-6.584110269203926613e-01,3.606663248156618096e+00,-2.594706133113181323e+00,-1.017869009864963203e+00,-7.886539793840995072e-02,-1.990807480492443382e+00,-2.769820334542096862e+00,2.606139963344518695e-01,8.474472380465558619e-01,1.393969838584325993e+00,-9.326693153514953316e-01,8.079729013882618327e-01,5.667407118515106479e-01,-3.732086403205152614e+00,2.356812810915648093e+00,-9.502669502461471573e-01,2.151467854576521788e+00,6.916253407648005336e-01,1.449603389381223240e+00,1.924835431659408791e-01,-2.677952597415784730e-01,1.321754048889833277e-01,1.614806836182524907e-01,-5.470775660992163170e-01,1.168837372791022622e+00,5.831043231977647290e-01,-1.327767164469577210e+00,1.768505436055781255e+00,-1.478476836856149612e+00,1.184664582452715109e+00,4.316809781358889597e-01,1.482471080373535477e+00,3.789111866944534945e+00,7.031335266498937031e-01,-9.152157930661167784e-01,1.574953402221635379e+00,-5.360112366305963549e-01,-6.700775121101537612e-02,-3.022684946788388505e+00,-3.350727588183451955e-01,2.929761836035919664e+00,1.973885915642878131e-01,-1.769999778073117813e+00,6.717360033209136549e-01,-2.304977803862472641e+00,-1.047991947154572667e+00,-3.205923225252687914e+00,-3.601682002643882274e+00,-6.389251203222386932e-01,1.368990711480161826e+00,-5.186911850525141032e-01,4.430730132148379408e-01,-6.204273479636975841e-01,2.322145997253572125e-01,-7.695937900634781670e-01,-3.081676844453303143e+00,1.120661391593325229e+00,1.254601090044928258e+00,-1.277954504029245708e+00,-7.586708394799357436e-01,-4.344428211857203626e-01,9.660129896003477601e-01,9.378806019624409407e-01,1.061389129059000291e+00,-1.121383685114625689e-01,2.509176235978797020e+00,9.606617920152162871e-01,5.397975824784958521e-01,2.495932007791027640e+00,-1.520149869592700709e+00,-1.120493390904316211e+00,3.375574506104674466e+00,-7.583285161722054524e-02,-1.092236193888077800e+00,1.535321069224372836e+00,-1.832246280957253726e+00,1.254460558747213739e+00,2.322852026248520385e+00,-6.889557426241452731e-01,1.268108424516962929e+00,2.575889079761619488e-02,1.380754640776214126e+00,1.132087180195444409e+00,-2.745773460633579077e+00,-2.010036486733521033e-01,9.754604531686222879e-01,-2.283591881173863136e+00,-8.197779128344147015e-01,-5.842024738344875345e-01,-3.036920882408025157e+00,-1.163961838011995820e+00,4.691330012499204671e-01,6.511678886398162280e-01,6.775016249883647479e-01,1.404872993006595738e+00,6.114549075092353680e-01,2.670212766600095766e-01,-7.047870777185317737e-01,1.131635439354572226e+00,4.355515831408426908e-01,-1.818054208347264500e-01,1.078004705498717131e-01,-1.484276948999933676e+00,1.512069416408379663e+00,1.171400481974101515e+00,-2.302935026674596486e+00,9.837429520309625142e-01,-1.686539998797214945e+00,-2.782598282614787255e+00,5.322856646236988620e-01,9.939333427426182421e-01,-2.530408318293789538e+00,-9.944417450291016536e-01,-2.043980756466407644e+00,-2.438009233076372073e+00,1.159954450405406456e+00,-6.151634043858615897e-01,-3.351643783431371926e+00,-1.878503871511329193e-01,8.333672916941909037e+00,-3.071666528111709482e+00,-3.181990803357924058e+00,-2.164587482206228763e+00,-7.639685749096737366e-01,1.273431965776667507e+00,2.222883968856382619e+00,2.624449754972468241e-01,9.916684298245952434e+00,3.403317133559436769e+00,-6.832210205882041643e-02,-7.522999216006905077e-02,-1.300290639117707370e+00,-1.040474251127409877e+00,2.430755812243011960e+00,-1.908811714844375507e+00,3.085847540578932957e+00,4.727863783002100639e+00,-8.515426408468266262e-01,1.777660558274283709e+00,4.331170734406346590e+00,-4.688096904376682916e-01,3.276907039081685014e+00,-6.811947905831797989e+00,-3.296997126037334858e-01,2.823081433331159573e+00,-2.873276139854378464e+00,1.730245456807257165e+00,-8.300044633965451002e-01,-2.800497709643202437e+00,-4.769043733033232479e-01,-9.179060208159041112e-01,-1.518555850165113519e+00,-1.051933752166395841e+00,-2.092185285156761942e+00,3.449182127924876329e-01,-3.840190653868934323e+00,3.571812043182937546e-01,7.947244946410417787e-01,-3.273287903933704168e+00,1.589102987028247593e+00,-1.435887592498197481e-02,1.600178454855592625e+00,-5.928085420291979712e-01,6.727967311397327066e-01,2.424755955888411307e+00,6.716736672725899249e-01,-1.530015707042290535e-02,5.489480949862254100e+00,-1.537654249938209983e+00,6.403793676367165455e-01,2.340404556789018820e+00,-2.572499785734343458e+00,-1.214422738691059100e+00,-1.287803253130173742e+00,5.078914277042052561e-01,2.145936847553721716e+00,-2.461432501380648175e-01,-1.045930757101120601e-01,1.431945153612228072e+00,9.719458865874093245e-01,4.520494697049822208e-01,1.062427647003157727e+00,-1.971888697020377723e+00,1.523825732883080097e-01,2.096704999102907863e+00,-3.277270709655200620e-01,3.314049975600211750e-01,1.948424176335025182e+00,1.008762514230908902e+00,2.492401696012501500e+00,5.969624675543887538e-01,-8.629807146802876971e-01,-2.325389187174699279e-01,-2.932763356758606443e-01,2.989809620000768442e-01,-2.979488896137509890e+00,3.524142265196743007e-01,1.069155331092564776e+00,1.805518529841032213e-02,-1.257470556112152971e-01,-2.235576056130725409e+00,-1.313810733414333187e+00,2.538107407496578705e-01,-4.067950991519206916e-01,-1.239560176319541629e+00,1.003894310217472441e+00,1.688689213238877889e-03,-6.820698156399285228e-01,-1.148703120621727081e+00,-3.665207216626678477e+00,-1.000880025791928585e+00,1.758696259908338888e-01,-3.444183350912906505e+00,-1.551436247358661535e-01,9.844527084969550978e-02,1.931937497081314126e-01,1.041046840773392559e-02,-6.111030968661075313e-01,4.194215059153529879e-01,1.522578509651236534e+00,-1.138334198802651631e+00,-2.624250298316371799e-01,2.725577371656109360e+00,-1.302750720415104979e+00,-1.078074858777220646e+00,2.335833009928328430e+00,1.561838732936642049e-01,-1.146368131832251169e+00,8.520595769602179459e-01,-2.725000937410996249e-01,2.392867960762283253e-01,2.498667941872139142e+00,-1.534460613703734655e+00,2.879925526624206089e+00,-1.288537106537890331e+00,-2.034420901370996293e-01,3.207282770900580893e+00,-3.986539760905993379e+00,-4.867505158506781338e-01,3.191128714186760806e+00,-1.885163596058012203e+00,-1.783913372791537111e-01,-2.240005103028527567e-01,-1.561677223063082209e+00,4.682899054836123232e-01,-3.022303819746833042e+00,-1.660116497257659196e+00,-1.941487107918117849e-01,7.256148542732135942e-01,2.738488513769648525e-01,-1.404545337050027709e-01,9.720403567834560166e-01,8.721815805269015343e-01,-9.066279975587402395e-01,6.603720245275100931e-01,5.568233121203146618e-01,-9.448351064005107158e-01,-4.610369989778408811e-02,1.767481022626442133e+00,9.358184441855486035e-01,9.614101345305958723e-01,-5.805469412433426069e-01,-1.524509939107177692e+00,-1.940220151788147662e+00,4.484467558922234920e-01,3.122252541389614500e+00,5.183128880284920692e-01,2.358819264239696789e+00,-1.254975933162600921e+00,-1.360172930897536103e+00,2.273633998036531878e+00,-1.685470806118090081e+00,1.515920342592423475e+00,-1.303043389286597575e+00,-6.948754041463287567e-01,1.422005358851553325e+00,-2.288450152287178074e+00,3.729847598381861862e-01,2.354869105326574008e+00,1.184237442337283230e+00,1.620559995291945832e+00,-7.262872316507128501e-01,-2.391178297350001092e+00,7.725390836823080587e-01,-1.620693395903528788e+00,-2.102556178702188916e+00,-2.059577803296061660e+00,-7.232517674331560009e-01,-1.256186282820715538e+00,1.665213864577041493e-03,-1.773968336015097069e+00,7.534775910495920825e-02,-2.013979720495220782e+00,-2.746237420619903613e+00,-2.860262235035970768e+00,1.183916279614665834e+00,1.173341917438389392e-01,1.144308183701620574e-01,-2.842665165428557295e+00,1.252841984412615739e+00,9.243999487587799546e-01,-1.437525328461945362e+00,-3.355311788609677826e-01,1.379959572418493430e+00,4.539220846563813416e-01,6.421330168474674860e-01,2.718510049204730272e+00,-1.159809752586654419e+00,4.354550228491736452e-01,2.548209716005271464e+00,-1.831675900419572067e-01,7.948070349067443141e-01,3.847003058843695644e+00,-2.522422377592361098e+00,-6.763569838369501985e-01,6.056887017932480743e-01,-1.332544872628409552e-02,-5.661263155018383397e-01,-2.238818712330885585e+00,8.330053340043890309e-01,1.165143804794882998e+00,-1.954829080228307925e+00,1.159368916015896422e+00,-1.934357260952092705e+00,-4.733113778794629800e-01,-1.209062915701827556e+00,1.171403480552530851e+00,-2.357266959853613120e+00,6.430019822309699373e-01,-5.160512046132201824e-01,-8.229836010422153514e-01,-7.899514118219557179e-01,-1.328436264332089500e+00,-1.274334504068796448e-01,8.914795953269066819e-01,1.509756680713733312e-01,-3.709995709188541602e-01,7.000934632603087460e-01,1.672093722152673934e+00,-1.175087955466283862e+00,5.620103313434552383e-01,1.079635054204454381e+00,1.642663761719542093e+00,-7.313876760349712347e-01,-2.992383945826981417e+00,-6.152328141927686511e-01,-2.097193833181697276e+00,-7.342297267681546780e-01,-1.596969338567345797e+00,1.536827651021806851e+00,9.674847447861263383e-01,-1.427460809611089232e+00,-1.140099402557218866e+00,-7.358471413280166518e-01,4.720587498491257250e+00,-2.965935905921405880e+00,-1.307108256510728928e-01,6.326012896903926430e-01,-1.115469386196967783e+00,-8.557136553681674584e-01,-3.745315260592492757e-01,-8.742368053418474450e-01,3.710775519048937543e+00,1.644421197906237753e+00,-1.318114242727609631e-01,4.510775404533182709e+00,2.903609815157192742e+00,2.351797636904491562e-01,1.002567138146766679e+00,-9.618469573555583629e-01,1.077025697275782123e+00,3.113378019015729414e+00,-3.559107169852415709e+00,1.102785078564993970e+00,1.803046729455132224e+00,-1.847302241315665450e+00,1.449326180378007090e+00,1.614955532290713452e-02,-1.243992270775683195e+00,-1.143280745600110171e+00,-4.811297045971156372e+00,8.249146508361010488e-01,3.435463477111002084e-01,-1.875287783510620754e+00,7.338920195842564276e-01,-1.531714503271049077e+00,-1.922301512126851852e+00,-1.649668494269270980e+00,-1.700053865955025501e+00,-1.570780476073191378e+00,7.186632017129346295e-02,-3.029206445942334902e+00,9.269977924148542492e-01,-2.525275926659862891e-01,-8.767587367721445257e-02,-7.620919284770992508e-02,2.115428172331387524e-01,-1.045212425940495349e+00,-5.106939362787488168e-01,-1.025940735254438907e-01,-9.980971617280128827e-01,-3.579500517229919909e-01,1.363182913700091703e+00,-1.309882683184754759e+00,6.025276044711958684e-02,2.140160895096408389e+00,-4.889537631721669331e-01,-1.218844766433576865e+00,5.403704037088237211e-01,-1.254041783769971774e+00,8.340006413134037899e-01,9.321270025214529742e-01,-2.651730207239162973e-01,-1.474958148884065068e+00,6.773279228492202764e-01,-1.099007193108152203e+00,-1.524158657388382077e+00,2.255467138225971946e-01,-3.297728937542038219e-01,1.886131182915070204e+00,7.211261443670868854e-01,1.529534127964496060e+00,2.763853554173967719e+00,-4.722339336774276086e-01,6.088052471331738547e-01,-5.605291432359541526e-01,1.051749861401830355e+00,2.433379525966103130e-01,-8.634629286120172331e-01,9.366328761131153050e-03,-3.269831032122227921e+00,2.061973094267281481e-01,2.553183501669526567e+00,-1.830751184586804747e+00,7.203901148750017081e-01,-5.941404196898979473e-01,-7.074997327535859082e-02,3.773326074465127578e-01,-1.137137287248590534e+00,-1.863337115268096422e+00,-5.460292646155864293e-01,1.894820870590713913e+00,-2.554176758359273158e+00,-1.508242542332511427e+00,-1.085851564523395485e+00,5.786090587982630762e-01,-9.376240181621106062e-01,-5.717302148505710058e+00,-1.842279608174357097e+00,1.326648091621337455e-01,-2.031665435661833830e-01,-6.781580763273565848e-01,1.022944128814335496e+00,-5.115149229065647091e-02,-2.610746332412169912e-01,-3.044589419394756469e-01,-5.307120663731748067e-01,1.476280966398207717e+00,-2.117045946749671170e+00,-1.641379105927994297e+00,1.786487810892385675e-01,-2.020996695537328330e-02,-1.417897215307239112e+00,3.360483692125207256e+00,6.149747985832159092e-01,-2.461398196793414261e-01,3.930517576544833691e+00,-2.899403457399581940e-01,-6.186615846980874078e-01,1.247733920850456757e+00,4.756427563803441450e-01,9.358083267927246318e-01,-8.067701734334320474e-01,3.571449230278693765e-01,2.133808917749311362e+00,-2.130073719578048141e+00,-8.920433641489926568e-01,8.966231055852732501e-01,-2.117260179286450050e+00,-5.072871299325705241e-01,-1.604083683561655427e+00,6.737230095386186335e-01,-2.894378959804870255e-01,-1.352259421626879732e+00,-4.695453898802385839e-01,4.941254263062689889e-01,1.284988317882905573e+00,1.123434251195934985e+00,-1.056009814218812348e+00,-2.755342608539787630e+00,-1.679196581596158699e+00,9.091687610214888027e-01,-3.799662266474821415e-01,-1.959812391938854301e-02,5.167413766030714006e-01,1.785633582800365993e+00,2.100653184179704702e+00,3.785821657265222018e-01,-4.424184317580929227e-01,3.875897910421893799e-01,-7.341636883648183787e-01,9.839721415606765831e-01,1.626398939757526696e+00,-6.350357856704202941e-01,-1.999625248832958280e-01,1.655677760174251834e+00,-8.957229575961611623e-01,-9.636127775769481874e-01,6.254344334415262718e-01,-1.948716776676549634e+00,2.654553204081312234e+00,9.953723738947067856e-01,-2.219870585556161124e+00,-2.423217578070946954e-01,-2.832663719895254228e-01,2.020211046471023231e-01,-8.550304143829053904e-01,-1.749397279247905113e+00,-4.631456854374518262e-01,3.069783547283912117e+00,-5.838546267246087496e-01,6.537663966860528530e-01,1.158132933940744014e+00,-1.255837622490864058e+00,1.074096135699768695e+00,1.142133412324739083e+00,-1.373720048036853880e+00,-8.789291662633579305e-01,9.381388486654844705e-01,-1.298888618546089280e+00,1.261612247112659846e+00,1.248008529415033818e+00,-5.620585236308661692e-01,1.239759708596553711e+00,-3.003645261093659702e+00,-6.001913524796996802e-01,1.046491587200471862e+00,-2.578366119005786050e+00,7.515915838500937252e-01,-4.343590058132760778e-01,-5.252883422457446105e-01,2.420693557697496612e+00,-1.051311058442776059e+00,-2.001749987189645807e+00,2.552647941513791707e+00,-1.904082736130114695e+00,1.329990336800703998e+00,5.491498715343942072e-01,-2.153857684290862107e+00,4.413264976990325383e-01,1.481915772172244017e+00,-8.009784163480475616e-01,6.210611364367354947e-02,-3.945462600809834242e-01,1.375141121380925702e+00,-3.277322441596226543e-01,1.953456855095252021e+00,5.517368175952174214e-01,-2.782827050817836545e-01,5.121783613431342141e-01,-2.660091213900130924e-01,3.265649470269211263e-01,4.295073065823483416e-02,-1.292819163123331228e+00,-3.619753196937653961e-01,1.418326336730977522e+00,7.762737204418230785e-01,4.364411860914632069e-01,4.732772457889320994e-01,-1.054375042491060954e+00,-2.690475465461769078e-01,6.973532013700331489e-02,-4.899552480885684125e-02,-1.148863893428389904e+00,6.257778334126881115e-01,1.534925697516566490e-01,6.686575153179203923e-01,1.778058499827633865e-01,7.302633111025355062e-01,4.966668304557581709e-02,-5.094780194318747624e-01,2.206817045892377482e+00,-1.465874972634861440e+00,-4.816238450820684580e-01,-2.865974392561060693e-02,-7.693482305615549910e-01,1.819409014699249649e+00,-3.231731434369454536e+00,-1.848238159007603132e+00,1.166317543878590546e-01,1.351346131917304350e+00,-1.596321405793445836e+00,-2.656297404594571532e+00,-8.614045966389008990e-01,7.737510145512321857e-01,-1.924211579278659157e+00,-1.463144457330187054e+00,8.396271430224554466e-01,4.486664659746943951e-01,-9.750346956434431389e-01,-1.148524481583657275e+00,-3.078364079583957302e+00,-3.543692322130200245e-01,7.580007076196667581e-01,-3.904696214999520798e+00,2.649405057968474697e-01,-7.263612894091435734e-01,8.876443606770588746e-01,1.673273574912775563e-01,1.314195869379556902e-01,-3.147003713241584566e-01,3.492026493061338499e+00,-9.684919853888188657e-01,-9.203281997924597224e-01,2.101783320645838504e+00,-1.786347311106202262e+00,-7.544860817455101287e-02,2.050483327829713431e+00,8.775410683491486896e-01,4.844488661947952274e-02,2.207134126596118850e+00,-4.787988608264222012e-01,-1.149473009673952939e+00,1.916536007364547434e+00,-1.941844581822855242e-01,2.036984606940058562e+00,1.237816501693312699e+00,-2.023574065602074423e+00,2.947895040926201915e+00,-2.523195648398838919e+00,-2.426634895476113829e-01,1.733278742601986222e+00,-2.439499828394712466e+00,-7.811989295404149214e-01,1.551387060393508988e-01,-1.949048616883900964e+00,1.795377423725314503e-01,-2.032417162695312030e+00,-5.270934271758322964e-01,6.369298083566204971e-01,-4.623417046962023380e-01,1.102748931052231152e+00,-6.127348144142696386e-03,3.401271053650202214e-01,5.723777988175121623e-01
6.258118270316094245e-01,-8.033574208679956641e-01,1.842161336268722582e+00,-2.421887765396827652e-01,-1.623963971419830621e+00,-3.465481733387345553e-01,-1.010176277210949269e+00,-1.180655275868164322e+00,-2.005435987963281319e-01,9.645001905548207244e-01,3.505433952141194520e-02,3.626690326614087634e-01,4.488980696844761115e-02,-4.121741396432133664e-01,1.674835085324601236e+00,4.104113957954472758e-01,6.874076440288553469e-01,1.930490714282298237e+00,-1.943516921361518879e+00,4.638886893290012914e-01,-1.085106998236799597e-01,-1.895920098551048261e+00,1.440969411045825543e+00,-2.315602268157456844e+00,-8.321032718299253839e-01,5.175402286710471811e-02,-4.323357538289419599e-01,5.145190765433026170e-02,5.156525596359718966e-01,1.424779492843605833e-01,-1.830142670011058570e+00,1.598522063569641993e+00,-7.835408639517574825e-01,-7.161028819685637536e-01,-2.185150554234485565e+00,-2.127413593201024522e+00,1.681342681631707636e+00,-9.615914018456120926e-01,-1.578768560377361019e-02,2.254034508154146632e+00,-1.560840652547686780e+00,1.377289813297001064e+00,3.484718781914780128e-01,-1.468638474516558712e-01,4.394842451996158750e-01,1.213764588321218252e+00,-1.710467086424311445e+00,4.940111779624317134e-01,-2.293553702918512682e-01,-4.800889450048694274e-01,4.320159101428868165e-01,-8.903656746216942475e-01,-1.545716457697082102e+00,1.871367911302164400e+00,-3.759955925660891096e-01,-1.490226739378987642e+00,9.221180530329944891e-02,-2.264072999608673253e+00,-4.321721651092611527e-01,-3.277976136257180206e-01,-1.790972331276306839e+00,-1.510299655929294715e-01,1.347880897702125713e+00,4.352689231103464007e-02,1.829467860117147460e+00,-3.448666435542519615e+00,-1.220758007625087016e+00,6.753055406512685765e-01,-7.981493351159555383e-01,-5.152447301871501129e-01,-7.876944910278035339e-01,-8.348431464970468285e-02,-3.727380021300775725e-01,1.382737144657436301e-01,7.459769926638045723e-01,9.293779663506768207e-01,1.033674370272384735e+00,6.237472569486438023e-02,5.641528687953033527e-01,2.196825539856473997e-01,1.346607479203599356e+00,-8.721374227161630133e-01,8.877877561958549268e-01,2.259660769460943630e+00,-1.063387193587601809e+00,5.075363457541640644e-01,5.290613141897286820e-01,-4.445775793157885625e-01,-1.156896932838269221e+00,3.736090014241226220e-01,3.191487699947104240e-01,-1.640323714685225198e+00,-5.038370347001948080e-01,5.296833266008440511e-01,-1.715320930632253660e+00,-1.131661737296123738e+00,1.637860691487439180e+00,1.001580161366784072e+00,-3.247415475942165286e-01,-2.215902713411808111e+00,-6.528278456273646224e-01,-1.543884266541815542e+00,-1.679463514579787375e+00,-1.339191413746531278e+00,2.452994641966231293e-01,-9.528619251094200271e-01,-5.791818888293294165e-01,-1.302082009707760113e+00,-8.664817172264128731e-01,3.688509531367344163e+00,1.193534091583476897e+00,1.244258131636686304e+00,1.430292695990748486e+00,1.014492077233960954e+00,-1.548296714716345557e+00,-7.182066760979374243e-01,-1.610756750236150003e-01,2.864053610216121815e+00,2.650140221973555033e+00,-1.753998972915622900e+00,1.612735185803300553e+00,-1.901991379102915269e+00,-1.286777379688134604e-01,1.877625050007350804e+00,-1.538561945494896666e+00,-1.910096283450025134e-01,3.785328054048948121e-01,-1.873127217069271433e+00,8.287439296031458014e-01,5.282985764583135735e-01,-1.448439386348207902e+00,7.634536396992269713e-02,-6.275696859626321844e-01,-1.078254796814573702e+00,-1.955577174440448762e-01,-7.797539261735075833e-01,-9.024289124824365071e-01,-3.934123073403970050e-01,-3.919615026796173574e+00,1.409508233582887238e+00,-4.234927242742934639e-01,-1.395731212055973725e+00,5.575554745497756093e-01,-5.780224211146112179e-01,-4.989954461195860724e-01,-4.510238788569443380e-01,-1.340139539667808133e-01,-4.886379995462045156e-01,3.309374397017096348e-01,1.835085037384519557e+00,-1.139388993462447486e+00,2.073363303510224132e+00,-9.837816198744900320e-02,-1.682640041440972345e+00,-3.618530674305884404e-02,2.061075590444993444e-01,-1.318118745330529862e+00,1.903155311036736352e-01,4.530875066458645017e-01,1.056179323699411476e+00,9.705018399017447672e-01,2.495303426280903458e-01,-2.171618906237784974e-01,1.063409619971728670e+00,-1.559843678461714511e-01,5.283189516083118820e-01,4.903883566143124595e-01,5.361957265690733276e-01,6.225351514297278177e-01,-9.218285510618270950e-02,1.972663929305546349e+00,2.039771253501203585e+00,-1.612111151127803899e+00,3.777723489200006668e-01,-8.665848255846753112e-01,-5.114979351148274400e-01,6.174474834712682103e-01,1.274411453745474043e+00,-6.354184714156625724e-02,1.948882565329331351e+00,-3.069077175939406432e-01,-2.643341851315658686e-01,-3.114247293142012249e-02,-9.447946396638904343e-01,1.872148672674554537e-01,-4.580834410337303320e-01,-2.909096203726770025e+00,1.384942582510258757e-01,-1.054413035589586878e+00,-3.508704580479121038e+00,-3.377787847473734950e-01,6.285903635357255048e-01,-3.453775432416633095e-01,2.117248620727576025e+00,2.495027833144498886e-02,-6.792057658133759945e-01,2.193499926064178762e+00,-2.292490411634495295e+00,-2.317450548918246866e+00,8.489581953545331794e-02,-1.330830692644273672e+00,4.904451182862608616e-01,-2.479114830314966544e-01,-7.067168284000883149e-01,2.588606422874460966e-01,-9.181321384571696775e-01,-1.451457014977052928e+00,1.573028034440534961e+00,-3.868326445181876627e-01,-9.928402674468260747e-01,1.107808287983456541e+00,-2.985830249177182871e+00,4.624577470026756260e-02,1.727651851107298575e-01,-2.939976623077270368e+00,8.369448288151200011e-01,-8.455390834484517448e-01,-1.191279317580952846e+00,1.902846300103985033e+00,-1.027979660089759273e+00,-7.011476816371909893e-01,1.601721897062113431e+00,-1.980278403869261572e+00,-5.254976061371995355e-01,9.137021593354298643e-01,-4.899423520922212005e-01,-4.890757506897546181e-01,-2.799637493056926774e-01,-4.425694755020160853e-01,-2.809050211579306941e-02,-1.243746244715625338e+00,-2.621518526018717044e+00,-3.943549227150592307e-01,9.797862624006016263e-01,-1.454674371306770020e+00,1.318579059096383066e+00,1.668441574504689662e+00,8.729629182208765714e-01,8.384117692615764006e-02,6.192311842789773868e-01,7.307989949915090488e-02,2.473931924455061715e-01,-1.595154360464892784e+00,1.245890759891557648e-01,4.054867056468802189e-01,-1.058667568279907822e+00,-2.033464220651491627e-01,-4.917913887308612009e-01,2.139039350776637871e+00,-8.877060249539685532e-01,-8.528818106969473511e-01,-8.538733201494230762e-01,1.843017566822462427e-01,-2.715463713497288545e+00,-9.071133943308319347e-01,2.081157538721769562e+00,-2.425433774055801184e+00,9.193734284617591790e-01,6.567356756806927987e-01,-1.579597764562796547e+00,2.223714430924604635e+00,1.723844434587787022e+00,-3.814811042196582236e-02,4.160380771894321983e-01,-2.029507565020859605e+00,-1.376196128427690679e+00,1.919889662457684887e+00,-3.184064765461937618e+00,7.606405707039545216e-01,-1.092243500336120277e-01,-1.713803467257440705e+00,-4.569584595158407425e-02,-6.922909674802028013e-01,-1.930231584718599791e+00,2.026098850083508207e+00,-1.007628252393163892e+00,-8.132785136101242651e-01,9.917685128693681795e-01,-1.193092917052729796e+00,2.852860077002405514e+00,1.924284951349287454e+00,-1.110602730520734882e+00,-2.174583777809000917e+00,-6.355878192867598919e-01,-2.686785317550731911e+00,-7.570666501432872231e-01,-1.057251770209393316e+00,-1.995621861178024092e+00,5.543844541600576603e-01,2.831210067874143088e-01,8.044497867501122501e-01,1.809671910851670118e+00,-1.327925643966414659e+00,4.405588669497289556e-01,2.522010326953477932e+00,-5.055021578574486751e-01,-2.295415375576338235e+00,1.817423410698514763e+00,-1.262198186671184219e+00,8.803846290037481426e-01,2.273480895228406684e+00,1.237893185783991656e+00,-1.033230115781115233e+00,-1.276650314789532725e+00,-9.688207511140646266e-01,-2.161169351557318929e+00,-1.740012342196629813e+00,-6.020130936808999467e-01,-3.614679234413974984e-01,-2.687237843263852732e-01,1.048759568131346853e+00,1.426345765717845104e+00,2.395163781479778820e+00,-2.013057703998764048e+00,-5.022603194329916532e-01,1.397133979424555195e+00,2.785494464400791736e-01,-1.032206553428012485e+00,1.850180093941856119e-01,-1.319038113975014692e+00,-6.268865576344671009e-01,1.045976128286235873e+00,-1.266648411049344780e-01,-3.142946053327829170e-01,1.450345254673562678e+00,-6.896691189437589298e-01,-7.116995194188354690e-01,1.345069132398703404e+00,7.021902382932806441e-01,-8.890985687138658333e-01,4.834497707493048968e-01,-8.179222248091074787e-01,-9.367147767849808293e-01,1.945914084173302028e+00,-5.475936455267350553e-03,-2.310470344242623320e+00,7.345821586012883930e-01,-2.488799592198513100e+00,3.748097653766138682e-01,1.897685355383193384e+00,-9.717962994028860324e-01,1.856760148290413026e+00,-6.519167256985173298e-01,-1.117262049776493571e+00,2.320842551690696087e+00,-7.545024145342232869e-01,-2.447221375747669625e-01,1.107732085709693948e+00,-2.650386131611047080e+00,1.034890327276058786e+00,1.103180581981797914e+00,-2.653339698646926426e+00,5.900762994073053269e-01,-2.149102739717888011e-01,-2.093817041032814519e+00,1.259612754811138435e+00,-5.077966658524439847e-01,-9.211910413937938191e-01,8.036596002918610093e-01,-1.986994819180515792e+00,-1.874648327694400929e-01,7.065677939852273992e-01,-1.549906951511365261e+00,8.092288845490697158e-02,5.577478905286278321e-01,-1.270692099323004198e+00,-2.270641582439903994e-01,-5.071676102754232307e-01,-1.191056686768886985e+00,2.395995652229232775e-01,-6.260241495425022951e-01,-1.347340458403793795e+00,2.825630243453538526e-01,-7.787483349013804013e-01,-7.215570110181204200e-01,1.900604514878524665e+00,-1.953050096989779272e+00,3.886512106085759366e-01,6.835794919071843667e-01,-2.230140479452328961e+00,-1.991616834734351915e+00,-1.461533778004423301e+00,-1.488836693944068701e+00,8.254492656846783571e-01,-5.437341724682519528e-01,7.271659434624992979e-01,-4.096385153873419172e-01,2.755300351620582622e-01,8.299587428471151274e-01,1.014380743087272663e+00,-2.429779903734332613e+00,-9.344152897029489591e-01,-3.915986446013423605e-01,-3.327934650373133574e-02,-7.419694077245166941e-01,-1.294462763345594958e+00,7.601819434333212389e-01,-2.374114860096915025e-01,1.027409360225191914e+00,4.067095682252222510e-01,3.996252847291174026e-01,-2.550890015856593362e-01,-3.617865956648592674e-01,7.728897551623067352e-01,5.017847869062340704e-01,5.337277783746846582e-01,1.691730760953157109e+00,-1.007023106473725838e+00,3.028409260050895502e-01,1.110777225704093540e+00,-1.572042256326636744e+00,-1.476354087971577744e+00,1.751363102533739224e-01,-1.525822586626637722e+00,1.702996059945399487e+00,-6.615891842249561616e-01,-1.717965687066292713e+00,9.193669904104387891e-01,9.722703757961267401e-01,-1.423683668636769317e+00,5.575927143095559257e-01,-1.072020531259224585e+00,-5.922829596007311154e-02,-3.794220171085941895e-01,-1.432280171999301022e+00,1.277188008440021783e+00,-1.765584102912570730e-01,-1.207623933903749780e+00,4.712395020758480269e-01,-7.097757091797451956e-01,-9.287397249468073435e-01,1.345969049095561143e+00,-1.107191445526240825e+00,6.449406884313862998e-01,3.402359479609060600e+00,-2.372886908034165798e-01,4.730906733627981975e-01,3.773659300115620452e-01,-9.626810488117677478e-01,1.302258397879398621e-01,-1.128427652227455891e+00,-1.940829817308112215e+00,2.902563934787881550e+00,-1.008393976238943779e+00,-2.989039156441873901e-01,1.419385537591372648e+00,-1.675319741876805102e+00,2.372356094324433062e+00,5.387188967885515600e-01,-2.828979030611888046e+00,1.562446323807253901e+00,-9.682948923603490465e-01,-2.234695411465442483e+00,-1.014143593855381109e+00,1.612164364761895952e+00,-1.101397490692678449e+00,1.379935012929958349e+00,-6.031208786288428936e-01,-1.118982663663018240e+00,6.729796915581035543e-01,-1.149906352633989437e+00,-2.048217409836099900e+00,2.794560448204799208e-01,-7.439394347708041533e-01,-4.805724737478125896e-01,-1.770396540233423743e-01,-1.174299060449583099e+00,4.436227739201125675e-01,-1.661495999124202649e+00,1.205067076613646204e-01,1.222842155758567584e+00,-1.708997993122814751e+00,-1.364799513699838929e-01,-5.973226857503197706e-01,-7.017612335677874125e-01,8.710410421999577046e-01,-5.795490194193461120e-01,1.439803966621605369e+00,-7.120972975368878854e-01,-7.799778886450181581e-01,6.279697027720193558e-01,-1.309609404710328606e+00,-3.951029548222002585e-01,-2.731469629091583418e+00,-3.879478394950521269e-01,3.648329195417842064e-01,-2.246306957505876500e+00,5.957481125611743256e-01,-1.331871012558963674e+00,7.326871676783542897e-01,-4.752702336667195132e-02,-1.208221162658130954e+00,1.569602046582800448e+00,6.929133209730196086e-01,-2.551077317869830718e+00,1.609237163987822905e+00,4.281318123043060253e-01,-1.417803365560727613e+00,-3.729837851124092052e-01,-3.665351541561706061e-01,-1.679448750916227473e+00,1.413114237462131939e+00,-2.084843172542113696e-02,-1.742624335562165117e+00,1.180168798164398458e+00,-2.107070887287828764e+00,-1.252256344860545711e+00,-1.624490992774870968e+00,-2.402017082139315640e+00,7.749025058576428648e-01,1.927662902673709988e+00,-1.454606588713473370e+00,-8.633742940550648282e-01,8.795072630371136846e-01,-8.964452456621878340e-02,3.422725609391194190e+00,2.639510784365378004e+00,-5.622860660357719143e-01,-2.364005590265878531e-01,-3.251027481111660844e+00,-9.322462846828993843e-01,8.705723672752937459e-01,-2.485472343366874615e+00,-2.464960517437825294e-01,-6.274073999909788313e-01,-2.323068618179559675e+00,7.923194410921331476e-01,-7.112644651884848790e-02,-5.101153251820633727e-01,2.341824460273754571e+00,-9.574761823493386226e-01,-1.674489872021635017e-01,1.301077681318090429e+00,-1.835636321759288148e+00,-2.252854517005959400e-01,1.162625877135191832e+00,-8.738138199276248574e-01,8.434984105087359185e-02,5.079577571103763844e-01,1.670469309455662188e+00,-7.901208333347687907e-01,1.514783335530433650e+00,-2.718165629797315574e-01,3.473296301140305964e+00,7.854494642408768046e-01,1.535262512577010074e+00,3.213417042215241382e-01,-6.435574901626084365e-01,-2.167319509071317929e-01,1.240642421022123409e+00,1.232695415339151168e+00,-1.547781654481294178e-01,8.169480483808179150e-01,-2.726612267920774380e-01,-3.052700573695227293e-01,-4.876718717114750801e-01,-3.503381052927984074e-01,-4.365907666248074886e-02,-6.683727259945838606e-01,-1.162769378846113533e+00,2.998033975516698924e+00,2.480887233267495828e-01,7.451804366714780137e-02,1.207923258225708674e+00,-1.296861840604781380e+00,-1.442374219925250944e+00,1.187937955022801084e+00,1.703051843863058468e-01,-5.852644872677115195e-01,-1.487700469407426285e+00,-2.034265619885297305e+00,1.898052514128137691e+00,-2.979245039235749903e+00,-1.862448163979399274e+00,1.465507483897336760e+00,-6.106248299747147890e-01,7.592417796613945002e-01,-1.088853026349983599e+00,-1.985516507598379388e+00,5.486298300173659825e-01,-2.179091969785691862e+00,-3.697448622789365036e+00,9.160745382318529195e-01,-8.011253036876805900e-02,1.087574367036945600e-01,1.942445340706982215e-01,-3.257063200571401307e+00,-2.575421340695963623e-01,8.527246193391064821e-01,-1.164343110743165433e+00,6.300921767898494119e-01,-4.856431525467877486e-01,-7.714093939239191622e-02,-2.557029536933342131e-02,-1.221020960604899619e+00,-7.062766777120750294e-01,1.391008466033345048e+00,-1.910035058210600711e+00,-6.721672879163861358e-01,1.490303948912033771e+00,3.994325606179843779e-01,-2.381988562025097178e-01,1.606046953133146715e+00,-1.927191738770246410e+00,-1.280792137498655725e+00,9.669329536006727732e-01,-2.315841533260874829e+00,8.512662453646883121e-01,7.130175277268513412e-01,-4.557457924189344811e-01,1.824004751799318758e+00,1.798634311121057039e-01,-8.456955668878849419e-01,1.465905763683411411e+00,-1.092500494012869749e+00,4.463114501841829174e-02,1.677462775860257382e+00,-1.470615922389360897e+00,-1.222555697073893111e+00,6.722334381295644867e-01,2.452460897743293788e-01,-1.326025116717530983e+00,-1.004093819024901357e+00,-2.436445242249572485e-01,1.229602528928075145e-01,-5.906401806070853411e-01,-3.030407580331233586e-01,-3.423787696829759808e-01,-3.143235307467472928e-01,-1.370350850653487162e+00,1.659965281521786906e-01,7.824509257648363247e-01,-2.759826134680248289e-01,-1.333993732241692542e-01,-3.225746978229966366e-01,2.391386160709812359e+00,7.093436462622644267e-01,8.433309331488672012e-01,-2.482678550811771578e-01,1.708793820966952648e+00,9.490745863625864309e-02,5.166678087020878385e-01,-1.274063147491760972e+00,-8.957917345519638141e-01,2.697112544893789376e-01,-7.107935139556459392e-01,-1.636797250672296977e+00,4.687268304449134781e-01,-2.155414578885571864e+00,-1.566353973127337929e+00,2.050449329080550054e-01,-8.662912673854054058e-01,1.154252884699942250e+00,-6.408145391000052982e-01,-4.324934256351163908e-01,2.565725423708776987e+00,-3.865493943966586965e-01,-2.096838550840315618e-01,1.159443219670666547e+00,-1.833108039472008732e+00,1.500094926521442718e+00,-6.408146495471310766e-01,-3.790667258243233806e-01,-5.732117206361019290e-01,4.538004677518430174e-01,-7.755759840303421138e-01,2.322112771129473341e+00,-3.963584629663500780e-01,-1.545233969282639119e+00,2.171280409006167034e+00,-2.901834180732785762e-01,4.924148527989798407e-01,5.983585295262112691e-01,3.827008317667913717e-01,-1.642820065605391303e-02,1.194406456441267084e+00,-4.567619048944170923e-01,-6.237423286691804458e-01,1.233497361765891087e+00,-4.702403077997029390e-01,1.431651850329676900e+00,9.295983694960195942e-01,8.528105817865188065e-01,-3.954487321789639243e-01,-1.575068393160001801e+00,-1.867166921862724926e+00,7.010088039783942682e-01,-1.907685673629831546e+00,1.431450900240401336e-01,2.124689067303072720e-01,-2.904768662431457926e+00,1.181271948496930291e-01,2.769952649230465469e-01,5.925131041383451258e-01,2.339602126566212026e-02,-1.243952616064434080e+00,3.698751546568602722e-01,-1.070940063065239034e+00,5.373588533301183467e-01,-8.902206278349883428e-01,1.588829276954934144e+00,4.438639839749363575e-02,-2.846592349840942338e-01,-3.002836694712820997e-01,3.194180842858623248e-01,-6.575764215317054795e-01,-8.835586275912780119e-01,2.078553303114774042e-01,-5.463841810329467252e-01,6.889943914997637142e-01,9.315965620648021250e-01,-5.680921457997220037e-01,-1.660963606023264927e-01,-5.555271082004125116e-01,8.206148573270849456e-01,-1.539317746371602569e+00,8.070339638119485848e-01,-1.887966385496122612e+00,-3.048471370960548654e+00,-1.529072465660011142e-02,-1.012860183166136707e+01,-5.045276505890048391e+00,-1.176153798039478060e+00,5.414284726330696351e+00,-7.719290543457021370e-01,-6.570071441346083674e+00,6.830463288787811393e+00,-2.302161432254337115e+00,-9.868277734473203111e+00,-8.262342073362114903e+00,3.384763209684182317e-01,1.109351068649969285e+01,-3.784489545012394540e+00,-9.479695063844695291e-01,-5.565531131802647025e+00,-8.061473982369735114e-02,-1.187462319664087662e+00,6.986931488734060558e-01,-1.632695203511948856e+00,9.567442905754157678e+00,1.160122228407871425e+01,1.449812846687779933e-01,8.640610631700424094e+00,2.716509944609531768e+00,3.661716096910905271e-01,3.889665542219530980e+00,-9.100867921904390201e+00,-1.390543479712356145e+00,2.998210946255005283e+00,-4.111791867094164665e+00,-5.686484805523508435e-01,2.940140403010476078e+00,-2.336571458950969238e-01,-3.061998772701530314e+00,-1.784436018064143203e+00,-5.495919145469855271e-01,-5.653255937456914459e+00,-1.008661733176765551e+01,8.840924828490204224e-01,-7.943750539752329587e+00,-4.241958575515831775e+00,3.024755355702286597e-01,-2.712811316398023198e+00,-2.410746518879649969e+00,-3.238809148179522257e+00,-5.039881197107077604e+00,2.291726191036924376e-01,-6.715020619810422531e+00,-2.675916176364617982e+00,7.656017231459052441e-01,-6.015102422636742219e+00,5.075661602779856230e-01,1.697506055991278684e+00,2.363889462720942802e+00,1.920778145994598285e+00,4.951349889269545529e-02,7.469598571684204380e+00,1.791979818256954182e+00,6.914281912393515084e-01,3.658084622556029064e+00,-3.965470526139311946e-01,1.649290076814563744e+00,2.992440148111465970e-01,6.378298355125717745e-01
-5.113764265866392877e-01,-2.089596372663704571e+00,-5.858413549964864853e-01,-4.879759569860949719e-01,3.688288750675758898e-01,-1.215016123196456688e+00,1.728083614891644526e+00,-2.171438173712615161e+00,-1.321142421799651689e+00,-1.447842519625513136e+00,4.572940952730002451e-01,1.478838985165895591e-02,-1.098610617470614503e+00,-3.304890049112094719e-01,-1.219819925011198736e+00,-2.062035411425839626e-01,-1.263577071333296331e+00,-2.489892440025143650e+00,-1.391369698682056510e+00,-8.678871430077621518e-01,-1.029163845492589990e+00,-1.745768522506949472e+00,-1.358296026722981109e+00,-4.353106996690286890e-01,-5.197367841096980356e-01,-4.760346402750434414e-01,1.701945207776071334e-01,-7.184717368585891162e-01,-3.929337799934298769e-01,6.423285100280532456e-01,-2.563645732114392950e-01,2.881173393363539725e-01,-2.086215691153562035e-01,5.977681258877730608e-01,-1.411940906522442640e+00,-3.983781607536407976e-01,-1.005282028225687130e+00,-1.818402927361578159e-01,9.185094382763950849e-01,3.782922828356046763e-01,-1.773524718342010864e+00,2.147508989479572639e-01,3.771747836957808908e-01,-7.433068611226634204e-01,-2.360271167500104239e-01,-3.613258283919571490e-01,-5.737476028737487771e-02,1.821120977803097896e-01,1.040626928993691358e+00,-2.527243214570494612e+00,-9.412097996490030594e-02,-8.331777291714490552e-01,-9.442977245841338574e-01,-3.393885450891734878e-01,-2.209916523554463552e+00,-8.686910484905704388e-01,5.362180197958635874e-01,1.863111593366757246e+00,-7.770740635424443488e-01,9.596988579657311780e-02,1.198839438779289557e+00,-8.154109532452420706e-02,-2.227960104577615119e-01,-1.827367520327134454e+00,-2.150586301112784593e+00,3.980460940272682047e-01,1.248504550873790420e+00,1.359006032121656382e+00,-3.754367787660690681e-01,9.674116635085223959e-02,1.073939614443817581e+00,1.355245700895393979e+00,-2.872033684434691647e-01,-9.968931224882595643e-01,-6.451361698620191598e-01,9.141037600813838315e-01,1.250525149190180763e+00,-4.257272011313100180e-01,-2.107926389306841453e-01,-1.800912641086675148e+00,-1.634423819401024769e+00,-1.274414417351133366e+00,-2.274613142883682215e+00,1.250811999415703868e+00,2.116564379305890808e-01,1.374108025950476319e+00,-1.828135867229649103e-01,1.718829686319554503e-02,1.206250839547393094e-01,-1.571011273378264683e-01,-9.781787004273636565e-01,-3.167477956911553955e-02,1.828230618976657007e-01,-1.573277081098547692e+00,-1.268379970545487900e+00,5.725036725770931145e-01,8.706012620651266687e-01,-1.115493382991465054e+00,3.349633334906165771e-01,-1.494802861204287958e-01,-1.288495672757872024e+00,-1.166369272744481655e+00,-1.529334983514430979e+00,-8.369893683184631561e-01,-1.486853013858779438e+00,-4.087151513113971846e-01,-8.617458280229891576e-01,-6.277162084886306337e-01,-8.490819561549853844e-01,-2.548233429366831615e+00,-9.860082440535138382e-01,4.557334994308911286e-02,2.270614647742265901e-01,-1.246147148879579863e-01,-3.827545750119569212e-01,1.419680920791387635e+00,-5.394981502898248404e-01,-1.003570642746626662e+00,-3.792881991200746095e-01,-6.596334458701423875e-01,3.937859367338582550e-01,-1.727148783522790332e+00,1.468025360406258972e+00,-1.082579113664047021e+00,-1.308533759450723810e+00,-1.977850286154979598e+00,3.561420951842760307e-01,-1.622380681656149903e+00,-1.326582672371454663e+00,-1.308146070259432747e+00,8.468885559540011154e-02,6.241990900107083906e-01,1.700457089579742620e+00,-1.108945491792126870e+00,-1.791011711998710787e+00,1.048996169095344211e+00,-1.021392016848998441e-01,7.102670257752150551e-01,-9.498780150850804072e-01,-2.886741913892975298e+00,-2.772795764106888772e+00,-1.102253082135772555e+00,4.936113883665371183e-01,2.542058846785999915e+00,-1.276532288847343155e+00,-1.489765208959958009e+00,2.770808130942791769e-01,7.395678278060082711e-01,9.921471688923615417e-01,1.828488260654792308e+00,-1.403182481743709964e+00,-1.235883886445549917e+00,-6.351273473796383850e-01,1.239145920176375260e+00,-2.862289126822266036e-02,6.094721438588265316e-01,3.404887774887968566e-01,-1.433606403912233596e+00,-3.231401985679126510e-01,-2.666240980289272255e-01,-5.207439669177506003e-01,9.566073290505798798e-01,1.492408429003684978e+00,1.560283843709201257e+00,1.166660811423754440e+00,9.920153382237130446e-02,-2.552426523204645581e-01,1.389856592421411796e-01,1.136425738317831557e+00,9.134669968460100709e-01,-9.108994181297696002e-01,1.166928678599733260e+00,-4.184926390899624260e-01,-1.216240211455709819e+00,-5.616368720824446020e-02,4.271347591996406678e-01,-1.419852632855400643e+00,-3.194915444393020998e+00,-6.034495083796653780e-01,-1.184635722655129175e+00,4.578509340894116458e-02,-1.009409698936212241e+00,-9.502017825434838638e-01,-2.658517134949493488e-01,7.614017826218710816e-01,8.834318969689864964e-01,-2.185325835471488176e+00,1.206246198608804665e+00,-8.870182086563138668e-01,-1.003692906446318200e-01,5.947369704100082671e-02,5.483757240104817354e-01,-7.005261223052756947e-02,4.967570498799815382e-01,-6.404978946094000980e-01,-6.157724969841602558e-01,5.729143255140632940e-01,-1.846407195827165504e-01,-4.527968732589885414e-01,-1.409594488908357146e+00,2.521072387587171559e-01,-1.657160073206721318e+00,1.797971465936825330e+00,-2.026256355969819012e+00,4.482222089711908608e-01,-1.224329656703135649e+00,1.136756991381082660e+00,-2.333560473518114797e+00,-9.720650239257387290e-03,-1.813982356500370319e+00,-7.359670641905573518e-01,1.741003583628688789e+00,-6.272604923146378741e-01,8.614021121469535303e-02,-1.454007117414257921e+00,-1.518556041880898544e+00,-9.592891070263570574e-01,6.703744499962175363e-01,-1.792551644272748934e+00,-3.099908618125777893e-01,1.235061077807933172e+00,6.577082329691892326e-01,-5.273712497177690528e-02,2.943588441144751600e-01,-2.620900688332392092e-01,-8.702192238236046429e-02,-1.324591733147112704e-01,-1.052997950762302404e+00,1.595665753353980310e-01,1.632116957148399106e+00,8.360227715170535090e-01,-7.845617458593071580e-01,-1.126027086109537390e+00,1.816024843591856897e+00,2.385291950264786520e-01,-7.702120860322959894e-02,-1.811014532123316867e+00,1.514087166408969176e-01,6.578433689480068791e-01,9.513758311792531730e-01,7.275224576139965003e-03,1.170363998929185301e-01,2.824164230473998338e-01,-6.137062957208048175e-01,-7.074172854243825359e-01,-1.629049026131233480e-01,3.729661365222636804e-01,-1.386525654366994181e-02,3.831200076714860736e-02,8.545684431906206413e-01,4.722141419178353949e-01,-4.911817875431101488e-01,-1.630973299507947560e+00,-3.982425175255305261e-01,-9.387992569114309571e-01,-1.113582534160445281e+00,-1.144116392919985459e-01,2.587839008134542804e-02,8.598602269166617518e-01,-2.451527843296862574e+00,-9.432950373037884972e-01,-6.890815635526941207e-01,-1.062983097133413990e+00,-6.734172352510938708e-01,2.389164403210737753e+00,2.650966441186726752e-01,-2.749548739052618332e-02,-5.612275882429539342e-01,-8.287993755492686354e-01,8.737895856551904927e-01,-2.297852957921160677e-01,1.907443907168960839e-01,5.730007222233932662e-01,-5.617398840781155922e-01,-1.146953317467275468e+00,-3.005815886569609408e-01,1.523865068002772327e+00,1.211145753549838000e+00,-3.018302550102180515e+00,-1.671663645560552414e-01,-8.464193135100269716e-01,-1.969785339596852092e+00,-4.031196322386314951e-02,-5.871833608103550484e-01,-1.092741474388998213e-01,1.330473518336326988e+00,-3.226542051362125463e+00,-1.939447268427141768e+00,1.041188919284511405e+00,4.437139028863182344e-01,-7.228985052447108872e-01,-1.331424912032196817e+00,-8.229324733937794234e-02,-1.969601003351188373e+00,-8.093775389947382992e-01,-7.933606746669620291e-01,6.436580470899921913e-02,-1.038061142627897809e-01,-1.245527662253073542e+00,-6.305827974955383608e-01,-1.294030527339739223e+00,5.540220146470070661e-01,-1.254332259216551781e+00,1.918018800964264470e+00,-4.326618908527216645e-01,-1.273788713025684194e+00,-2.251745223881650659e+00,-9.793403368111093243e-01,-9.289668085832555322e-01,1.390062309482833491e-01,4.196523676513920220e-01,-4.899346934760951400e-01,-4.557727256600788701e-01,-4.251643909074968586e-01,6.601848778921375338e-01,-5.277031822801797611e-01,-2.816194277270849700e+00,-4.782940793855893213e-01,8.699685091050866070e-01,-1.135899830669164778e+00,-6.735172029864980869e-01,1.267191303790259349e-01,1.065958302790600110e+00,-1.385525622554321101e+00,-1.474328980203000183e+00,-4.725233124355853742e-01,6.202524785356432480e-01,-1.127261244393055195e+00,-9.102289096616740516e-02,-6.498776019262614279e-01,-1.097425507080475926e+00,-3.285374460415745324e-01,3.247952884301161247e-01,1.287729462038667894e+00,5.151131882601109879e-01,1.507266217859752622e-01,-1.894498445109100926e+00,4.017378491552501818e-01,8.456598213724971780e-01,-2.820319663770030627e-01,-1.140571282352424332e+00,-1.105548499072394643e-02,5.521181218823112413e-01,-2.191206997400168000e+00,-5.570284910009221102e-01,-2.210461930895254223e+00,6.506149433772392410e-01,2.139638508113776538e+00,8.792732068558057890e-01,1.162120260313640463e+00,1.310985160187631560e-01,3.324631226334599787e-02,2.908350427987950182e-01,3.499685322844058311e-01,1.337991225688431873e-01,5.943739597351074266e-01,-7.309878901953282826e-01,-1.164381343869979268e+00,-3.271472352625770519e-01,-1.694742333584242366e-01,1.385399910039966764e+00,-9.512269184655013365e-01,1.475459979444243563e-01,-3.933030991354660721e-02,3.636327545610986700e-01,-6.769112972472173251e-01,7.447553471000042391e-01,-1.770059260596017481e+00,-1.576718362715851196e+00,-1.601435136954364680e+00,-4.683904744906282613e-01,-2.836913133147454524e-01,-7.393085980231592913e-01,2.703846084082098949e-02,-4.271294382024705683e-01,4.418742223510522260e-01,3.742208988123463809e-01,2.527845596372303438e-01,-9.215448348427085490e-01,1.159155524900613798e+00,-1.169969183303001259e+00,-1.258093509974260504e+00,1.095651479972182152e+00,1.934255584655975024e+00,5.114758358983803044e-01,6.162638911277673603e-01,-1.151695365256919068e+00,1.215555293407374782e+00,5.634014747504441090e-01,-6.957161687333303091e-01,1.235131647838168423e+00,-5.622834402354881522e-01,-5.796420110968615313e-01,5.342354397305631997e-01,9.913048572522099589e-01,-8.557143373306230760e-01,2.223993637754826391e+00,2.730129155780441352e-01,-2.018773242867075712e+00,5.658553274875087746e-01,-6.253164246693853068e-01,1.192470866532481022e+00,-9.808328214231272213e-01,-1.904020721379525716e-01,4.743543832739835486e-02,6.600724623304976557e-01,8.741709813705327292e-01,5.632961684165675997e-01,8.648716805548906095e-01,-9.721097123927365802e-01,1.736938345881044662e-02,-2.560522090183143362e+00,-7.270045632591989326e-01,-5.870046387081798711e-01,4.214781323774554611e-01,5.592773397947982117e-01,-1.280124113808448760e-01,-1.059522401022979787e+00,-1.673504478057588063e+00,6.033575708966197881e-01,4.368868161434361769e-02,-9.239426319959733735e-01,-1.299688298608520975e+00,-1.752988645962849645e-02,2.209833877084683984e-01,-5.151284271693570282e-01,-1.307815884335600476e+00,-1.020994485265643403e+00,-9.196221383035255714e-01,-1.490176579809582069e+00,-9.399380158998947854e-01,-9.438048866748313670e-02,-1.879999251744169264e+00,7.699693947174921504e-01,2.555150654585827685e-01,-9.652038967571731076e-01,-1.195100503461164809e+00,-6.863721625150867034e-01,9.172471325304019096e-01,-4.328945616864314783e-01,3.393410908347927468e-01,-1.385423147424952761e+00,5.216293137613531306e-01,-1.553525563121519459e+00,2.731388352878840742e-01,-8.776672238872749165e-01,2.232373356358495209e-01,6.718200363256150720e-02,-1.097105698480215219e+00,-1.450415490230932747e+00,3.360155597741982247e-01,2.583591564474077562e-01,-8.589807576996743022e-01,3.285976227146520379e-01,-2.887110012396449932e-01,-8.235713626734232351e-01,-6.710494803870467040e-01,9.053093644447688382e-01,-5.804948261961826450e-01,7.324982567695477176e-01,5.552346289921022970e-01,-8.072211718663158120e-01,4.540067822127056840e-01,-1.530297023702559711e+00,6.559903281645664830e-01,-1.413427569251337168e+00,1.622030716987110655e-01,-2.735128631577056213e-01,-6.390597510794078229e-01,-2.343056737305606874e-01,-2.316477393765979720e+00,7.929554699797136674e-01,-1.981047320593536165e+00,-8.483563450411325535e-01,-5.683256491671875854e-02,-1.263402128953211800e+00,6.054813031000805257e-01,-7.790969681091048926e-01,-1.932260657391552117e-01,-1.048664028383663682e+00,5.353660192752378588e-01,-6.005333496152505867e-04,4.362071111391049305e-01,-1.251440912867166355e-01,2.669329183750277945e+00,3.641912438412219788e-01,-1.905415576419842383e+00,1.236383352957057147e+00,-1.580613121377892227e+00,-1.201264376211712115e+00,7.233226096851732567e-01,-9.482281467998550373e-02,8.396370608639489586e-01,1.833776263287799857e+00,1.337946047029037411e+00,-8.848717382919316643e-01,-4.882400642347537456e-01,5.070675852888317792e-02,3.666142299080260014e-01,1.108301407771934421e+00,-1.954975608079212002e+00,-1.804418393866864534e+00,-5.891159902250495822e-02,3.613598526188286503e-02,-2.450143187023767322e+00,5.561769431308700717e-01,-9.811400802946490529e-01,4.743436376826454248e-01,4.265724690986481549e-01,8.829649142445988863e-01,-1.968355267472406966e-01,-6.503611253189792163e-02,-1.973067595509633065e+00,2.104131036952693878e-01,-1.742277343954833635e-01,-1.475059410473726240e+00,-2.103980909782463105e+00,-2.360844047943199353e+00,1.312266939489733497e+00,2.144233498768824062e-02,3.850260494083744822e-01,-1.013134463096357463e+00,-9.112651854768807902e-02,-6.255812824260971183e-01,7.375344602503457192e-02,7.692424098864235615e-01,7.351896512466649103e-02,-2.309692965553884925e+00,-1.101775917930522874e+00,6.418408287654633337e-01,-2.077234916505404649e-01,4.134777415957106017e-01,-1.714908561228634332e+00,-9.361320221982470935e-01,1.410638780678054316e-02,-3.667787912904775793e-01,8.841417133482843554e-03,3.319344211841954162e-01,-1.216160708295064063e+00,-2.758457443561052602e-01,1.151129352278365436e+00,3.464013004519054251e-01,1.939744906297921345e-01,9.538475054470842984e-01,1.467160483212626709e-01,-2.046210588718724299e+00,-2.724268916783054717e-01,-6.198917988819016012e-01,-1.534941488794359932e-01,-1.808745567799222298e-01,-9.688540983402894602e-01,8.310716323545478401e-01,-8.345092363041058947e-01,5.459000082757770739e-02,-6.812368145678523446e-01,7.481453652397874743e-01,-7.776456674719219864e-01,8.844179437689689838e-01,2.790674149258589032e-01,4.015547211015818574e-01,3.019920416875443436e-01,1.899632706368801216e-01,3.314289022632863624e-01,2.209249321044881309e-01,5.398365808052822956e-01,-5.031524760052011880e-01,8.411219434992886490e-02,6.943655557809461643e-01,-3.387955636250211677e-01,-2.540477757347320065e+00,-1.942063186783760775e+00,2.480071445002730510e-02,-1.251681902940033342e-01,8.468137042635185407e-01,-2.104686485188728806e+00,-4.018039620994091621e-01,-4.855201989216178515e-01,-1.736398511821540591e+00,-6.762240030620220166e-01,-2.489053307508383384e+00,1.359886290577229928e-01,-4.821496873880373180e-01,9.812073953566267104e-01,-8.807051851582686774e-01,-3.242301406344297310e-01,-8.609813095142776485e-01,-6.110356942234409505e-01,9.956790142580278224e-02,-3.842925625020686686e-01,3.042204770339218545e-01,-8.369329990741369851e-01,1.052228547128235270e-01,-1.288237961710989365e+00,1.411924626013877582e+00,-6.335025501636003531e-01,4.998313329716064790e-01,-6.929396693979107402e-01,1.159031477421115230e+00,9.226727144490880494e-01,2.189086990863717275e-01,-2.137849861931750084e+00,5.481926469437048421e-01,-1.367064349872787021e+00,-1.652983891046364562e-01,-8.357275427857594474e-01,-2.826393372921148228e-01,-3.552409372073939142e-01,1.754375825277739276e+00,-1.072155132530649091e+00,1.844188198199637474e-01,1.255232789938777627e+00,-1.107972387544510773e-01,1.182300123658870161e+00,6.268522588495160086e-01,-4.662226188294235074e-01,1.019563695139156012e+00,-1.040952420481513707e+00,1.299654166755994655e+00,-6.060184476817599697e-02,-1.043606420513804256e+00,6.375480510505345810e-01,5.040218549125292657e-01,6.522894339969572686e-01,1.833770825634418733e-01,-2.712457740189234690e-01,1.152981232556274493e+00,2.068171160025677330e-02,-3.929583421506214758e-01,1.470651337984606011e+00,1.042100567091060137e+00,-2.714421230440882682e-01,-1.138436740794221302e+00,-3.895986427726847445e-01,-1.002164162023253091e+00,-3.300079775673073201e-01,5.398613718518481264e-01,-8.650945389787337847e-01,3.497593721042071002e-01,-4.409908073889687308e-01,-3.794718704830977729e-01,7.527351455172566208e-01,-1.295028223805232137e-01,-1.246712385803125656e-01,-1.083934690085912311e-01,-3.296966992243853811e-01,-1.700983904707468186e+00,-3.967109804457438216e-01,-3.404873384236439815e-02,-9.503075486598064892e-01,-5.538296199130259279e-01,-8.258314715969017339e-01,8.559472736512585556e-01,7.858774209505695607e-01,-1.871223938622946337e+00,-7.750109510170032356e-01,-1.033831434035553221e+00,-5.043119190261403650e-01,1.342237061943707139e-03,3.558015393539339932e-01,3.562207233834556175e-01,-1.206912400000150321e+00,-1.352805352852410437e+00,-6.995681989816169288e-01,-9.267127956094989294e-01,-1.677937848470318349e-01,3.299433874236769593e-01,-1.848847358198248969e+00,-8.218424277612483841e-01,7.134250770967575095e-01,1.864001151985738569e-01,7.596266968827852795e-01,8.282497802157699762e-02,-1.078236910479007715e+00,-5.989926965070396792e-01,2.964280861457903593e-01,-1.303716063422056148e+00,-2.517753264968473292e+00,2.257943257814484017e+00,6.277987613058982896e-01,-1.383903093190167466e+00,-1.287480023161303277e+00,8.692310751776096689e-01,-6.145995635166870974e-01,-2.084258343842923245e-01,-2.698928859769618716e-01,6.507494448428106093e-01,9.810174651437331139e-01,2.162697687057449691e+00,1.464460442154774444e+00,-5.923607187837872656e-01,5.105123366508882432e-01,-2.159232070770881862e+00,8.746870078305432061e-01,-1.001821800934789009e+00,-6.256737475129883208e-01,5.811604998193546923e-01,-9.570632837591284137e-01,-1.388790912678358414e+00,-9.278855858060495176e-01,-2.573793818028589642e-01,2.460941655893566504e-01,7.972824623693423041e-01,6.465089892397616333e-01,2.909533254699382399e-01,1.616610215983742549e-01,-5.876326179725148424e-02,1.364246900230433601e+00,-2.055404970888430327e+00,-1.577087890185703500e+00,7.836354912251031202e-01,9.244449842665103390e-02,-2.258687391015880008e-01,2.494755323838754979e+00,7.021741685057162341e-01,4.565948457340873734e-02,-8.784693981156556086e-01,-9.583145589542070297e-01,3.823978657534541914e-01,1.704055346902177526e+00,-2.009294298937216727e-01,3.633181168932762550e-01,6.835696270366896643e-01,3.002355044967979780e-01,-1.580989583835700207e+00,-1.248463064188980232e+00,-4.459008516770753272e-01,-7.181539346946285152e-01,8.632386548627724032e-01,-8.845060212043253101e-01,-3.852656570874416486e-01,1.599601369339085144e+00,3.845135502789270854e-01,-2.162176247521822581e-01,6.040377071112116303e-01,-4.584703332317913160e-01,5.221161526309069378e-01,1.013673703752825839e+00,-2.336607599493292498e-01,3.710500670298622072e-01,-9.623274509536320354e-01,-1.377504759537873547e+00,1.408292886391100118e-01,2.042543782217283443e-01,1.096752658582627271e+00,9.008506264181826984e-01,1.269542672583801879e-01,-6.674383601850896186e-01,-7.785580524892731225e-01,4.785648600576274947e-01,-1.486110233652291557e+00,7.718704470125006267e-01,3.235187211719665057e-01,1.048606690134602726e+00,-3.464217818255090897e-01,7.305524883761741473e-01,-3.054892291614689892e+00,-5.939304544192547386e-01,4.727601236318502154e-01,-1.243142883162626500e-01,-1.404550556316995102e+00,3.677517445575874677e-01,1.565032522359888434e+00,-7.316801038434960457e-03,1.762666950402036470e-01,-1.008810338931584338e+00,-5.169245996054492309e-01,-3.801670580013453149e-01,2.866410250388397030e-01,-4.879016883008275296e-01,3.238711225101644220e-01,2.707223894541476383e+00,-9.818292551581214722e-02,1.212114860419893247e+00,-2.169219915537734966e+00,-1.616733618784594428e+00,-1.052968583713056600e-01,-1.154174754406686459e-01,-4.638476052499126423e-01,-5.877211524174810187e-01,-6.815083609914964757e-01,-5.433653941178733238e-01,3.237880301920186832e-01,-1.864374377628336799e+00,3.153340354354897991e-03
