-7.707676824384328551e-01,-8.704596554257112984e-02,-4.553044708648965599e-01,-1.647371645739105661e+00,7.239477874454540718e-01,1.728661615828328113e+00,2.554676976344361639e-01,6.593455331283358811e-01,-9.039595309757566532e-01,8.986782885466793047e-01,9.092274628169290107e-01,7.774430198457608077e-01,-4.950502904660784576e-01,-5.721995964727078637e-02,1.270545451137511828e+00,9.134988038065549043e-01,-7.439696017544309425e-01,5.455394390796990400e-01,7.707989070320131475e-02,2.856614377960929249e-02,5.897781942159406876e-01,1.540582245264698891e-01,8.842690349251689508e-01,4.922231681135164072e-01,-6.986765596002219025e-01,-1.572242391792884719e+00,-3.163089741819186118e-01,-1.288590966488492473e+00,3.606188125390199506e-01,-4.668924410304592376e-01,-5.451663903889972795e-01,-5.828010573939814559e-02,3.832044669428345540e-01,1.677288084765618636e+00,-7.550839247156999612e-01,-1.305431087703715853e+00,-5.810851595934500846e-01,-8.958028940118798467e-01,8.613034366689479304e-01,1.984866776264698207e-01,3.764077373009813154e-01,-2.633670752878665075e-02,5.027976189846402599e-01,1.220120250211141760e-01,1.562301240919030443e+00,-8.633931410133813822e-01,1.423429072973750653e+00,-9.626267438756090644e-02,1.020956720038525223e+00,1.055923900001268345e+00,-5.963967489539091504e-01,1.784649633343543318e+00,-9.411301484797339745e-01,-3.146004838775574020e-01,4.153090861861418737e-01,1.397043227650807573e+00,-3.621360296242298049e-01,-7.372886491648938945e-01,-1.245827188863662949e+00,-2.993054950478131193e+00,4.178328274287132493e-01,-3.631199717437462726e-01,2.102454173627195666e-01,4.578440210350658290e-01,-1.475926508928101288e+00,9.475659248679764168e-01,1.622192505460388068e-01,-1.140770271145400638e+00,-5.272506290016223396e-01,-9.627463294231960456e-01,9.880793259106448456e-01,-5.057493807618110987e-02,9.625266414978391749e-01,2.272968874431029462e+00,-1.341078429573780317e+00,2.684261348684600645e-01,-6.149132112711069853e-01,-3.123111558327831827e-01,-3.922385522901324362e-01,-1.967480920077270268e-01,-6.081992962514801843e-02,4.155411891569950611e-01,-1.231140442705130900e+00,-1.129208914390979812e+00,-1.255592159513616801e+00,1.379567305754585860e+00,-4.597469754504882600e-01,-1.404506026002690089e-01,-2.601180840849593445e-01,-4.651219306360918626e-01,-1.264060378824640729e-01,-3.385177973936283058e-01,-1.132140776512587044e+00,3.307843268123696334e-01,7.127467953360243635e-01,-5.037889002432973662e-01,4.962967459136445325e-01,6.379079906566599290e-01,2.543046520849011394e+00,2.405109864048194712e+00,-2.838507541342384921e-01,6.093209948370453821e-01,-2.032140348218556269e+00,-9.281734198237292510e-01,-1.080897861328131704e+00,8.698298917217875403e-02,-1.414974564070739793e-01,3.194548574594960333e-02,7.690178114680269461e-01,7.682616358477324381e-01,-9.246235126048344410e-01,-2.176712710971051845e-01,1.601356422530711532e+00,1.423796623045422871e+00,-1.941172027775900144e+00,-9.622254181036744569e-01,-2.597031163675020959e-01,-6.776612931270828977e-01,3.857524195596640504e-01,7.304663923368410750e-01,5.806566048505147348e-01,1.020167835172279158e+00,-7.740301571504379918e-01,8.620820877032879526e-02,-3.735272415847691874e-01,3.615048000695555430e-01,-9.088601229127798442e-01,6.555567874031563713e-01,1.383088772730606930e+00,-3.933531202807890037e-01,5.588538377602104978e-02,-6.678448015161193574e-01,1.194047475288291915e+00,5.468918453102793453e-01,-7.731700176937001956e-01,4.643022892743347008e-01,1.032483377285831061e+00,8.249352760496627690e-01,6.031592744245761750e-01,-4.977679645655573304e-01,-1.180830758231560695e+00,-1.126499037997616970e+00,1.496487191836331165e+00,3.319866794022492962e-01,-5.649554955815250246e-01,1.362054708562382643e+00,3.238029871322097852e-01,-1.070270009704416825e-01,9.798611701371470195e-01,-1.550945086751133406e+00,1.346058722133006480e+00,1.083499890005350297e+00,7.002885483357139673e-01,1.815245907189489527e+00,-1.126712930939772539e+00,1.251599207499558997e+00,3.151340550984547129e-01,-1.076218487561976467e+00,-1.383360041714884803e+00,1.721811565494572038e+00,8.147780891073822529e-01,1.386380425906443836e-01,-3.153804090284144657e-01,9.480544417255886147e-01,6.718884637476811861e-01,-1.064538925959147564e+00,5.359444582777751487e-01,-7.956674631614324422e-01,1.251355443458789685e+00,-8.595158837947965980e-01,-2.837310875098148499e-01,-3.902305087165758996e-02,8.564953927002572076e-01,1.415707936985361570e+00,6.958405360836522613e-02,1.427009355432246274e+00,1.628009005247932794e+00,1.340763879223718646e+00,6.884527027093383378e-01,1.304131140994479576e+00,1.808859287415854888e+00,3.202587011146575402e-01,-8.190108997401319701e-01,2.549596052459505158e-01,-1.426182382647328772e+00,1.705187208221194128e-01,1.658250449195017850e+00,5.441899397244557290e-01,8.575810904299081550e-01,-1.061928589711581106e+00,-1.295648879509349038e+00,-2.561307041584782063e+00,-1.326920281724454309e+00,-8.516641566791982587e-01,-7.675017862460985496e-01,1.029105926674672489e+00,-9.914343195650516805e-01,-2.003414388306858029e+00,-1.170392581906742335e-01,-7.011450041037489145e-01,-1.019931667741630577e+00,3.682838892369529882e-01,-3.983342386627104770e-02,1.424681844829900124e+00,-9.214497972144813920e-01,6.653968174348200426e-01,-1.166517446816592196e+00,8.049281129585954264e-02,1.510733313251541310e-01,-6.518902067031522307e-01,-5.223889015180877005e-01,4.481651810143393311e-01,-2.776613661938562294e-01,-4.685311353299149717e-01,-4.970253587326100564e-01,-1.185142162247634579e+00,8.173214320581079217e-01,1.264916878943927125e+00,6.466257873191451067e-01,2.270114839141920415e-01,-2.011466285162314627e+00,1.184994566358209683e-01,2.350333152584062890e-01,-7.326063058362768388e-01,3.460114098687041562e-01,1.284270528872370365e+00,4.413927026106965190e-01,-2.991147666131950822e-01,-1.238177803580334579e+00,7.127774797997097345e-01,-4.825727522739366449e-01,-6.228276542175583685e-01,2.961686039336721699e-01,1.527046364706288462e-01,-1.934856300999136247e-01,-4.231512678005583394e-01,-1.080229800818936770e-01,3.783413812205896343e-01,-9.522106901220307729e-02,5.165435229764927527e-01,-3.540176336534269219e-01,-2.089077372654467024e-01,1.614348511249159013e-01,-2.392119986339962701e+00,-8.386780071399665415e-01,1.574865340309962169e+00,-1.722741142313349627e+00,5.767807151931938492e-01,-1.276239805633818669e+00,1.158620762852375030e+00,8.304672759456206421e-01,-2.942113288250599368e+00,-4.726472481635436984e-01,-8.579407874145714707e-01,1.058277577576382855e+00,-1.378249556182405744e+00,-9.553003510100540607e-01,1.173892205257945909e+00,7.846695518563567839e-01,1.464487104005530282e+00,8.099221022478666487e-01,-5.244393318627321721e-01,2.082831647507051631e+00,1.720483557534451258e+00,-5.851678484676093861e-01,-3.736358504046263240e-01,7.084024923175139543e-01,5.684325601348074741e-01,6.962506242531015799e-01,5.542128745377313814e-01,1.819324963321524269e+00,-1.168098703455848542e+00,3.408066324963042737e-01,-1.620507928242628237e+00,-1.290108883371571924e+00,-2.148261885701301666e-01,-1.715480942547151777e+00,-7.531353266609182029e-01,1.457696220861032232e+00,6.375943858231117312e-02,6.641527158379026963e-01,1.310082033977711946e+00,2.408105329344508438e-01,-5.719718127870518920e-01,-4.149025467876350515e-01,9.423603841164904793e-01,-1.792668822360736991e+00,1.376668302625220663e+00,-3.832197423056145635e-01,1.433203165097363563e+00,-2.896490856141941128e-01,-9.347140973193772406e-02,-2.031661698135739158e+00,-9.272124571923294756e-01,1.187877236662012281e+00,1.007918566196421978e-01,-1.187106309988163355e+00,-4.221994394301879783e-02,1.274088552308065170e+00,-1.319232968208706724e+00,2.634712447522498113e-01,-1.558002241223402029e+00,7.580873436507401530e-01,-3.154332056453977295e-01,-1.336297546229201716e+00,-1.020341477897007465e+00,5.415678780980860418e-01,-1.781614391457900792e+00,-2.669209023023011440e+00,7.037554765335862772e-01,-1.326444356239838696e+00,-1.023808668420817636e+00,-7.961456236952306753e-01,-1.523488351508404781e+00,8.211449289370806870e-01,5.658943881346769622e-01,1.295561620521821222e+00,5.199462738854421229e-01,-1.201786293327970379e+00,-5.066436071453921386e-01,-4.574411395885784604e-01,8.627230661849335513e-01,-7.553007898472400283e-01,-1.556669103440816715e-01,1.689268493294241724e-01,1.952515279752336519e-01,-4.329163526151625918e-01,9.990454015108792829e-01,-1.656995965124556935e-01,-4.266047965721660451e-01,2.782936339102018430e-01,1.806952906768291900e+00,-1.307933325144376102e+00,-5.800381997868343520e-01,1.616028752737064256e+00,1.558345817435027592e-01,-1.140716831071249215e+00,-2.425253611721828739e-01,-9.862900270765511124e-01,4.715940325994144033e-01,2.615922843476848822e-02,-8.491826814854222527e-02,2.147276891306498570e+00,1.718104160060543451e-01,-9.875353007201480293e-02,-1.447734813040071788e+00,2.836379930835339347e-01,-4.856624241953420018e-01,-9.996848615744521327e-01,-1.909705920910786947e+00,-9.896378377157957207e-01,-1.183067466082446728e+00,3.595019953661744427e-01,-9.309312911474658669e-01,-4.478600810573588054e-01,1.057893682836888782e+00,-1.445164911135428554e+00,1.854886707954212399e+00,1.092521878938755298e-01,-1.448848621816549942e+00,-1.296133924207725441e+00,1.163939627196909354e+00,6.321965029087889265e-01,-2.142276825830967402e-01,6.627191778019168034e-01,2.259363827229497468e-01,9.676821308684171452e-01,1.125293688631038069e+00,-5.341024348999963423e-02,-3.775162905480444198e-01,-7.848104388538819087e-01,1.811140603929819903e+00,1.012422833828778401e+00,-6.164982064042480170e-01,-1.661991792176671145e+00,-2.461197785102203106e+00,-1.022374762386414337e-01,-5.945236345694789870e-01,-4.324541190102018096e-01,-1.355918197318425777e+00,1.944192022612180493e+00,-1.020508731296081661e+00,5.763484115536323671e-01,-8.895526289419094512e-01,1.186000797328093714e+00,-1.653334360954190341e-01,5.102902114187123361e-01,-7.642802157345043312e-01,-5.719679713963892187e-01,-2.299095337378752324e-01,-1.639057293304698959e+00,2.647757710865164538e-01,-8.384687297407522610e-01,2.402693116159666076e+00,-1.075074218593358166e+00,1.216716735483533096e+00,-1.104666559968788819e+00,8.638339616603109006e-01,8.490887891635247042e-01,5.579532540086024756e-02,-1.405930770170182198e+00,7.452882399349202158e-01,-3.658471672673723613e-02,-1.004443947147374061e+00,-3.205208260963584022e-01,-8.497733115356861378e-01,1.353042169874916212e+00,-5.234522343488301477e-01,-1.372673866109571206e+00,-1.140901861298760256e+00,1.153670859444496655e+00,5.213358837127446410e-01,7.552597468822977445e-02,-3.251430942321350409e-02,5.029147465517758153e-01,-3.948341561933629840e-01,-2.317801267641685925e+00,6.155801082712513139e-01,4.654968250436601340e-01,8.665305944016588047e-01,-4.927954397836393774e-01,-9.713197315400847742e-01,-4.067745047437532069e-01,7.869097998943274108e-01,-7.412481990653855268e-01,1.367932192546665593e-01,2.833742387520529205e-01,2.837597022939193803e+00,1.357558810902526059e+00,-4.674313906495123905e-01,8.402625456856697150e-01,-6.899791396986386660e-01,-2.444165482032881975e+00,2.023553290866428878e+00,1.083085977926293131e+00,8.491591740768882346e-01,2.295109605321424273e-02,-1.355839532697858063e+00,-6.942213618567792677e-02,8.658006997718218356e-01,2.790790040897447866e-01,4.996960479426362789e-01,1.147843094986791997e-02,-8.264561483304488920e-01,3.514225796731736962e-01,5.700308844220511491e-03,2.874780797728487269e-01,9.975861655536159001e-01,-1.073760069798503913e-01,-4.975572092393461543e-01,-1.144494834001124284e+00,-9.318967466692719137e-01,6.952736612576797537e-01,-1.105308476954655506e+00,2.775786366269848426e-01,1.594147938665950726e+00,1.612810932658899299e+00,1.614401840617664785e+00,-1.515507054953394994e-01,-1.797674965910504463e+00,1.151913238671103956e+00,2.362393814010413262e+00,3.004513739626540336e-01,3.520170607574502619e-01,1.186547893372569940e+00,1.273588751988987466e+00,-5.033561393774640402e-01,-2.306345321403724391e+00,-4.901474348572577577e-01,1.701783464974931936e+00,1.547744117297258082e-01,1.378929212018875639e+00,1.298013525392788026e+00,1.086399832738584204e+00,8.496202101336666201e-01,1.254567799596461919e+00,-4.496339438751879580e-01,1.872324335045734145e-01,8.301729045683662322e-01,-2.109508221534066863e-01,1.358917752568072457e+00,5.743276948787778835e-01,-3.994008885880470650e-01,-1.200192600599185866e+00,9.590118690449421779e-01,2.152807881580884430e+00,8.471225944832583288e-02,6.138520948694927704e-01,-1.832213075947345671e-01,1.442588408636040542e+00,1.768697539372972249e+00,3.089152560200559283e-01,-3.633758258338109504e-01,2.963074948850006329e-01,-1.278133423626145015e+00,-3.824795795925736708e-01,7.771848959023663905e-01,-1.517756807319100121e+00,9.077943786678702720e-01,-1.577957460213603280e+00,-7.429257681143055514e-01,-1.064736877344582888e+00,2.563036028994010451e-02,4.439150166024458111e-02,8.169460845635113655e-01,-6.364473486119527623e-02,-7.787696711428904184e-01,1.234373038037285542e-01,-1.621251856675508085e+00,1.386227163582012256e+00,-3.914831545589358419e-01,1.377160524353036708e+00,1.219214276315452095e+00,9.299845356079868008e-03,-2.251552467802889090e+00,9.989396595076348584e-01,1.056370111874450402e+00,1.559717395063985546e+00,9.447099920916834925e-01,2.561495992884522899e+00,-1.568920449874769085e+00,-9.120907468731456191e-01,-5.163781646839428197e-01,-1.229739420492074631e+00,7.490409494237229016e-01,-1.028339083805845711e+00,1.022139997552434232e-01,-7.387589579266470863e-02,2.134078883846687591e-01,9.304090065763161999e-01,-2.455768971687078750e+00,3.390100191043348143e-01,7.688239915912075118e-01,5.157157184980079023e-01,-1.290880578721550265e+00,3.106924133404871391e-01,1.973956989349825719e-01,-5.790209837910370583e-01,-1.320826702671844544e-01,6.139847875213761963e-01,-1.960506079731866302e-01,-1.601405047695022565e-01,-1.454793685804364411e+00,-1.231711206205257536e+00,2.017658650706615653e+00,-1.398050985173824534e+00,6.488520244510923574e-01,-1.290392431311766730e+00,1.210493009498830874e+00,2.827820388771603022e-01,2.034775882952581494e+00,-5.315417775870103778e-01,-1.016078294173609065e+00,3.414309657836519518e-01,6.390711504359076756e-01,-9.693276488620770903e-02,2.618511452360982594e-01,-4.577316940959068603e-01,-1.238293723371559851e+00,-4.332992221335483229e-01,4.467924369049273703e-01,2.939863984779487738e-01,6.023396270680735354e-01,2.434542606833709280e-02,-1.367723639046810324e-01,-1.712263539229747777e-01,1.305929609198095642e+00,-8.297915944423195356e-02,-5.350779380250624273e-01,4.516265195039876335e-01,-3.227634246439158305e-01,3.540774149867209064e-01,-5.179844304550508260e-01,1.170307533327864524e-01,-2.563219033878516573e-01,8.182010788145350766e-01,-1.546594463914972017e+00,-9.402571636687552248e-01,-4.477168665769574174e-01,-2.049843910224604937e-01,-8.191659100254404802e-01,1.435192888711668502e+00,1.219073857446846043e+00,-8.329414410912691080e-01,-2.477083441896315852e-01,2.500697166181594877e+00,-1.148998677410744351e+00,-2.342247782227823816e+00,-8.091611561320527501e-01,8.723788209888392320e-01,-1.199864007601374905e+00,1.383262521392114586e+00,1.018022246135404485e+00,4.955260410467293153e-01,-1.634872477597900886e+00,-2.026284557276768705e+00,-2.466743493332091697e-01,6.401820966640756616e-01,7.493267408065791557e-02,9.814893303949044634e-02,-5.615110376504854894e-01,-6.779442505577234490e-01,7.845408157149604822e-01,1.274808661746842153e+00,4.961104649248237464e-01,5.463640426057201349e-01,-1.318300099716666285e+00,-3.819927430258254208e-01,-1.253556502847579801e-01,1.204829155337352686e+00,1.650541792460237689e+00,-8.435259103855508034e-01,-3.304096376968583271e-01,8.029264702765290806e-01,-3.029320345042456064e-01,-1.093192040902301460e-01,5.961860394369891125e-01,1.740234847038361954e+00,9.028525480486283838e-02,-4.226003070885887003e-01,3.221260043963936059e-02,-5.138113287905432536e-01,-8.764944392620684921e-01,-7.680812283246385430e-01,1.405528447777670165e+00,-1.033147368247792963e+00,-1.024253694312601493e+00,-4.573348764931984833e-01,1.901541058270474760e-01,-5.014353617426662302e-01,-1.618856689907773649e+00,6.852036092295656078e-02,-1.657924722065507728e-01,-2.569524873102112306e+00,-1.103370091265971631e+00,2.268449968387364901e+00,-1.195806393423847203e+00,-8.437373458868141496e-01,1.351724699585608036e+00,1.605019286774349130e+00,-4.192996504833377269e-01,-4.450454899314473800e-01,-6.603791515608167795e-02,1.716418277271448467e+00,5.488213088642157622e-01,-2.682681693966444403e+00,-2.930940096768290815e-01,7.998285460153302662e-01,-8.627785321539255259e-01,-2.788630984899240772e+00,-1.623274707929094784e+00,1.122380772939626459e+00,-5.482915014664074133e-02,8.166920067691320062e-01,3.106176777120512322e-01,-2.208712924278937617e+00,-4.059890571247971869e-02,-1.261016165907218989e+00,-5.958345124923629665e-01,2.453229908251716718e-01,-1.320611353837468194e+00,-1.088636819881026119e+00,-2.211865520632811943e-01,-4.114593013267514032e-01,1.042426514142289762e-01,-5.083014686902017631e-01,-5.822168055056628488e-02,2.737521597142165974e-02,-1.697014103958203179e+00,3.937522765537553315e-01,5.664417987433549850e-01,-1.087903102684160350e+00,1.490161678020670344e+00,-2.173292375200147064e-01,5.530986306746165093e-01,-6.458680132065804935e-01,-3.979820517029459270e-01,-1.341751910389926417e-01,2.930982588809351586e-01,-5.922154637785058684e-01,4.222671402252167749e-01,-1.037881720655689177e+00,-3.114063913990458010e-01,5.434032909685799773e-01,-2.885632456175998506e+00,-8.449704540724460866e-01,3.414237696769293895e-01,-1.124464580491532528e+00,-4.796833903835421298e-01,6.741634360929369407e-01,3.977400750693647624e-01,-6.525242247925511219e-01,-1.417847676010763225e+00,2.263506381955718183e+00,-1.850805411884931306e+00,2.349993819279671214e+00,6.257376297147867472e-01,-6.278833659617935048e-01,-9.844554595761301208e-01,1.204806634054427672e+00,-7.947856306135188120e-01,-4.408220722643468870e-01,3.090341379187072635e-01,-8.610506292706554543e-01,-5.907832731040566637e-03,1.095852077849749362e+00,-1.199138736309230513e+00,-1.044126451614905582e+00,7.092707308968408952e-01,1.483654840964805099e-01,3.492779638398723629e-01,-7.578070064381964288e-01,1.470486550457226205e+00,2.929311580143883487e-01,2.102666021029222232e-01,4.061478900385220858e-01,-1.301488089291816808e+00,-4.148554373277092977e-01,7.287375203188707351e-01,1.985444362419572506e-01,-1.513816383374055885e+00,8.774192113559364792e-01,-7.118005611076616557e-01,5.569594082304432092e-01,5.203469033648610020e-01,2.004133098361597295e-02,-1.711134741303007301e-01,-7.746669807067826374e-01,1.306684668096508739e+00,4.702607753603559315e-01,-1.158247389254972948e+00,-1.258061147746710962e+00,-5.549373646313885411e-01,-7.229070581914642801e-01,2.321161824090559822e+00,-6.622476416676083000e-01,9.195290756250611430e-01,1.075638742609304144e+00,-4.547382200638032113e-01,-3.233743598437568978e-01,1.167950102672990598e+00,8.411864640816029137e-01,8.596949580782069500e-01,-1.349955380996402388e-01,-9.660487874012665399e-01,-3.060012025725981077e-01,-1.004411479009865646e-02,-4.292468091050565260e-01,-2.646094397472549264e-01,4.661695207729640300e-01,9.228595399676235989e-01,9.521461943565207031e-01,1.837812701940292559e+00,-1.314198805984554963e-01,8.959386143057419538e-01,-1.589386312882545005e-01,-1.028287563047430631e+00,1.409652018178470412e+00,5.619964544449257415e-01,5.275714130779531746e-02,-3.336430219040895095e-01,-3.830703604261500028e-01,5.403841863620024721e-01,-5.035798958909809553e-01,-8.054603311644352726e-01,-3.716056238563277825e-01,1.362178314941708823e-01,-2.492025078521245829e-01,1.554787708722826789e-01,6.781653759168023710e-01,-1.027255161496396729e+00,-6.499557078512603336e-01,-3.942490384195405650e-01,-9.614655478681983780e-01,9.143784627910592766e-01,8.348059072150220139e-01,4.990204267677356142e-01,5.282217380941996998e-01,7.754027420916939084e-01,-8.777347111395504831e-01,-1.419021890062421187e+00,2.742355335012871542e-01,-6.402942258101835815e-01,9.665271944921688396e-01
-1.093096167068182467e+00,1.438698351647956120e+00,9.829461821500018459e-01,-3.028882720233271875e-01,-2.807872533954368088e-01,7.541968817939082026e-01,-2.031983124300569710e+00,4.085772987360475339e-01,-1.728250537725716018e+00,-6.447109696705837223e-01,4.497637194849775644e-01,-5.222824421726397492e-01,-5.456297458034223835e-01,-1.802575254972594410e+00,8.230146474367544540e-01,2.883136411062524052e-01,9.028669327660803212e-01,3.684487803642337855e-01,1.641417024932851465e+00,1.168415091940943507e+00,5.199364981138028252e-01,1.726978580471730806e-01,1.895642984365290218e+00,-3.615219055040055918e-01,-3.769663030043761687e-01,-7.519311162636447277e-01,-4.358768386950032103e-01,-1.306615494815725587e+00,-1.012605341484426935e+00,-6.913363075026935922e-01,-1.460127259206815298e+00,-1.620669179754583800e+00,1.647916895689468808e-01,1.080917294175670965e-02,2.853963343705671618e-01,-7.709137378839853172e-01,-1.026343826091477007e+00,-4.696035794777789207e-01,-1.991960735834858998e-01,3.595740750520666495e-02,-5.324856758513737409e-01,6.770826082185380512e-01,-1.033201751765636001e+00,-8.355248496793610258e-01,4.148124720731197757e-01,-1.576251512271215072e-01,2.356522303161381338e+00,-3.162734152561062079e-02,-1.566724788253504919e+00,-9.447112865214599697e-01,3.073703246255377608e-01,-3.250720670883169294e-01,-2.807673215737667149e-01,-2.504104760763211424e+00,5.134054238045143714e-01,-6.909360459852877945e-01,7.158013856104403771e-01,7.171531240428243859e-01,1.556267452592957345e-01,-4.274967813982526454e-01,-5.286908188479357840e-01,1.543067852881621904e-01,-8.962049394613490205e-02,-3.984553598209567699e-02,9.528317803354066085e-01,-1.105840222754724378e+00,-3.287214794267375173e-01,-7.531953752451416018e-02,-1.458842477731459697e+00,-8.045946860563095437e-02,1.413079759707160710e+00,-9.985244055025234156e-01,-1.334754136549987313e+00,-9.261286891931822529e-01,1.232766726366423704e+00,-7.189328353785198189e-01,8.170118485236557149e-01,-1.302185216771019949e+00,-2.263492374148327269e+00,6.516502968054778411e-02,-1.182306103262328878e-01,-1.405151335303987947e+00,1.140428886703858113e+00,1.676105845407980466e+00,-5.702931754840468992e-01,1.041491635412989281e+00,-1.611791172794584948e-01,-1.995074601623980093e-01,-1.700424995129613814e-01,-6.395561005103010677e-02,-2.800142132653518079e-01,5.820418157111378887e-01,2.274638788070319773e-01,8.611778018819044034e-01,-7.268728262920980121e-02,1.281444911147472665e-01,6.492752781024058173e-01,1.584215091775620587e+00,-1.650995628307124319e+00,-5.533804767319242535e-01,3.060615745677220390e-01,5.011731764313630544e-01,2.310648334682008365e-02,-2.458256049172507784e-01,3.732390816522214716e-01,6.539101688515134292e-01,-1.180789450138073349e+00,9.338353377285119050e-01,2.284813450596463902e+00,1.935151781164787810e-01,-2.021063938600425325e-01,4.507165793993593850e-01,1.339886287603228476e+00,-3.605065471420764722e-01,-3.737190492659092089e-01,-2.005712930767945323e+00,-1.242249760253994362e+00,-8.786797006278630751e-02,2.341748411174760236e-01,9.281710302889587538e-01,1.162702484319978920e-02,1.247529748179567077e+00,5.848395297198432097e-01,-8.965626088163128893e-01,1.423236753921937714e+00,-1.551774387759750906e-01,3.412095637150128091e+00,1.485426637274172013e+00,-1.420802614906947481e+00,1.382799291801188435e+00,-6.515641350702428003e-02,4.008052988238611225e-01,5.248656883231973547e-01,-9.213551565440921687e-01,-1.426164196739017065e+00,1.356400692066146441e+00,-9.939477012412729628e-01,4.778738350040122318e-02,1.790404419271143466e+00,3.444996914151927658e-01,-8.621270628014165993e-01,-9.973986335455271579e-01,-9.397018580865759141e-01,1.150678504622158593e+00,-8.612560423221554684e-01,6.059982854925918261e-01,-1.922337387978940937e+00,1.784497120196279374e+00,5.276018094459976604e-01,1.326749288677239180e+00,9.889577719810099810e-01,9.837075526282880455e-02,-2.836619315688822529e-01,-9.087240174807146298e-01,3.326094677442440611e-02,9.705405091406695828e-01,-4.672370761683404261e-01,-8.265906585795662620e-01,-2.028956115595048348e-01,-1.343237697654282581e+00,-3.614632431388046241e-01,3.562031343986094556e-01,1.016281326045781030e+00,-1.211288993924930502e+00,2.081289823768929514e-02,-1.158924302482930019e-01,6.644069323615613420e-01,-7.035953054083695646e-01,1.671121524687225468e-01,1.329588594157216919e-01,1.726445034260018163e+00,-1.814282916694680559e+00,7.280840763627295376e-01,5.429787567790506780e-02,5.032471977640312621e-01,6.278618332315502037e-01,7.979958398585874635e-01,4.296946967784791016e-01,8.910619546354577869e-01,1.707510805225922468e-01,2.331276088653671419e+00,6.615191284717569786e-01,8.611435976781594004e-01,7.683840431384239555e-02,-2.355169180657711969e+00,2.767176089435270936e-01,1.519541548511303297e+00,-1.790038281018884736e-01,-1.048286408375851853e+00,6.891965023726567274e-01,2.178357810028652350e-02,2.220376317318213388e+00,2.369023301204754763e-03,-1.180234993893439333e+00,-1.441087242386735745e-01,-5.952113192379542284e-01,-1.311408614751590207e+00,7.784640581689176164e-01,-7.731333702133682539e-01,-2.044428452858529255e+00,-6.676933283574456590e-01,-3.859655362098448061e-01,-5.369394517699501712e-01,1.555457515545354552e-01,-6.175482514286819713e-01,1.181203013229292775e+00,9.716301906773699981e-02,1.234954046566262509e+00,8.329708281686502014e-01,-4.102777526896570492e-01,1.331121067625004928e+00,9.909050936664295373e-01,-8.119163600276320114e-01,-7.946775130339896187e-02,1.116483951907670108e-01,1.458880759638300217e-01,3.773818193996599790e-01,1.144659021153414002e+00,2.966820652912891099e+00,6.506451400542403452e-01,-1.354899859978708321e+00,1.635967051532901118e-01,6.097584401082650762e-01,-1.269373561581808474e+00,6.589729237443602283e-01,5.242088052369839879e-01,3.850968849464444510e-01,-1.275387706926199405e+00,1.541648776569475576e-01,1.296196504653695847e+00,8.521170512491470228e-02,3.218516874346268319e-01,9.828924384867042674e-01,1.177398822032338366e+00,2.142300270916206451e-01,1.185848341725790123e+00,1.678982366501364787e-01,-7.281285243161674803e-01,2.337511518245807551e-01,1.221037306000562150e+00,-4.431970911824409942e-01,2.553414776871111291e-01,-4.670216112807015207e-01,1.074133945679991875e+00,1.642778959424151308e+00,2.354782975459391581e-01,1.503970614023506513e-01,9.741561278569931259e-01,1.066075453211200008e+00,8.742483280454599326e-01,1.611617716358135222e-01,-2.604754584975953469e-01,4.061067712417973374e-01,-5.075015568356436302e-02,1.240597231464836137e+00,8.675240579626462001e-01,-6.072005481692378526e-01,3.787303020434659162e-01,-5.437805225929019937e-01,-1.243374116136848562e+00,3.359469120406073372e-01,1.063141180982163148e+00,7.582852606782751748e-01,1.284963134168632948e+00,3.746091027381983629e-01,5.625453092095704377e-02,-2.752405249784853902e-01,-4.648636623169253856e-01,-9.290124474001247856e-01,1.253155150252231786e+00,-1.046092416712095741e+00,1.786727745015440627e+00,9.573831528959427795e-01,9.155435624655877680e-01,1.049649027930779077e+00,-7.230152378383709610e-01,1.511415101834366004e+00,1.621215248767778339e-01,4.818413242914460493e-01,-9.405498112013837009e-01,-7.446121706413940666e-01,-9.912612889642329339e-01,1.300506315787549383e+00,1.404652269348898530e+00,-8.795029316498650385e-01,1.967551984400444987e+00,1.753702927870188111e+00,1.693564104247580637e+00,1.143245241458119121e+00,-1.436467202653755937e+00,6.985759941671503270e-01,-1.195781795610027842e+00,1.670355216680917687e+00,2.579941844216121494e-01,5.897159931336042743e-02,-1.106412577352218207e+00,-5.935470422748089225e-01,1.164465273730273420e+00,-1.179506223173466539e+00,2.040003227473438097e-01,-9.220503479713753059e-01,-6.746322514531831738e-01,6.218888493433689657e-01,2.331794527147136975e+00,1.548832735031673291e+00,6.026579740439494959e-01,-1.195232829634905292e+00,-1.342565235121400136e-01,-1.649938878711934231e+00,-3.058631564670348246e-01,1.601642303184033778e-01,7.324558264738718627e-01,5.354015141520510612e-01,4.312246965895959877e-02,-6.278544755825317125e-01,1.179865692828546253e+00,-1.069565230263122890e+00,5.164303579720349591e-01,5.055305451480238688e-01,1.699937360667212571e+00,-4.819406233906419756e-01,-1.666349586688154139e+00,-9.574855475646585345e-01,-2.737198364631076089e-02,-6.103149327110602568e-02,-5.380489409913117305e-01,1.398961973603366493e-01,1.002595423875717540e+00,2.245702942761683474e+00,-5.326801884487912808e-01,2.194751903773941137e+00,-6.839752600605675248e-02,-3.257969186295892605e-01,-5.549497269070206018e-01,-7.761799016019670372e-01,-4.804622431819691730e-01,2.968339651690749537e-01,-2.866321234250564579e-02,-4.564273012934550455e-01,-8.528695000655437397e-01,5.278590854027040979e-01,8.837010826631058746e-01,1.051559247202449976e+00,3.175873865033808086e-01,-1.071370130175284263e+00,-1.758885628201161122e+00,-1.334870258870346493e+00,1.522975593840570019e+00,-6.978383072095152573e-02,-9.621384665203170927e-01,-2.106869832044522273e+00,-1.518691340204501916e+00,-5.414290691139479472e-01,9.467918780971136261e-01,8.738198511611048325e-01,-2.280001680387527471e-02,4.711616054967697198e-01,-4.003803752937467597e-01,1.097074457141825388e+00,1.720809733417042686e+00,2.261680808574736135e-01,5.298021380355238952e-01,-5.061984666355420215e-01,1.027091374960915626e+00,3.151416466264927996e-01,-6.912408413021072784e-01,8.145389824868833895e-01,7.796426704468747415e-01,-1.020919721228985777e+00,-4.140752678783503060e-01,-3.665924231950855039e-01,-1.129900314971750808e+00,9.497669216425501382e-02,5.940919370192436766e-01,5.626685626428144793e-02,5.887860483855990035e-01,1.380658835555338637e+00,4.452302776054456457e-01,-3.237076772006388659e-01,-1.892998516062620817e+00,1.109795973026538762e+00,-1.178299575191852355e+00,-1.039875281408868979e+00,-7.310392089024389528e-02,-1.041620381462030759e-01,6.799313808743558951e-01,1.512476720931057672e+00,-6.699446201260458866e-02,1.126064872193826671e+00,-2.663192672824397228e-02,-2.123962955956060494e-01,-1.455286058410880656e+00,1.817957160517404747e+00,4.614024538408358078e-02,1.171976746064888886e+00,1.989033898892734076e+00,-7.987401373972382590e-01,3.434895110426348097e-01,1.000593683558304248e+00,-9.720871643701891607e-01,-3.950009589254932507e-01,1.158541787778815779e+00,1.875088495876809036e+00,-9.933523454156775179e-01,4.550471667388293895e-01,-1.638768603605165186e-01,-9.866278322140924206e-02,1.647313941061161746e-01,-1.367282263701699585e-01,8.779280068012299543e-01,3.906301663494451959e-02,-1.346760348964337162e+00,2.482414700737610502e+00,1.209472523825422474e+00,-8.317495129178107405e-01,3.986429008101908811e-01,6.700241745902463242e-01,-7.368363857574620202e-01,-3.924651509851515702e-02,-2.465065398510125905e-02,6.783062469570589892e-01,-6.598662359796568788e-01,-7.423786486071404234e-01,6.987773964646448732e-01,6.164260821540324536e-02,-1.694520883266309452e+00,-1.255129306689086455e-01,1.038257799716858082e-01,1.132098151776049916e-01,-1.103506436620569797e+00,-1.968993579025154705e+00,6.092039894111668241e-01,-1.214502631370520724e+00,8.048791426730879106e-01,-3.983125748246197362e-01,3.700108522308649395e-01,1.079966752905710647e+00,-1.433769804845706763e-02,1.606265602572307938e-01,-1.636697254725869577e-01,1.211565541570852195e-01,4.972441205333104075e-01,1.832412283503881134e-01,5.327311050249746716e-01,-2.511996347864737036e-02,3.599170613577503119e-01,4.046986892719912077e-01,-3.136148304504990936e-01,-8.950391272555829891e-01,-8.229007494013469426e-01,9.281515582601290726e-01,1.647178154080211898e-01,1.216624140140332599e+00,-5.779500208757660795e-01,2.066429286741285676e+00,3.587268625773467057e-01,2.909715050997906394e-01,3.840868798823018904e-01,4.466629476257377163e-01,-1.278219120721455271e+00,1.248868472773510208e+00,1.163328791886063529e+00,2.688985077890466147e-01,-7.894498488150477611e-01,-9.289737664363070246e-01,2.201038857813505112e-01,1.750414627495714637e+00,7.705441088651301396e-01,6.411084749945941685e-02,-2.609436199253903910e-01,-1.623698174566553798e-01,-2.057395907771245869e-01,-6.585396928587737564e-02,-1.189931118469062139e-02,4.530851608463498104e-01,-5.540657358704456081e-01,-6.839939827183286192e-02,-1.616686599703235805e+00,6.247700926900598972e-01,8.104824393330677390e-01,-1.181748874990062648e+00,1.291489017856045862e+00,4.896864239845315492e-01,8.246334371761986359e-01,-5.226064209784488934e-01,-4.359650303207013994e-02,1.072359415940807192e+00,-1.040667896655153468e+00,-4.668136236957124985e-01,5.273576701086543084e-01,-1.683493616850777475e+00,2.062535569218630349e-01,4.914185224097497029e-01,9.793382460854794802e-01,-1.201931215446569723e-01,8.948054200709090189e-01,-6.749968028386393870e-02,1.131201869065496135e+00,7.125449791527683763e-01,-7.227449228702257367e-01,2.548117353852871747e-01,1.414245260398493631e+00,-1.555725692417048611e+00,1.321822352365618736e+00,-6.393310788958967983e-01,8.214704898033419189e-01,-1.661839959134817191e+00,1.252156576928098008e+00,3.168414997855304449e-01,6.051635827405698054e-01,1.354797081797316283e+00,4.566158588118205963e-01,-1.023726452991611025e+00,1.279359936273568366e+00,1.467454561137589986e+00,2.597191129787608244e-01,-1.292614040069248516e+00,1.630241919748585400e-01,-1.789378148145346625e-01,-4.521610380735138213e-01,9.814566341107315850e-01,-1.130212049991472067e+00,2.603172667456314038e+00,9.081641141086264080e-01,1.891323208232309261e+00,-5.009232917371251315e-01,-2.087885822161824334e-01,2.646314676900357599e-01,-2.671598167813756586e+00,-6.852574669044958489e-01,1.183777305125027546e+00,1.567541508865984701e-01,-3.273424866842758463e-01,6.408101779718926583e-01,-2.344300739867167249e-01,-6.769117554521848490e-01,1.654726698482062441e-01,1.800310012021713924e+00,6.092062824540893651e-01,1.041741828761097111e+00,-5.551871560111493187e-01,2.049308430735222064e+00,7.909288096533821644e-02,4.175833605239621105e-01,1.349085826127976784e+00,-1.305258078165729474e+00,1.031957363412238760e+00,-3.056936585108849247e+00,-1.100656953690242190e+00,-5.448716034211986692e-02,2.716507425566488720e+00,-7.622239185919849058e-01,-4.349102586785563163e-01,2.675263708118633121e-01,3.625961921764115359e-01,6.441415914053951752e-01,1.320627579708808730e+00,-3.908849811109784689e-01,3.818034975055178415e-01,3.679404475933856222e-01,-2.420402256197255741e-01,-1.483022287361229763e+00,7.338404024738276465e-01,1.106375229521261438e+00,-4.944351506400644913e-01,-7.098957069016232913e-01,2.731700675806868900e-03,8.522149797289055861e-01,-9.435220378929504159e-01,-4.004580710231280261e-01,-1.716047556702624322e+00,-8.066626737646295231e-01,1.892934882787137563e-01,-1.150339184293202255e+00,7.310579173302219624e-01,1.026398663366900221e+00,-3.838343494798430733e-01,2.658977972462845507e+00,-8.010220976263372483e-01,7.529275508441601872e-01,-7.658048844523112075e-01,-7.645110013158709084e-01,6.731221395956495934e-01,8.078441894291484016e-02,-1.409134460956372958e+00,6.578924488251067793e-01,1.903653819525607638e+00,-1.097937095904725435e+00,-1.500252740520040762e+00,-1.357366177689889042e-01,-2.852274839576857679e-01,-1.521137148411438433e+00,1.042024589941738105e-01,-7.901950781109878807e-01,9.186584237754056304e-01,-1.129128244665528635e+00,-1.053049640966280953e-01,-2.531437901829183823e-01,4.233734726916110191e-01,3.078930675186868915e-01,6.593102694958798971e-01,1.008049484963698283e+00,-4.145666647291843671e-02,1.441520347106491462e+00,-2.050969182255022005e+00,-1.494764533840158283e+00,-2.869145866943091927e-01,7.828649780411599535e-01,1.267436418292201106e+00,1.448430279355104044e+00,1.834394298774069676e-01,4.882867696221903087e-01,-2.995357532220168512e-02,-1.085169409508650151e+00,7.479991374908643298e-01,8.445200781176822602e-01,-4.239556075964778237e-01,8.988229802231443299e-01,1.253415608721881958e+00,-1.829811662949308415e+00,-8.419249006113362910e-01,-1.012975289944074708e+00,1.355661442834160235e+00,8.915835433851417857e-01,2.956993087600594539e-01,1.051464010392245241e+00,-3.238533260560620408e-01,9.307026013699583045e-01,3.629195413293967443e-01,-2.400890436402485228e-01,-8.058064897403794946e-01,2.093684730765827395e-01,-9.135937885729854546e-01,1.235888001974185135e+00,8.898246229857609269e-01,-2.486497661375837609e+00,-1.418496428239517798e-02,-1.279881421274012832e-01,-1.126215382026974687e+00,-2.043415379366763318e+00,-1.759475245554987577e+00,-1.578321135610190717e+00,3.352394711999505672e-01,-6.897395436559193849e-01,-3.888309301911813121e-01,3.514903136586689514e-01,-1.273877424592649410e+00,1.110862902307271805e+00,-1.050519127388272134e+00,-9.585608141372666813e-01,1.670446963216785985e+00,1.352015057982858037e+00,-1.677030720055621593e+00,-2.176328090367110057e-01,1.791702313646375222e+00,4.264886628962106241e-01,1.307906649541664690e-01,2.242960134593143806e+00,-8.577043140051786585e-01,-1.658183319553247215e-01,3.801982156985561634e-01,-7.576863967671945144e-01,7.382090773183048737e-01,2.146739140800209888e+00,4.856581615109482053e-01,-4.064834772137674301e-01,-5.484000628914819514e-02,1.088257612456605683e+00,-2.444002324796270276e-01,3.689874500465088053e-02,1.575140425793155385e+00,1.274659211798755409e-01,-1.531796269661721624e-02,9.451086429017454549e-01,6.627430100330490570e-02,6.268064664892155635e-01,-1.084856840219090124e+00,2.156697925098406188e+00,1.627051901190456062e+00,5.253310188220342569e-01,-6.074772615627029859e-01,-7.401073448689887702e-01,6.182112747743818693e-01,-1.737544697480913614e-01,-5.190377446370841863e-01,-6.326074537400844244e-01,1.076542859673835340e+00,1.249600144684766878e+00,-1.876252315875551302e+00,9.885862446152056116e-01,3.133248137511387976e-01,-8.658727150915459525e-01,1.693163431767769955e+00,-1.938030622125628710e+00,7.504153507935396039e-01,-1.870355984645090786e+00,7.740608759497683566e-01,-1.192589324672838291e+00,1.440254612619548347e+00,5.104784576929073669e-02,-3.552647436100911937e-01,3.849994999596182965e-01,-5.876671318367681085e-01,-1.646023128705075500e+00,1.602568425942570984e+00,3.739673750306833355e-01,7.142814766568338081e-02,1.715630280155968190e+00,6.171730080447378891e-02,1.107220077639578859e+00,-8.719513299937867723e-01,9.200552782623828696e-01,1.876564414994759955e-01,5.870482625305277757e-01,1.470233792269586698e-02,-7.126476025778839540e-01,2.742428015677497721e-01,2.662021931134472830e-01,1.495505716020674836e+00,1.524542639682448762e-03,1.264987271823620585e+00,-2.630751142152699673e-01,3.780403322574738545e-01,3.746485379315578901e-01,-7.141247556171674837e-01,-3.875760260700529258e-01,3.516508278746013350e-01,2.198844570542721200e-01,-1.580393652458284226e+00,-1.531219506770809868e+00,-1.003795253418089395e+00,9.240206042276457588e-01,1.798350057396448376e+00,-3.848465111066223798e-01,-1.245923845144863096e+00,-7.311038789783897984e-01,4.670133808342843418e-01,3.928224184973672095e-02,-4.241705493399456489e-02,-1.403108018631867293e-01,7.431923310326237209e-01,-1.078460377412999938e+00,-1.054565648163704239e+00,8.930715262486386141e-01,-7.749075599892736310e-01,2.005237569981796586e+00,7.666242388504715954e-01,2.846555231825231846e+00,-8.319119455983203792e-01,6.105781269876937589e-01,3.526824409467702037e-01,1.104648125490144267e-01,-1.228164545286691389e+00,-8.576181392832564754e-01,1.964897514256219946e+00,-8.078735622737543975e-01,9.342154319140223429e-01,-4.657190195331868399e-01,-6.762786261558711987e-02,2.006983933553683652e+00,-1.520745458454962895e+00,8.793890023896915320e-01,-9.543924176177960295e-01,9.882407196710405461e-01,1.177019812216702377e+00,1.234995902793669803e-01,2.555650697764710877e+00,9.797836118937546246e-01,-2.176281669702250232e-01,-1.345024880780209875e+00,1.286227442230807316e+00,-1.584091422375750735e-01,2.004374956168331945e+00,1.786404293399767584e-01,2.306048427765423348e-01,3.760104738578220473e-01,-4.412072908296763574e-01,-3.674513323248460028e-01,-9.701717909847826782e-01,-1.819441833277661291e-01,1.176835340173659095e+00,-7.449903794115254607e-01,-1.255844747343432877e+00,9.168286690714956277e-01
-3.038255669618317723e-01,6.359101303610009692e-01,-9.968471791843896979e-02,-1.610856676732872916e+00,-1.779015557322260799e+00,-2.867293036223857606e-03,-3.895292049068596607e-01,-3.405396673179567762e-02,7.350594606799850661e-01,2.285256055423453003e-01,1.030560380035389745e+00,-7.486371648786560584e-01,-3.565532441395010133e-01,7.074676111259889932e-01,-3.124786050438423946e-01,4.892166649327142069e-01,-3.405966981754402489e-01,3.093839939201905587e-01,7.759202533798940093e-01,2.982025381448934476e-01,-6.145810047564781442e-01,6.587781945561159425e-02,9.148418974211505184e-01,-5.897854169935958790e-01,-1.202774798523110977e+00,4.066269821441843013e-01,-1.033229352432738057e+00,1.528716968127740827e+00,-2.352658926006438112e+00,8.818129520192468096e-01,6.035768860720092110e-01,-3.234206535608723492e-04,-1.387143820071813360e+00,2.730768193511018627e+00,-3.999785246017250606e-01,1.825406653878376639e+00,-7.900129224238680581e-02,-9.171419785726555316e-04,1.308297232922894127e+00,1.143110609439423442e+00,-1.882847479492839815e+00,-1.839934398155119055e+00,1.194138238696193621e+00,-2.784553229339314373e-01,-1.119937959699881108e-01,6.836359390936783686e-01,4.915224836125356433e-02,1.146614054055054899e+00,1.159228441693790357e+00,3.224550940149675249e-01,-6.005268601858754218e-01,6.407830064063801956e-01,1.000633429598484669e+00,-1.131424268322165916e-01,8.597472964325948430e-01,-5.072688516726119312e-01,-8.312040028800661284e-01,-2.539415839806032249e+00,-2.099897383728885347e-01,1.434849005006473943e+00,-1.003763314310612831e+00,1.140868589339992356e+00,5.066902801479564733e-01,3.694395540047842319e-01,1.047845923110375166e+00,7.965417431897495182e-02,1.847989002628025901e+00,-1.040609335260050949e+00,1.267638485008074856e+00,-1.912990407615220156e-01,-1.231224444590312661e+00,8.082483377152138715e-01,9.109283995322733918e-02,2.165252227829189025e+00,-1.157784277480993662e+00,1.132164497825404847e+00,-1.370404078225364142e+00,-1.309966332392475730e+00,4.963732043537703031e-01,4.641909576628929224e-01,-3.339528583309064325e-01,-1.555129068059195596e-01,-3.170983484615849113e-01,7.204382239459135029e-01,-7.323221027174630082e-01,4.007743021179135945e-01,-7.813791831889678186e-01,-2.661846136864624013e-01,2.184001160378080675e-01,1.926510267411341570e-01,-2.214024946059206744e+00,4.554061720018804937e-01,3.896298384712528207e-01,-1.580691590474619934e-01,-7.914890300011824253e-01,-6.454488866764176436e-01,8.554243878578666749e-01,-2.886234517608311512e-01,-1.331379081468453407e+00,-1.029571121909585552e+00,-5.927441094129251020e-01,6.435445950413344329e-01,-7.944117168653777039e-01,-1.539717847235912318e+00,-2.274259832274901694e+00,1.294565684808359762e-01,9.338170025139481689e-01,-1.306806193056076815e+00,-3.973315884503217377e-01,-3.807390531807662293e-01,-4.231321175439707316e-01,-3.220427664195906203e-01,-7.660669577443178502e-02,1.315232207845773216e+00,-6.350199070341190355e-01,-9.111709251460750059e-01,-4.370403550341451782e-01,-5.507840132840278180e-01,1.055682058333097875e-02,8.496787941643996200e-01,1.455498386304554248e-01,4.656020053990164720e-01,1.055842523833508961e+00,-8.949376082238579277e-01,3.582120407014265928e-01,-1.481775096341941822e+00,1.080426300374729864e+00,-6.740278481196623206e-01,-1.011653827247199544e+00,-6.643518078021757312e-01,-1.266361553761339076e+00,6.608139955210245997e-01,1.235218430448633553e+00,-8.156233546060825956e-01,-2.602306767974387203e-01,1.599418537964317766e+00,-4.252223193159231363e-01,7.206500030012387148e-01,7.444972213564924335e-01,-1.207429580850511441e-01,-4.276850873773386796e-01,-2.095668693087757439e-01,-7.715824113322167221e-01,-1.507812675615738618e+00,7.174764215196320905e-01,4.047086528422055296e-01,-1.309029520229257004e+00,-1.058549400850276878e-01,-1.989099286650919396e+00,8.239917239940939275e-01,-4.040025095200875382e-01,6.053239410208175464e-01,1.297672008919502185e+00,-5.985044701683295276e-02,-4.180730361898675196e-01,-2.311580054458423295e+00,-3.793151952349422262e-01,-6.967341546125185303e-01,-4.194018398930784430e-01,-1.513559168615312478e+00,-7.730710296408666027e-01,-1.277642196686807896e-01,5.015977539941062213e-01,-1.445835968597514454e-01,1.073192291365932194e+00,-3.615389893263917798e-02,9.545288516755955355e-01,-3.849612974953704470e-01,-5.689876725371546540e-01,-9.226063896744080006e-01,-1.232181473492703683e+00,1.731147169677703213e+00,2.287932747267994449e-01,-5.249555775014914660e-01,7.356938765221345822e-01,-4.645714306644069813e-01,-4.083492547029723974e-01,-1.104423692099103738e+00,6.273849420178855274e-01,1.123488463875622623e-01,1.431181083324652326e+00,8.515789865090694910e-01,3.474866558607859091e+00,9.037672335385712463e-01,1.322165751686806168e+00,7.869779795186088167e-01,7.213587809304564669e-01,4.302858551580051039e-01,-1.142441353361195011e+00,-3.968867692176794026e-01,-9.066648815634726910e-01,-8.183794161325637084e-01,1.705123987708837552e-01,-1.714892350035235991e+00,-1.248262643302634922e+00,7.577866762496499042e-01,-3.065398966458309227e-01,7.835560027731964805e-01,-4.311515516261378300e-01,5.392217268825146848e-01,-6.254573817176188877e-01,-1.080780304181816476e+00,-1.325498914876542811e+00,1.889765701918323659e-01,1.338697968704526953e-01,6.819621203506689433e-01,1.997863653511519344e-01,1.264583222723628886e+00,1.263564944552458824e+00,6.017651656835339979e-01,5.251662184889714924e-01,1.486806811237980863e+00,9.866821736797257714e-01,5.388311501431617412e-01,1.539498684537057072e+00,8.991383622696098588e-01,1.706066476927441844e+00,1.913459220075091949e+00,-1.279801723348131581e+00,-7.787505201152381540e-01,1.174923583822380824e+00,-2.545264718400353648e-02,2.356222324408150659e-01,7.128403467509244473e-01,-7.769382166291428637e-01,-1.683619589695041219e-01,1.890493743041408714e-01,1.568400154883750064e-01,-1.184949297922335276e+00,-1.218682486296202683e+00,2.519573495766406879e+00,-4.907332982769734286e-01,5.922866919724689705e-01,2.563796462131670673e+00,-1.008484317141381981e+00,8.000875758795140680e-01,6.149961910702423928e-01,1.961720263465324576e+00,2.335487746690653843e+00,2.142291051398281798e+00,1.246353649564356347e+00,2.178052321012949599e-01,1.007747149999452807e+00,2.659423124740831201e-01,-6.526172332887361094e-01,-8.166955036411747137e-01,6.372029298480695880e-01,1.156037940920433327e+00,-5.310478195265696533e-01,5.055452320401104815e-01,5.195618412407558839e-01,4.493599946966500003e-01,4.976257535926680714e-02,1.739767351877061330e+00,1.166408153846158369e+00,-1.663228757849260220e-01,-2.753088148215332986e-01,5.264936190094255952e-01,1.425232524792141797e+00,4.781162154917055207e-01,6.209235911519656037e-01,-7.135136807260004099e-01,2.051393079770610139e+00,8.756887999629575647e-01,1.644133117048212966e+00,-7.067024297791302256e-01,1.810485073041852022e+00,3.845573587930606885e-01,1.184373684336329946e+00,1.774528031172501130e+00,6.140224090154420278e-01,8.262582539875490406e-01,1.649928494586354821e+00,1.443721169820799677e+00,-4.035946139405093003e-02,9.436723788416413738e-02,-1.545972984149976304e+00,-6.915111774310002124e-01,-1.416540475523186959e-02,-1.924939521912351625e-01,-9.088782081976062299e-01,5.041109084991719502e-01,-2.704017492498747566e-01,1.102007864679754645e+00,1.846593985478082400e+00,-1.758132246564227952e-01,7.661687484381136670e-01,-2.172041695213840773e-01,1.592680467665338773e+00,1.127501304416729799e-01,1.057471484778037096e+00,1.681046746190359709e-01,4.514990205425795655e-01,1.516994394796595591e+00,1.665218000223946726e+00,1.186788611844799446e+00,4.150845450001268144e-01,-2.551799452680871827e-01,3.568349526935892246e-01,-5.438750346790850454e-01,-8.347105520431602477e-01,-6.198953892409775346e-01,7.005908060953207617e-01,5.627959224737479893e-01,5.485241633279324125e-01,-1.600572817467163178e+00,-6.714372539818554975e-01,9.073788374996817341e-01,-8.995105522655022501e-01,3.278777455510328287e-01,2.748864054080552566e-01,-7.847194045445593513e-02,2.597821611051325807e-01,4.159750290297968278e-01,1.828697807388502961e+00,-1.002852069224327458e+00,-7.079437585077891226e-02,-7.466158284801046596e-01,-9.330349440609218836e-02,-1.306340208373514278e+00,3.880659369018149008e-01,2.684774224185919045e-01,5.621945283589224740e-01,1.342898074228681127e+00,-8.186535876635808728e-01,1.135752254924477844e+00,1.379442462323761331e+00,-1.223130012720282378e-01,1.826290274943299874e+00,-6.598592563293936841e-01,2.191226461689798732e+00,-7.439993442653216604e-01,1.320199618291629351e+00,3.057051446974269338e-01,-5.586590481790786322e-01,-1.354807628959911581e+00,-2.359979528898609846e+00,1.011779759759331654e+00,4.362776459396383033e-01,9.156278902325525326e-01,2.514799609180747297e-01,-5.891478835384025281e-01,-9.439872388681302962e-01,-9.743697236922910232e-02,8.281563915357817787e-03,-6.354246830664939116e-01,-1.356642019233780472e+00,-8.923469651246233036e-01,-2.506591190614541720e+00,-1.325927249547276688e-03,4.368912190623565062e-01,-4.001239455116880062e-01,-4.758673595016641999e-01,-6.802682270801360120e-01,-3.933950843859008312e-02,9.730732758058378007e-01,1.196511428533200805e+00,-1.524922827414457283e+00,2.071886505692669189e+00,-5.537624321256341409e-01,-1.247989176422703128e+00,-4.020664326495336227e-01,-1.908783811643550932e+00,-5.831949268012951437e-01,9.475843816650789675e-01,-7.387855302123079726e-01,1.399072119299656913e+00,1.356464514432614621e+00,1.346024933671367885e+00,-2.334137118350587681e-01,8.955045044595979706e-03,1.322039241051011782e-01,-1.665763815831398986e+00,-8.723754756667723154e-01,-1.037829422398462320e+00,-1.643035880378180824e+00,-1.149281964350771235e+00,-2.142882211090386124e-01,6.364744479573143654e-02,7.274252922659747433e-01,2.031441661089245787e-01,5.195318005477742584e-01,3.769450467498113855e-01,3.952911688663306444e-01,2.206334234683154372e-01,-1.210110103198710041e+00,5.581757342545256018e-01,-1.042893298905917199e+00,7.525531679887536018e-01,3.193218283937073743e-01,-3.666587435916097704e-01,9.197970151397598659e-01,-9.831264314177251551e-02,1.020084368170191880e+00,7.487753299944707730e-02,-9.210503744133418103e-01,-1.845607087386943457e-01,1.083419226513378519e-01,-1.140141120282551768e+00,-1.321559238350979770e+00,6.079044314081905043e-01,-8.281796046246931997e-01,-7.545654802389583082e-01,-7.586533201909231305e-01,-1.839990331041483573e+00,-3.170849149548418122e-01,8.750687726906570818e-01,3.607582661139127622e-02,4.599329415879016003e-01,-7.678696948680545642e-01,5.402645745161996915e-01,-5.916725208989065399e-01,1.814999893267230935e-01,-1.828578838151233843e-01,-9.975254276983791524e-01,5.087769409546206711e-01,-1.960535955054178547e+00,3.895275872401805506e-01,-1.647377032141866371e+00,-7.103928270586754579e-01,-9.008243091181212803e-01,3.196260070303280076e-01,-1.130018618354331483e+00,-1.427844088100916897e-01,-1.015551583181158790e+00,-1.851897810966417202e-01,-1.714608613938585213e-01,3.963163795633757869e-01,-9.906574491462916132e-01,2.317958669327008780e-01,-1.358549959741604196e+00,-3.395815425205429561e-01,-1.886466564404918556e+00,5.224805860019750003e-01,-6.863087691098555820e-02,-1.612844767712841909e+00,-1.161074432250554178e+00,2.591885134644479338e-01,-7.159717117002148967e-01,-2.489851733052333427e-01,1.088392412240882096e-01,8.614523199613913218e-02,4.341953853811737485e-01,9.454852964000397542e-01,-1.045570118156087663e-01,-3.073284845337085902e-01,-1.275198369146074429e+00,-4.307522424895189883e-01,1.623447129633332153e+00,-6.724877191712536062e-01,1.250938632400358630e+00,6.369684585824217371e-02,-4.836098455581822053e-01,-4.095701618532487931e-01,7.495933146813116288e-02,-7.816418428510865102e-01,-1.588466099554622701e+00,-1.162859902156082148e+00,-2.310025726807569697e-03,9.359852303900225712e-01,-5.121768261107853548e-02,-1.514354316637136710e+00,-4.652171603374273823e-01,-9.712227213274804427e-01,1.191226573588632931e+00,-1.337960736114317095e+00,-6.780882493369716491e-01,-1.961079479629990185e+00,-5.471660498983695886e-01,-8.387782775937203672e-01,-2.059924967657817518e+00,-3.835753244401918671e+00,4.671494143132302601e-01,-1.047483662444033348e+00,2.244543848905058980e-01,-1.770541378699777457e+00,-2.535463293842087906e-01,1.322776715526658153e-01,1.082710878912279684e+00,8.486840070656950230e-01,-3.432479105949339804e-01,-2.890272910860047784e-01,-1.007768919804919117e+00,1.131285030932102087e+00,5.109645352998094525e-01,-4.167494539065355608e-01,-5.021905776944715072e-01,-1.086367340129164825e-02,-5.893370634313070157e-03,-6.821212198060674359e-01,-8.815578776613044454e-01,-2.960924734098716038e-01,-1.016013110232711458e+00,-5.431367728928899741e-01,1.283552465575763746e+00,6.396306117552479353e-01,-8.295203096663323894e-01,3.919772984452425391e-01,1.745889477019851643e+00,1.693212274689483543e+00,-1.270833585868057780e-01,1.099461628705009408e+00,3.528568756317578270e-01,-8.786340458168920842e-01,-1.210184232957205674e+00,3.767191667022570245e-01,5.379788774160689652e-02,-2.086495606545039294e+00,2.310966102182434589e+00,9.991812887182043301e-01,-1.743731869922532721e-02,-1.566190779420613355e+00,-8.980856010470236184e-01,-9.556403128371764311e-01,1.273206710290512245e+00,2.105150753933289764e-01,-1.452202427695573839e+00,2.557942836206346660e-01,-8.764324621128938286e-01,-1.188814873221237939e-01,-4.435214562313501974e-01,-1.568813091221450684e-01,-7.431292536021406603e-01,-1.305135707675254997e+00,4.378240636549866061e-01,-2.798208472677899294e+00,2.848055527351305294e-01,-3.435487956285017686e-01,1.256839423679276146e+00,-4.856769807297288688e-01,-2.619959138260478104e-01,1.381565546881668161e-01,-1.993078380018379059e-01,6.517975603727034217e-01,-8.784965122079588795e-01,-7.639064399207159406e-01,-3.425033842123106353e-01,-1.238062037208420341e+00,-1.295152004456753270e-01,4.906696677764858516e-01,8.636414418247257974e-01,2.664686183383763729e-01,-4.122113090609067637e-02,-1.191142458435641371e+00,-1.282044017028177274e+00,1.091841075088944013e+00,-1.295209903274478158e+00,-7.127225530755505467e-01,5.669081324984214243e-01,2.967460372424052251e-01,3.668384885894070413e-01,8.469494478467833876e-01,-8.327787844330457601e-01,1.441188352715789267e-01,2.180629754059428826e-01,-3.858865359708139597e-01,1.139367195825488288e+00,3.770764618143567226e-01,4.579380640703795691e-01,8.530623954385849750e-01,-3.588799475632225011e-01,1.968758878677029811e+00,7.783265029596589946e-01,-1.194776581426399087e+00,1.080066864881020494e-01,8.204092150018746921e-01,1.289033730498013508e+00,1.823660720507585431e+00,2.211541810180875922e-01,-1.978006268513211041e-01,-7.705439640045875782e-01,1.004859289146503354e+00,-1.300165799920387055e+00,-7.111256390761802049e-01,-1.567419789071883840e-01,1.408166116248351640e-01,4.234927539933204810e-01,-1.726099223933939275e-01,3.202464232697209146e-01,-7.827353148809537697e-02,7.351595549402283325e-01,-8.191171763165947528e-01,1.007650363292938334e+00,2.785566632657496378e+00,-1.206343388765725111e+00,1.417358215014061507e-01,-1.677448581520619042e+00,-2.531362856198693945e-01,-1.508494100852686703e-01,-1.392756606085961690e-01,5.538508616160857656e-01,-1.570223191747280644e+00,-6.872888088277196994e-01,1.604436123330780228e+00,4.253171065462926226e-01,-4.987605744176129563e-01,3.113073571673430906e-01,1.177260811812424146e+00,-1.144720843120232256e+00,-4.935780314249928469e-01,-1.126083438419158034e+00,-3.078955002037398470e-01,9.422270465379323223e-01,-3.237114331032378556e-01,-1.534134199795134768e+00,-1.183172719022554720e+00,-9.789510973708533126e-02,8.844442383047868006e-02,-5.024668766254192231e-01,4.922975933998988141e-01,-7.008485255677933123e-01,2.026747822072132887e+00,2.132545914978345447e-02,-1.643866358446337328e+00,-6.361551169201010159e-02,2.838333009704169241e-01,-1.307554280120369894e-01,1.002067077441775034e+00,1.954158877294438212e-01,-1.305509949253242041e+00,1.209869252838513320e+00,-3.755971766463612749e-01,5.890719240126806033e-01,3.366393141465057748e-01,4.678256423405404152e-01,-7.862489342055146713e-01,1.623026349754780107e+00,-1.450389508863031418e-01,7.854605304642882091e-01,-5.220102112665209182e-01,1.575685047863064348e-01,7.669182361709393769e-02,-6.994791374910866999e-01,2.919136604708600369e-01,-8.110007541376476059e-01,1.050876332497052479e+00,-2.729734021921579323e-01,1.988065423986990155e+00,6.267232600482870453e-01,-8.306298732040322541e-01,-7.638867986004808097e-01,8.844389137155039826e-01,4.823576092260566384e-01,-1.291220586765478018e+00,-1.191795729509470991e+00,-5.002933596008670714e-01,-1.036242882495836959e+00,2.258280906384634024e-01,-5.380939163956367510e-01,-9.843590777597261976e-01,6.756984002309752713e-01,-5.894592393339791458e-01,1.742858311413958861e+00,-1.054733523505126280e+00,1.051833309603353639e+00,6.954348890405765982e-01,1.764474324139376493e-01,5.950027074404259375e-01,-5.634880952734514503e-01,-1.901583003082932544e-01,1.852121629353705723e-01,5.243473118100793195e-01,1.723557570924692806e-01,-1.171416667803463429e+00,-8.492051608622469550e-01,-1.592182627648416338e+00,-9.891630642611239921e-01,-8.480176035511338695e-01,-2.165336939050435117e-01,2.451721091879840719e-01,7.278105915231085632e-01,-9.174421725060316612e-01,4.481990585072058164e-01,1.236627099222677550e+00,-1.250984023090349728e+00,3.834780838266932945e-01,1.786037656974093002e+00,-6.991769078052549879e-01,-3.204801056762141553e-01,6.461207846892116358e-01,1.159417081313543374e+00,1.015379880486659614e+00,1.209247635042921987e+00,3.339996504267014887e-01,4.153157050152515573e-01,2.934845407198877765e-01,5.265213045122582036e-01,-5.874840635007123613e-01,3.357017303651113060e-01,-3.427934666740636849e-01,-7.455849080084827607e-01,-3.827832394733504673e-01,-4.754940644871786803e-01,-7.005688696762307766e-02,8.681772606331473741e-01,1.583014389680503786e-01,1.071168962707926386e+00,-3.536571699212876507e-01,-1.534662758707296681e-01,-7.891613224449608444e-01,-1.756342837841168070e+00,-1.319472349438320036e+00,1.465712816757897441e+00,3.757190384123652582e-01,1.534083030072302678e-01,1.013668728769030691e+00,1.820674181474701558e-01,5.691758537344246971e-01,4.383135393297951654e-01,3.034647286011429943e-03,3.930177423672714387e-01,1.109227960017761694e+00,1.231391243593427387e-01,2.638172528753915391e-01,-2.110064537730149126e-01,1.330523164777936751e+00,3.125885459962436941e-01,1.583256232414582687e+00,-3.633273088462191103e-01,-5.493424808395245273e-01,-3.219528289770744456e-01,1.412481438364333819e+00,-1.291918428730937318e+00,3.762607025294869012e-01,-1.536128710843168488e+00,-9.371830906114338167e-02,-1.421633471368483947e+00,-4.693424051051836021e-01,-8.369961809194879920e-02,1.593157831930634150e-01,-1.688541177644967917e+00,-4.767798296375149181e-01,6.664726751945069250e-01,6.058771286180211074e-02,-1.398525121835275664e-01,-7.450263704223781813e-01,-3.801765227833184824e-01,-1.170357056986842226e+00,-1.480248229726356946e-01,2.419619976828502328e-01,1.428467021095766398e+00,6.771906870041718429e-01,1.541270663422558362e+00,1.775126523413020019e+00,1.421323218177939163e+00,8.124040451376417504e-01,1.220087373324496793e+00,9.140323162473493745e-01,2.026049817181058421e-01,1.514813904662221544e+00,1.007682654285015245e+00,-1.100570521360924481e+00,8.583618222400521969e-01,-1.206748188297879665e+00,-1.472408888590203357e+00,-1.875516560583439241e-01,-1.453297313355984999e+00,-3.899278217948372038e-01,9.731847032206529802e-01,-8.726952250931949706e-01,-1.400583406452151847e+00,-1.711193554576100118e+00,1.097298826025798313e+00,-1.408522975846493885e+00,-1.892394936949334527e-01,2.478294556239815649e-01,3.905417447794813368e-01,6.422332903678959481e-02,-1.047791952177129060e+00,-4.259791620769914910e-02,1.578458728793415311e+00,-9.308954647358623768e-01,-7.898056448343553360e-01,9.183629841751781431e-01,2.473312884028252834e-01,-9.175642975737196005e-01,9.568537972103910438e-02,1.537225513516362385e+00,-4.727775782919017844e-02,3.811118918727120913e-02,-1.061591054844350346e+00,-1.241219703798807972e+00,2.167458993044042881e+00,4.569770453438066204e-01
9.310386646823864965e-01,8.305576757545659605e-01,1.585237484906963479e+00,-7.848556889293931693e-01,1.062271489310521622e+00,-6.477836807542148856e-01,-1.539338396775415507e+00,2.729314088865832044e+00,2.125746984560472175e+00,-1.654566650537989236e+00,-2.706794104516159760e-01,2.825835845568870908e-01,-2.053543444922029781e+00,-4.181828152952158373e-01,-1.112176502758095709e-01,1.218216223639752682e+00,-4.405045898012588390e-01,-8.203601694074531547e-01,-6.544196681728133846e-01,-1.390442040505052601e+00,-6.618500762318743624e-02,-1.044226589806850791e+00,-3.821167353511004117e-01,6.136680246006970263e-01,-7.332157645206645036e-01,-1.601115692062024531e-01,-3.980810377968221903e-02,1.764407515077720978e+00,-1.813151368854239776e+00,6.038102129944908913e-01,1.889164731044701728e+00,-3.156425887342263481e-01,-6.185683404285485798e-01,2.652599520229154129e-01,-1.492228364300010268e+00,4.859477718258010670e-01,-1.175786043538836617e-01,-1.117082684066639686e+00,1.728883927102970786e+00,2.694624965793079863e-01,-6.701894327555081576e-02,-7.226791069410675172e-01,-1.133920283504666671e+00,-8.964819896383854902e-03,-3.543182762649875195e-01,7.516509371299640030e-01,2.205211943049393053e+00,-1.198918537206935531e+00,-8.859733988065672528e-02,-1.108202031346086747e+00,-8.883869497734194765e-01,3.261549633710829066e-01,-4.185002175767618682e-01,3.701633910996010579e-01,2.937144465323526799e-01,-5.600625858667432899e-01,1.936917235231585266e-01,-1.516046744898506660e+00,-1.671807678993337154e+00,1.322846011304709413e-01,-7.362613839361252799e-01,-9.281120659985196975e-01,1.113155151091211881e+00,8.452421045367256580e-01,-3.423344213751552956e-01,2.503149767285673954e-01,6.341686560498777103e-01,-1.151157460920951614e+00,-8.569144934802335190e-01,-1.494095944554285182e+00,1.513942933015464343e+00,3.699123765153806143e-01,3.406373797640337986e-01,-3.702002299399340113e-01,1.952622992385661060e+00,-4.086361025980358996e-02,4.798152360813082717e-01,3.521267122404105887e-01,4.218307894761774701e-01,-1.081984147499387705e-01,-3.815200354832639640e-01,3.457279110803390676e-01,-8.611256081018503483e-01,7.061572549634984597e-01,1.336170080470097332e+00,1.023604165928672316e+00,-1.671815324107231548e+00,-1.251062286200864904e+00,5.323630725380109618e-01,1.596539336275083931e+00,1.154911108003418702e-01,-2.557487076413513319e-03,-5.584136598831871412e-01,-5.074827687713919788e-01,5.282890332254609467e-01,2.180074456856442855e-01,-6.276480841483735862e-01,1.763622357952743913e+00,-1.509776452588081241e+00,1.048710431853364877e+00,1.161508853759738669e+00,-3.105778306947202805e-01,5.495462230857617314e-01,-1.115009685698300945e+00,-1.690478481579617276e-01,-2.819715724997532647e+00,9.381775733062946987e-01,1.873263431738874385e-01,1.148065379437881894e+00,1.091448826851130649e+00,5.125314451509864477e-02,6.233786439400205159e-01,1.680541942921969789e-01,-9.771520949262726963e-02,1.779091897918480880e+00,2.060494857428087634e-01,-3.009485452655289439e-01,8.655145079178497847e-01,-1.924243025641819482e+00,1.066086304333814239e+00,-5.601194541062001209e-01,-1.165413223102199858e+00,3.206770159230541012e-02,-1.713654857525644504e+00,-1.154524143772446276e+00,4.240076441131560014e-01,1.005667979915409793e+00,4.833297586755616604e-01,1.138276904326060435e-01,3.431584233187365968e-02,-1.483441476959933780e+00,9.433160279081560518e-01,-6.621111709054100514e-01,1.162527250656763655e+00,-1.074731973944392349e+00,4.124504464737413501e-01,7.042087655582597583e-02,1.438655648167662116e-01,-2.329092529428040959e-02,7.114107170120775869e-01,1.242144387481868062e+00,-3.225159365062594263e-01,3.617104943368865677e-01,4.206622757358933207e-01,1.309529185028511344e+00,2.691831811294199683e-01,-5.208323270287861240e-01,-2.921038776435528339e-01,2.422660233463345136e+00,1.598764672780152996e-01,8.151660518253127652e-01,-2.599137117481868375e-01,7.181231276087308713e-01,-1.050173366632921462e-01,9.531771139099974866e-01,-2.921356708332097929e-01,1.246782094757522275e-01,1.020967774856808008e+00,4.282403154344014730e-03,7.346477654355079712e-02,-4.983914458043416928e-01,9.727851951816023357e-01,3.418419683527327280e-01,1.107989390745133473e+00,7.773674299547413957e-01,4.457096630971443263e-01,5.366644328774596850e-01,-1.123009713574701252e+00,-1.798113128527470961e-01,-6.746301020304850127e-01,2.020801649964207997e-02,-8.311868472477991210e-01,1.420528041818843734e-01,-8.923432824047470291e-01,-8.020087915993854288e-01,-2.785502384982287485e-02,6.805419508948377105e-01,-1.438804906532822780e+00,-6.279939041407555100e-01,-9.183387457158653788e-01,-1.116755289522171068e+00,-8.605917474230988518e-01,4.286949195631599152e-01,1.744340229945279541e-01,-1.051478388884320436e+00,3.941340362233197725e-01,-6.836493893338551064e-01,1.816191166602295848e+00,-8.693304255794488400e-01,3.179584026616555925e-01,-4.582679981329605412e-01,-3.740200785079976775e-01,-3.972697831039156413e-01,-5.528835604446344920e-01,-3.662045786550013893e-01,1.470368534661697701e+00,1.727306219687518407e+00,-8.239865510423390882e-01,1.711834002054500647e+00,-4.793388884609586231e-01,-2.285516519797294865e+00,2.961514509473764378e-01,9.006657897441604499e-01,5.090207965516683197e-01,-1.096598628891139793e+00,6.299785413972111003e-01,-1.228901912665604224e+00,1.487772170471898026e+00,-2.992475091121660769e-01,1.191109052596127094e-01,1.264124583501833099e+00,6.963390268986702214e-01,4.483937709042898345e-01,1.997274497021149786e-01,-1.516815478131146477e+00,3.028607342555513227e-01,-7.272518836280218446e-01,-1.037198801933565173e+00,-7.865038964141189970e-01,2.478326744991496411e-01,1.729937014322723954e+00,-4.616051010306334579e-01,1.765919843095811459e-01,6.481359547386574826e-01,-1.647021953268410055e+00,1.507509628465886875e+00,1.250158303830589679e+00,-6.718525465038019950e-01,-1.353240545917041571e+00,-4.782985665689339361e-01,-9.903804954616174383e-02,-1.025206010744691865e+00,-7.191111103836402008e-02,-7.251128842122246398e-01,5.356929268073672423e-01,-1.299036632489687371e+00,5.681114196722457654e-01,2.341432575351597434e-01,-5.381867880413797600e-01,-2.573190366036612442e+00,1.835125346482208986e-01,3.335140697501345342e-01,8.057384237511168168e-01,-1.028426927736361796e+00,8.536691450297276829e-01,7.952525907157392826e-01,1.223788091819818513e+00,9.452392440502375148e-01,-4.501733416848041278e-03,-1.140340677004842540e+00,1.032610811814908880e+00,-3.944160219558754954e-01,-1.312028418845052169e+00,1.424982424270420989e+00,1.172769945896675825e+00,9.105270174008031070e-01,9.149142020781028117e-01,5.800850513278174025e-01,1.253942974563340140e+00,1.329096473186150429e-01,-1.005370511218700136e+00,-1.238354926530045974e+00,-6.213700373925484799e-01,5.599851628038451379e-01,-4.999568388851786671e-01,1.977073771618596654e+00,-1.632305914460997043e+00,1.116083622583416979e+00,-2.838084008932585389e-01,-6.501636009589482901e-02,-2.940182006355142041e-01,7.875094325175342469e-01,-8.270519074105644464e-01,5.509666444935346075e-01,-7.330056953717620782e-01,8.828166824196925777e-01,-2.245890665035154221e+00,-4.633346852966381824e-01,-7.301821865428622660e-01,-1.222724893635419141e+00,-1.579106999249817234e+00,6.035409677386892602e-01,9.215603747445707539e-01,8.039292618666979973e-01,6.756606858435244556e-01,-9.839843463032797999e-01,-6.417658866253053151e-01,7.337085392353488444e-01,1.007097172149626463e+00,1.041138228617617845e+00,-2.312320066624619641e-01,1.143273333286932925e+00,-3.663318891886152007e-01,9.191342488542486588e-01,8.761088776491954278e-01,7.652409341047141655e-01,-8.743182564610091356e-01,-2.057096583413521862e-01,1.247488863674860005e+00,-2.097028783901853377e-01,1.046549201476278279e+00,-4.879567117050547798e-01,-5.873883738883307615e-01,2.819843653713450249e-01,-1.132711204209047473e+00,-6.235042977751873439e-01,-3.077854351359230467e-01,-1.576725621919006504e-01,-8.656625780928085545e-01,-1.301244761990974774e-01,7.956447555119945392e-01,1.086984171716101510e+00,1.813496215671556611e+00,2.518606513453950368e-01,1.643231017687760920e+00,3.597789207233448305e-01,6.759570900227088730e-01,1.353531199507218841e-01,1.529767664838109997e+00,-1.251694018258452834e+00,7.631818127850263644e-02,1.936653431238743783e+00,-1.538821718952705364e+00,-2.514574336165073642e+00,1.001124650743759614e-01,3.775815073269138122e-01,4.618672544622492993e-02,5.490345193885080022e-01,-1.976797641824859508e-01,2.057556539607909851e+00,1.912900523939608854e+00,-1.177305437407770938e+00,2.495851834980943040e-01,-7.271221589350000958e-01,6.372970016514248881e-01,1.769165003430395733e-01,4.475929766455117309e-01,-1.856324616626240931e-01,2.200749814858689313e-01,-1.650327001688170370e+00,7.148191745794686414e-01,-1.512757970906446037e+00,-2.869070043443244233e-01,-9.477103587542344831e-01,9.828404376414902055e-01,2.596625797005545633e-01,4.042256548950906581e-01,1.249962984414223349e-02,7.833048362059965575e-01,-1.103320607238028161e+00,-2.775932049281054859e+00,-3.180205369038551222e-01,-6.570951031206199167e-01,-1.031352841527845232e+00,-1.596252958130985222e+00,-7.439111531887087070e-01,1.159758067428645623e+00,5.806122925830713433e-01,1.622705168587182722e+00,3.519773542701474800e-01,-2.742314182388571608e-01,-4.889528107990445682e-01,4.539048237316380963e-01,4.047135522543646724e-01,-2.000144130636787754e+00,-5.553114711662706648e-01,-5.840221680013440997e-01,-3.165013366780140558e+00,-6.191471267229783915e-02,9.954192490065439936e-01,-1.708229694159982548e-01,-1.048266114266345195e+00,-4.819049454349934591e-01,3.445388230328836343e-01,1.710913270456103641e+00,2.508346669269512219e-01,1.442557818044393203e+00,-1.183839326650753421e+00,-7.472687975951133321e-01,-3.724160293375515796e-01,1.940969352850089591e-01,-1.642218226261272784e+00,1.088709043122046305e+00,-9.156551545183733154e-01,-5.859849879130273331e-01,-4.703937352084056611e-01,9.568148200972896866e-01,-1.580536262336678932e-01,-2.609330074456419624e-01,-4.980387269846538872e-02,5.295122733589272546e-01,-1.037138749633363499e+00,1.035037659837063639e+00,-8.983780977917934507e-01,-6.792023354561351756e-01,8.509952358032240038e-01,-7.940475384043350626e-01,6.150565601313081610e-01,1.492484166185611638e+00,8.714912188665536741e-01,9.800320877342861836e-01,-1.253601051242056730e-01,-7.304864968039188611e-01,-3.244444624892062201e+00,1.427573932192557071e-01,-9.667205170174043571e-01,-1.299588990348891304e+00,-1.679992528325424672e-02,-2.736997885468288594e-01,-1.077458676384677849e+00,-1.264058504076544243e-01,1.631518647844330649e+00,-4.174923504059817048e-01,1.093596387810193749e+00,4.532419221082350513e-01,-5.699860288349911652e-01,-1.627419145384909172e+00,1.429246486476160927e+00,-3.551444280276744858e-01,9.814062979498712203e-01,-1.569903294650184800e-01,-2.137899925023628356e+00,2.590133031489799675e-02,1.135209704459049229e+00,1.183111713049938007e+00,-6.553302907690800039e-01,-4.054629788192711248e-01,4.831215398557936469e-01,-1.659806859232850276e-02,2.043829694990640655e-01,1.807847003463688984e-01,-1.350422466327326321e+00,-1.201488626852123653e+00,-1.056866599678410346e+00,-1.710774764248065960e+00,7.768991223959024195e-01,-1.845030694767618495e+00,3.580391387097367484e-01,-1.215672102175564984e+00,-6.503457647054919910e-01,1.452941552032799011e-01,-4.968663105882303310e-01,1.639336436647385042e+00,2.201484335497922440e-01,1.573063246795889158e+00,-1.279721322543486972e-01,8.940578120491833314e-01,8.356453568347695926e-01,5.997038492964912315e-01,1.499879396418153821e+00,-4.751582876861342730e-01,-2.368380190907017457e+00,-5.946007064710596979e-02,-7.562156256514841746e-02,1.679895408722209105e+00,7.318624006991082398e-01,7.951561202285144514e-01,2.599685995597203481e-01,-7.790724144535084994e-01,1.212487223360764199e+00,-1.734330802207258104e+00,-8.068519759951114922e-01,-6.022758056708005237e-01,5.582916943810696253e-01,-6.432820732953302700e-01,-2.227824114391617982e+00,-3.418803817723660710e-01,-5.554807169725433091e-01,7.185771112458795296e-01,2.814166325791748746e-01,1.862847240176449759e+00,8.651420318636358076e-01,-1.622353449611627363e-01,-3.068427806109577660e-01,1.725794279037466517e+00,9.905045763646630474e-01,-2.629425638023430434e+00,-1.761558340698155256e-01,-5.427901993534369751e-01,-1.055748996118409000e+00,-1.769586316282593330e+00,5.894918958105149764e-01,1.667703449941872196e-02,1.911099229757156626e-01,1.251247977771805742e+00,-5.300027176691642916e-01,5.471377450666812248e-01,-8.002617198767896234e-01,-8.547124901833109689e-01,-8.180900152396697322e-01,-1.291770446413411655e+00,-5.930700583464544318e-01,1.566380039179121053e-01,-9.018670804971414823e-01,-7.276534130443554904e-01,-1.058793484748398406e+00,1.398688261025100299e-01,2.495068638843202236e-01,1.465123301454487048e-01,1.013091843770702161e+00,-6.252064582514967883e-01,-1.171925462302069842e+00,9.613041661228263202e-01,-2.651038567180354022e+00,1.749951847918067571e+00,8.558953199782032284e-01,1.393267001348953982e-01,-2.959085753114577555e-01,1.345384453772877631e-01,1.121020209318215367e-02,-1.103358361915971031e+00,-2.329314868764937041e-01,9.316148377540337533e-01,-9.597763568787350819e-01,-4.985769358346626157e-01,-1.548195050543811069e-01,-1.766456998073909490e-01,-1.299989874435576176e-01,3.098364643180168687e-01,-1.106493638983163441e+00,-1.564388328307069198e-01,8.795715586220577142e-01,3.505856607463282426e+00,-2.044186947647737451e+00,1.054044871919454618e+00,2.078171632593331375e-02,-4.453574598754284630e-01,-1.274752392871285889e-01,-4.313792133098967585e-01,8.755287490921063176e-01,-1.869461134702476324e+00,-6.998953020879453701e-01,6.258369117668839410e-01,-4.942661139174578944e-01,6.933658099420728638e-01,-8.525038037866181639e-01,-1.138000823547570484e+00,-1.402786028386539263e-01,-1.291494724324609988e+00,4.674623444183823029e-01,5.349694639897339954e-01,-2.454264478913017467e-01,1.349881754937991785e+00,-8.242091347436911741e-01,-5.857520847124252361e-01,-2.045472965248553265e+00,1.328868956405859225e-01,-7.515005624689702346e-01,-1.587906007596804114e+00,-2.369160079360263238e-01,-2.223125942980621328e-01,-8.741321591378699019e-01,1.716629988890624237e+00,-1.253802820166646903e+00,1.393401281692375537e+00,-2.797386143779558854e-01,9.647777724854639247e-02,-5.910559148795303530e-01,-8.974896649851278330e-01,7.914425193199408071e-01,2.638973125041742529e-01,-3.732397769907525031e-01,-2.111633091688634778e+00,3.631265346988698517e-01,1.217392857849841858e+00,-1.895734159117439532e-01,-2.124535110206262900e-01,5.512042576327317311e-01,6.608868706595393272e-01,1.780690422012230822e+00,5.880645978788019423e-01,-5.500817863632727622e-01,5.355255170410325727e-01,-1.359371595543193423e-01,-2.270174860094959501e-01,-4.633255974882131145e-01,1.557637458508161488e-01,7.091565935856547487e-01,-1.203453236591624093e-01,-3.897676911639674224e-01,6.640777323683636491e-01,8.512701015100991586e-02,5.073560657927662643e-01,7.016727167170033752e-01,-4.370108485439130885e-01,-1.581657396450686592e+00,-7.804547273806659857e-02,-8.039237036881836662e-01,-3.325428919787096205e-01,-5.851292961892720079e-01,4.369457438933064819e-01,1.736138442365610546e+00,-3.966378524980761489e-01,-1.748893546386434961e-01,2.845027212868918576e-01,7.087516818366338400e-01,-2.131525012963287669e+00,7.886332706306067308e-01,-1.184165619114393886e+00,-4.000307233491005032e-01,7.710411503701949387e-01,2.024769290300130642e+00,-1.147305115269725340e+00,-1.028828568305011126e+00,-6.402110700220711159e-01,-3.044338653403302342e-01,-8.595556023580652738e-01,-6.024570356279868033e-01,2.995787752057451070e-01,-1.064040609695207751e+00,-7.490313183976990974e-01,-1.292459555386328729e+00,4.713661370285964769e-01,-7.764155379342634333e-01,-5.224295789167717752e-01,-7.672059115556800757e-01,6.449018768470301533e-01,7.828684111364525924e-03,-2.121288215384188880e-01,2.188331791117838487e-01,-2.623015827878051320e-01,-2.698019403232518876e+00,-1.899125229991305064e+00,-1.160199115544534587e+00,1.910627772833356497e+00,1.130669122758803491e+00,-8.829514673674159209e-01,-4.310302790085720481e-01,-9.552831640363999011e-01,-2.233004218565050880e-01,2.014120838196338692e+00,-2.684295535947017752e-01,2.513632285157327839e-01,-4.411478707049442671e-01,-2.690702074591284076e-01,2.868986454438001155e-01,5.399512795071437221e-01,-2.150521006855918849e+00,-1.836810562016110371e+00,1.635508835958166651e+00,-6.527622524333051013e-01,1.119919737208492222e-01,-1.170556723453105574e+00,-1.001987157298655541e-02,7.176985691500962217e-01,-8.875279868503845870e-01,-6.627039556278214727e-01,3.161729449288641081e-01,2.118189787730287321e+00,-5.101491220035193619e-01,-1.247277634065854679e+00,2.093783153753195347e-01,-9.137821351673584003e-01,3.455182968328665560e-01,-4.840686525452411182e-01,1.871094830235020545e-01,6.932340044658159561e-01,-4.638355509978414060e-01,6.007979609685744071e-01,-1.370213757044861591e+00,4.892362457723341551e-01,-1.854565193208477458e+00,-1.052051097360289900e+00,-1.932732705144346863e-01,6.956672778697622350e-01,-1.764527783453066823e+00,1.188645964431493118e-01,-1.376466928832275727e+00,6.292800364041221117e-01,2.326460908493361013e-01,-1.963438364142519932e+00,-1.710640585035448691e+00,-7.345291320610218833e-01,5.222999890119830457e-01,3.422332675355270748e-01,-4.006597362792903294e-02,1.357782837888756866e-01,-1.819705173005248811e-01,6.030848520320748057e-02,-2.119366452143287560e+00,8.418939012211161810e-01,2.024768667586762660e+00,-2.652004226621385019e-01,-6.608991945897628728e-01,-1.201135883640469304e+00,4.757482161845386637e-01,-5.498913550962857277e-01,-2.071720558203074436e+00,7.212662108967042851e-01,-1.453024846434234352e-01,3.907414471916276222e-01,2.491188944090740875e-01,-6.130337708644535422e-01,-6.330689775239854988e-01,1.102677894502505085e+00,4.907231993693310090e-01,-1.156919914122771509e+00,-2.281675310247617550e-01,-1.875708318597955337e-01,-3.648940185301544625e-01,1.551052683157434942e+00,-8.651285286159368093e-01,1.362445627686137244e-02,2.237156668560023182e-02,-1.854978298599804010e+00,7.721822380050227252e-01,-9.310678699414048909e-01,-1.295811419819942190e+00,-1.681428288312278307e-01,4.461856381363612511e-01,-9.235633165763247332e-01,-7.230357575694384975e-01,-1.303810467378591520e+00,-8.800118872601558895e-02,-1.022930485520814559e+00,7.477303043773159130e-01,8.002426077512591052e-01,-5.462303875412681808e-01,-3.738130982338912500e-01,-1.102877110771783853e+00,-9.766061168699320394e-01,-2.691652471096165899e-01,-1.328463722564323213e+00,-4.634420757799155854e-01,7.391043686370206700e-01,-3.467498137821338755e-01,1.408925298426069839e+00,1.558568351006740793e-01,3.601419469252277183e-01,-2.442356780479531864e+00,-7.816469308356372991e-01,5.741881094655388873e-01,1.251657396401142819e+00,1.119651276589923361e+00,4.007541017261221916e-01,-1.228656942625025117e+00,1.668096723712660490e+00,-1.193823516262179529e+00,1.548557715737602924e-01,-6.058003769546415063e-01,-1.323909394282563046e-01,-1.792881186269321137e-01,8.211069255562437608e-01,7.449469138121186385e-01,-9.224462299031029877e-01,-1.109363390968229002e+00,-1.419964224340917847e+00,-8.479846400262698314e-01,1.348678147334367194e+00,7.187915299392180768e-02,-5.341841870668672110e-01,5.978057375491381276e-01,-1.288398738114887809e+00,-1.569618015383398013e-01,-1.254394156682542061e+00,-1.689289398517691776e+00,1.103039372321345385e-01,-6.417678951742437077e-01,7.668914375881117351e-01,1.586393261130703891e+00,-2.945517279410764244e-01,1.875080471157478113e-01,6.381043395130815421e-01,-7.755556646854987191e-02,-5.440482055003049711e-01,1.722217626786731071e+00,-6.291609172042086362e-01,2.897691960258879651e-01,-4.816250926237850560e-01,1.741652833892816110e-01,-2.999298932243747551e+00,-2.873956815367633144e-01,1.788257774584526061e+00,1.003278324977389113e+00,1.261601504833118233e-02,-8.284897855784386644e-01,-4.340668656948768467e-01,-4.618662993657416949e-01,-1.098729911718356322e-01,-2.260530913522105223e+00,1.353807498975197587e+00,-6.042968302664816216e-01,-7.648259040758745853e-01,-7.630616660118727697e-03
-8.231179945976706269e-02,-1.449275847591019017e+00,7.847818307542059335e-01,-1.032524156974147456e+00,-3.074053739656931739e-01,-2.147140176325698757e+00,-1.050412760802127643e+00,-1.136253046798663791e+00,-2.351099017861707496e-01,-1.494923815842004178e+00,1.857237216461821716e-01,1.625652194938557726e-01,-2.373849619580748360e+00,-3.593682091943918855e-01,4.345352514550626655e-01,-1.876161791915921806e-01,1.399363643412122160e+00,-9.295335340565322735e-01,9.765950865361866517e-01,8.503290861770135267e-01,-1.540406668629272335e+00,5.615348985535616455e-01,-3.187763525813525622e-01,-1.441097371857655185e+00,2.560536789358451304e-01,5.043319395445698961e-01,-1.337308961153899078e+00,-8.014086669164270926e-01,2.734524948507626174e-01,-1.458110333437540596e-01,-2.399544261891390362e-01,-1.142236646232196673e+00,-7.539014377841345149e-03,-9.963385930811644586e-01,1.109791657331312825e-01,2.155853860605027705e+00,1.075104450939915690e+00,1.488123056742585160e+00,1.021689578228978768e+00,3.473122654768335815e-01,2.340220614137309973e-01,-3.648928604384416574e-01,9.042526423903872457e-02,1.903114691642188383e+00,1.457865974816639820e+00,1.509655382800237644e-01,-1.467431965032320873e+00,-1.146892322017866395e+00,-1.083744100501172092e+00,1.058656250750433347e+00,1.895111813949018065e-01,-1.060541348422032980e-02,1.622342914496153421e+00,8.788604564170425792e-01,8.363748416903908911e-01,3.363082763093402927e-01,-2.903492735453284679e-01,-1.940825370513901360e+00,-5.301123500043452008e-01,-5.359402560253603287e-01,-2.418372152092166175e-02,-3.703604817316866193e-01,1.416106042047197422e-01,-1.941943810193773601e+00,-1.831082973382456514e+00,-2.192008530593124171e-01,-4.416489939467860282e-01,7.564869078199411012e-01,-6.836570931417668140e-02,4.410438985015398550e-01,1.942514408799969616e-01,2.470002665931308350e+00,4.692081330551730045e-01,-5.192396512151830068e-01,-3.412389615808409715e+00,1.992946142570522772e-01,7.410158013541491562e-02,-4.986992920891259451e-01,6.772772801181828894e-01,1.249534927501043113e-01,4.845221296152852353e-01,-5.023579537490080460e-01,-1.422271697744365460e+00,-1.677473109368467830e+00,1.704353355186074337e+00,-9.114245136580054751e-01,-3.979598576690157041e-01,-7.222340975246377415e-01,2.439422843579166056e+00,1.416263864160024255e+00,-1.404451805159444344e+00,-7.646016784037709124e-01,-2.160917535586526217e-02,1.088855768600508478e+00,3.564226461866421558e-01,1.192357212134401268e+00,-1.374801368466589846e+00,-7.347447915289433418e-01,-1.959754651614905807e+00,-2.173005816055895434e-01,1.086980363048773990e+00,-1.580501938636782455e+00,5.003587779133380486e-01,-5.876295662205428538e-01,2.572856112774919879e+00,-1.651920245600224657e+00,1.086444036829907533e+00,1.393820983357358267e+00,-6.659569315666703515e-01,-1.963145996642775282e-01,-1.552633561858221212e+00,-1.153659150753140850e+00,-4.588221244472815985e-01,-1.989918118417680182e+00,-7.520618097901784482e-01,-1.261647753691522711e-01,7.269105993902142959e-01,-1.384010397817460269e+00,1.670222399847533401e+00,8.481249558459414972e-01,-1.104439469703686783e+00,-4.379238476513207523e-01,3.706960335896376801e-02,-2.505646401811577051e-01,-8.024851847809839900e-02,-4.065706358232283879e-01,-1.326043611785635346e+00,-3.138045861183221263e-01,1.050353343356762670e+00,-2.257310877005486993e-01,-1.030040425938742121e+00,-4.405783287407837867e-01,-5.858627093796231478e-01,7.727761063049569668e-01,1.771030188215041157e-01,-2.414195490937064426e-01,5.124509871425189100e-01,-1.122585941472793891e+00,-6.849169229043269302e-01,-2.396376984106736441e-01,4.389268560046530876e-01,-2.189346374070995971e+00,-2.867122005005783847e-01,-8.372853230809554903e-01,-4.434161381567010562e-01,1.517119293718960649e-01,1.388300210520574118e-01,7.574745903226299815e-01,-3.302768638312282290e-01,2.077585866369396239e+00,-1.382716700518112241e+00,-6.343328206576324957e-02,-7.611359671515837144e-01,-2.134105318040871446e-01,-4.117168127485176243e-01,8.486477725982261022e-01,-4.425492076382371853e-01,-1.629068941066836418e+00,-1.264311324522756852e+00,-5.112384941503834712e-01,7.136402529882398538e-01,7.696277127216232250e-01,-5.815699596233016022e-01,1.355454440519095471e-01,-1.322248214338226369e+00,-1.250422456460335008e+00,2.188775232822368355e-01,2.887430422470753655e+00,1.371122148507166072e+00,-8.660956267890321802e-01,-1.181978796737476189e+00,-2.629033323834077951e-01,2.273001870352923115e-01,9.859952927476272055e-01,8.782550154818281607e-01,7.836033090422441783e-01,-4.421525955153860488e-01,-4.983467194945132017e-01,-1.926993754666235681e+00,2.959143908020569480e-01,5.287069430217253840e-01,1.874882086946987048e-01,-1.848901101458424678e+00,-3.090956501514009400e-02,-1.544420617993831346e+00,8.673160791873084641e-01,2.694430703637575863e-01,7.287489320035130946e-01,-1.148951789386434275e+00,7.118142481374485353e-01,1.869125884568193952e+00,1.009503795811839133e+00,-1.936823899582385267e-01,8.608599535414815929e-01,5.571313464232010570e-01,3.945955147179247557e-01,7.319560274288644530e-01,2.895203782046748813e-03,1.310302904232112375e-01,6.170236331631059334e-01,1.339885396930454720e+00,-1.240417888349380382e+00,8.018802022545377106e-01,-8.720216686837980458e-01,-9.222213474590503779e-01,3.393281381131219576e-01,6.723980470644519425e-01,-9.114292024391121294e-02,-1.148764577367082929e+00,-1.228373735479696138e-01,-4.729150406407150453e-01,-8.194280899968243714e-01,-2.298573759371748404e-01,2.052114700128741809e-01,-2.556311371835575871e-02,-5.716242636558855894e-01,-1.596680706403943995e-01,-1.725311970562713793e+00,5.292339863835322511e-01,2.063419213355450338e-02,4.902908540749341681e-01,9.917977214401585417e-01,2.887892158177872148e-01,-4.154593101264191790e-01,1.359414487837075747e+00,-2.113015690483876774e-01,-5.622982259975876085e-01,-2.309436132994130642e+00,-8.225376609412474727e-01,-1.045593712974689948e+00,-1.299996387737154979e+00,1.430861880452147517e-01,4.423301700705892237e-01,1.066239437086873992e-01,-2.478824933321929436e+00,-6.611039777286107366e-01,-2.176606090240130187e-01,-9.396257211129132036e-01,2.314083385203340832e-04,1.245291962346071646e+00,-2.501148767784352328e-02,2.615768620097162489e-01,5.213411998652220936e-01,-8.891245153927572475e-02,-1.589099160674112624e-02,7.266934742362654021e-01,1.281008302884578121e-01,1.279632261869486642e-01,1.244669002254491064e+00,9.105810422015756522e-01,5.607095701667504928e-01,6.469247867451956013e-01,4.441160245688697272e-01,1.125435647549657414e+00,9.181117143661560176e-01,1.592746825409083300e+00,-1.622935395948776449e+00,-1.364376442955812785e-02,-1.263618834861393037e+00,-2.536623152529315472e+00,-1.722571308980899607e+00,-2.760423821184975757e-01,2.140226367750215908e-01,-8.291324597701592580e-01,-6.525536265331853825e-01,-7.416459139595190653e-01,4.631807009581471735e-01,1.134164694821154118e+00,1.276195456799263495e+00,1.591836190710188781e+00,2.871577830612168647e+00,-2.924041603127437994e-01,-2.638408135509010544e-01,-8.050310970759896878e-02,6.265717547563181000e-01,1.228143325829824217e+00,1.178616693940824217e-01,1.336074569834263315e+00,-4.759360035127694899e-01,7.266702394776367591e-01,-1.082925890027767402e+00,1.899404894713376368e+00,1.208517982633695587e+00,-3.694926215625349841e-01,7.426817652574417838e-01,5.084325711969889250e-01,-5.471938113302045048e-01,3.782663469174675219e-01,5.219341381169554372e-01,-1.356783812904363673e+00,-1.091239115173140872e+00,-6.579411008123471349e-01,6.257755647359793949e-01,-1.184583792037234851e+00,-4.395656464380733874e-01,2.141889803263739844e-01,-9.724640823512640253e-01,-5.189468319832274412e-01,1.131346433623167114e+00,1.751625038464813544e+00,-1.938199139342452471e-01,-3.057251513558409406e-01,-6.976734719642703197e-01,-8.662521532123362844e-01,1.929462349876041871e-01,6.315677905217103039e-01,3.073353550587478167e-01,8.593722810629333964e-01,1.195629961600802815e+00,-8.812747850859736776e-02,-3.337832281896309650e-01,-2.521706886243825774e-01,1.747096291814367985e+00,-4.012843092786250870e-02,2.087706507371140940e+00,3.525083562522661473e-02,6.777738169321662065e-01,3.622976812709622352e-01,4.290252480291306125e-01,4.134919057162840805e-01,6.073868686095688085e-01,1.114965003125904630e+00,7.568815329013670601e-01,1.520346010088312383e+00,9.132409601191604498e-01,-8.330937834543607201e-02,2.732000045769837349e-01,2.136073680080225468e-01,-2.008075411777099806e+00,1.024038627254750256e-01,-8.714935266728511820e-01,1.238077977143335673e+00,-1.507249226748030413e+00,8.317301833303609726e-01,-2.298395607894000714e-01,-1.724163926507273459e+00,-5.342907149964582630e-02,1.102418696722796909e+00,-8.150862246619103857e-01,5.888192037172410576e-01,2.455839758335062184e-01,-1.526922113487624522e+00,-2.494895217644541863e-01,3.016045174357877556e-01,5.214099922428824252e-01,2.901147601890308181e-01,1.069112021622782072e+00,-4.793025387523266456e-01,-7.079465709975638621e-01,4.209402192498924999e-01,-1.679646892060443042e+00,-1.384598899154258600e+00,1.131358279263292355e+00,-1.174028267909191792e+00,-1.956224725974272660e+00,1.200378395575532886e-01,-9.015654077147342016e-02,1.686716083696828683e-01,-1.322186997988462620e+00,-9.123555618534430200e-01,-4.639883944264320825e-01,2.410556429313834570e-01,1.619110551324366432e+00,4.439941086333027420e-01,-8.646416876484808167e-02,1.760341541337705040e+00,-2.247856929995229347e+00,2.460627638015681296e+00,-4.478653939909548187e-01,-5.659563441345080159e-01,-6.074598781419768834e-01,-1.152325108529123732e+00,7.344581332701809462e-01,-9.373364219896329619e-01,-6.890729960411231536e-01,6.152982607916606117e-01,2.414902723600220735e+00,1.112770809429145746e+00,5.107314809061876126e-02,-2.975684140226222407e-01,8.636008863619865084e-01,-1.185473130679413067e+00,-2.085256924715185090e+00,-2.385697822524452394e-01,3.452654553456509234e-02,-4.441109036092426021e-01,1.180532407811620832e+00,-9.703234579554340655e-01,1.475031674276617411e+00,6.227467386108184177e-01,-1.474182335111220432e+00,4.856098991300438206e-01,5.502671236976035551e-01,-6.079813947421447429e-01,-1.024625489242640547e-01,-3.549604343669637840e-01,-1.385788196426237739e+00,8.368029935870879843e-01,-1.590181569709006038e-01,7.431661103028210091e-02,7.031017548769193937e-01,1.704554306346393266e+00,5.338549380105436781e-02,5.865248295623648467e-01,5.753357374179945971e-01,8.492343637534127687e-01,3.106770026621058500e-01,-1.110871448346940765e-01,4.824537749150019095e-01,1.716900988472534750e-01,-2.110889078434216248e+00,3.032627097293267848e-01,-8.844665204088969501e-01,-3.848933844851073482e-01,1.341612187409855772e-01,-5.595893750914716219e-02,-3.939310077471518401e-01,3.094224295398523283e-01,5.113281043990948183e-01,-1.146988240899378786e+00,-1.519076302059365391e+00,9.091118946413615509e-01,3.013504657088870720e-01,1.739941153790634409e+00,1.877532541109045994e-01,-3.852008797277091667e-01,-9.496712056635215893e-01,1.649133796668419416e-01,-1.171015205428112532e-03,1.441972915751045248e-01,-9.865253730746239569e-01,9.794491821661913677e-01,-4.099609612429513383e-01,-1.704368833936248384e+00,-4.903753942321027459e-01,2.023199600985441826e+00,-1.003163555963156650e+00,-1.002231171559358369e+00,-5.648349039834358321e-01,-2.014032886198480199e+00,2.619071279844354727e+00,-1.194417814120542598e+00,5.547873067804550695e-01,-1.945889690873177758e+00,1.327541116115717790e+00,-1.519405738697986452e-01,3.609461708593639795e-01,1.165661129418760655e+00,2.946232251332757679e-01,1.062072567795611766e+00,-7.472762509682192578e-01,-7.140525171436440388e-01,8.644158923499015712e-01,8.047211716572565399e-01,-8.649898313607282674e-01,3.162735160838279769e-01,-5.658195449076740546e-01,9.189783980844449043e-03,-2.046081938705380132e+00,-1.134827007246444142e+00,2.459103670121887408e-01,4.736463558349063296e-01,-2.558961334846757141e-01,-1.413997481796270828e+00,2.856416642407109685e-01,-1.236877799393566901e+00,-4.710146119110966145e-01,1.063971768037114130e+00,-6.287701729772360304e-01,-3.130266998961543923e-01,5.400067716627774406e-01,-1.952560998713717966e-01,-4.973782466984292827e-01,1.070107414235541343e+00,5.017995924781517569e-01,-2.123808847377210707e-02,4.824275437062194860e-01,-6.658884517419615401e-01,4.693647643248494150e-01,-5.093102212481690483e-01,-1.048443562667852325e+00,-1.991978474504317198e+00,1.244855137294049285e+00,6.813895385435994045e-01,-3.911484970530412220e-01,-2.010670659133904081e+00,8.553845207683732355e-01,-2.150401532240731051e-01,1.961366684808507899e-01,1.395354975827457933e+00,-1.890992959180641808e+00,1.384441045639168033e+00,-7.907281772740599735e-01,-8.420646048768205549e-01,3.912842807399039002e-01,-1.398538002246051626e+00,1.496989891518760718e+00,-9.261894448137895086e-01,-1.981002446867200728e+00,-1.339093804273652655e+00,-1.377252218401774586e+00,7.650487770077616378e-01,1.924457052044081795e+00,-1.019041973196206596e+00,-5.985693716696628419e-01,3.048787064274986747e-02,6.555642581960028359e-01,1.722875104828947290e-01,-1.799953323096027624e+00,-2.404249330465404455e+00,-5.932286405636759685e-01,7.766718792750147982e-01,9.094874160615364911e-01,-4.505012463486033347e-01,-1.600632785442417605e+00,-6.423220922530381571e-01,-5.674871054948181781e-01,2.280344956416731073e+00,9.776319519250802337e-01,3.016672997546581692e-01,1.236465825705593824e+00,-1.132815445793704079e+00,5.482022100128901565e-01,-1.342205170773650424e-01,9.928527430443554458e-01,-9.690113899759483784e-01,1.226348011248802106e+00,-1.769955061167397314e+00,9.778278822395989334e-01,6.095370559086622508e-01,1.621194359955324404e-01,1.882087464290514767e+00,-5.788529656840283311e-01,-2.518208242563688692e-01,-8.176241120459531997e-02,2.842852193652154469e-01,8.244339777477663334e-02,1.212268616518672459e-01,6.463076916704210140e-01,3.593075402062763102e-01,4.088247495943962972e-01,1.152603747360303466e+00,-2.031446549394891610e-01,-1.001512256383959576e+00,8.598137173872110184e-01,5.071749899405130213e-01,-4.645359417396887625e-01,9.361895140352273492e-02,-1.055637570181440221e+00,9.480511533425930448e-01,-1.386457169130199674e+00,-2.848312021600605815e-01,-5.224379978382523992e-01,2.608852133895593339e-01,7.011154276813773567e-01,-2.538369819111463865e+00,-4.514039028021237243e-01,-8.249242142574891856e-02,8.654468863197879447e-01,-1.022628648505069737e+00,-9.082868657002431956e-01,1.399135841778907707e+00,1.320217387023090438e+00,-2.671073835755339854e+00,5.237887846533599845e-01,6.510805203438125854e-01,7.889046993282319287e-01,-2.459515857295721641e+00,-9.963097342515166988e-01,-1.675901874610527878e-02,1.354822884723991594e+00,-2.861103390620237108e-01,1.251349765121329227e+00,-5.304068211306415259e-01,-1.654581974314591308e+00,-3.806399549870925214e-01,-1.387047241534137054e+00,-2.284662005095566162e+00,2.536477063900956508e-01,-5.403243010881177977e-01,-5.428059834992560173e-01,-1.780276760650438550e-01,3.388508454948975235e-01,-1.296489870502536945e+00,-6.085436056138415761e-01,-9.123981101327118814e-01,-1.128032036015281514e-01,-2.606276665533578951e-01,-2.705346661537715303e-01,-4.023776518022639803e-02,-1.058646213640079603e+00,1.762153438974823683e+00,2.109685003407378634e+00,-9.884363928143068412e-01,-6.474974587481814314e-01,-2.306978356419398857e+00,-9.801780323524470484e-01,1.599716705162538055e+00,-4.375738367145111107e-01,-3.348700633702238472e-01,2.952525093282881152e-01,2.936267474476181305e-01,-8.041640067920954316e-01,9.895478230592400504e-01,-1.743165145382055359e+00,-3.153221467433236502e-01,-1.414286903671883477e+00,-3.829236956393398117e-01,-1.287932156662798255e-01,1.499054239939244582e+00,-1.667494242283984462e-01,-2.792163050164812033e-01,4.118071096650779417e-01,-2.961513307152095487e-01,8.437998502706729465e-01,-8.215643495202853419e-01,-3.061586549348683794e-01,1.254837165885924755e+00,-3.980138288012787240e-01,-1.893452588811264381e-01,-7.841211622841440798e-01,-1.428106240959750584e-01,-1.009687011575330695e+00,9.470217619686792654e-01,2.194340837789266363e+00,-6.445471227714180129e-01,3.697048100476375554e-01,5.926799459046663276e-01,-1.015402974289991711e+00,1.891516528660069252e+00,-6.401181005939079460e-01,-1.703108364081141080e+00,5.184521944423837736e-01,-1.406515462216270551e+00,-7.463551273520483420e-01,-1.089739897826957682e+00,-4.754419734152882104e-01,-1.135960244015594256e+00,7.583781542732749292e-01,5.947982548165416938e-01,-2.029017557324692689e-01,1.315594651089377898e-01,1.953938431955386745e+00,-2.124920457244200978e-01,-1.410401447607863012e-01,8.207569706665776010e-01,1.174927128383884245e+00,-1.551387983683463645e+00,-9.407097126785548546e-01,1.035548474407397723e+00,9.055034523628233689e-01,-1.344234035325907906e+00,3.660086554491757682e-01,-9.010830782107245862e-02,-1.086447071612003379e+00,-1.709716938254204344e+00,-1.850691475681739695e-01,-1.010500084476352978e+00,-4.665491057352048054e-01,1.233643270148722326e+00,-5.851351998769326324e-01,-1.727130157815429223e+00,-2.996020445858514902e-01,1.359889649235873188e+00,9.410198818824262457e-01,4.126609364224285703e-01,-2.475001986908953733e-01,6.021920989948459368e-01,-5.217034233104756585e-02,-1.140949834561546972e+00,-3.180598976545060408e-01,3.667219174619278932e-01,5.328872063966892947e-01,7.025055382096145884e-01,4.575236974721607064e-01,-3.403482281300173051e-01,2.450859490750541547e-01,1.012704602755135408e+00,1.069654031210225398e+00,1.501792268699140842e-01,9.933838569166582033e-01,-4.138890052803294028e-01,-7.482942175540473473e-01,-7.306992576518143157e-01,-1.197470038986008012e+00,-6.639659953621113164e-01,-3.550794395973759787e-01,-1.036184606651465279e+00,-4.629907065329926241e-01,4.283951142506528531e-01,-2.196775454831977614e-01,-1.224957398708670819e+00,1.845419133546323920e+00,-3.396538351010839896e-01,2.682886572405207559e-01,1.556309767140816813e+00,-9.899147549803681556e-02,-2.698328816597764801e-01,-2.884232400087082260e-01,-8.144528426752376538e-01,-6.381331242463763598e-01,1.243458794305513981e+00,1.120408576384484212e+00,1.250586781050520291e-01,-5.457604056619920208e-01,1.970398429400919693e-01,3.019316674449872284e-01,1.013600305011559177e+00,-1.145954498243240555e-01,9.048793123937995952e-01,4.410705074628223921e-01,1.420026289760034199e+00,1.570148275839836849e+00,4.827812481517804732e-01,-1.383796518431364753e+00,-2.068033905742164974e-02,-6.035709993749923674e-01,-9.816944572734854768e-01,-3.096840926657882798e-01,-9.551697505185921533e-02,-3.981513977462796672e-01,-2.338371922707113415e-01,-1.824911666548438005e-01,1.338116331349377353e+00,-1.887030751734156409e-01,1.332785253255524216e+00,-1.521619349126988707e+00,7.143758182264902112e-01,5.108596076445098833e-01,-6.289887275334544725e-01,-3.008877117198165974e-01,3.461892218102233243e-01,-1.551622148359647735e+00,-2.049050412613693251e-01,1.065656616597967732e+00,-1.188837950415791989e+00,8.242574601368941600e-01,-1.550780906274944540e-02,-2.233197196718103239e+00,1.093600862708063864e-01,-1.516499001174507644e+00,-5.315408094098009739e-01,3.559104132485209071e-01,9.105327723707842824e-02,-8.072029554871207324e-02,3.030914921089849015e-02,-9.136571060602329819e-01,-1.525797797016725355e+00,6.081914558718742869e-01,6.320394812500051973e-01,-4.029148258477581179e-01,-5.315741203023209849e-01,4.067856852407271684e-01,-3.765964442934550266e-02,1.708019602311431351e+00,3.117731838155921587e-01,-2.012157323433958200e-01,9.398499114504520469e-01,-1.935213769443540621e-01,-1.172219355342752484e-01,-1.224808832285137761e-01,7.939114716062447563e-01,1.438023984808835809e-01,-1.448371411454087099e+00,-1.971663604375327505e+00,-4.966353474398733647e-01,-5.250490218735567316e-01,-1.354175605853048747e+00,4.631999437493520833e-01,-1.457932015672387172e+00,4.553168506057505421e-02,2.572304667458698985e-02,-1.403909317723515127e-01,-3.241519247664784720e-01,-1.569365458747462361e+00,1.480789455090099516e+00,-1.929640973828630646e+00,-8.074834833274743273e-01,1.552443593102314834e+00,-1.492885138219277152e+00,4.671758013989732450e-01,-4.862180305009372594e-01,-1.887715423256990377e+00,-1.230098542810246443e+00
