-7.368422026728379537e-01,-8.135975532396522159e-01,-3.689087148377647174e-01,-2.029189772044392548e+00,2.120741745079615992e+00,3.916270738236730942e-02,-1.810501612626072898e+00,-1.138960259793897825e-02,-1.134437281395275776e-01,1.156814743758791814e-01,4.654206076245292478e-01,-9.375505987219207027e-02,1.594501350810959839e-01,1.906407490694893792e+00,1.038419962534488983e+00,1.773616957359052948e-01,-1.275095831271787050e+00,1.423650333283750680e+00,-6.545926092692282428e-01,-6.765517656837282123e-01,-1.267066154558197155e+00,1.176629784311022719e+00,-5.739567627159315455e-01,-7.021329499251983686e-01,-1.076695980151397336e+00,-1.142885228303456735e+00,3.036741828123667997e-01,1.072088594859643473e+00,8.405766886232528545e-01,9.894119818293323210e-01,2.811536497978233684e-01,6.257187544282598601e-01,-4.810617324569958497e-01,-1.411865245702849381e-01,8.663196943895488111e-01,8.208356214453307875e-02,-7.903762389470999628e-01,5.229583649477098639e-01,-1.862896013708899012e+00,2.001000046041609082e+00,-5.701858285861264308e-01,3.501857685471354009e-01,5.846245119435099502e-01,7.155353043878223684e-02,1.005543281484563511e+00,4.054164716294245685e-01,1.058151723315328363e+00,4.889343366441316063e-01,8.425647412392067714e-01,7.296642064545821871e-01,-1.015040611507431079e+00,-3.752024660357992647e-01,-2.163145509143777900e+00,-9.843651442815648522e-01,5.117228070236282678e-01,-4.877685772489634974e-01,-1.136513181246113557e+00,3.965134368004122889e-01,5.973419214341768591e-01,8.507571117418923912e-01,-1.062938150908270929e+00,9.022056195987814275e-01,-2.406780215991568550e-01,-2.035779772426696610e+00,-6.901649509031189123e-01,3.372256967743221256e-01,-2.160759193912148990e-01,1.689102679277035834e+00,-4.858853589763489217e-02,1.193234938113771459e+00,-5.749241022538803536e-01,-3.693262087590101217e-01,5.621199104104815936e-01,2.977542711602334524e-01,7.923149679942633750e-01,-4.440118446121269491e-01,1.810304439554127454e+00,9.784390966460159156e-01,-1.911318199054210965e+00,1.262308651519620462e+00,1.584793933418807033e+00,1.964824673837073599e+00,2.696070480683656571e-03,-2.930077774413644143e-01,-1.749716800492536750e-01,-6.274570531082559466e-01,1.783273299352049757e-01,-8.006575014610494145e-01,-3.661737330961585823e-01,-3.743483943346955223e-01,1.871491962346753191e+00,1.796741569445194253e+00,-1.892964226746066458e+00,8.793860629024091713e-01,-2.246856482790939413e+00,-2.236605521780490324e+00,-5.902892356250447614e-01,-1.207626903117811512e+00,3.270864273732617011e+00,2.169830792578233414e+00,2.451436031899857149e+00,2.956989025230800650e+00,2.018180317427118009e+00,-3.228745897215576366e-02,8.969018713869746362e-01,-2.148944122318190431e+00,-7.964690626016741604e-01,6.658321966492154464e-01,1.441551104460555344e+00,-5.144083078412191590e-01,-3.270236410886339762e+00,7.370830566662456285e-01,-4.811538447053588241e-01,-1.732087745539648171e+00,-1.152759194507274598e+00,1.661365436405473961e+00,9.836573566784760914e-01,3.446269919070574228e-01,-5.802853737428460557e-01,1.095286010850509140e+00,-3.082313769961287697e+00,-1.469146210871612901e+00,-9.849193291739901657e-01,-1.579049630178588348e+00,5.846254792788675436e-01,3.845322825178592030e+00,2.051820134385869299e+00,1.877087095895074276e+00,3.356291221317128759e+00,2.199629121558483558e+00,3.476018628913494002e+00,8.018027578525530608e-01,6.250908243398353159e-01,6.400598415788157081e-02,-6.757037292412503282e-01,-4.335807719976229879e-02,-1.101668682131087262e+00,-1.146264829849198641e+00,1.462568471658445945e+00,-1.097270854379055915e+00,2.605147608802068082e-01,-3.637574224084766383e-02,8.604121807959434765e-02,1.431060950484443151e+00,5.465112154459960125e-01,1.603756880716364908e+00,-1.691815524141903282e+00,-1.176843288239169727e+00,1.271178510031911069e+00,5.137796777343985738e-02,1.706972806542539134e+00,-3.015387631779361532e-01,1.413930416828101944e+00,2.466936877344532153e+00,-9.662756969994148459e-01,2.043071028212466445e+00,1.110140725158066166e+00,-1.126963567527963450e+00,1.304018380986794901e+00,2.909942145402561131e+00,-3.975335610856285951e-01,1.097573335824564511e+00,-1.469762888708148418e+00,-1.760551485206365285e+00,-2.793719740960315390e-01,-7.915889794101231836e-01,3.132306362547639944e-01,5.409588289407211148e-01,-4.552678413036162497e-02,6.268060284679154437e-01,-1.282126379188649468e+00,-4.790887144565378897e-01,3.632265649005357311e-01,2.159168107095139622e+00,7.197509299594686549e-01,5.988924722419937119e-01,-5.161417969772362779e-01,1.914858010412961109e+00,1.183957452359324813e+00,1.730992736121798936e+00,-1.047291322620591325e+00,2.279146560669111476e+00,-1.706249699971388589e-01,1.425889314380694328e+00,3.577148080899154259e+00,1.708965028857181156e+00,1.532373135569232492e+00,1.431894307238897879e+00,8.783270245969719836e-01,1.052882556329274744e+00,-2.275362997958053857e+00,-3.507253616198655166e+00,-1.965722403454946754e+00,1.013666015235108908e+00,-6.620815207488729426e-01,2.130970076955098325e+00,1.435301628093590631e+00,-1.758559581941512961e+00,2.974564091656541343e-01,7.238635673126565528e-01,1.136195545099771165e+00,1.014887949854549332e+00,1.038829341321144240e+00,2.299234949633019998e+00,1.021314751797893994e+00,-7.278018938841769314e-01,-1.708633374978620001e+00,-1.308907327432187184e+00,5.750419482401968041e-02,-1.509080292637027032e+00,-2.093607413954748253e+00,-2.356078311344329546e+00,-4.556647390147039456e-01,2.436334087773919244e+00,2.435799413476589681e+00,4.193010979473499766e+00,1.185391371577529940e+00,-7.494481079195352002e-01,-4.155515524973312780e-01,-3.018359719617445869e+00,-1.022969870145078897e+00,-4.867419627440479624e-01,2.771552472049701454e-01,-1.652147468011938014e-01,1.001322494732175689e-01,-1.390727429342489163e+00,-2.441919224199971872e+00,-4.778675825641028330e-01,-2.200398955666012402e+00,1.483012956684625738e+00,2.765831098363300544e-01,-5.258516286913009763e-01,-1.947551590022375656e+00,-2.927600421009033838e+00,-5.963519638530453193e+00,-7.150977361629244911e+00,-6.369597539809249476e+00,-8.338362495597520407e+00,-9.264421592583406806e+00,-4.005463364523476955e+00,-6.875754407418709357e-01,1.833830277435274825e+00,-2.723624284705191134e-01,9.364275981218138645e-01,1.625820476905822431e+00,2.034061391409989650e+00,-2.639716311376831381e+00,-2.032310738019516450e+00,-1.276960874673008117e+00,-1.039230584095989451e+00,-1.061424087264922322e+00,1.127671095625408515e-01,-1.671842858278549393e+00,-5.336161152976077737e-01,-1.104018123317190625e+00,1.440152664124438653e+00,1.758047702286246849e+00,-6.654704994021271025e-01,-7.192780992564956621e-01,-3.423073767070981877e+00,-4.714967881826850338e+00,-8.906152057677791944e+00,-7.838939895718851858e+00,-7.963306186590703106e+00,-7.953637575946506999e+00,-5.590880561730089404e+00,-1.329377878117215639e+00,6.339247250760247088e-01,1.486331467405383133e+00,4.600673583215172613e+00,1.150885595362489910e+00,2.252453492524685963e+00,2.018761753970794159e-01,-3.606009427444091808e-01,-4.405820243110344592e+00,-1.392502857290928597e+00,-4.594075699644000754e-01,1.863927974034054746e-02,-2.819260969930754701e-01,-3.992739835239752511e-01,2.439702008017259338e-01,1.479946311564089179e+00,-7.255351252213574353e-01,-1.735648172366150988e+00,7.956843715918693327e-01,-2.430011191820924399e+00,-4.632271864456882327e+00,-3.893918696014296632e+00,-4.387705640288200648e+00,-3.609132364384826541e+00,-2.948151381316421737e+00,-1.463405017975272226e+00,-1.544046876203763352e+00,4.398290572993856173e+00,2.528878986337645962e+00,4.379115789763484479e+00,4.527780687714045627e+00,3.016485062708971654e+00,2.323148535136096093e+00,2.718878042187741872e+00,-4.570263358627568717e-01,-2.708079961307936046e+00,-4.065046838471877422e+00,-2.363680533692952834e-01,-6.770073875228690419e-01,-1.250742279852079086e+00,3.474131342459721439e-01,-8.452160261881430658e-01,6.061398792847025874e-01,5.017177595120976275e-01,1.282270160058265995e+00,1.246356988915644948e+00,-2.385065449665062232e-01,-5.128947199199379581e-01,-2.726487932277154691e+00,-2.012890884029372884e+00,-4.946647575122644636e-01,1.174062536768229359e+00,3.561231530528611078e+00,1.006507894237831380e+00,3.955540754506141177e+00,5.120778400803677854e+00,5.823550643895776702e+00,3.144598160023923672e+00,-8.199261861294239451e-02,1.847708007168629596e+00,1.343683549467138194e+00,-9.927425133301928106e-01,-2.808209873735735940e+00,-4.063927256330098992e+00,-1.650569620515071501e+00,9.387963149472934310e-01,-8.385012691806311702e-01,8.746335498412801668e-01,-3.899364491152406131e-01,-3.226806147616347875e-01,1.591002780526362959e-01,-7.076964809102929133e-01,-8.048200727616553474e-01,1.310769207065955788e+00,-8.728460022214697966e-01,-1.924368504381762435e+00,-2.980131266377204491e-01,1.350025306788412038e+00,2.252739237403968531e+00,2.305934082579239153e+00,3.118762930394339605e+00,2.054751186525167306e+00,1.345904703249443779e+00,4.488279799128266134e+00,2.833802948188982374e+00,1.801730524900844177e-01,-3.380060759121800151e-01,-1.143834562361830454e+00,-1.711887100281472840e+00,-4.422934888626047112e+00,-3.710284476491398031e+00,-3.399036196409115362e+00,-6.314890033759217314e-01,-1.287124805788451898e+00,-8.401426667456260988e-01,-7.477291679551849590e-01,-9.457893710718884295e-02,-8.342207119321656261e-01,-1.005714000966791533e+00,-1.267904051426414214e-01,7.925839593743141398e-01,1.317454533527945060e+00,-1.309784653227515472e+00,1.100959068975684074e+00,-2.490464461930009810e-01,-2.279370330356900731e-01,8.346372738320489981e-01,9.856650756164013760e-01,1.070731612472757721e+00,7.981271580934757859e-01,1.346457875902001389e+00,5.188202824810447256e-01,3.207315942238456508e+00,9.213540248724974013e-01,8.512206846503298507e-01,-2.818920901900134890e+00,-2.056645909030454078e+00,-2.806690685283232956e+00,-2.649459813677943476e+00,-1.357169390650072138e+00,-2.704759067122928240e+00,-1.084495891661481082e+00,8.047523458141677688e-01,1.960227204926425104e+00,1.281072835594188941e+00,2.090170733503926015e-01,-2.486183181721137170e-01,-6.630039774039611644e-02,-3.984594687422618464e-01,1.173533451376436387e+00,1.834121223017055324e-01,-2.648121066704106075e-01,-2.934061025851368298e-01,-6.277741606711492173e-01,2.116527910895102504e+00,-1.114793188131337098e+00,-5.041270394483015949e+00,-2.733201289020247948e+00,-3.044032913082087344e+00,-1.403696322776290639e+00,-3.913809886135108496e+00,-2.396334209283645489e+00,-1.189616558479077213e+00,-1.380589462425642733e+00,-3.729931252928267771e+00,-3.820063765692890967e-01,3.600314537491413058e-01,1.360087804421603375e+00,-1.878714235279815625e+00,-1.085125560784870880e+00,5.823266533684138269e-01,5.597617848316366329e-02,-5.466918034976088192e-01,8.953557897192351289e-01,-1.738612967135553244e+00,1.529160422995506641e-01,-2.294825539626863087e+00,-3.361539347032669323e-01,2.426651360760294918e-01,-1.168555082017859403e+00,1.577306421413718907e+00,-7.110125167265268775e-01,-2.072721485812408559e+00,-3.570846939916911822e+00,-6.410471795424816044e+00,-5.776579853019006450e+00,-6.720526368783056093e+00,-5.035257338067727240e+00,-5.470857490835402182e+00,-1.608201064456794116e+00,1.545279771536939573e-01,-1.637865395776485045e+00,4.166414192806798811e-01,1.088451134254656116e+00,2.206263726629972943e+00,1.009322576654266834e+00,-1.163152916617270938e+00,-1.750307136103766759e+00,-1.798797887854370448e+00,8.310937427749466311e-01,-1.573463512363178163e+00,-5.598933055727608465e-01,1.998830972496325797e+00,-1.061401782327861643e+00,-1.257495501839157370e+00,-7.884610689488559254e-01,4.145768658129442841e-01,-4.184165877729843497e-01,-7.030790484271979279e-01,-1.328568294909606484e+00,-1.263967382488662694e-01,-1.755003732010435247e+00,-3.285800377626223678e+00,-2.869581069023037667e+00,-3.797869333340688325e+00,-3.304658805238934460e-02,-1.779481579973885008e+00,-4.694685683887254157e+00,-3.548959530993784028e+00,-1.038965963471738085e+00,-1.261755567242496934e+00,7.768063223477095214e-02,1.173197835214518925e+00,9.752174514602995892e-01,4.936829348961743191e-01,-1.068433110269526365e+00,-3.744310746204210893e+00,-3.229561452253915110e-01,1.575653486119004687e-01,-4.972632009937696940e-01,1.136456809496595444e-01,-6.266926841592643793e-01,5.732142748010478073e-01,3.354004292253994213e-01,1.495715454908743247e+00,-1.916443123274615745e+00,-2.598948310714406684e+00,-2.136965963248001366e+00,4.924706028229752786e-01,-2.234518397255751410e+00,-9.290792515770384119e-01,-2.295726902449314988e+00,-1.639283625302515812e+00,1.328874868738053383e+00,3.571538385053423248e-01,1.853149841432704947e-01,-1.632085681968671320e+00,-9.925603507456056684e-01,-9.482129346371023226e-01,-4.187589245683997485e-01,-6.078841965512873369e-01,5.022449147442950013e-01,-9.895747774748265835e-01,8.308878639061214599e-01,-1.797648629528336262e+00,-1.539335164756787000e+00,-4.308947649483597930e-02,9.401005400000254919e-02,-1.187883664411343965e+00,-1.088533581017967072e-01,-7.427711205140714590e-01,5.089225793781404494e-01,1.203101910451157108e+00,4.531617915348486875e-02,-9.913482206133445995e-01,1.653034888742627995e-01,6.000150073407163331e-01,2.861899589839349278e-02,8.129290546628308300e-01,9.573151892790691952e-02,-4.668395239108815153e-01,-1.243611765165349679e-02,2.792854789353916289e-01,-6.696221401507163051e-01,-8.657211823736001843e-01,1.361443514911506503e+00,2.626482584888538141e-01,-3.482641682803366834e-01,9.013821175625331694e-01,1.315237555234747058e+00,8.501632637082150445e-01,-6.307921342056914682e-01,-5.258569146632987579e-01,-2.012928418938956465e+00,1.585411324632464425e-01,3.292694011673912846e-01,-9.977955342112150294e-01,9.745900748540800018e-01,-3.192724133339617243e-01,2.910795222911259028e+00,8.350934962373104953e-02,5.653957171252693703e-01,-2.274633079379184963e-01,3.608993705391031481e-01,4.608823435547884095e-01,2.589533180499803966e-01,6.657816424229178187e-01,-1.566282289997432464e+00,-3.710650231535497223e-01,1.649801565087096744e+00,-6.339739234504556675e-01,6.319479713622746520e-01,2.006536932341671964e+00,1.704418934190511603e+00,2.408399363507089663e-01,2.654827054208483417e-01,-8.421145189460270686e-01,-1.517110339893535276e+00,-2.845617951270402735e+00,-2.828441926179680044e-01,-5.037793310727785023e-01,5.041034700062597684e-01,3.856856535869233604e-01,5.830587434156517812e-01,2.059663574164769084e+00,-1.252710040070163622e+00,-1.232808477589088236e-01,-2.801320463729028432e-01,-2.735988360441625189e-01,-5.968537188576145125e-01,-2.215560822678977193e-01,-2.333442756291697062e+00,-1.477883766423118805e+00,-3.121868488160578270e+00,-1.242631464786982942e+00,-3.125047545296893992e-01,1.906095615650969244e-01,1.414185592543891756e+00,-1.096398849222914640e+00,-1.568149995977607292e+00,5.204129380110842362e-01,6.663982354796987861e-01,-7.492111712451768879e-01,-8.980800730803632781e-02,-1.150940998174656338e+00,-2.059875471230844024e+00,-2.808059473751251200e+00,-4.765743016741846305e-01,-9.016111516906057943e-01,-4.963075679875424973e-01,-2.821901703503534309e-01,7.791971184486054004e-03,-9.279350208831588231e-01,-1.380312833841602416e+00,6.639197486155095085e-01,-1.377083793427817060e+00,3.151411977238222084e-01,-2.619311480144300153e-01,-1.470571955354593729e-01,7.517547998538713638e-02,1.155432017138610767e+00,1.876625339078749066e-01,-2.243074894997629798e+00,-1.525448744810081303e+00,-1.773795600728765853e+00,9.976797323923337624e-01,2.258917726581425978e+00,5.001150751999124955e-01,7.884740700268796920e-02,1.891099816850370374e-01,-2.934719604268778981e-01,-1.249022512712859578e+00,-1.423133068375736610e+00,-3.510735448966851635e+00,-1.465310851459776353e+00,-5.263143751036023499e-01,-6.133001102796994397e-01,6.823533515821967876e-01,1.746977439475844995e-01,1.100476202118796064e-02,2.950854546212108298e-01,-4.306914047679374358e-01,-6.733559210362912717e-01,-1.867340396316816475e+00,1.117623193682093508e+00,-3.029506747159437241e-01,-1.592966672477218903e+00,-3.042485899073610778e+00,1.168766560500205109e+00,-1.780705012110039287e-01,8.937337470335969813e-01,2.463793461682415864e-01,-1.995575991318218279e+00,-3.156592590409191601e+00,-3.415225434684466599e+00,1.006775365190257371e-01,1.141158021051834170e+00,-6.286755630519569316e-01,-1.462997343139143425e+00,-1.183498112045415995e+00,-1.421595624611017072e+00,-1.090070815616974942e+00,-6.747552805362169170e-01,8.340091091249889066e-02,-3.120026113940504997e-01,1.468012834614185191e+00,-3.490146144103821180e-01,-2.259145911682594599e-01,9.842631669617077916e-01,-5.801833930072691770e-01,-1.515664055419231770e+00,1.422803180861102357e+00,-5.796424697343590671e-01,-8.488435051479780169e-01,1.681830170911435829e-01,1.850499780122961013e+00,-1.195989893036312868e+00,-1.584474304179804394e+00,-1.671723082161445717e+00,2.333894771062519080e+00,9.078823990733824179e-01,5.206770349603099257e-01,1.375321465727411763e+00,-1.469374609796904263e+00,2.789631531552171778e-02,-3.956939996404439386e-01,-5.344210108653471569e-02,-2.025345449435591139e+00,-4.661764660206695332e-01,-4.761975175373316382e-01,-1.938956677053351507e+00,2.552195336250681623e-01,1.598937069491421115e+00,2.030348226132388856e+00,-9.238041739184784662e-01,1.149326376029137509e-01,-8.556734298955832874e-02,2.153903805724357301e-01,6.911278187481759150e-02,8.290686700769182016e-01,5.798407078772370715e-01,1.436919849791888026e+00,-8.747133194234398834e-01,-2.356643855256626008e+00,5.430171566819037149e-02,4.676089688634169073e-01,-1.436561477070316339e+00,2.020289078204689781e-01,-4.307738517014693125e-01,1.037646927705212274e+00,2.691745359618722855e+00,5.839106588007674237e-01,8.871485022803862197e-01,-2.231414776048831067e-02,3.431575366474191174e-02,1.740701154857960953e-01,-1.785571448163212560e+00,7.032698926000658934e-01,-1.423859666344996944e+00,5.380192494550005422e-02,5.696362139181777584e-01,-4.102334630280066730e-01,4.071054829473645387e-01,7.226776268039522000e-01,3.416797374450791236e-01,-1.860940897516160986e+00,1.939083184514086011e-01,-1.252135103614694378e+00,1.231250171278396977e+00,1.409978764724438283e-01,1.166203502979358708e+00,4.515995414854496182e-01,-2.146957172553661253e-01,-2.095178861554606864e-01,2.491655953197072781e-01,2.001030951374619615e+00,-1.578955675797218960e+00,1.810567166857809607e+00,1.952664416075949039e-01,-5.099379339337659633e-01,2.507536839544992180e+00,7.991743482216601135e-01,-5.296638415622652030e-01,2.389625855451211200e-01,-1.707760465265307503e-01,-2.888786343536454138e-01,1.510878798523514588e+00,-1.032714990125374488e+00,-9.331763519898279569e-01,1.392076391877996311e-01,-1.867598668691472508e+00,1.020641538742486532e+00,8.398777379476770610e-01,9.106626789247799225e-01,-9.172858403208393741e-01,1.574303385492505925e+00,4.500649648670942277e-02,6.262554904303069270e-01,-4.528588057910142295e-01,-1.024366813860617897e+00,6.972578777493603219e-01,-5.877726701082155447e-01,-3.287019444388975531e-01,-3.290476562947713957e-01,2.631280356293427269e-01,5.463550779443649974e-01,2.745310464081611723e-01,1.601514848583549755e+00,1.719316587436416632e-01,4.878814548754061842e-01,4.835515071063369030e-02,5.443353544348390471e-01,-5.300842062026747126e-01,1.309282835211995399e+00,-1.199226118960588616e+00,1.218061213542761395e-02,1.111596637988093272e+00,-2.719229350334251838e-01,4.543661209884898855e-01,-1.434056598837188501e+00,-5.695307764702334241e-01,-1.235159354236924134e+00,1.117331827020731305e+00,-2.338886875163619095e-01,1.770091117845411510e+00,-1.584067128604575436e-01,4.084679662783468612e-01,2.498478037619486614e+00,-8.527799594488474355e-01,4.441224303885191738e-01,5.105628234450572123e-01,2.533121835009517930e+00,-1.311155386845682225e+00,-3.825355432980930281e-01,-2.031525936247144670e-01,-1.791978779443924863e-01,4.702516903866094111e-01,-7.276236373975941696e-01,-3.091207882898821535e-01,-1.514911038957960310e+00,-6.962090873563921978e-01,-1.153972373803247686e+00,-6.473157320527155312e-01,-1.452554371268219291e-01,-6.627976859900003292e-01,3.356983271283702219e-01,-1.096591466586176039e-01,-4.259280119136140130e-01
-2.679104725818906574e-01,-1.379681410091709859e+00,-7.663473936553717447e-01,-1.266806258007214803e-01,2.073405698585687684e+00,2.246927506743876812e-01,-3.370728592712189386e-01,1.500806926944020861e-02,-1.311903066525546280e-01,7.985057991364541419e-01,2.186222100234922028e+00,2.035119955984400764e-01,-8.818319812362889198e-01,-4.611200555339566298e-01,3.248284840806903162e-01,2.737534925008842102e-01,5.829662700115857410e-01,-3.792727821450510572e-01,1.179352647417798217e+00,-8.818200227923047585e-01,-8.173445809637090997e-01,8.498459702032012952e-01,1.513922524927080238e+00,1.898947355014111382e+00,2.963036750560883892e+00,-8.778197724940139945e-01,1.214836277178429347e+00,2.928880926104901472e-01,1.267919488594601019e+00,9.228501803311977003e-01,-1.570605429432376243e-01,-1.242306988172231952e+00,9.714451758817023164e-01,3.374436515142607562e-01,-3.875923405493786889e-01,5.694877111331735353e-01,1.924837264404879233e+00,8.712187067925877271e-01,3.242251511165081812e-01,-5.500741178427706046e-01,5.535442319238793596e-01,-1.918816246303239215e+00,4.725053641216042100e-01,9.595176883693453673e-01,1.140786517824081914e+00,-3.565047143189580825e-01,-1.265814107312954961e+00,-2.497796927278873813e+00,-4.347021774765519875e-01,-1.523202042887762397e-01,-2.057064751235989863e+00,1.016713247718615376e+00,-9.266508309481234773e-02,-1.268391564924653769e+00,5.736108464798321815e-01,7.250069991568426353e-01,1.428557279626521792e+00,-3.521370781460871936e-03,-1.924556893042611849e-01,3.208909329655206810e-01,1.750527669845773904e-01,-6.173046076410002581e-01,-1.157692836883347232e+00,-1.383916064001954105e+00,4.391756856591325087e-01,-7.574741045497018765e-01,-1.179969490073215388e+00,-8.596699555639036872e-02,1.509625785169397716e+00,-1.597114260759062265e+00,-1.002773717271919773e+00,7.832818309798176282e-01,-5.239595966242585057e-01,-7.659679982119612651e-01,5.643563881764994683e-01,6.094721551276608418e-01,-1.649753047042638698e+00,1.749646021704322596e+00,-1.289213375864460387e+00,1.965706690571149551e+00,-9.030062408220296266e-01,2.571562406694230529e-01,-1.806730979441835583e+00,-6.652315743915047097e-01,-7.297684523345462360e-01,-2.329357353243478868e-01,5.525251915475143383e-01,-3.550517312067705267e-01,7.556845251489915372e-01,4.334156953205083873e-01,9.855358004618320900e-01,-8.258510300947645433e-02,3.889872560886915021e-01,1.196329542094232590e+00,8.400742719916906576e-02,1.430362029325573880e+00,-6.873992157843499262e-01,-7.302465799195883012e-01,-1.303254342170083457e-01,4.297595557586804116e-01,1.155191841964411589e-02,-1.692731568983135482e+00,-2.933703377123865752e-01,-1.029737314295682965e-01,3.994838123739924973e-01,5.350317032701851216e-01,-1.060807904710588057e+00,-3.873663126415194391e-01,2.496566122006003696e-01,-5.508125245152225569e-01,-5.234258578365070802e-01,-4.512514485615213289e-01,2.195492015886075024e-02,1.882320715465344518e+00,3.636098562999677264e-01,-4.377285149044460866e-01,1.193270236659268874e-01,3.892059709035864956e-01,-1.198026063019111520e+00,8.612218152904080326e-02,-1.174943058377391353e-01,-7.754213080991125828e-01,1.441071775501111540e+00,3.072993119150511099e-01,-1.040746254030762818e+00,-3.503503027723723906e-01,1.995455924303983497e-01,-3.042998917459640573e-01,-2.732613086332431607e-01,2.871195276745047154e-01,-6.610753832984297418e-01,-7.179480756470127956e-01,-9.214087871491578874e-02,-6.230342192572150273e-01,1.159824689882062998e+00,9.118148833476490134e-02,-1.134514190745119500e+00,-1.506341450179565555e+00,-1.071304189826754794e+00,-2.877932523133497345e-01,-3.460447474428925418e-01,3.336680740716806981e-01,1.368729885919120592e+00,1.375548101376895094e+00,-3.527284753611811732e-03,5.870772860775638202e-01,6.727571713618302196e-01,-2.203757020741792805e-01,5.788813374272271384e-01,1.135358141502078810e+00,1.712265603908237122e+00,2.173872292511640048e+00,-1.637458407841234198e+00,9.734868356118497879e-02,8.229309283824063348e-01,2.076712408510476837e-01,8.062895450891939264e-01,3.193816106478008371e-02,-1.008536348730620785e-01,3.905913487614193769e-01,-1.065417194399064016e+00,9.811377410411766808e-01,7.182852394600662826e-01,-9.074373751646409580e-01,-1.460866990149713551e+00,1.159536485174064158e+00,1.767248817912217440e+00,-2.265119815422717009e-01,-6.402132539253299059e-01,-3.794215351947696213e-01,6.398392662848911838e-01,-1.964950689043612586e+00,-7.192716807969103954e-01,-6.277608624791803926e-01,7.125480577152183415e-01,2.066129198581533544e+00,-7.441092207303851014e-01,-1.450610011551755729e+00,3.006299531133947434e-01,-4.898565820746613730e-01,1.362729356558525007e+00,9.947046107944029769e-01,-5.557912460163496604e-01,-7.879141864757602809e-01,-1.268170142968742198e+00,-9.838639340070814976e-02,1.545504358502411690e-01,5.605079943785358232e-01,-1.436810273725027454e+00,3.707370000478306671e-01,-7.260494257267706697e-01,-2.133138355937794550e+00,8.428881708190030797e-02,-7.761181539285053610e-01,2.911952144493849537e-01,4.747570125672626040e-01,3.367758565244740598e-01,1.301195296902943055e-01,7.536517110738820691e-01,-8.171674622328968518e-02,1.245786202277754606e+00,1.149983686320578791e+00,1.055430480704163232e+00,1.395665170003028699e+00,-1.247860620472140553e-01,-4.454114905764516297e-01,1.961982948119816994e-01,-5.235340329226844114e-01,2.864958571023213940e-01,-1.263694559575165410e+00,-1.192409811439520517e+00,3.306224196444214058e-01,7.111031034007415652e-01,-1.991859555481160782e-01,-1.112554638029306228e-03,-9.970311113856253904e-01,4.532028213134813299e-01,1.327717017131975874e+00,3.134461851950604561e-01,1.033527892884025662e-01,-9.272716462037525198e-02,-1.288895533023992401e+00,1.052068342638517867e-01,-2.820810562500229365e-02,2.670352355941699729e-01,-1.097482750517251970e+00,9.638961498955108675e-01,-4.917286669198940308e-01,-1.950971629988648010e-02,2.697189594692034897e-01,2.372208289610686083e-01,-7.700502491757907908e-01,-1.770866825070859019e+00,-4.877708099536504083e-01,8.467698126491437494e-01,-1.285881131736187344e-01,-3.412788396566314164e-01,-1.193950369089275876e+00,1.183234373636786962e+00,1.287942636584990863e+00,-5.611319081351159310e-01,-6.745075461683529561e-01,1.158093288953390143e+00,-8.050932487528548176e-01,3.484628252452702246e-01,-1.707085529623255382e-01,-6.197358130433509027e-01,1.432082592170839330e+00,1.696800146095206723e-03,-2.441966757412775413e-01,-1.580781767799744442e+00,-1.241281055063312710e-01,-2.992896871385862800e-01,3.205713684528578855e-01,-1.876390493039915786e+00,-2.317428713941303453e+00,1.349478330848596253e+00,-9.249858537871944453e-01,8.029716104676484223e-01,-9.830866173062067226e-01,-2.234091878218771754e+00,-5.455263811252025752e-01,4.797455872545501321e-01,7.599593184532081880e-01,5.978189006811510664e-01,3.407889889323656440e-01,6.582010178480897089e-01,-1.002972238632898305e+00,-4.209702297811863669e-01,-3.165902098653914365e-01,1.735733384721759087e+00,-5.852484269109584636e-01,4.109873281172489179e-01,1.768127030547134382e+00,-1.346648170886427964e+00,4.255696307369435383e-01,8.912306212625972224e-01,-9.653144133474982347e-01,1.804805972842897344e+00,2.081144436109377549e-01,-4.964392766367501375e-01,-1.103370245923225523e+00,-4.524266021495501611e-01,4.279910737077032845e-01,-1.472464451509552186e+00,-1.013876983257382181e+00,-1.490451952829635163e+00,-8.033647068967076921e-01,-9.396357005416339225e-01,7.080904416217943531e-01,-4.531202354283429545e-01,3.563077437952015813e-01,-2.070309137082686046e+00,-3.854109416837486757e-01,-2.525106828397920000e-01,-1.474477660441695370e+00,-1.030007243467217615e+00,-1.568183565711325667e+00,7.499449187672954098e-01,-9.642292851584040037e-01,-1.760260416490172286e+00,4.142706810085663438e-01,5.007144500233033924e-01,-1.227490718253511970e+00,1.040209206306146994e+00,-3.048062196411662761e-01,-1.620208848686697456e+00,-1.342640039947901709e+00,1.168569417150664647e+00,1.011132753212309610e-01,-5.231757116959763199e-01,1.230526414595559115e-02,1.214796026130369633e+00,-1.289412452724386871e+00,-1.348869612801820272e+00,-1.113662322747640099e+00,3.696807984821042226e-01,1.135004203447403048e+00,-6.872693044086639613e-01,-6.302123890584362398e-01,-4.814227462128423118e-01,-2.886745921264938231e-01,1.626366479381209096e-01,1.421834236291556364e+00,-2.359465642811790609e+00,9.069101417517685948e-02,6.577217172609858276e-01,-6.397958364202135373e-01,-4.429804567228441958e-01,5.720219427081041363e-02,-1.223724585868375403e+00,8.014017718833096326e-01,-6.266649661754294387e-01,1.246302039073773571e+00,-5.202733613553347514e-01,-3.036420101896021226e-02,-1.692825654771799249e+00,-1.201455236420762684e+00,1.865174400271178312e+00,-1.294194719104900138e+00,6.443083863878326101e-01,8.192458728123960254e-01,6.270152113246498307e-03,1.287827137055071791e+00,5.849596507012333468e-01,-1.101873168002318826e+00,6.281722988522185913e-01,-1.718110955999827272e-01,7.284663983664316778e-01,2.312637589973188801e-01,1.333159208138440244e-01,4.834234149819972570e-01,-4.350637255132807080e-01,-2.028126412910403520e+00,2.154564551355073188e-01,5.436921433961666716e-01,6.792622979034327324e-01,7.242856758886017099e-01,4.857750047246697789e-01,1.605140861027830601e+00,-7.026216525122399581e-01,-1.084006137107361933e+00,6.272163684105532822e-01,-1.641251560359549666e+00,2.411106630800057271e-01,1.118609583777097960e+00,-6.176489537601302648e-02,8.006746265047972599e-01,-2.531896252518742174e-01,-6.519228325980387651e-02,2.194217862509433292e+00,1.607445451346840859e-01,8.001198157771173547e-02,-9.484657174681283553e-01,2.140570772640697922e-02,8.306841084861962266e-01,-9.272528069405955309e-01,6.624502509842001841e-01,1.080086615061754740e+00,2.207234408999821096e-01,-5.338392699265775976e-01,-7.662349129716821139e-01,-1.813551108274428669e+00,-9.810999505311295277e-01,8.293943001504139323e-01,1.032600231125741841e+00,7.413514058233798831e-01,4.647673637590354900e-01,-1.507074235752595026e+00,-1.271636383387649394e+00,-6.628416752297986436e-01,5.588001619201304893e-01,7.146385629469427514e-02,5.573551291730000079e-01,8.896166507890926889e-01,-6.930833786613886938e-01,1.957535480203166645e-01,-4.605291714960811356e-01,-2.218304778471239247e-01,-7.639756330638228787e-01,-2.551083177805695268e-01,1.442201677168265972e+00,-1.976442632881900474e+00,1.132801990236758316e+00,2.630564775726132454e-01,-1.254916805065703356e+00,-4.357815249895201637e-01,-2.765610960930870554e+00,5.861714314976607110e-01,6.259145405801157525e-01,1.263138830879303010e+00,-1.795925593176110613e-01,-1.243457259637977153e+00,-6.121988042869357105e-02,7.671561746940512849e-01,-9.590289316142210918e-01,-4.728657561115890556e-02,-2.699959674650636909e+00,-1.065778918452370966e-01,-3.924256998195859159e-01,-8.895712348992171892e-01,6.307516871081040311e-01,1.599224513937949343e-01,1.087513986654050413e+00,-3.836053843659602003e-01,9.264803022550626155e-01,-3.075149587810965257e-01,-7.462609164689425478e-01,4.743531029181171088e-01,2.879836237541068544e-01,5.938107444983224958e-01,-5.447911182511350897e-02,4.843704565835859621e-01,-6.462968234860888561e-01,5.573217345302204917e-01,-9.109209000829951997e-01,3.350097318415819481e-01,-1.173290649727593449e+00,-5.052207970578067586e-01,1.879205736440328067e-01,-3.179156600215741202e-01,-8.300628842953285957e-01,1.244002223150063591e+00,-6.148112766198898793e-01,-6.922799826969758819e-01,-1.153703426100885387e+00,-2.999168093040109340e-01,-9.268988490829321858e-01,7.962820466564708433e-01,1.664563555232064118e+00,1.229154699662852179e+00,5.362935114969777373e-02,5.259839214369140814e-01,-7.331150726853916666e-01,2.806213194951289736e-01,-1.006234755512608103e+00,-7.922761559306005230e-01,1.415844938811516407e+00,4.876632794935215065e-01,-3.407899247149911215e+00,-6.393909630492996543e-01,-5.012031085435174615e-01,-9.477848227250412760e-01,-1.112083861389153272e+00,3.954608400336102059e-01,1.279378061046790638e+00,-4.085027875136107434e-01,3.347599823408203834e-01,-4.482599436975962526e-01,5.489938152148526873e-01,-1.337202898789729422e-01,-1.100757738049154444e+00,-6.454960446554455222e-01,-2.088371510550711907e+00,-6.915937392945230300e-02,2.022991620605675944e+00,4.870818295150144417e-01,-5.657900336818634246e-01,-3.190124413940796655e-02,2.305580584727111582e-01,-1.792442979623063204e+00,-1.510827318401956498e+00,2.758907180245934843e+00,2.883217478196454797e-01,-5.979904758150488275e-01,-7.186042211173028216e-01,-4.881197835250393746e-01,-2.112371119998770030e+00,6.851600301316770336e-01,-2.783174945641953557e-01,-5.575691641332984894e-01,1.538375750929039387e-01,-1.816350800427869450e+00,-4.321997123283907172e-01,-2.798485741692978146e-01,3.206053119309647537e-01,1.694561012828270374e-01,-8.973293384365048642e-01,1.581275211663656810e+00,7.039321720936856375e-01,-1.410256276158010413e+00,-4.458422730038301141e-01,7.435246131429834593e-01,-8.317837501735575456e-01,-3.269039920177271297e-01,-5.479054711055681981e-01,1.000921925343541741e+00,-1.024320663574296963e+00,2.067392876114888978e+00,-4.893188167285288381e-01,1.467195498591143954e-01,-1.002243866599335398e+00,-7.915156276674155666e-01,-4.251401227126624383e-01,1.097710082598883252e+00,-1.322376331702591022e-02,-6.561416892373342913e-01,1.665773205619078601e+00,-8.104380552536250004e-01,1.237694902903677008e+00,1.076661469785483938e+00,8.798290360259152232e-01,-7.851801794322053052e-01,-5.674777541207706166e-01,8.314726597555683885e-01,-1.089460197078413017e+00,-1.759598097022213592e+00,-4.553139676421530391e-02,-1.082353998129302664e+00,3.952366505850248846e-01,1.473365461447512681e+00,-6.201594651468858022e-01,7.120098526412943496e-02,-1.445569853510188407e+00,-9.566633822062061698e-01,-1.718747112700046153e-01,-8.190895506210699173e-01,-2.375407228265522808e-01,-5.053381721912761915e-01,9.117878933993818213e-01,-1.801636968780549575e+00,2.341083236427805303e-01,5.581427207013464065e-01,3.327504770936650091e-01,-2.367327347255147874e-01,-8.846551700598548340e-02,4.311289609680101775e-01,-3.204791252654914935e-01,-3.204384664071245892e-01,1.152278194352090335e+00,-1.838797912223903708e-01,2.941741459334971331e+00,1.883213142659792894e+00,2.429971228226958935e-01,6.634073814929357660e-01,-1.933345823879224490e-01,-2.144546078349047480e-01,-7.987538430667286971e-01,1.381664658988860372e+00,-1.005473467424739864e+00,-7.270396078296471609e-01,8.167403489291064078e-01,2.679754190008550307e-01,8.912684924168337020e-01,-6.447170941841487979e-01,3.195980819199540912e-01,-1.124969625812626717e+00,-9.614917591840398403e-01,8.420662387715618924e-02,1.266739217717523625e+00,1.848920267887983471e-01,-1.034504697653854777e+00,7.439497264016955436e-01,1.012011721297523925e+00,-4.431122564382319329e-01,-8.058644589555764570e-01,1.329318675552673801e+00,-8.773749505572445706e-01,8.922511721262111895e-01,4.364190614138417357e-01,9.356062073942429669e-02,1.055156018939226392e+00,-9.257758291473794365e-01,1.515320029232440691e+00,8.688442028319086630e-01,4.903123001188218200e-01,8.920027062385886829e-01,2.622560354855975051e-01,-1.268552519981479554e+00,-2.769248961113324747e-01,-7.641421073753310589e-01,-8.597647657895383100e-01,-9.537778201072867335e-01,-3.703185060778388937e-01,6.317995594669303383e-01,-1.095027987564038824e-01,1.990133643547993547e-01,-2.892582435327916701e-01,-9.971989490292099134e-01,8.382327031672354156e-03,-9.788586364955247365e-01,1.733800466905595972e+00,-6.768050058231550592e-01,-7.123403568788245765e-01,-4.137433041014103585e-01,-1.185271058330788829e+00,-4.007829559914733442e-01,-1.007931605513990414e+00,4.639914918652119843e-03,6.975582179913770720e-01,-1.476370922081742032e+00,-9.385455744485495799e-01,-5.667827940986429613e-01,-5.020576776594397606e-01,7.766226440344141668e-01,2.841927740365713939e-01,5.461846489916186709e-01,-3.542858793186240973e-01,8.234887453733957807e-02,4.514657711226145453e-01,-1.829311795477224223e+00,-1.803427151950191432e+00,-1.090957190648702557e+00,-9.392138376560013602e-02,4.496753653437124965e-01,2.612046186839618866e-01,1.850776411355615492e-01,1.807171662323693237e-02,1.319125417681657142e+00,5.296310890885065348e-01,-7.667589781892698575e-01,2.663003773873292082e-02,5.876957005126720590e-01,2.648926938961962407e-01,-3.202621105840567917e-01,-4.625673344370828666e-02,-1.023454313485701261e+00,-1.057784078406650563e+00,-2.681904178496317126e-01,-2.661386388297802164e+00,-5.233420983627771195e-01,-1.018297009990502544e-01,-1.244874822152825633e+00,1.177270589111198751e+00,-1.009250318850961392e+00,1.842805029363077940e-01,1.398081683610134629e+00,-9.590697568410699869e-01,-7.524936824547154846e-01,-8.534580471938775226e-01,-1.749278088803302600e+00,2.179934761417671840e+00,-6.229602652612272751e-01,-1.382256754164412849e+00,-1.090288726180082657e+00,-2.856610830575010862e+00,3.576093757011100105e-01,5.725436955703361308e-01,1.862194256880748355e+00,1.413968154986137371e+00,6.316447473343275165e-01,-9.325198766774835946e-01,-6.837436233515485628e-02,6.997363355078349834e-01,-3.384890187762603642e-01,1.632679035640923315e+00,-3.662358600896918337e-01,9.725599113163080345e-01,-4.389841886496504419e-01,2.238378276444264736e-01,-7.210665738270948255e-01,1.106282017662186590e+00,-1.270742268302724964e+00,1.372604154832042456e+00,2.283776720105353264e-01,-4.098611303659980276e-01,-9.994805686175773918e-01,-6.142770790243534673e-01,-9.185631741011769658e-02,-1.105365542343427432e+00,-7.350426098637201366e-02,4.982164126277870142e-02,8.428184741135857916e-01,-2.278213032768919177e+00,-1.100489629671589586e+00,-6.836777723073557134e-01,-1.432324625151238484e+00,1.521864325736906887e+00,1.542710273161585155e+00,-1.219697409905928565e+00,-1.574526708521285734e+00,-2.149876092009875839e-01,-1.325027485510449354e-01,1.210117362555363785e-01,7.905544028632518483e-01,7.411001113505939486e-01,-4.313312370848700894e-01,-3.797121099965015123e-01,-8.460305884448442171e-02,3.758406540644958910e-02,1.325343680657992573e+00,4.188784727422303900e-01,1.957967185116528397e-01,4.444215231698317448e-01,-1.137017519821949207e+00,1.074702579586209961e+00,-1.536024239308994677e+00,-8.907136981779434359e-01,4.890074847387185786e-01,-3.885270608260241176e-01,5.735761789430434548e-02,7.486087157608650733e-01,-6.272152168144630169e-01,2.191805065420826537e+00,-6.912193762860588953e-01,-1.211908248333276594e+00,-1.036816833501455593e+00,6.782112042592381984e-01,2.059305447073788153e-01,-5.746254976803956138e-01,3.263057013731379130e-01,-2.355792560736062469e-01,6.338616369020743102e-01,1.919737293474358397e+00,-1.128437484211505470e+00,1.129682992293656651e+00,-1.065283858929648053e+00,7.656059398550705275e-01,1.404380096244181919e+00,-2.036681535880235039e+00,9.160220548558494214e-01,-7.652250265448601318e-01,3.997131845917505921e-01,-4.368942975424616182e-01,-5.817721562445269390e-01,1.132590199374259587e-01,4.486787483326781789e-01,-8.663551344352717898e-01,8.225257940892840569e-01,-2.327714112584422235e-01,3.623946675901160708e-01,8.561689222745211270e-02,2.406707614999399336e+00,8.789957235084538967e-01,7.146513646772602035e-01,1.089353064645358193e+00,4.722796907492508578e-01,7.065386655610461641e-01,5.772505648491564889e-01,-9.298750588058137811e-01,-3.877741362330068275e-01,-8.862827389193059235e-02,5.899172557005106371e-03,1.214824183871171526e+00,1.554938151390271805e+00,2.760486924924474006e-01,5.507103876230621392e-02,-6.376894857115429360e-01,-5.964660400128639628e-01,5.326596944018560098e-01,5.876058415505092114e-01,-2.757674991965864408e-01,-1.245457235375500460e+00,5.875851149817485491e-02,1.226542609581422916e+00,-1.895535253541742238e+00,-6.229095055141669057e-01,-1.731407661125892727e-01,-4.155647644957941589e-01,-1.804200760618511534e+00,-1.615327240595602287e+00,2.114042239369274268e-01,-2.128449355267060472e+00,3.123001556900535935e-01,-4.624368773250552844e-01,4.710511549494733607e-01,-7.213001957497616745e-01,5.471655307493165088e-01,1.395596002088096421e+00,1.375740612064940693e+00,1.664169105900036305e+00,-5.419082130145264076e-01,-1.296703857274199567e-01,-2.436384133162575072e+00
1.214834696177254703e+00,-3.483308507863013270e-01,1.194329535725082297e-01,-1.011184202978230973e+00,-7.002608153295585280e-01,-7.592796187804818908e-01,-1.619497153293488756e-01,1.083001822020837279e+00,7.935363616412794974e-01,-5.960548257421333096e-01,-5.446679735714547999e-01,-8.052347933980199546e-01,1.354598423314880284e-01,-2.578820645736216721e-01,1.334878433218571692e+00,2.656477012909966295e-02,9.638540373924205928e-01,-9.081768123739861753e-01,4.346514999812102487e-02,-9.547983968961719359e-02,-5.202979119662887175e-01,-2.060459005837288693e+00,5.978118013326411129e-01,-5.360185194394393587e-02,8.324351888798526833e-01,1.945335953884966829e+00,-3.185863835393159399e-02,5.759479845975464807e-01,3.914891481624016567e-01,2.390403579522820954e-01,-1.320149361014570033e+00,4.644792016358685327e-01,-3.248264349299848641e-01,-1.715463159000577109e+00,-7.673138625967742543e-01,7.473700167520341830e-01,5.643628778921576661e-01,4.821214009642684761e-01,-1.125468788575150647e+00,1.605032567838064195e-01,1.158308216942835339e-01,-5.922697017848550516e-01,-1.474628000617694001e-01,6.384825817113027879e-01,2.280617145518879507e+00,-1.114988515780162448e+00,-3.574219117708032356e-01,5.396959421183122885e-01,5.410273393005492482e-01,7.490340366426700980e-02,-1.079452372506695956e-01,-1.261190265206146022e-01,-1.261728835636852342e+00,-4.252642493874871921e-01,-2.521713258208161390e-01,2.395869018788411922e-02,7.575211038471333369e-01,-5.564412520049217825e-01,-2.427488427893304657e+00,-2.728607792901228124e-01,6.577448359354894913e-01,-3.073422729056771718e+00,-8.994102758780535556e-01,-4.030999325149899337e-01,-3.373265188769101197e-01,6.584349777407670634e-02,-1.018069511551867201e+00,-1.255494122230900844e+00,-1.026333350791890364e+00,-5.460601399892807128e-01,9.655785620431486249e-01,-9.688192889092366311e-01,-2.334709266410523565e+00,3.030757123402807451e-01,-2.001270012651629848e+00,6.088057367651442675e-01,1.277314715979687376e+00,1.696549873483937043e+00,2.008727088293568386e+00,2.247085082284078883e+00,1.288221913004640395e+00,-4.872698915762554428e-01,6.616102167800418377e-01,2.103364291184562251e+00,6.339407447428194731e-01,3.218668339180532634e-01,3.924895287017355350e-01,-5.923939014654020646e-02,-4.194392413078203985e-01,7.156160189397182680e-01,4.155660909396081126e-01,4.774266315751359291e-01,-3.819480772655956535e-01,-3.265561183032281156e-01,5.216856721462027613e-01,1.020443127110192000e-01,-1.874325049246044150e+00,-3.187177886452259745e+00,-3.636572396943978713e+00,-6.340197621143209616e+00,-4.121800637639978504e+00,-3.665848630095781768e+00,-4.095512690227671726e-01,7.222064664968009806e-01,3.264546838572087939e+00,1.368824775506082947e+00,1.170397623430021961e+00,1.422781988861826052e+00,1.224032754546164226e+00,-2.212143557532483817e-01,-7.003302967414907210e-01,-8.449539964628010047e-01,-1.221966843115696172e-01,7.291903342821570710e-02,1.130740016714305129e+00,-8.549440584412355548e-01,7.834176882998038494e-01,1.123807905588962042e+00,5.122119946693896031e-01,2.930953334196129578e+00,4.768063297364789621e-01,-1.016557897550034895e+00,-1.914713102234879560e+00,-3.490573696665949299e+00,-3.906811404792701836e+00,-4.546273588191243498e+00,-6.120787106793899035e+00,-3.806347533670475070e+00,-2.231002570075156122e+00,4.305616816616301690e-01,-6.551397817931854384e-01,3.561395829264640156e+00,2.453684437984993139e+00,2.817061817314346239e+00,3.074380781392988204e+00,8.759933674188491448e-01,-1.114662399981556362e+00,-4.814230348589506603e-01,-1.511005228397892530e-01,4.471822383153786218e-01,-1.244210574102690980e+00,8.949145664729701855e-02,-1.228033607035805108e+00,1.138016483199736806e+00,1.263512209890695903e+00,-1.153125364009057879e-01,-8.678758729553404105e-01,-1.253951953478270043e-01,-1.093074665722681083e+00,-1.357629197101341223e+00,-1.714572526691368726e+00,-3.292420650886626721e+00,-3.611359009059067926e+00,-7.455204709469950508e+00,-6.069700325680408071e+00,-3.345164894298309211e+00,-1.183263555157769709e+00,-7.972605596308516285e-01,-4.641206274619632310e+00,-3.561002734574518325e+00,9.643299107350364885e-01,1.651188107651544890e+00,4.835082699554615338e-01,3.675301313983517559e+00,8.145527251149902170e-01,1.867600816709907852e+00,-2.375144216741270908e-01,-1.580560716814747968e+00,2.194802187590295384e-01,9.806724928643436590e-01,-2.146282152283421674e+00,1.626345135754555971e+00,-1.096652105723112003e+00,1.312748453876286137e+00,4.722816264798140873e-01,-9.330936270843690483e-01,-2.186024659732950237e+00,-2.027685584547112008e+00,-2.928815239877282206e+00,-3.057623013954338997e+00,-2.033850007396533766e+00,-5.739144519542764833e+00,-3.602426339971484648e+00,-5.113572742835569507e+00,-2.354850335178742426e+00,-1.077262477457106682e+00,-4.313861823591780276e-01,-1.849652959925145002e+00,-3.243401984301598762e-01,5.096528104432298534e-01,9.214358499862349561e-01,2.783659130262296610e+00,1.230231472116203761e+00,3.821859262355016829e-01,3.177711213441022399e-03,-5.977770294158912812e-01,-1.625413593976875015e+00,-1.188304578651523169e+00,9.219332461815931135e-01,-1.759538694926564284e-01,-1.398711487989460767e-01,4.484557330398213360e-01,2.722153247599992110e-01,-7.622787925231312434e-01,-3.153619571125822585e+00,-1.211885150928033061e+00,-2.081021969012334161e+00,-4.575368128663980904e+00,-3.296228155431176088e+00,-4.139573256126548806e+00,-4.057653879339064851e+00,-3.076777174174845086e+00,9.550537751639205375e-01,3.557635248435333075e+00,2.955081918611637132e-02,1.411856809152591818e-01,1.012865276397394432e+00,1.845189104974781780e-01,1.066470668273843847e+00,-3.120118298656044953e-01,-3.931553841958766449e-01,-2.030773879484510935e+00,1.189272393180281551e+00,-8.953900961052645435e-01,9.497699014105972504e-01,-1.013162226375083685e+00,-1.435894003289578613e+00,-6.388414210823329942e-01,-5.185243625365992121e-02,-1.739638581069667289e+00,1.490772995904971199e-01,-1.715632677965786002e+00,-1.411678630110963617e+00,-3.391934152924932722e+00,-1.805406124021761149e+00,-2.985838100861921696e+00,-4.696610073774275307e+00,-2.981654351625920185e+00,-2.342787701411641610e+00,5.125794356349467895e-01,2.408365522276139981e+00,3.357379160495069570e+00,6.258935517380971314e-01,-2.204341166050018119e-02,4.261818383671628352e-01,-1.889316657294504376e+00,-8.846302979207941730e-01,-2.110254626103648334e+00,-4.610371775778244752e-01,-6.051280551130209240e-01,-1.483098719218497452e+00,1.929748617136953226e-01,-2.608511057358691709e-01,1.753019056038664703e+00,8.021654723537292586e-01,-1.069595884743974823e+00,4.897536834148150803e-02,-1.773662186684108910e+00,-1.003543255675479334e-01,-8.112563476850380706e-01,-1.488160377903234188e+00,-2.466940981348105577e+00,-2.844748970917626352e+00,-2.395313203805497615e+00,-2.623215716880975101e+00,-3.058794660426192635e+00,-3.554812399615710494e-01,2.799807193854513709e+00,4.387762422976339671e+00,3.540388229737250647e+00,2.442502128902995562e+00,3.213751529757420955e-01,-5.080392850568263841e-01,-2.581769508831322835e+00,-2.436570936097476103e+00,-2.373065064656942003e+00,1.290902351337796850e+00,-5.117470272471066201e-02,-1.303026632053507217e-01,7.826757907278683035e-01,1.015672786587564547e+00,1.496416195190559018e+00,1.446532609150837478e+00,-2.131990826372188175e-01,-2.463611574622918965e-01,-6.808542223216365596e-02,-1.969830547778220309e+00,-1.703400612721658991e+00,-1.572419404787436026e+00,-2.472771136907363054e+00,-1.208751754501032671e+00,-2.876657302417727990e+00,1.013731102172029663e+00,2.966090106372046287e-01,1.737382452639404606e+00,5.614069186052946137e+00,6.000704837867194108e+00,3.548900792246674207e+00,-2.729442842127915103e+00,-1.470477018951530379e+00,-3.135615318480591718e+00,-2.332630114886755646e+00,-2.318014381954002445e+00,-1.427195900259045080e+00,3.167342007402829118e+00,1.983144577818661602e+00,-1.588854594124888386e+00,-1.049503398124888909e+00,1.429510139158662596e-01,5.311391896825643499e-01,-1.074754051087845719e+00,-5.428580430266795043e-01,-2.501637195513780054e-01,5.318770961538958897e-01,-9.831174666064119716e-01,-1.038382269522887036e+00,-3.750074483352845878e+00,-1.795551948899559491e+00,-1.807269515443644892e+00,-1.337290319884562484e+00,2.473265070015407741e+00,8.244571472562234327e-01,2.709597143566344180e+00,4.611706493564518894e+00,2.665967766189127008e+00,1.911435903507229694e+00,-1.680481480294728325e+00,-6.950520714772484565e-01,-3.932264196411651702e-01,-1.932424160992096018e+00,6.085494501683918339e-02,1.069304268788104015e-02,7.650579604639750064e-01,2.144722490167028983e+00,-2.804776067294813546e-01,5.640367508132093644e-01,-3.525562838946755484e+00,5.584188045907673148e-01,-3.240577908693581533e-01,8.518468318447711685e-01,-8.948958806202401695e-01,1.830962378685893066e+00,1.313263300859620619e-01,-6.946536772841873653e-01,-2.464756731960124014e+00,-9.528065477109697312e-01,-1.883662022593918461e+00,-2.292894470343531943e-01,1.545453474501275792e+00,5.170059734478688718e+00,4.467693834414517617e+00,4.335479187572915727e+00,-3.816699358114268303e-01,-8.643159075120998569e-01,-5.760484514622897512e-02,-4.441072894833943074e+00,-4.567700590978148512e+00,-2.071540095288287642e+00,-7.705082082264411714e-01,-1.072448077749393658e+00,-1.128679178297522290e+00,-5.719176987419681835e-01,-8.261302660762688266e-01,-3.930920145707507696e-01,8.881653212682141252e-01,1.572517324499251412e+00,-9.110488711267104023e-01,2.450338216504592548e-01,6.340085565694837666e-02,-1.057015067297376598e+00,-2.094307005117485243e+00,4.052588998409422660e-01,-1.069260523343788849e+00,-4.637835254321173162e-01,-5.109163064389785625e-01,2.522885363217659993e+00,4.936047105573694971e+00,4.912892727588216601e+00,8.227213958826952167e-01,-2.192636926951860854e+00,-2.165137253530535322e+00,6.452075745346208535e-01,-1.081701970889152653e+00,-1.859881454054940209e+00,-1.875979573798720379e+00,-3.449382836633674843e-01,-2.141257213337164345e+00,-3.136777442921069525e+00,-1.474516119403260772e+00,9.224929830205154113e-01,-2.853866161964769277e-01,-1.609046510328316693e+00,-9.242542296238618338e-01,-6.891715253284417253e-01,-1.759977581412338621e-01,-8.115957779545054929e-02,1.435445726472962258e-01,-1.028268084869799148e+00,-2.221772941457384132e+00,-1.833466334044023371e+00,1.810649746537539573e-01,4.774546671630284789e-01,1.989034532862682614e+00,2.812857100195775839e+00,4.828845635703703509e-01,1.255357086340305628e+00,-1.655184210432183445e+00,-3.343180976971105611e+00,-8.580999863561177277e-01,-2.112027847757126153e+00,-1.659814727641012011e+00,-1.225889619607939629e+00,-2.560689766199979900e+00,-1.866801394083723586e+00,-4.081612940594193439e+00,-1.643688937840736886e+00,2.037380500369481151e-01,-2.139624477684354709e+00,2.496727903622782130e-01,1.362659647017166846e-02,3.348064189477333863e-01,-1.141363650609586555e+00,-5.910018268823862275e-01,-9.200144875497892061e-01,2.262666113818732061e+00,-3.117765870415489360e+00,-1.502732553376085134e+00,4.301727887313503973e-01,-5.713816683960413201e-01,1.146546627495885762e+00,8.073782442046181229e-01,2.928188093167971129e+00,1.820966282574252526e+00,-1.348460450175431591e+00,-3.097590293818512475e+00,-1.687492393431659465e+00,-1.023561870397936113e+00,-4.186345485956854406e-01,1.300455516780389287e+00,-1.145944572043329002e+00,5.316837612030756999e-01,-1.388662162633275132e-01,7.919129043491272002e-01,-2.647912192245197360e+00,-2.856977552444841528e+00,-1.756574956816429722e+00,-1.812617617821836280e+00,2.672197216717752122e-01,-2.094448268156587911e+00,4.907206102265984082e-01,8.728677089874686823e-01,-8.185746511850086615e-02,-3.285473446067930237e-01,1.318744965858772211e+00,3.700656564203311238e-01,-8.814364647767178873e-01,-9.231512929810216095e-01,-1.743036319763924480e+00,-3.305468903985437468e+00,8.989090617810231443e-01,1.494970777484247559e+00,-1.463290486257313505e+00,-3.498072702551504598e+00,8.479586811729131202e-02,2.131643675336679866e+00,6.971873504227791285e-01,1.542738271814357409e+00,-2.230567199693117342e+00,-1.544957155563285722e+00,-5.825859647214268744e-01,-1.526997065400511389e+00,-1.762386218271190463e+00,-1.087492736898632434e-01,-5.310270329972467396e-01,1.659513260361653808e+00,2.029685273183611027e+00,2.203770123105757150e-01,2.408266041127442136e+00,-4.181653375031590958e-01,-1.669079996714428971e+00,1.734994873302628138e+00,4.344322506552729557e+00,1.935541782779545139e+00,2.337459395092345293e-01,-1.810868985111327101e+00,-1.065126960841970671e+00,9.190187242144874924e-01,8.786074524801361640e-01,1.928453862810530550e+00,-1.750361428954369636e+00,-3.939717746343625482e+00,-1.954436906127858808e+00,4.423303814403970691e+00,6.837082433596836095e-01,-2.815452609142746754e-01,-1.471605634833416554e+00,-2.816582344813251204e+00,-3.523922241218582219e+00,-2.466008290075017317e+00,-2.471967010390670350e+00,-7.427575468067260100e-01,-2.752701565472268630e-01,-3.406805002196639509e-01,1.234909914334129111e+00,-4.559662963390369583e-01,8.718639537701051712e-01,-2.388202899605466889e-01,8.515134991513695351e-01,1.358972264143226472e+00,1.306851007449788993e+00,1.452102984839774846e+00,-5.798696242837749759e-01,-4.688297095994415666e-03,3.007108288588134393e+00,1.397785162187092256e+00,8.762902291133666255e-01,2.639351254296064209e+00,8.569717465147873303e-02,1.079882919568919269e-01,2.881791681789762194e+00,1.479261532519166256e+00,-2.668489060370162758e+00,-3.604638678102668248e+00,-2.422797029329129437e+00,-3.554979576393609175e+00,-1.154912930384185632e+00,-3.276855339146072410e+00,-2.428059750990680499e+00,-2.378630370761607438e+00,7.039435769431632295e-01,1.789871333668262565e+00,4.990192052821183499e-01,2.550544067761916889e+00,-1.234423716121539671e+00,3.008289039962115941e-01,-3.746855401011831010e-01,-1.300131529583361534e-01,-2.359826053779405797e+00,-7.067852087489037149e-01,-1.961174269179256635e+00,1.450734208883996734e+00,6.127218037871076106e-01,2.754117349740327625e-01,3.437375196348630535e+00,6.445781678400956061e+00,1.603169514609303237e+00,6.156350255725917542e-01,9.523442778769013184e-02,-9.842076007565639939e-01,-4.317974448901191309e+00,-8.840929103803926159e-01,-6.340838161328986589e-01,-3.088932580645153969e+00,-3.496640045318531786e+00,-1.421503436737891146e+00,-3.704425757541791597e-01,1.232457390699842753e-01,8.595877852777399075e-02,2.336115530678330721e-01,8.450479877864327527e-01,-1.258078089858789328e+00,-2.574852302527095294e-01,-3.477089829066580262e-01,1.097653579159066639e-01,-1.686511927479463768e+00,-1.097642583089868618e+00,-1.299456417960461074e+00,-9.708658747899548414e-02,-8.866185568605595979e-02,-1.817123886574872449e+00,1.649801660303224171e+00,6.764678270004280236e+00,3.279154332363911628e+00,8.891929255461343551e-02,-4.303626530491019841e-01,-1.642157825551440409e+00,-3.106185575946585953e+00,-3.307229394282991564e+00,-1.877218054924314261e+00,-2.610576671524770020e+00,-1.881746669360091495e+00,-2.092710992391137559e+00,-2.122920940115698152e-02,-1.769743420175361459e+00,1.106870124589260929e+00,7.854461458928029272e-01,-2.107446794968250436e-01,9.627263455026294769e-01,1.957945990376454226e+00,-3.607800428709087015e-01,-3.845476751485357170e-01,6.878998470659389852e-01,8.781660377270443796e-01,-1.314918084469847148e+00,-2.576068827513217752e+00,-1.125142625443086741e+00,-9.691559082488325760e-01,-2.782497961991429736e-01,4.650047877804217578e+00,1.625894214187593612e+00,2.257329022231030269e+00,-2.392193489655348060e+00,1.700745094474820918e-01,-4.525566959143228374e+00,-5.545731635781982583e+00,-4.686635815195855592e+00,-4.259527021517934386e+00,-6.760804534365748297e-02,-2.196782565588193958e-01,-5.294498825847336609e-02,-5.923045540396684044e-04,-2.711258040440646389e-02,4.923464446163456909e-01,3.837719409764637768e-01,-1.140649052414189013e+00,1.728441393970966633e+00,1.638056592794150390e-01,-2.136649089620915876e-01,1.745990367042495439e+00,5.001238523207204301e-01,-3.612907224627349145e-01,-9.258503955813609521e-01,-1.822823534588563499e+00,-3.629126903244008329e+00,1.241760259494502083e+00,9.771813682992730454e-01,-1.403219552993954400e+00,-1.347286389978798571e+00,-1.451242827583200556e+00,-3.747820252217102799e-01,-1.599272529497123951e+00,-4.682262978820091348e+00,-3.893491306494169191e+00,-4.307769442642535473e+00,-1.867360354180309878e+00,5.963122089227953504e-01,1.629425178789328799e-01,6.842838496781126212e-01,7.679146839749355358e-02,1.347771137487561610e+00,-4.294096517460136986e-01,-4.526226195957349652e-01,2.085636986887780542e-01,-4.140515244461746847e-02,-1.749556291935829844e+00,-2.567872106532794740e-01,-7.355888969050525805e-01,6.414010272454554462e-01,1.051321563800591691e-01,1.589454638646888851e+00,2.906002685976526445e-01,-1.404619511465277304e+00,-2.654033053887058458e+00,1.122715861220396905e+00,-1.361837007240494613e+00,1.274981712686150015e+00,-1.404421013955877262e+00,-1.828591482782788269e+00,-4.176484097162903808e+00,-3.442881753142647216e+00,-1.269299797330930124e+00,-1.009462989563166380e+00,-1.739658203069540221e+00,-9.757971287350900580e-01,1.584907785271336467e+00,-1.365935295424061779e+00,5.809672353264017097e-01,-6.300474221674747799e-01,-1.715875684213012398e-01,1.135358973233601132e+00,1.230482855695768540e+00,1.594997343114338051e+00,-3.070650216882397365e-01,4.756610796299477473e-01,-2.005881512155360535e-01,3.557230169532438202e-01,-1.749881971819340798e+00,-1.275152657652234067e+00,-1.329687178679825665e+00,8.645795220155380045e-01,1.526303080776108878e+00,-3.418930494817953303e-01,-4.509836029002241453e+00,-3.064590970789047741e+00,-4.723070091826294004e+00,-1.757430346642247621e+00,-1.803509196487970367e+00,-2.014120313797356676e+00,-1.825037370515203650e+00,-8.143711527125025995e-01,-4.177135758953517963e-01,-1.735005371494202864e+00,-3.335020451724460822e-01,1.291705114240999874e+00,2.903709801511346056e-01,1.025321143496828569e+00,4.985934838837274286e-01,2.780637990233812973e-01,-8.146619810228730163e-01,-6.613486116587991015e-01,4.223089919513812740e-01,1.642317104005662110e+00,5.378313022988157055e-01,-9.186260319576711186e-02,-2.027036342980896411e+00,1.592554219375972024e-01,-1.071457320787878364e+00,7.600458044748209518e-01,-3.538231153912270721e-01,2.543476602431681499e+00,-9.390641183751999854e-01,-2.805534200394871114e+00,-1.078227233641258831e+00,-1.853376150791588239e+00,-1.638955182969317637e+00,-8.528750453365595563e-01,-1.259205661628634676e+00,-4.381964275064862413e-01,-6.998686714360092820e-01,7.123715783089088482e-01,6.605680622177931838e-01,-2.075801587771151091e+00,-1.040957595403478209e+00,1.241653479637521151e+00,1.766799524642381103e+00,1.133739367276664911e+00,8.086193486245353279e-01,-3.905212922233828876e-01,-8.179314963449414444e-01,-4.832838671455804702e-01,-8.377554230398244206e-01,1.933956752213852603e-01,-8.044319384329373657e-01,-7.720452120785022965e-01,-1.041816912395174682e-01,1.160058515959568742e-01,8.507783989565168570e-01,-1.370772298694820757e+00,2.173507873666854273e+00,2.298308412493349842e-02,-1.526123920061227990e+00,-1.475354015162334775e+00,-1.028050992589909951e+00,6.532955619153225646e-01,-3.601727183342685046e-01,8.551480460098634939e-01,-9.010089017879391315e-01,3.652537250243846900e-01,-5.688519414166796073e-01,1.142804667281186015e+00,1.771966453316100143e+00,-3.088552273073055243e-01,-1.443665428169312870e-01,1.632396956565235868e+00,-2.151941956098034070e-01,8.108045662732901171e-01,6.990607483634937724e-02,1.239515931212933630e-01,-1.093383019917138377e+00,-1.944457138760806725e-01,2.408926957263981539e-01,8.623228356082328350e-02,-1.268164061579194035e+00,1.107523102178179786e-01,7.101355202019381530e-01,-5.113863002019855553e-02,4.334375877716681313e-02,1.219886881127548950e+00,-8.035249562250220690e-01,1.211431800205212239e+00,5.754887972096397464e-01,6.950840679054758331e-01,-4.849459684576378771e-01,2.926437432902906366e-01,-1.437910421157107210e+00,-1.111143449077932888e-01,2.050622921339397345e-02,2.106563999011129340e+00,1.586304693566160662e+00,6.725095747736989371e-02,4.565762821479304456e-01,8.600187509196236535e-01,2.784327508615185298e-01,1.571896792210511484e-01
1.397373814656520108e-01,8.685757724957599013e-02,-5.471698833233324955e-01,2.186390011513003273e+00,-3.737849312917323474e-01,-4.102858790663602706e-01,1.361519961748879071e-01,1.617832498006509745e+00,-6.534689612882009779e-01,4.445328725009530801e-01,8.012757502729853654e-01,4.534180690916037038e-01,1.140597798151834347e-01,1.699845825677046784e+00,3.077469726034122721e-01,1.418312535549018039e+00,5.546714144464847535e-02,-7.067235028223224358e-01,7.267855997968148962e-01,-1.189949822089586773e+00,2.211496755841567963e-01,-6.327184409413019184e-01,5.958235589308739089e-01,1.414586535308952175e+00,-2.906824167434601258e-01,-2.185687140517316440e-01,-1.231356660435133588e+00,-1.892468897991212429e-01,-7.121404085863208833e-01,-1.207538892403781761e+00,-6.805281401914783368e-01,4.423937995971443105e-01,1.916647503360552118e+00,1.137387046961565895e+00,2.166465660276748750e-01,-4.009506544096779757e-01,4.625744245260208359e-02,4.551791469987201966e-01,5.013889304430214633e-01,-4.160228794323836965e-01,-7.230052370343237333e-01,1.337310792285270944e+00,-7.939447853045808468e-02,-2.816245630543721123e-01,6.728109885160696857e-01,4.117635190518049715e-01,-1.347466362997514100e+00,-1.403398178452940348e+00,-2.028473980397514254e+00,-2.824244146757579177e+00,1.086894375705041105e+00,-1.663961089619880207e+00,1.117172939076713556e+00,-1.438833647573449781e-01,9.124000394969093986e-01,-7.546187538564810282e-01,-3.333165392429170981e-01,-2.714456796456229948e-01,-7.879030467891466882e-01,7.258955081585314328e-01,5.449182808926529287e-01,4.639390445790792517e-01,6.293505188527244165e-01,4.065412916813584410e-01,-1.249973345735562624e+00,-9.121641585846018696e-01,1.461958644314602429e+00,-1.234683164387210930e+00,-1.440491872618451241e-01,-8.670065270788577250e-01,-7.142195143422997994e-01,-1.981681515360719015e+00,-1.759787740307003689e+00,5.890061773603678663e-01,-4.056929933686753698e-01,1.585092218428111543e+00,6.172957885751468865e-01,6.096308426571667161e-01,-1.302801581444818835e+00,-1.013107265110369248e-01,-7.031690747458627655e-01,-2.774781479303842918e-02,-1.498877542784877170e-01,3.225648537244401592e-01,-8.840103687348379591e-01,-1.004406183455367474e+00,-1.082541877095138494e+00,-1.650191797958719508e+00,3.595624678244546679e-01,-1.821116214528829269e-01,-1.380785166080374715e+00,-1.854366472897352736e-01,-2.749435940285072988e+00,1.375175066418865832e-01,-2.608944979703129996e-01,6.545632753226665601e-01,-2.901132791215424445e-01,-6.025316283686037444e-01,-1.063999000265504868e+00,4.673703762501227321e-01,-1.554911675941357818e-01,-2.211274160529487220e-01,-1.836827848106493244e+00,8.123004047227092017e-02,-5.559706917436581242e-02,9.747807243090193807e-02,2.535363080796407154e+00,5.829994465681881399e-02,-9.023355616759278774e-01,-1.967355459247603244e+00,-4.677736614137137372e-01,-5.918363315284358439e-01,-1.066051300925997120e-01,3.293978749267205686e-01,4.237813230912258478e-01,-7.018374139264742517e-01,-8.206943877262030951e-02,-4.706303081621338036e-01,-1.006374439642016227e+00,1.239533064290744904e-02,-1.868361782436791074e+00,-1.398626043829111598e+00,-2.841835311838032396e+00,-1.442413899830166546e+00,7.226547608476321383e-01,-1.691239125095596041e+00,-1.180926257945242863e+00,-1.077552516584407760e+00,-3.474613116737046981e-01,4.394396498686892194e-01,-9.608254782962116769e-01,-7.803611946531632260e-01,6.944619145139070415e-01,4.012016024148656879e-01,7.879460205049136912e-01,7.601837685295995684e-01,-6.579957807732993436e-01,-9.334151621836332957e-01,3.742694187965602826e-01,-1.431600102910959516e+00,7.730454610256841386e-02,2.875343289451276485e-01,-4.309418177196343014e-01,-1.355887711542421270e+00,2.169094602173129160e-01,4.965529138665387143e-01,-4.722238221039679051e-01,-8.940377520100677433e-01,-2.186079558746100382e+00,-1.516552037137506748e+00,-1.045117532783529812e+00,-1.380253250870888460e+00,6.326023603343103319e-02,-2.325385175574003593e+00,-7.035144787707207081e-01,1.047791461424515819e-01,-1.929866698257858504e+00,-7.196010676141594287e-01,-9.411011343616713098e-01,-1.861219539223487152e+00,-8.327319600796169174e-01,-5.595138429845858408e-01,-1.962931041597943960e+00,-1.437202724909033780e+00,7.033157118374165906e-01,1.213245430630408794e+00,-1.005034566073756741e+00,9.199671068679733388e-01,2.095320648928338247e-01,-1.809844807432071656e+00,2.360489804721122908e+00,7.183529662257061021e-01,1.565933664185328311e+00,2.502319244382083863e+00,2.138597594372092736e+00,1.306552916957315902e-01,5.728191253567028740e-01,3.314809974744483689e-01,1.471951873354313545e+00,1.448873714921302680e+00,1.582654345407900953e+00,-1.319967589589062573e+00,6.579443548694340338e-01,1.388393804128888132e+00,1.070963879321190415e+00,-1.311028087099012973e+00,5.385784670152747866e-01,-2.043091517550408742e+00,4.359459660105375889e-01,-2.298376468940076522e-01,6.996666940024726111e-01,-1.300681856528177194e-01,2.221303125194481698e+00,1.933681889880636273e-01,-1.307796946708986718e+00,2.044139545436242766e+00,-1.354100801815354860e+00,1.222602694364835818e+00,-3.184244417921050507e-01,-4.839513852916350195e-02,1.830522119426390093e+00,9.508208640822194413e-01,-1.272700059233583814e-01,2.418054297269380537e-01,-8.020687026497712591e-01,5.471619201527100351e-01,-1.863782861592330198e-01,4.185925052021745585e-01,2.424537926934303478e+00,6.410332740119578654e-01,1.483266090071372556e+00,8.123410140078117792e-01,-9.975828031327273193e-02,-9.543114472957816563e-01,5.993336378750029336e-01,-1.679107856701226753e+00,1.844089410371942961e+00,9.491451547153133550e-01,-1.822392971769570602e+00,-1.544611965812220378e+00,1.707339963340888334e+00,1.954724697683028478e-01,-1.183168388874026533e+00,2.960373537709191649e-01,-3.889271940442449171e-01,-3.627169550724420599e-01,6.697313658676673498e-01,-1.092138416035312309e-01,-1.011565395783911470e+00,-1.417857742893181783e+00,-4.888713385737310513e-01,1.380593604558079390e-01,-7.443875720635542148e-01,1.788659680230929805e+00,-1.121800291010446537e+00,-7.658953665156650326e-01,5.234580491360755206e-01,-5.163713386237043235e-01,-2.692572382230583816e+00,-1.890160577852677548e+00,-1.617401148676682165e+00,4.247733585283638286e-02,1.968495228739998382e+00,1.524059734079075690e-01,-1.756798684670971555e-01,-2.178404682632432976e-01,4.679597367948848397e-01,9.345423394463948652e-01,-7.752414765510813321e-01,-1.919089496947868345e-01,1.749378022858985693e+00,1.132933282945891129e+00,1.211407923796075758e+00,5.393446660035476903e-01,1.949446060964984961e-02,9.541189020319446046e-01,2.406558196602167077e-01,-1.160957083116314070e+00,-2.809769659708531098e+00,1.862301103186318807e+00,3.181879367193308106e+00,3.867551773329876985e-01,4.474915201091912431e-01,-9.019189732121485337e-01,-6.886491998798408565e-01,-1.208997835117595843e+00,-1.315188891719934361e+00,1.551527590262777645e+00,4.648877221199075316e-01,8.386395912645059347e-01,2.784783240564990200e-02,-1.602350305481470949e+00,-2.166537685204724450e+00,-2.299465660348639862e+00,-1.212362570662851136e+00,-1.254346935309665345e-01,9.675803632793511522e-01,-3.796524967969432396e-01,1.942585762459950738e+00,-1.071528038696269031e-01,-1.146493762242944692e-01,1.181540004641411512e+00,-1.831862633328571688e+00,1.035925951833716940e+00,4.423285958428578857e-01,-1.114685802405934512e+00,4.464721462624280934e-01,4.300617833978366833e-01,2.821628779952201627e-01,3.949857193100953651e-02,7.100449696693932333e-01,-4.444808002608615499e-02,1.472017415778161531e-01,-1.401753186508031268e+00,-7.656388295656887388e-01,9.354395318130391823e-01,-1.512968145428262301e-01,-5.063170900209718051e-01,3.981463548354851473e-02,-5.676528027741167826e-01,-7.809997980035084941e-01,-2.960356325051989312e+00,-9.084863110523484775e-02,1.171727577846738422e+00,-5.359139058383666221e-01,1.384765786294885892e+00,-9.517195050255955469e-01,-1.206958331654327976e+00,-1.002076825297710805e+00,-7.920540421723599733e-01,5.059865919013094571e-01,1.755744987981805172e-01,-7.350734056599216304e-01,-1.091529895372043146e+00,-3.041070636601990174e-01,-4.035539657925285573e-01,2.326192532660253248e-02,-9.641962734145907987e-01,-1.100670922256381079e+00,-2.042404254161164001e+00,-2.882715199514689797e+00,-6.045129486251846901e-02,-9.896984810046464132e-01,-5.071101642015710675e-01,-2.090826542696371693e+00,-6.413263018195114462e-01,4.182010014326321690e-01,6.122138628773482472e-01,-2.929411511138013680e+00,-2.657248451530186184e+00,-9.286934826646922603e-02,-3.952858349979674335e-01,1.139785536056188847e-01,-3.761761169959194628e-01,6.979987238171331265e-01,-6.304998700515048737e-01,1.473399155303154684e+00,1.308503877017206385e+00,-1.038224692864900156e+00,1.806049682539845715e-03,-3.137421737782562503e-01,4.995217813973542031e-01,-1.205198809567741058e+00,-1.437789242918413590e+00,-1.336572745285814712e+00,-3.371101432011061494e+00,-1.053625065080454837e+00,-2.044422124062189372e+00,-2.626349587677698327e+00,-6.233021995391716530e-01,-9.176315586122482104e-01,-2.624204080345507784e+00,-1.412681685933765863e+00,6.364162223149295583e-01,-4.843342410404998244e-01,8.186447679475140626e-01,-8.132955178360978810e-01,2.850931291449953497e-01,1.329781766005501686e-01,-1.380208839435407286e+00,3.036696169043357596e+00,-1.333576835500569713e+00,-2.204367826960128784e+00,-2.317174921798918485e-01,-1.820466335515767531e+00,-4.231266450333477924e-01,7.260656445914930313e-01,-2.159378805974934146e+00,-4.165629524223633529e-01,-1.032441174666256289e+00,-9.107598473267225492e-01,-6.980997831122971453e-01,-3.372188955849052316e+00,-1.688976801517511284e+00,-6.600676155533798939e-01,-1.949594454869054250e+00,-2.087536822368154965e+00,-9.387986750126287028e-01,-2.763349355245953709e-01,-3.274059277288098535e+00,-9.982564606626640469e-01,-5.917831607966193008e-01,-2.787808771640308603e+00,-2.053150266138166202e+00,-1.006486623818085624e+00,-7.979453834489315112e-01,-1.715045711476182122e+00,-2.411911334220327371e-02,-1.357952376433864572e+00,1.423202061424461151e+00,-5.311325775707621544e-01,-1.772005725300015655e+00,-1.414798423341174782e+00,5.227005145735198477e-01,-1.689597479681025360e-01,6.098650502392465728e-02,2.693951925991869167e+00,-1.239563808840680181e+00,-7.935552236653843350e-01,-2.357905405819105571e+00,-5.921576195915709828e-01,-1.358141094322405928e+00,-1.561627608697135017e+00,-2.955735092274656695e-01,-4.572274488552969807e-01,9.287804668351921089e-01,2.398978838495389176e-01,8.020322076804190514e-01,1.823191632639029169e+00,-4.269459268943841757e+00,-3.071135359229068218e+00,-2.618924446950361418e+00,3.230310735875242534e-01,-7.160157832128357658e-01,-2.058854128486906632e+00,-3.637127649431449727e-01,1.735282309830996073e-01,3.834125468578413742e-01,3.924115696313913437e-01,-9.475683932208773808e-01,-4.029224441085201280e-01,-2.732082572788577246e-01,-4.074319303122220931e-02,-1.161628882301402710e+00,1.533663141219835602e+00,-8.152191458169404104e-02,-1.179769319039529973e+00,8.729890775760731358e-01,-1.962826067827834642e+00,-1.607785366483793776e-01,5.613928616413369488e-01,2.322869722943230020e+00,2.397072831269434712e+00,4.071015476040654946e+00,-5.123432536732681619e-01,1.219609070373180781e+00,6.073495563402944164e-01,-4.171385485613066102e+00,-4.096196075179010521e+00,-1.613783827322819775e+00,-2.291505969918678165e+00,-4.181756846633452596e-01,-4.418481672397387428e-01,6.856958729109503548e-01,6.570663246809411995e-02,2.341806202270997339e+00,-2.239058583107229605e-01,-2.308276275433801761e+00,1.027503636432430811e+00,-3.146364369954413043e-01,-7.591331849008273736e-01,-1.111556356143590163e+00,-6.119199954738466785e-01,-1.790538263899635441e+00,-1.142965961722011592e+00,-2.323206543381849620e+00,-1.817983402023878536e+00,1.340361543844013958e+00,1.628071917224981791e+00,2.416294294053153102e+00,3.739261277986806853e+00,4.105492896855508000e+00,2.249203053405923303e+00,1.045924450786369864e+00,8.872037447574350477e-02,-2.486331326188517377e+00,-9.390862923839466969e-01,-8.755949177456194832e-01,5.610405828612483915e-03,4.194008903750164330e-01,8.293412483568833871e-01,-1.241251805616560011e+00,-1.623965100659412908e+00,1.242223314276926782e-01,-1.738124827539649919e+00,-1.043107062165215870e+00,1.927656147662480723e+00,1.856993416124370355e-01,1.363549596473011098e-02,3.019274754529059912e-01,-6.003770773620297208e-01,-1.006963325823439614e+00,-1.955730705435112071e+00,-1.248231966665823034e+00,-2.217688091471591572e-01,1.334829868228909699e+00,2.822331958882714265e+00,2.267631079798524407e+00,4.164235371283455112e-01,1.808355851614317666e+00,2.244045998382325990e+00,1.100934056601210020e+00,-8.259914787814252035e-01,8.553595933642759164e-01,-2.720752269677193524e-01,6.699705033356837536e-01,-1.704935909910254566e+00,-1.370248792436128626e+00,-1.981193718842813034e+00,1.262177616902350197e+00,-2.035301663543836792e+00,-1.666541745345148373e-01,2.239039816862749832e-01,3.453616678540150087e-01,2.200316743678728537e-01,7.317966819590394634e-01,2.495527060859286782e-03,3.802074440412567258e-01,-5.647281300658997250e-01,-1.073248391044092198e+00,2.004348891433603216e-02,-2.235921479469675510e-01,-7.378883434334507774e-01,-4.947449454604844199e-01,6.168669037796183918e-01,6.481148178372201363e-01,2.811667544869538848e-01,-9.084671590815708297e-01,-3.801859945278395769e-01,6.332322607889619981e-01,-1.031335982943061280e+00,-1.714196096130422564e+00,2.092221140566677295e+00,1.499742579494189876e+00,1.471925961700705221e+00,2.143497359340757469e-01,-2.266083891893913460e+00,-8.496880137238927988e-01,1.760984022461243789e-02,-3.606686647944989388e-01,1.171153810210106228e+00,-1.216546852242045507e+00,-1.358915263330023881e+00,-4.109251161961868792e-01,-6.112855041624424279e-01,-1.461369528785355643e+00,6.016273620331001881e-01,-1.513156087663338756e-01,-2.369025713934547195e+00,-1.457049536370811138e+00,-1.032375797977447718e+00,-1.200294365073528269e+00,-2.939028893155876343e+00,-4.680659103834524437e+00,-4.106932004982322582e+00,-4.777346119293530258e+00,-4.181568263255890372e+00,-2.361683901685457165e+00,-1.722589590054529163e+00,3.135162639407178542e+00,2.149479834116136967e+00,2.520222265155557029e+00,1.354518370811147454e-01,7.086352418169110656e-01,-9.798360585559053870e-01,-1.334494533054711329e+00,-6.795151843366435962e-01,3.413749601286125701e-01,-2.301245883261690550e-01,-9.485721895073481735e-02,1.681580513498420526e+00,7.818930815178229965e-01,-9.572130401616678608e-01,5.698023081348361218e-01,-8.600176662756370272e-01,1.065989474528636904e+00,7.551942005404946867e-01,1.142122226100604765e+00,-1.782956078793072274e+00,-3.410157663956810303e+00,-4.780994200309081954e+00,-5.126101521468378053e+00,-4.646634696661275932e+00,-2.664222242952873021e+00,-4.061223763578177604e+00,-8.030778702420532378e-01,-1.996819597867630636e+00,1.245809731972122858e+00,4.761984766549319792e-01,1.311305752465333763e+00,6.789949790381808459e-01,1.188421191291424872e+00,6.322114525595602386e-01,-1.813096427742157069e+00,-1.837123864830212394e+00,-2.480434849461542468e-01,8.342132349721106399e-01,1.471985078820001958e+00,5.123561424972373768e-01,7.153759759484867864e-01,8.789505652515251510e-01,1.869530368133112963e-01,-4.991501893379898247e-01,-2.046220202107988495e+00,-8.751849486118371546e-01,-1.338770704295265679e+00,-3.729686616198215066e-01,-1.803369865914871140e+00,-2.927652884271333189e+00,-3.383707322432485398e+00,-3.153549583859320382e+00,-3.750236446587480899e+00,-3.203861767835073149e+00,-9.467677209156785123e-01,-2.370728172744917539e-01,-1.910328277058956914e-01,1.221943982880918211e+00,-6.372123807996966649e-01,1.077335866398275499e+00,-3.322251058371140930e-02,4.370794551314566290e-01,-1.325489914683370518e+00,-1.412905213948023153e+00,-5.874541455768096387e-01,-3.512414635101480109e-01,-1.252296648444964910e-01,7.580998568611592159e-01,2.650567313880866985e-02,-2.054205281640527847e+00,8.578386975489770139e-01,-1.740558785866922697e+00,2.292368608203491920e-01,9.586915955381654364e-02,-1.781622844260511096e+00,1.661476245372403224e-02,-8.135454504129337183e-02,-3.369195930955912299e+00,-1.947017776523602528e+00,-1.778498690089645562e+00,-8.103898568564018579e-01,7.356593087185141489e-01,-1.850087615166269073e+00,2.674304340105496891e+00,2.713795769421028403e+00,2.446335915154245200e+00,1.486324002620629914e+00,1.117327447883258662e+00,-1.022921863301327283e+00,-8.608712334278496581e-01,-1.413779163986789600e+00,3.365624313426834879e-01,-5.451325667318485113e-01,-1.310701207755891717e+00,1.324510253533177639e+00,2.475308330513924737e+00,1.751980744667994028e+00,-6.053740065625138334e-01,9.818246365901140971e-01,3.054224329147868122e+00,-7.479805357425162171e-01,8.599445091319453116e-01,3.840949983926516542e-01,-2.559402287155693734e-01,-1.324324930190458716e+00,-1.625587322520174668e-02,7.100724574342559547e-02,5.514531685201899958e-01,1.495162001869583257e+00,2.653779426803307029e+00,2.594290590664346530e-01,1.125193891917470213e+00,1.501067237796669396e+00,1.164627976480590688e+00,4.709686654886034440e-01,-1.931954084358701862e-01,-2.567287692182227410e+00,-1.936864494009515436e+00,-3.300228999214707137e+00,-5.571335505029513246e-01,1.270204428914569750e+00,7.085964880761459472e-01,2.614208478663282431e-01,-6.790009056617312133e-01,5.185193768342314380e-01,-8.611314277631680891e-01,1.105621025392296897e+00,-2.107159543376978528e-01,-2.997895229803945849e+00,-2.060056798993732674e-01,7.973815599042534119e-01,-1.149495959246908505e+00,8.065993568805292224e-02,7.935027158688932880e-02,1.646590602634485201e+00,2.506442820993242560e+00,3.837143530303221972e+00,1.716175040907296667e+00,3.611573482456531980e+00,2.257701711545899159e-01,7.148494913295365683e-01,-6.071651857448295830e-02,-1.087336679688602814e+00,-8.289319682685357682e-01,-1.026788750348372137e+00,2.188086820262938326e-01,-1.171896339032659107e+00,8.348019723442143269e-02,-6.728665796650676878e-01,2.788688540043191555e-01,-4.599585801928138817e-01,-1.038275605404659130e+00,1.452365959523067129e+00,-5.108775126533081634e-01,1.672473439287172514e+00,6.682090807422647050e-01,3.947802234377569830e-01,8.379781802203797314e-01,-2.692307352509245577e-01,2.620759998429157189e+00,1.600440635280862223e+00,3.203636637063702164e+00,9.017287951207021424e-01,3.843353690609894180e+00,2.381916469564774985e+00,1.964366393570068814e+00,5.958873709086185411e-01,1.802363769793720261e+00,-1.877568688486039195e+00,8.756430988513465019e-01,-1.176029247936475786e+00,-8.783793581361724889e-02,-2.528096411875401239e-01,1.252766932175837788e-01,1.237160323393953432e+00,-4.553508503107127625e-01,-1.294712254432084153e+00,-3.862960378914287451e-01,2.264832076941556416e+00,-1.295149278104118284e+00,1.047880433622569774e+00,-2.980591851608963783e+00,-2.673491960603152640e-01,1.659080885241568382e+00,-5.086469347885367309e-01,4.934567005902515402e-01,2.951201371956741148e+00,1.846785661698245595e-01,1.224957997195414983e+00,-1.826694149803176348e-01,9.278009442822388042e-01,1.025006926951864461e+00,1.146804343692675143e+00,7.382555131331610676e-01,2.154491763736162413e-01,1.237920992036230183e+00,1.927095916002047327e-01,3.007698280242427913e-01,-2.292787659627554486e+00,8.657992829331098150e-01,6.453386154055784640e-01,-1.195175800695239404e-01,7.829983437612266783e-01,2.455283830563285419e-01,8.312994140776629459e-01,5.242658740116570848e-02,-3.528301404705109778e+00,1.629326418229974260e+00,4.258968555384011756e-01,9.534912423498717593e-02,1.318824634387159578e-01,9.498266667638152194e-01,-1.286685472120658202e+00,2.815453915895927417e-01,-7.059418430816797319e-01,-9.922644262739383630e-03,-2.313760639564006183e-01,8.959327684581092077e-01,-1.144900180368323639e+00,-9.280286944630859736e-02,-9.693107169395532852e-01,-2.092548169816883963e+00,2.528117162519214034e+00,9.572003357799065970e-01,1.162690187718814050e+00,1.140546281654103211e+00,1.256674974745837503e-01,6.478708573654461123e-02,-5.407829691427327168e-01,-2.982955318294075453e-01,6.731783100038010170e-01,-1.479252345692810833e-01,-8.570151600518021162e-01,-6.763967897539027163e-01,-1.474828677871273142e+00
