-8.857493801259807009e-01,3.253774767700873816e-01,-2.404816371544656051e-01,1.045665375087013460e-01,-9.996009793768851903e-01,6.457452799442301439e-01,1.001661563075237460e+00,1.600367014410945199e+00,-6.169078111244298279e-01,-1.632212289020966045e+00,-1.331346216403915372e+00,1.222513075769038560e+00,-2.243225078232524261e+00,-6.207792970714045566e-01,2.918337748806015819e-01,1.693878825981921299e+00,2.480126697707503158e-01,-3.826387064079904143e-01,3.419573668383102394e-01,-1.322908116779992760e+00,-2.016974413074216765e-01,3.451518779133982751e+00,1.122033735237744745e+00,4.729297490355666156e-01,-2.787486803884760556e-01,-2.743959855409988657e-01,-1.035358342580144031e+00,5.382587698567816714e-01,-1.287552255385661093e+00,8.967211701678583502e-01,2.754117323924522021e-01,-9.183942355619685305e-01,4.571710410655655532e-01,-1.220562218847516034e+00,1.056137722843415450e+00,-1.377855414131514467e+00,3.149962022943469719e+00,9.157043639983195593e-01,-2.459677644818362707e-01,-3.762187385012160101e-01,-6.273498319309834814e-01,-7.722568109846593698e-01,-1.141149274167252647e+00,1.335269337251400179e+00,-1.162228044575763612e-02,5.234585818812957925e-01,9.948374654277931661e-01,6.665042657789898017e-01,1.185098401101160187e-01,-1.711507542606081067e+00,-2.558444379749794106e-01,1.337246332432010743e+00,-2.969486359805286191e-01,-2.927531078899182071e-01,5.174790763686066830e-01,1.028278329943980163e-01,-2.712207294558930948e-01,2.378167398407230182e-01,-5.204807748502739972e-01,1.840969792401430993e+00,1.527629705926305093e+00,-1.255623352160704753e+00,-6.596810684387914847e-01,-7.052633127097295285e-01,1.225105110325960922e+00,3.067028345826055546e-01,-1.153306753544868890e+00,1.307695136756295229e+00,-9.714738585121200920e-01,-5.097646255025167772e-01,2.083130512760864861e-01,-7.777365228399858443e-01,-5.878869223054457305e-02,5.340438689259960348e-02,1.663253439293020497e+00,-7.191364607721519031e-02,6.064482629463522345e-01,-1.404512427989487167e+00,2.657476597703886112e-01,6.136231048676331623e-01,-9.898348960617613379e-01,-3.057780350467751984e-01,4.512271413474998605e-01,9.306864133102120684e-01,-2.027308622931614512e-02,-5.146717169929482250e-01,-7.717809508173788524e-01,-6.394096330878045187e-01,-5.582512910869019684e-01,-7.020879331701636028e-01,2.256191727794984114e+00,-5.214940060291173296e-01,2.030583467280041854e-01,3.373412168743151196e-01,-1.140753308206503835e-01,1.207316381749978795e-01,2.635023440861903876e-01,1.870779487940291141e-01,-2.129863024660370030e+00,-3.583529905066907498e-03,-1.819185522584896075e+00,1.077658319483564497e+00,-2.969262047041628105e-01,2.163157946258913888e+00,-3.373659604486543562e-01,2.764086007277044219e-02,7.752304850286918514e-01,-2.194137492089109465e+00,-3.695628489626317514e-01,-8.962897775563675173e-01,-8.092782395242035243e-01,-6.177494569332225849e-01,-1.443107091916135731e+00,-4.998908032593819550e-01,-9.981656174588318109e-01,4.475205729613802585e-01,-1.149733971387931319e+00,1.380789075538466637e-01,-1.075989697802809619e+00,-5.031318784753703310e-01,1.307795252527240937e+00,3.177107196479002360e-02,-1.671209169836750663e-01,-3.258570885022562535e-01,-1.019059249167868719e+00,1.732033753149441413e+00,3.329502821748216324e+00,2.164138910182388020e+00,4.516512140425960747e-02,-7.256978777178010320e-01,1.161900626265947034e+00,9.809530839867558472e-01,2.240432744367678364e+00,1.236806393470705340e-01,1.905525567317401636e+00,1.745150122328619879e+00,-5.526949836340064870e-01,-3.677931582059424387e-01,2.829114971360833231e-01,2.290276362931802923e-01,4.966526349403888596e-01,-2.702395698011926584e+00,3.701574392933665303e-01,4.749923849735162018e-01,2.263542326263699167e-01,-1.233431920773704782e+00,5.608520197030117949e-01,-4.355519243431018039e-01,1.127835541251034579e+00,-2.738564078054256168e+00,-1.285736509095990909e+00,-1.075396044902386494e+00,-4.740341889848288304e+00,-1.762456690756816213e+00,-1.345558938990076170e+00,-2.901909923094070809e+00,8.672686558883604402e-01,-7.253669511005953474e-01,-6.533726512252943652e-02,-1.171727801196187496e-01,1.652563747864943533e+00,-2.467843295693296080e-01,-1.752719573440355560e-01,7.934966342187567134e-01,8.946124787146427781e-01,-3.084702401857284879e-02,-4.546016910549991463e-01,5.608501264490815125e-02,-4.642434698727090359e-01,4.677590284731308889e-01,-4.701367002992526412e-01,3.169892218005067597e-01,5.631734340855151233e-01,-1.088827329088493778e+00,1.812731957687804471e-02,-9.574229888220217033e-01,-1.779817649753314912e+00,-4.447942856683146928e+00,-6.086595316440288173e+00,-3.910237715067752973e+00,-2.283767492063320859e+00,-4.703574367874058026e+00,-3.984418676083537392e+00,-3.481934204479709472e+00,-9.871359488490841771e-01,-1.743710764862494766e+00,1.991926572874437085e+00,-2.234440907367720719e+00,1.831694035019373334e+00,-7.551447025880226871e-01,1.621066182349125973e-01,-3.290177796573241498e-01,6.269159696063605347e-01,5.923719600446724076e-01,-4.087663403790964822e-01,-6.367614155805297882e-01,1.208584890709954562e+00,-1.819029377801411940e+00,4.091340605344579995e-01,-1.092644226069218405e+00,-1.076096584938329048e+00,4.299575556463954285e-01,-2.575537719568680828e+00,-3.533278968402548070e+00,-3.376790872763436813e+00,-4.121308604007154486e+00,-2.023600122104375565e+00,-4.717065266192712603e-01,3.370532159462662491e-01,-1.570265254402065880e+00,-2.899914156250046116e+00,-2.516884385262030399e+00,-1.512890014126619054e+00,-3.794720469592130829e+00,-3.751717828774424335e-02,2.214885445868162162e+00,-6.669822992051998439e-03,3.725642570623936556e-01,4.313063400484767329e-01,-1.228358497648866177e+00,-1.155185832809900726e+00,3.743541298649419868e-01,-1.191865081137147175e+00,-6.844821618673577746e-01,-1.492341966879346393e-01,5.495153202803336745e-01,-5.677673094147348554e-01,-5.818688417724865447e-01,-1.212944418504430799e-01,-1.078753450069950048e+00,-3.427897012752914030e+00,-2.931757070826948919e+00,-1.072316217352265122e+00,-2.005115775402258382e+00,-2.722217280179751064e+00,-1.625278271150225606e+00,-1.348016638485287189e+00,-1.985242367765249205e-01,-9.861677494441679626e-01,-1.655014815725582622e+00,-4.374604346313253345e+00,-2.353501079564408460e+00,-7.160073985974035882e-01,-2.515890686868178960e+00,-2.358163718376544260e+00,-1.609567613394758734e+00,-2.411862604797510912e+00,9.439153710600155511e-01,2.434321308766673742e+00,-1.027482816515504216e-01,1.438121616146706527e+00,-6.631611419718151934e-01,-2.796303896280055712e-01,-1.214090271837971136e+00,7.131140727368446841e-01,1.990111140220405528e-01,1.926290089890176083e-01,4.719557205858106452e-01,-1.302050248133773014e+00,-1.727264409938375822e+00,-4.387403010697931705e-01,-2.587552301115753073e-01,-2.161880131845138386e+00,-2.122058822307418602e+00,-3.888625216554758346e+00,-3.544253212248540841e+00,-2.594282926330007122e+00,-1.333540902650286242e+00,-3.998016270213812007e+00,-1.430465400872523940e+00,-2.355849682998770511e+00,-2.152141067705158228e+00,-3.816790357974325865e+00,-9.264685428006607104e-01,-2.297920642576321004e+00,-1.573817358198603023e+00,3.490824152462621566e-01,6.971100089094405261e-01,3.614358001252114261e-01,6.590612678315801443e-01,-4.555388899299229188e-01,5.096655577222897193e-01,2.051562008354140820e-02,-9.402808435179444979e-01,5.435220856827691627e-01,-4.182142670877356805e-01,-7.689532805677208316e-01,4.670281482254832750e-01,7.726135091679400269e-01,5.768462488122081400e-01,-1.305792972182366896e+00,-8.737494988868682588e-01,-9.866381191739537204e-01,-6.127497543054638562e-01,-1.650113805065941130e-01,-2.390926268680827471e-01,-1.380178282338079709e+00,-2.165370494528123135e+00,-5.299509299350441793e+00,-2.184036259583656214e+00,-1.978399776860636283e+00,-2.029964537350958054e+00,-1.969876130090053801e+00,-1.592001941146032884e+00,9.017292966554922851e-01,-1.936384586423977316e-01,-1.066276304583932688e-01,-5.243558176071938526e-01,1.395656374301190272e+00,5.495112853453800739e-01,1.863148335268994593e+00,-8.503145381139030901e-02,-6.526979388676987792e-01,1.677486289671170860e+00,-1.770615960868141686e-02,-2.158865222596306754e+00,-2.300815200680490058e+00,-1.668822972993403653e+00,-4.765033861792853931e-01,-9.353590688073034620e-01,2.144074214301605885e-01,-1.920752875989788222e-01,1.577147070577452626e+00,7.157352664145124610e-01,2.980960003585862328e+00,-1.394866205331530384e+00,-6.634129635751253140e+00,-2.501223463049460527e+00,-1.676170447027252708e+00,-2.873965396881218215e+00,-1.338809680386227940e+00,8.662653574566216985e-01,1.180292681853687409e+00,-3.574328785201671410e-01,1.201369499750616493e-01,-7.425960917936555994e-01,3.922056219378287634e-01,1.954093505804378739e-01,-1.479049784281098789e+00,7.541704849414333500e-01,-9.200884050077746679e-01,9.079871054864969704e-01,-2.048457655722532689e+00,-2.123011741462423885e+00,-2.601029036925255333e+00,-1.905575325980200629e+00,-1.085179802170909369e+00,-7.827684372766600118e-01,-4.940970109205750083e-01,-8.843385345905516726e-01,7.159137353148647964e-01,2.376178031248668887e+00,1.697076619537607745e-01,-3.881668675810101998e+00,-1.620027552684097705e+00,-1.849314741496886461e+00,-2.454304108208753554e+00,-6.659861263906970974e-01,-1.476355117904368797e+00,4.309151728466154574e-01,8.270210814827642087e-01,1.296453132237156691e-01,-4.520600994736623246e-01,-1.052859866276647516e+00,-9.870776597933176300e-01,-5.243207531453583092e-01,8.093438831773043518e-02,-3.793276854503106477e-01,-1.148879674498421988e+00,-1.805641281209681426e-02,-5.191132263596940355e-01,-1.508915737594159978e+00,-9.043769691305071357e-01,-7.489651633612313952e-02,-2.123210128548258968e+00,-4.675780822635267953e+00,-3.609977371946317959e+00,-3.017474935306434514e+00,-6.285352428818664627e-01,-2.269428446929045773e+00,-1.274165399286440570e+00,-4.129734363118414464e+00,-3.793605732805517050e+00,-1.460757121251117008e+00,-1.884332700953875284e+00,6.682359801105232089e-01,5.839290986571103043e-02,1.030272697688805889e-01,1.022890791819234035e+00,4.727051172900533643e-02,-1.008818242458341174e+00,1.652445168921684859e-01,1.264739889283830854e+00,-2.280868943054047693e-01,-2.259240321279279151e-01,4.330667486187400606e-01,-5.789368482323644649e-01,6.877035536831855866e-01,-1.615354220698676846e+00,-9.770586008565451674e-01,-1.895515704266375501e+00,-3.034245836557817100e+00,-3.966214226376292284e+00,-3.983182919166858849e+00,-3.150670367310468123e+00,-2.132125245318912565e+00,-2.322463896417197304e+00,-1.985807576215726344e+00,-4.554315764214708295e+00,-5.144477616337066905e+00,-5.300411599222099923e+00,-1.700189135004846808e+00,-3.205749917674359573e+00,1.345293971414027068e+00,-1.412711849711383083e+00,2.679855441212697365e-01,-3.499119585339037219e-01,2.313764415189727863e+00,-4.376161879245922814e-01,-7.093565593009117931e-01,-3.974917696246403342e-01,-4.606202638827949225e-01,3.597887186094501921e-02,-5.311008805724903858e-01,5.476727482170604677e-01,-1.965865873332579783e+00,-2.213844371312964299e+00,-3.869516165372470340e+00,-2.212574315856037366e+00,-3.815879753034475463e+00,-2.209771311991556519e+00,-4.354403375363071760e-01,-2.801581916513473658e-01,1.561059349138107510e+00,9.162186771179069433e-01,-1.091497064296167219e+00,-3.809810795246696635e+00,-5.557561759490967646e+00,-5.575852026532011507e+00,-5.116134472614125350e+00,-1.779331817466599963e+00,-2.892165836383299382e+00,-2.621345404730325956e+00,1.230947221665048330e+00,3.716451650295391623e-02,-9.186057407996699176e-02,7.690867857083075743e-01,1.328844146337129772e-01,-7.588788080028043836e-01,1.312108106719882539e+00,6.698387037934118160e-01,7.007981775220559206e-02,-7.540809606745831062e-02,-1.101206945061725451e+00,-1.892558384071112432e+00,-3.448390383689544425e+00,-2.693474342257897280e+00,-2.543245381784302150e+00,-1.532371690402760001e+00,-6.791411944242736753e-01,-3.688168372415478458e-01,2.203094958943691228e+00,-2.552067481838806273e+00,-2.186195270862190565e+00,-4.795263678566729304e+00,-6.600341846826897729e+00,-3.012447369222419180e+00,-5.410300389035292312e+00,-3.285635954211819421e+00,-3.221595362937068163e+00,-3.763823400430830191e+00,-8.753876909251636640e-01,6.766684368307830377e-01,1.484669710528296604e-01,-1.174786517070463276e-01,9.867805120162334021e-01,-6.868934771941881401e-02,1.382009056939016878e+00,-1.309844438814916190e+00,-3.383511010951986697e-01,-5.417205020151688588e-01,-1.495727509334545680e-01,-1.385427398081847006e+00,-1.971750808618009554e+00,-3.143463397354253175e+00,9.985611207566449377e-01,-8.101055896923486932e-01,-9.416661207936839473e-01,2.077323888457227249e-02,-1.343448303522545961e+00,-2.502772425974840065e+00,-3.939154675715739629e+00,-5.174445308619026740e+00,-4.061612539131487232e+00,-4.406025190438988659e+00,2.941125241231387633e-01,-8.309514783164444474e-01,-1.568678407946975994e+00,-2.840041246535581987e+00,-3.972473327445294800e+00,-7.178775524134626274e-01,-8.075595696574838778e-02,-1.108688743596283111e+00,1.156432373435511751e+00,1.212384612478314277e-02,-3.720203033616049093e-01,-1.431128860541797998e+00,1.477171488457560633e+00,-2.161283065864922914e-01,2.264341524813647411e-03,-3.342127086895029908e+00,-4.316260683929047381e+00,-1.219567724493059169e+00,-1.065779971714955643e+00,-1.388718865055663887e+00,-1.526674767652554943e+00,-1.852499936682232784e+00,-2.306867449991094610e+00,-3.167098087406504892e+00,-1.588382861039827842e+00,2.563705335022364862e-01,-8.660215972870838330e-03,-7.306321239745940943e-01,1.362921175694143505e+00,-1.570706959213691079e+00,4.316597511952565136e-01,-1.014912176272275701e-01,-2.660638966487835155e+00,-3.257665263571809522e+00,-8.781390864632743209e-01,5.966502845370009744e-01,-1.385272390229245643e+00,-1.059845207047367122e-01,-4.048344929454555929e-01,4.155056070977721228e-01,8.102108338519635744e-01,3.876907170823519211e-01,-6.474506367922433503e-02,-3.383470724441736799e+00,-2.282269934980957871e+00,-4.115084486105831552e+00,-2.512261723503798283e+00,-2.812798095898510375e+00,-1.766766809326390630e+00,-5.739735104830703261e-01,-1.381921334012920388e+00,-1.291938998770367109e+00,-1.665402398570150044e+00,-1.006364232756588040e+00,9.518281519494106169e-01,4.363206337908853150e-01,-2.556884156051741019e+00,-1.304306001821015748e+00,7.157932661606633551e-02,-2.988295466093103148e+00,-3.816773364344522967e+00,-3.570994435677108836e+00,-2.978173481388119548e+00,9.136986971292376802e-01,4.198068501621162185e-01,-3.489281292689692116e-01,3.251875209204046602e+00,1.063008591285698357e+00,-1.619479314886309806e+00,4.104453524007166121e-01,-2.303310331792919330e-01,-2.667349650106988879e+00,-2.848369438692301969e-01,-3.249791919063638179e+00,-3.279281478885805345e+00,-1.821358232696354218e+00,-1.913572484268577512e+00,-1.220153435535284991e+00,-8.421814029296560422e-01,-1.437028855808587524e-01,-2.790652399374400794e+00,-1.629128255082487264e+00,-1.021176846460512211e+00,-9.091062945083914215e-01,-1.036207930365544927e+00,3.979770612158830545e-01,1.727764869029396189e-01,-1.657372999213033715e-01,-4.016136336869923440e+00,-3.490297054631364748e+00,-3.072395779082245149e+00,-9.357910900309347468e-01,6.182998640897630072e-01,7.245797124767133779e-01,-7.573301129382882524e-02,-5.289543321122244235e-01,-1.529809774387445920e+00,-1.635520051868679103e-01,1.349172117784547043e+00,-2.722292557350825426e+00,4.194953286827277084e-01,-1.425535742749159063e+00,-1.217674583451995973e+00,1.007879806104514664e+00,-1.073221891623153512e+00,-9.572705990265242271e-01,1.480828013191928028e+00,-6.218632005989610523e-01,-1.427822445752311209e+00,-2.400897836230887705e+00,-1.026953881422425718e+00,5.624768281816359128e-01,-1.626700176173435430e+00,-9.396014182215730592e-01,-2.318568060454254010e+00,6.463326297534547349e-01,9.048642360551265584e-01,-1.425775924836220621e-01,5.520983923200146748e-01,-3.089478767438714746e-01,-1.353361712970376995e+00,5.164038742040530927e-01,7.628261367336790499e-01,9.633527344480777299e-02,-1.479202332954190124e+00,-1.231164991826088351e-01,1.154153740084865598e-01,-1.212881857129002983e+00,-8.799598889911345312e-01,-2.140962310468764951e+00,1.143469612744045349e+00,-1.026649697358039015e+00,1.153302985037470529e+00,-4.224876586980870208e-01,-3.950322105909340742e-01,-5.441937602917655825e-01,3.156124470131376203e-01,-4.133226928432962022e-01,-5.941235374378291134e-02,-1.499693269724310607e+00,-4.918517042844600118e-02,-2.195631711164494071e+00,2.228556484558605680e-02,4.338092400532628234e-01,-4.354180549919895449e-01,1.263938822053782607e+00,-1.847065093081386333e+00,1.723008193431444512e+00,4.902734799133895982e-01,1.131693717526689014e+00,-1.806103728271758024e+00,1.830024618532574143e+00,6.409505878955544800e-01,5.014582438511097084e-01,1.059250863214883098e-01,1.078040959644465113e+00,-7.419859671631241493e-01,-4.112387401809071141e-01,-2.656279004697091883e-01,-1.233455129074039203e+00,-1.140059343030213279e+00,-1.364828786014120832e+00,-2.210761513300796288e+00,1.366135345455750105e+00,-5.685950192599912301e-01,-3.639671737108629013e-01,2.410844009647005945e-02,6.808643094370907534e-01,-3.456434006233262690e-01,-1.179794816633997323e+00,-3.047590379747976974e-01,-5.073731784579823545e-01,-6.368471521128498125e-01,3.304247335645463940e-02,4.513283330551994266e-01,-1.218613780376450739e+00,-1.357938437968063683e+00,-5.228178787889221635e-01,2.323467215963780919e-01,1.140794001434018323e+00,1.114627905697176402e+00,1.328443462389639895e-01,2.640625287052893011e+00,-1.249852534619206201e+00,1.254053170925385263e+00,-2.218831593618761477e+00,-1.187117818163483829e+00,-1.617007811047920796e-01,-2.082277758391874123e+00,-5.911445345914704275e-01,1.128504244086045993e+00,1.796725504956416142e+00,-1.010506895125113713e+00,7.649282379490984773e-01,7.742397336542016228e-01,-6.514770092396310330e-01,-1.257065384999537239e-01,1.019375021983737861e+00,7.949504135986407150e-01,-9.873418622387476473e-01,1.596957331192873530e+00,-2.408951063314091479e-01,4.052357165958280771e-01,3.609367078180748534e-01,6.387465427217943192e-01,-6.949904010403789023e-01,-1.267309771462648671e+00,-6.218466084888615159e-02,1.236054423870325270e+00,7.496643646216103463e-01,-1.275496647645359305e+00,-6.767852480659604097e-01,-1.526323624362441400e+00,-1.552315040928376133e+00,-1.276183797295278755e+00,-7.571491988488711078e-01,1.741210650836085838e-01,6.892609149464444807e-01,1.532929613078958253e+00,6.189925431308528347e-01,3.378981894490300508e-01,1.048936517493304077e+00,6.275385720357585795e-01,-1.412964600752916744e-01,1.683846585113953631e-01,7.518403676618113929e-01,1.404192509224110763e+00,6.532796386518058274e-01,7.662196740047300114e-01,-2.180170717884182707e+00,-1.537752796027969548e+00,2.974240091037597677e-01,-4.667942924468432286e-01,4.368422592252106940e-01,6.881320379572185564e-01,4.163763647463391004e-01,1.348869004105070379e+00,3.878274846871980763e-01,-6.999509616650434474e-02,-1.347457598722456407e+00,8.401977587521547441e-01,1.426911432114641887e+00,-1.863787620669286493e+00,-4.686865843954272082e-01,4.106172846996309911e-01,1.753402928596004218e+00,2.008641152359651461e-01,-1.135296908603185884e+00,-4.841519014910189433e-01,2.169307558427321148e+00,9.085160240700989043e-01,4.202186351110180906e-01,-2.378556284470615678e-01,1.197926272589717039e-01,8.707338902556028826e-01,-9.970505881030522488e-01,2.067286431517655565e+00,-1.879218407902698118e+00,-9.170091992136282510e-02,9.567211746703037367e-02,1.537688174305997801e+00,-2.841669959748879037e+00,-1.052166428826912803e+00,-7.072071823347010344e-01,-5.140162854005443371e-01,-5.336495390824694818e-01,-2.247539734706204828e-01,2.051282369613065093e+00,-3.930231909403890389e-02,1.383421085842429399e+00,-2.396464332506900607e+00,1.755578879877976728e-01,-4.478727833684585380e-01,1.000923673694970484e+00,4.027324892193618333e-01,-1.731795724734524755e-01,5.470292637727998120e-01,2.155251194532642744e-01,-1.812216234818234240e+00,5.845744253673174073e-01,-1.035530357437379978e+00,4.617334823552621814e-01,4.273036677916608461e-01,-4.666932551241335103e-01,-4.439147731869830804e-01,1.212846598201316323e-01,-1.009327549935434165e+00,6.396192692972348937e-01,5.550278620985310551e-01
1.180884752986617769e+00,4.781101183479715688e-01,4.710404273872919600e-01,-1.535046672786116506e+00,-1.517468417482791709e+00,-2.032426272805635481e+00,2.402001556271411431e-01,1.239809614274155758e-01,5.512421418093077508e-02,-2.269241081070053845e+00,-9.028102103780019094e-01,-2.524459007063237781e-01,7.900591203906093263e-01,-5.976420676906505358e-01,-1.837783365412261283e+00,-1.790071028854284485e+00,6.666033011042816758e-01,2.485304342636083241e+00,-1.070604076205107891e+00,-6.484031653244355653e-02,-3.129354490782340070e-01,8.437370434567350586e-01,1.500232053087818596e+00,3.370170605935010055e-01,3.435558848777243712e-01,5.276704638458862284e-01,-2.373967601963413165e-01,-1.195025071393623239e+00,-9.523192484474471975e-01,-5.292351320225217037e-01,-3.405985765049537872e-01,-4.502351684081505878e-01,1.863213739978956118e-01,1.907788119557131956e-01,7.205680282724938324e-02,1.274792462911967794e+00,4.716015050638796002e-01,7.629583500943708241e-02,-1.089143773368923318e+00,1.020352647727184627e-02,-3.165053899690002392e+00,-1.081276794017167697e+00,3.663805671585660534e-02,1.935341373491652195e-01,6.796039343926774112e-01,4.071983653024732752e-01,2.673224245970752255e-01,7.248498088007001572e-01,2.175072622476788842e-01,-2.212189699880692029e+00,-1.207072527389864425e-01,8.397621833942376934e-01,3.810694367778381109e-01,3.961037331450251164e-01,1.718689166310314764e+00,-1.138204712436037491e+00,4.149276932218070035e-01,2.396516566836133233e-01,-2.221416264907957849e+00,-1.292279130714654167e+00,-8.542936660869504539e-01,-2.315021705709136360e-02,-1.878639058495048308e+00,-8.525110202175972818e-01,-2.401406039551180482e-01,-3.984407878694417593e-01,3.874967873765908788e-01,-1.188818510233877968e+00,7.173605363482915553e-02,-1.424443674129673987e+00,-2.551212164223650714e+00,7.254067628134494017e-01,-1.608135768475711658e-01,-1.623655553787128003e+00,3.180518332434121853e-01,-8.614897189994420446e-01,3.290988566614472255e-01,4.794834657901946295e-01,2.186092639221899336e+00,-8.146722699788742084e-01,1.027877898324173866e+00,-1.419178753147654071e+00,9.179780542645983588e-02,1.637810485187699561e-01,-2.666837983379661825e-01,-3.576976305579858684e-01,-2.033815278290274531e+00,-7.425209196863528094e-01,-4.595972760659434164e-01,3.524652178593568747e-02,-3.685189023735868097e-01,-4.892694408620735791e-01,4.760346782195397086e-01,6.822305102521422082e-01,-1.133463353310914190e+00,-2.961965983682588455e-01,3.204190574899079547e-02,-3.058642680005781767e+00,-5.536683451814330276e-02,-3.740964213136485639e-01,-1.162248983688106474e+00,-2.269929344708898178e+00,-5.648027047854700111e-01,-3.064232151311063745e-01,-4.216933667198628083e-02,-8.214062386777639668e-01,1.551409869358131743e+00,1.482532015939768355e+00,-4.378482639407697552e-01,-1.254506224886074994e+00,-7.938914641076068313e-02,1.566547244902414260e-01,6.626226410935142086e-01,2.361623984370291029e-01,1.236955460441651056e+00,-1.797476115375814809e-01,1.786626417816341350e+00,1.170223959848791129e+00,1.987342304039190211e+00,4.952893765995037278e-01,-3.788362120688343992e+00,4.247962162272710951e-01,4.310089972034273131e+00,3.544287342074904146e+00,8.130515503750228579e-01,6.737578347187682393e-02,2.634694134247685948e+00,-4.943993433917252545e-01,5.287833771018349838e-01,-1.084586263566848841e+00,-6.662344307049902215e-01,-2.133209713072818481e+00,-1.902951790613755412e+00,6.162788184904852695e-01,4.760349723647192555e+00,3.748697031487200348e+00,2.893925697715531875e+00,3.524063955020078520e+00,2.145722792954668279e+00,1.060618216605265340e+00,-1.907544034482618001e+00,-4.329906723157430498e-02,-7.466911420163074853e-01,-1.363912386978009872e+00,3.604326444977815069e-01,-2.008799663009402270e+00,3.187523295732768713e-01,9.925009413307985806e-01,-3.523590930204480998e-01,2.568930077722134886e+00,5.379698724024309264e+00,4.324715575916220800e+00,-1.332485860274871037e+00,-3.097665760523699241e+00,-3.602286390675110361e+00,-4.086355077528537549e+00,-3.202485536901288565e+00,-1.672650713714870063e+00,-5.007508445657319562e+00,-2.357774717850663837e+00,-1.883857464144539806e+00,4.049267117739828947e+00,6.673898141875811874e+00,8.491002780770591229e+00,4.875506966626539374e+00,6.713034175429618555e-01,-1.236044184425453552e-01,-7.950473591799365192e-01,-8.938688047073586329e-01,-4.303151331473457075e-01,5.902848673175785654e-01,-8.740964967668684027e-01,4.091013197374928634e-01,-1.970661609463568442e-01,6.028873778807550821e-01,-2.302023209263916570e+00,2.251886559863833348e+00,3.799634706223546488e+00,1.180527373141104341e+00,-1.743007994429902174e+00,-8.175924294688901028e+00,-1.179807059378451051e+01,-1.501571761555488216e+01,-1.286437728183755524e+01,-1.306737917252403314e+01,-1.043416856178843588e+01,-5.892291101531416331e+00,-6.720243908305775449e+00,2.689200950515062694e+00,4.230702401755985775e+00,1.000860468164555961e+01,5.814767777399622695e+00,8.749612630913725653e-01,-4.099327268731988716e-01,6.429060990767315742e-01,-1.448733022853623931e+00,-6.788446634844710337e-01,1.633020128669586013e+00,2.194817970465985812e+00,2.940479108958446997e-01,1.952587972862073473e-01,-1.080842969666307440e-01,1.106463689052149091e+00,-1.187148792743128123e+00,5.606319852017170646e+00,2.251522169958077413e+00,-7.887791816136020095e+00,-1.506593171065056325e+01,-1.505508534033182322e+01,-1.403208389001176393e+01,-1.222853762038903902e+01,-1.395554819825159676e+01,-1.553868118334830051e+01,-1.552857774303824989e+01,-1.346944090987225273e+01,-3.789799265412665985e+00,2.117046103911807364e+00,7.766632494816615662e+00,9.082249873651431216e+00,2.853723038902578502e+00,8.772705752286182879e-01,-4.720226616455184265e-01,-1.266354759356482784e-01,1.207874466003374891e+00,-2.984806210802285475e-01,1.223400246126832291e+00,-6.234498556057244123e-01,4.514898473479232455e-01,-1.688021823094582929e+00,5.811454809784160069e-01,7.496333616862129734e-01,3.910560048365282260e+00,2.225806932741800193e+00,-7.175941925036941171e+00,-1.130508834063699730e+01,-8.957895087422535596e+00,-1.205773972227638957e+01,-9.191643859409225570e+00,-1.180642717391247487e+01,-1.489532111950347293e+01,-1.300516421624097063e+01,-1.771874407777666249e+01,-1.675778374155141037e+01,-6.765535834489540434e+00,1.105108862571651152e+01,1.373915059240137282e+01,3.174361017414965236e+00,3.687966166997836304e+00,7.720045865944810126e-01,1.708964348159107693e+00,3.006673937875971592e-01,-1.399094802072322841e+00,-8.845295589103105982e-01,5.278743331643535874e-02,5.724878337336556378e-01,-1.629674360275183087e+00,7.148649337734159781e-01,1.323641235887803858e-01,3.142317012781393970e+00,-1.987409722045356375e+00,-4.353951406248253164e+00,-9.113819413569803629e+00,-8.106201719934791328e+00,-8.090799132020952911e+00,-4.381835475685846859e+00,-6.506661485981416249e+00,-8.715712997436970255e+00,-6.087872447647168173e+00,-3.865529386740234052e+00,-7.352728389191509173e+00,-9.532187249028424958e+00,1.915928110667618200e-01,5.083985368114420922e+00,6.051517719543104690e+00,6.180530403695744468e+00,4.230720971151326282e+00,-6.347015768765418287e+00,2.955426325794009990e-01,2.437238626385410445e+00,2.962640305151196252e-01,1.307470803944383420e+00,7.410913183041493157e-01,1.470087175706425997e+00,-7.111419726570996636e-01,4.332370243853894132e-01,3.468846536803947167e+00,2.698961284286986562e+00,-5.144014526148741773e+00,-5.685133601858248120e+00,-9.881779872642502127e+00,-3.109839812858284258e+00,-1.559540809097797354e+00,-2.671681074319899096e+00,-9.505456459137848313e+00,-1.112303206696653390e+01,-1.249568264710557841e+01,-7.972678277754341458e+00,9.382545357728114821e-01,-2.673777284509270213e+00,-2.626570836933939557e+00,-2.274216593154513522e+00,2.025960427879514913e+00,7.529474483289850362e+00,4.647511416597763789e-01,-3.666298960154969144e+00,-1.130475905233219835e+00,8.467808272166308381e-01,4.296835945320276462e-01,-6.328240818368831011e-01,1.906606209575047339e+00,7.818455413503992979e-01,2.069555863148468067e+00,1.177549856573723019e+00,4.438570862165435393e+00,1.342141786250059310e+00,-6.919562713720809555e+00,-6.917886465271815943e+00,-5.683326173074894960e+00,3.057023740893540786e+00,6.604342598470489545e-01,-6.250212380178133742e+00,-6.861434319012580829e+00,-7.148550791325016363e+00,-1.088037626672048042e+01,-1.692957700759497541e+01,-6.400254998211583057e+00,-2.455193257448176958e+00,-4.888748710248167484e+00,-8.875087700541797631e+00,3.161693100247737753e+00,4.634887310487743051e+00,-1.910952797151827864e+00,5.435443509534416684e-01,-5.122146520208115561e+00,-1.411910211326591558e+00,1.368845786422336452e+00,7.277475436424866162e-01,1.357953952791822960e+00,-2.246721804243347331e-01,1.944195233828640013e-01,3.797943222830556298e+00,6.106639403662856402e+00,-2.570359878872420456e+00,-1.008456437833426556e+01,-5.042462700059128444e+00,1.489168246017412711e+00,5.751564807806508028e+00,2.440723569543443716e+00,-4.528998587893592997e+00,-8.100999386747222530e+00,-1.286414906405443226e+01,-1.630737014936115159e+01,-1.317011891260924372e+01,-8.391746119763935141e+00,-5.421736761186041420e+00,-1.100179009883594716e+01,-1.120243110088985894e+01,1.005442169948801867e+00,-2.239699860109537255e+00,-8.724305113522095034e-01,1.526374166095130769e-01,-4.011469915568716793e+00,-1.298321764596954031e+00,-1.213478049512697998e+00,-3.028006878939515367e-01,-9.138691659555746583e-01,3.190285893184474642e-01,-2.297642210433256671e-01,1.182553549974468154e+00,6.290382213334167361e+00,-8.922350014806548657e+00,-1.506484641139832803e+01,-3.420014123581763266e-01,3.566603422852671734e+00,3.200994908675731221e+00,-7.845510655320452109e+00,-1.235315678689600283e+01,-1.549706026563788797e+01,-1.450771588567340764e+01,-1.523435326368509912e+01,-1.496149279531501897e+01,-7.282814696242927432e+00,-1.319467577564995686e+01,-1.418601220093816728e+01,-9.437224574366803509e+00,1.862915495203612215e+00,1.478484155688029489e+00,-2.959420631760290576e-01,-4.966762399193657557e-02,-1.642038752815012659e+00,4.768298749237099843e-01,-1.154249998613753547e+00,-7.260706055074537257e-01,-1.186783977425259984e+00,2.810383628114583310e-01,1.964961389167507733e-01,6.661347662695585647e+00,3.491287352509686581e+00,-1.075178786630147343e+01,-1.186945800044688326e+01,-4.625560792611272731e+00,3.351288447694934725e+00,-1.759629747030462044e+00,-9.394367435699388480e+00,-1.139436812900090779e+01,-9.937987641781857562e+00,-1.007167181608623352e+01,-1.598475320357575491e+01,-9.348009110175981462e+00,-6.303482804900934156e+00,-1.409818412926994391e+01,-1.546642217709234224e+01,-8.042080620268436064e+00,5.451812279439634423e+00,7.453017827140584473e+00,-3.928345786408559137e-01,-5.032291079324940908e-02,-3.409421120406924910e+00,7.593876256717604356e-01,-1.111859174952067875e+00,-8.458624487532091507e-01,-1.467504066365671045e-01,-7.756148406341163426e-01,-7.765838615509232934e-01,6.841148418271196796e+00,2.985034210476299243e+00,-4.420955649499386020e+00,-5.719635724720956160e-01,3.826193775706028255e+00,2.162947196745249601e-01,-1.005560997585851979e+01,-1.018480355708959095e+01,-8.041558214604973998e+00,-7.153597107770083063e+00,-7.016229073297346019e+00,-5.461189369442170261e+00,-1.073564682017617145e+01,-1.459561300461134792e+01,-1.770685904760104279e+01,-1.705272004849629397e+01,-4.560427372531519197e+00,8.360368100205162634e+00,5.372074946943842910e+00,-1.662608272279277433e+00,-1.258128382122468691e+00,-3.580671130358476617e+00,-1.105260579536334387e+00,1.336712701305622808e+00,5.187286372456805239e-01,6.019061187960887960e-01,-1.282666545194772675e-02,1.705706217106509603e-01,2.067124614257543680e+00,9.013790564514732040e+00,4.898587498783844474e+00,3.260561937857597403e+00,2.759237688764990093e+00,1.549835041681782100e+00,-3.814473559298600769e+00,2.422847861254801227e+00,6.107680044179120138e+00,1.057942096693894740e+01,5.894898198194318262e+00,3.470876870031258221e+00,-5.604601383534723702e+00,-1.283912259848482407e+01,-1.572602875604759554e+01,-6.752750467514056609e+00,6.864667696428907284e+00,6.130507524589942747e+00,9.016382225061979616e-01,-2.441092631603132723e+00,-2.794273532613410715e+00,-1.330090023896857376e+00,-1.724859584510723132e-01,2.566913112421360665e-01,2.093270043335927699e+00,-4.409712308565041372e-01,-1.887735727836608923e+00,-6.419548950763811490e-01,5.659371211598114293e-01,3.379203408033021994e+00,7.370502905554677575e+00,7.652857529930898295e+00,2.204027884826385453e+00,-8.112722481475158620e-01,4.457641016754483321e-01,-3.555762513368827538e+00,-2.176413689347191482e+00,-1.080519871973608659e+00,-4.951182082658699135e-02,-6.239923451719961989e+00,-1.044832578416405688e+01,-1.304570287735650425e+01,-2.898104800289782457e+00,-2.312720276614484316e+00,8.961845984579614566e+00,4.927308919448218028e+00,2.981361885827987779e-01,-3.201688016538605019e+00,-1.350094275342612615e-01,-8.617298966280353412e-01,-4.412624946745120069e-01,-2.767763106550044303e-02,-5.828237559765440112e-01,-1.487076973819349834e-02,9.430642993531633544e-02,1.369076316531492532e+00,-1.246377089967100504e+00,4.927391223487593286e-01,2.077618731288456200e+00,2.565046289122155265e+00,-1.978340799351365087e+00,-5.046189574120063526e+00,-5.992775671806708893e+00,-7.574772959213686541e+00,1.293405690055844381e-01,-6.798744819708083531e-01,-3.386858576238686691e+00,-6.843922994105538393e+00,-1.087161717661753713e+01,-1.126369143261192818e+01,-9.983271885733799422e+00,-3.722957897912059444e+00,7.728836705441407773e+00,1.120626672914577959e+00,-2.458800622076154685e+00,-3.423902163986501268e+00,-3.904050128764796623e-01,-9.788918603520755379e-01,-5.696978692130041377e-01,8.690227888907700038e-01,-1.439995941067501839e+00,-1.379391239555420645e+00,-1.057330810221071005e+00,-1.917474442367661736e+00,-4.645855041943908748e-01,-3.217079100215767262e+00,3.185397165587483537e-01,-1.975148040407517513e-01,-6.537922629204765634e+00,-6.109733663748463606e+00,-2.067858993753326491e+00,-1.175721652520172800e+00,1.984691358043182419e+00,-3.958932186212286819e+00,-6.912117495251600907e+00,-1.125033590195095634e+01,-1.061656315400426287e+01,-1.027645077299958132e+01,-9.117903012439764865e+00,-3.586418439824142101e+00,3.917238106210182647e+00,9.811337675317187423e-02,-2.580790341160084100e+00,-3.154766233772750894e+00,-1.606707654335552071e+00,-6.630315102479301670e-01,-9.492222108769760025e-01,-9.606175240992961273e-01,-2.255409640559842832e-01,-1.374598021038605733e+00,5.550234575412636012e-02,-5.079993013183493611e-01,3.526545780333440461e-01,-1.374536725724389896e+00,-7.409273167045327124e-01,-9.181530904367278811e-01,-6.867392924893440664e+00,-3.316101852221977175e+00,-3.954180736193241841e-01,-1.171752707506883873e+00,-2.664821301403928810e+00,-6.348836782552719882e+00,-1.210018143158916182e+01,-9.337319482826591965e+00,-1.198439940194268161e+01,-1.432744561294773433e+01,-4.382342028062323536e+00,2.288581097364915884e+00,4.982074893644599101e+00,2.556892491301776982e+00,-1.591107246549303245e+00,6.040183089599685529e-01,-1.059316186829678097e+00,-1.672898379584540018e+00,-9.806483031464792166e-01,-5.628368814305074741e-01,-3.292237215613187662e-02,6.039204881365826116e-01,6.959067924377829728e-01,-8.108056896351691911e-01,6.334346625706608336e-01,1.950276962354640542e+00,3.614002654155944239e+00,4.506490673010217662e+00,1.346661712726695548e+00,3.181404240059685584e+00,4.078039782509678801e+00,1.511533562874389114e+00,-3.091744327596758879e+00,-8.928969372045727937e+00,-1.225519717477732051e+01,-9.931273585292368367e+00,-9.805941481224314415e+00,-7.100331226328651546e+00,-1.902120387369280685e+00,3.819525802939812920e+00,4.440357861476008416e+00,3.595568563277629082e+00,7.140862764782921479e-01,-6.890071418236100032e-01,-1.982186585594689188e+00,4.393929401563578252e-01,-1.252954741572696040e+00,-9.626179276886435987e-02,1.336866906291357848e+00,1.053775401175683912e-01,1.016976808585308367e+00,5.368048760682643250e-01,-9.336522343983545413e-01,1.374819312663275062e+00,1.193936012920311152e+00,4.043488736081859991e-01,6.058713183564796267e+00,4.954662149765758805e+00,6.807618383736751433e+00,1.991323755691561725e+00,-4.283144034770547393e+00,-1.275615743808550562e+01,-1.062097276339902585e+01,-8.001702337274025467e+00,-5.242099165018103690e+00,-4.503159235701748031e+00,-1.434853039990865220e+00,1.256099645523485409e+00,3.518021548032967960e+00,3.923927637961031500e+00,-8.646743674617339837e-01,1.129027797456463311e+00,5.192073158906571617e-01,1.287912249056796909e+00,1.032336609192997967e+00,7.104447520948194983e-01,-8.640097100074675129e-01,-1.220155092436830291e+00,8.640850314755402772e-01,1.342983392098235029e+00,7.669446421201345787e-01,9.995747937073271583e-01,-1.366642135564211546e+00,2.247759042295589094e+00,2.173872308908690432e+00,-1.018179070738852499e+00,-1.381323614744209394e+00,-4.802868471721082777e+00,-1.197373291286182173e+01,-1.171469273423547541e+01,-1.094918178007218224e+01,-8.447982061811327270e+00,-5.780365569658156844e+00,-2.078190829367706716e+00,-8.790656666315520562e-01,1.455729351361690904e+00,2.223655276975053496e+00,2.159487785966235140e+00,1.274821888188753638e+00,-3.620973686935782809e-01,-1.587202729719621175e-01,-9.978680704236465582e-01,2.994965550563791767e-01,-7.352273281070930144e-01,-2.820294826884194306e-01,4.448439293248590554e-01,9.308959262335253504e-01,4.063758477480534093e-01,3.584267248751234203e-02,9.106607246556956969e-01,6.710517086324592206e-01,1.630864708449542677e+00,-1.035030907553272872e+00,-1.685814849137474480e+00,-2.764690488977986860e+00,-2.768935348493202664e+00,-1.062045077044607311e+01,-9.682962415080879737e+00,-8.001837553049739427e+00,-7.846954521187584852e+00,-4.148089864851427500e+00,-1.828281507479382562e+00,1.318310477313461737e+00,1.286086014228825736e+00,-2.883973699372699984e-01,8.469690428504510482e-01,-5.271981131534309029e-01,-6.696183497062939693e-01,7.664035870409134921e-01,-1.304389986918992328e+00,8.019019618554804607e-01,-4.222293650979339064e-01,-2.896753436335863241e-01,7.747168559704890045e-01,-8.662953529343128123e-01,-1.028464503769384253e+00,-4.566081736456501505e-01,-4.998635432208302087e-01,1.890710585323580828e+00,-2.999753455191500051e-01,-4.763745459627376500e-01,-1.136189196528782475e+00,-3.611412807474831510e+00,-4.945915503608861452e-01,-3.706892331672066554e+00,-6.017309610642509909e+00,-8.279522644727565606e+00,-6.946927146545125886e+00,-2.358265689655210995e+00,-1.662335093422023125e+00,1.423918963608218569e+00,3.881627828675433545e-01,1.209656709307705968e+00,2.449397606963642227e-01,6.762278546128078771e-01,-1.180218791723091520e+00,-7.896219674318848414e-01,-1.583485421507675905e+00,1.733133035026783730e+00,5.862984639601979131e-01,-6.376275576201438922e-01,1.042226192383689742e+00,-5.826858701027624043e-01,1.083727206819922184e+00,1.495395945576364793e+00,-3.499850120288751087e-01,4.942201662149471875e-01,-2.660232486933172824e-01,-3.091230191958655449e-01,-1.880198185580642889e+00,2.021406090987286408e+00,1.874360033344740106e+00,-8.818617695201460549e-01,2.742347758063413687e-01,-6.108488608028505434e-02,-3.604833110576204369e-01,-1.594857751007225655e-01,2.507045551273730410e+00,6.795138317632715141e-01,4.408712918225213828e-01,3.972123601064588283e-01,-6.897291699586524105e-01,-3.395910516255745137e-01,9.493994599041074567e-01,-1.572212187932275240e+00,6.201687657447000346e-01,-9.001148796568919641e-01,8.557710863734334650e-01,1.628536967537137725e+00,-1.150342832727226927e+00,6.236637627324160826e-01,-1.312529714791428326e+00,-1.436135047084995953e-01,1.196077429030355965e+00,4.684787623899333009e-01,-1.227003159914567432e+00,5.266268104857951826e-02,-1.529642499714672699e+00,-1.718639697146338463e+00,-2.856653847892340337e-01,6.341518746190082378e-01,-1.098610255831387272e+00,-1.092610335729164328e+00,3.500569042755575233e-01,1.491445228044033566e+00,2.631357228029776452e-01,-1.734680960364554936e-01,-6.330571049151247909e-01,-7.478252981276897193e-01,2.311684015596850994e-01,-1.558716799493105265e+00,-1.892064013355149177e+00,7.389144340148496859e-01,-1.181645598818280574e+00,-1.465142442202096662e+00,2.184507990206888906e+00
2.521632161169928832e-01,-2.199244603106096929e-01,3.063860411637848169e-01,5.322934615415974013e-01,6.493995976564440609e-01,1.453510904672846715e+00,-4.968776711920129263e-01,5.008254515133615525e-01,1.575330541405082441e+00,3.040210386530016518e+00,6.874451110147202781e-01,8.011924632531823853e-01,-1.172151950767258699e-01,7.079691053620120744e-01,2.083597981973532021e-01,2.382795168387745299e+00,4.625891210393480169e-01,9.973248994584454907e-02,1.310586895648277461e-01,5.034421111605741350e-01,-9.106591710860982847e-01,-4.333939760963365639e-01,1.446200749865507618e+00,4.118473277506691232e-01,5.725999592808083127e-01,-7.543072114242043158e-01,-1.242375463160453553e+00,-6.964025893241336806e-01,4.581070356912114727e-01,-1.160754567679867233e-01,3.127633439707476759e-01,-1.198397987610011040e+00,-1.067689049738119317e-01,-1.064093355875907809e+00,3.709883621394440278e-01,-7.588314661648036807e-01,-2.397875001155937436e-01,-1.660054889490884866e+00,-2.269660656976181023e+00,2.103801068061659230e-01,-9.205055823842126506e-01,-1.033624772524766255e+00,-1.096276854360282438e-01,-2.656153603575864830e-01,1.002832436743630762e+00,1.626111913701099865e-01,-4.636822561315065427e-01,-9.038214228217977819e-01,3.375776326779286740e-02,6.192645447594147257e-01,-1.656620785059566447e+00,1.238902496635071904e+00,8.172055751461665407e-01,1.500050959650382376e+00,8.820079469469613853e-01,-1.461228733620117071e+00,1.087888030878855355e-01,-3.089853722874456032e-01,-1.250278033266245092e+00,9.942690057680043658e-01,1.045977027395046832e+00,-4.682186526786588643e-02,-1.090832418047639862e+00,1.801585091987399467e+00,4.154170540323583460e-01,-2.929688426100321985e-01,-2.477328912722878584e+00,-5.971692771349049522e+00,-5.617781563564676617e+00,-8.086829208387007029e+00,-5.076160378206483692e+00,-6.728595124335495115e+00,-6.116608428466161484e+00,-3.792631986180715842e+00,-9.545044702798795910e+00,-6.438326132993053896e+00,2.985488079803603201e-01,-1.257471370183181225e+00,6.891842578469551395e-01,-5.828128045644913602e-01,6.563741565260716726e-01,-3.709955508632660215e-01,-5.927146802221643362e-01,-3.096253339099714341e-01,3.840401874927903969e-01,8.079393517900123056e-01,-5.837437705998372861e-01,-6.003281898097223568e-01,1.107470869545157610e+00,-1.323783675130385085e+00,9.647030684882772489e-01,-1.239241723744587853e+00,-2.394613220882606530e+00,-2.470269795176388783e+00,-6.586891840077255367e+00,-1.072872401886435689e+01,-1.488789488806168926e+01,-1.738019367256062608e+01,-2.511810520860393936e+01,-3.092708301756083245e+01,-3.135623818868707247e+01,-2.605133715831484409e+01,-2.643461529433260182e+01,-1.871923274890569644e+01,-1.188829875354945464e+01,-1.287867490217470845e+01,-7.142467510557112043e+00,-9.979035213754276157e+00,-8.614760392397270650e+00,-4.493922385340822778e+00,1.151480275674831910e+00,8.585177220290869382e-01,-6.751691751633180916e-01,-8.775644216928869812e-03,-8.740342687881917927e-01,-1.101643822508183712e+00,-1.109472051886862820e+00,4.216510697307383065e-02,-2.290389732219876850e-01,7.519325017602592753e-01,-8.570877549725362810e-02,-1.628783269901688202e+00,-1.068226653815051463e+01,-1.189893431502538590e+01,-1.641727436417644981e+01,-2.684323570068784548e+01,-4.707565384941430153e+01,-6.291208376669407443e+01,-5.696354263859604572e+01,-4.421035137543597671e+01,-4.049644885436154595e+01,-3.660595322617700020e+01,-3.521861535677228261e+01,-3.371325855244602110e+01,-9.336208393825097929e+00,-7.256258160385151701e-01,-4.021621035038259961e+00,-1.063215498290170480e+00,2.103264225696211409e-01,-5.074746582581752818e-01,8.168851074404648305e-01,-8.924992176846398007e-01,-2.802199197284787613e-01,-1.827761742270667955e-01,-2.450913261792352582e+00,-7.005158353080648048e+00,-4.981592608314728388e+00,-1.346690209892946299e+01,-1.331035791504315213e+01,-1.796252151731117408e+01,-2.723735997112034823e+01,-3.073367371947268012e+01,-4.792561638531523016e+01,-8.077944268719447507e+01,-1.062246684873473299e+02,-1.323398757902691329e+02,-1.588113404157298874e+02,-1.415483120934245278e+02,-1.368832632950657171e+02,-8.689062326696151217e+01,-3.026292837999925922e+01,-1.331891618223631113e+00,1.931363539029516119e+01,8.712678500162805761e+00,2.270352178214328109e+00,1.350175898373922045e+01,1.818142556419559019e+00,-2.661242667534911566e-01,-1.078615323148561789e+00,8.847969635823155210e-02,-1.872220156076237707e+00,-5.533691341526184582e-01,-5.266299338704298449e+00,-4.503149156162987943e+00,-1.146577327682590663e+01,-2.473948048063502725e+01,-2.901552926037429714e+01,-4.547859246683889722e+01,-5.377395084469757336e+01,-6.733157309375046395e+01,-9.665859637517331748e+01,-7.398142704710194550e+01,-3.015695564855894517e+01,-3.243076007915427539e+01,-6.334954525441794004e+01,-4.499888098516283463e+01,-2.075519452746714677e+01,-1.004488141999209816e+01,5.490396978758567137e+00,3.557380967867269561e+01,3.623876246485833974e+01,4.269450257973518603e+01,7.675760558171413095e+01,3.945048237658296841e+01,3.049473934704132638e+00,2.800983996798195874e-01,-1.433118302562629565e-01,1.280605252224095381e+00,-2.647953869937822446e+00,-1.134885019685637042e+00,-1.506083651399229240e+01,-2.066387638825370843e+01,-3.139068659311520548e+01,-3.590402063915824016e+01,-2.454358655576634263e+01,-4.943870252290835765e+01,-6.555559305955382854e+01,-2.686084855479372990e+01,1.074938083420864743e+01,4.838368463585533163e+01,7.153266807886991785e+01,3.813907845372028049e+01,2.322239475349017113e+01,3.734566643098869321e+01,2.748500468487459969e+01,3.667361785237256555e+01,1.512208863216483046e+01,4.149347549652016198e+01,5.010229291958852826e+01,7.170553504240615439e+01,1.051118987256266593e+02,6.984038035853501469e+01,2.289664530941137599e+01,5.102346032503210616e+00,-2.025289487929279098e+00,1.431293131709707511e+00,2.401053819594918814e-01,-3.115734835078921794e+00,-1.303462800992179460e+01,-2.509866780134618125e+01,-3.849230442959161991e+01,-2.895478323434235080e+01,-3.177400387021898709e+01,-5.143039484047464782e+01,-5.523998165357862433e+01,-3.792543408200852451e+00,7.230231995252233901e+01,4.677472138893877940e+01,7.660118995682525167e+01,8.431798161122142687e+01,7.476100703112288670e+01,6.314726440666480300e+01,6.547033836161040199e+01,5.055193387617777745e+01,3.953605310947934726e+01,7.792099679584869421e+01,7.602581310311802554e+01,8.992430449321581420e+01,1.463855840146651417e+02,8.668185119304574471e+01,3.330177881457015587e+01,5.948550605908200062e+00,2.005229772153747536e+00,-7.372447935410686437e-01,-8.540187053708466758e-01,-1.601161535045622530e+00,-4.045897248109818101e+00,-2.332826809920348055e+01,-3.423582783767319881e+01,-4.115114463476954398e+01,-7.982417715370654321e+01,-5.437761155036711358e+01,-9.567945291196899404e+00,4.231328663780167432e+01,1.316402212097392521e+01,3.867271076211495284e+01,5.367207267453963482e+01,2.918353038738593241e+01,7.307102952488767400e+00,4.423800543772444627e+01,5.869680351663089368e+01,6.452282546671025898e+01,5.487790591609156365e+01,7.321850867722483258e+01,6.047182148378556832e+01,7.401718995330561768e+01,9.701482380349965240e+01,4.562078847241856039e+01,1.061608678449520937e+01,8.861258882891693833e-01,7.876032417683588305e-01,3.384144317676303637e-01,-7.303318344613509705e-01,1.654739839898500486e+00,-1.299352280581757446e+00,-1.651306729075090729e+01,-1.416429411581684228e+01,-3.313288200975553366e+01,-4.723608365902327932e+01,-3.988676268956280069e+01,2.604345805466742192e+01,3.060110896819581594e+00,-7.953677016421232260e+00,2.811105060014166312e+01,2.198313255177422043e+00,-2.179644706536872434e+01,-4.409475859720277668e+01,-2.695280370434186068e+01,-2.417904855293172162e+01,-2.575782130330010844e+01,-4.395320456907535345e+01,-5.899165744512969667e+01,-3.705649317705261581e+01,-1.310275683105363953e+01,1.559059808377178591e+01,1.842397691246955915e+01,5.201219592816777038e+00,-1.225846899114516386e+00,1.060882984935054063e+00,1.063319113490312828e+00,1.024140251672806673e-01,6.203099842433021927e-01,4.959721331358487362e+00,2.949799225564126548e+00,-3.689199454298259795e+00,1.352142688099903678e+00,1.096646520907348865e+01,-1.507943353611462101e+01,3.128287088130516125e+01,3.536986380682152742e+01,2.887163776624534250e+01,4.667066760661487734e+01,-9.472568389212460360e+00,-5.977192088985979979e+01,-1.198003931800029562e+02,-1.504812549680783320e+02,-1.138867700222343160e+02,-1.317761111581363878e+02,-1.545764178189510289e+02,-1.321290948004364623e+02,-8.998266966266753286e+01,-5.974147645493706449e+01,-3.512739803900118574e+01,2.748328277433798039e-01,3.009885825859672792e+00,-6.769214950891077054e-01,1.342348685483401249e+00,1.433562943375541465e-01,-1.408056442186971902e+00,2.947322493193408555e+00,4.686860411384762060e+00,1.084700956568041796e+01,-4.778628700575327848e+00,2.137360280856304229e+01,2.043767074918395821e+01,6.089470778166869103e+00,4.336487252885952159e+01,6.952175978476634555e+01,6.425797974113731925e+01,7.292862528459941984e+01,2.509924989632710890e+01,3.470834092482391942e+00,-7.567464899852910776e+01,-1.139563082432881060e+02,-1.360556759663496678e+02,-1.450425951707372860e+02,-1.214781323086733948e+02,-1.093471808177063309e+02,-8.479863842331391766e+01,-6.908759066671765936e+01,-3.627881744201082626e+01,-2.964887205320795527e+00,-1.714964326211600998e+00,1.228578008446753744e-01,-9.141864140637695479e-01,-1.296144370231536280e+00,4.478707784972178474e-01,-4.031337758925284120e-01,-2.385768166302785431e+00,5.885865916578592483e+00,-1.088800639787593916e+01,3.471014158161860053e+01,2.679611044487614535e+01,1.446416841839889322e+01,6.889978427408435380e+01,5.272856385245042787e+01,7.234693908771470205e+01,4.355501757611901326e+01,1.306296404963850222e+01,3.920077986690309046e+01,-3.337539156950203534e+01,-5.989245458371259190e+01,-8.858407468076001123e+01,-7.491455148323755964e+01,-9.048924279552454664e+01,-9.867916868940643838e+01,-7.377114358053798071e+01,-6.625891959784523522e+01,-3.766605628341881840e+01,-1.626799824514670312e-01,-3.058676970429615727e-01,-8.034037143249787016e-01,-4.090100980171408607e-02,9.848304970082534526e-02,1.519207322349633182e+00,-3.075391788376647284e+00,-6.513134320741865047e+00,-1.281386353131165379e+01,-2.099512797390795171e+01,5.668367730940005345e+00,1.833588193348333562e+01,3.219911332388654301e+01,4.664318487253368062e+01,2.720288453591922284e+00,1.344507095377336547e+01,-2.634251902630689202e+01,-5.490811744906699943e+01,-3.852077811688891984e+01,-6.985940185838414607e+01,-5.641231506764751380e+00,9.038394913659388852e-01,-3.397736661899522659e+01,-7.781142326298868284e+01,-9.239349621704212723e+01,-7.940675784965966955e+01,-7.126047849880745844e+01,-3.467959286036683864e+01,-1.813119462155137640e+00,-1.671796082702036390e+00,-5.814863575521711514e-01,-3.022880437433173584e-01,-7.501217406022256950e-01,-1.598245773159871375e+00,-1.495637001939631228e+00,-1.515266392235240289e+01,-5.057968666995942186e+01,-5.486628222467555105e+01,-3.990953472265896806e+01,-1.764299883221998488e+00,3.521489315506047291e+01,-3.769135982536884644e+00,-1.346146511354346664e+01,2.740222514883345539e+01,-3.503617717148888033e+01,-9.869814301636927212e+01,-4.691568720091378708e+01,-5.446812474073121990e+01,-1.338814058328715539e+01,1.288999503483277742e+01,-4.892563287939226768e+01,-8.461867642254317445e+01,-6.664101538334672625e+01,-7.049478539538675648e+01,-5.749897204387017524e+01,-3.366050346941643312e+01,-5.119392550149995280e+00,-5.676865685730841271e+00,4.684541443696814134e-01,6.587738826689467642e-01,-3.174319403981794019e-01,-6.112135129685175583e-01,-1.766264335196533475e+00,-3.153910906641936407e+01,-5.365998649644563301e+01,-4.814324595382111482e+01,-6.596326169896931901e+01,-5.205581293870302062e+01,-1.503737873191881924e+01,-2.291701404110001405e+01,-2.960206915212717860e+01,-3.432317452834814020e+01,-7.405607061776983358e+01,-9.536072065373623730e+01,-5.353333331918572924e+01,-1.350098626396992607e+01,1.853091312023889969e+01,-8.574097220365214156e+00,-5.934183386481820577e+01,-7.732792759589680998e+01,-6.169433310052011166e+01,-6.442445474156123453e+01,-6.807216522489611066e+01,-2.530529106807143691e+01,-4.835288238419629181e+00,1.082099433128018706e+00,2.187034319564775675e+00,1.240439540547374930e+00,-3.520492886872488292e-01,-6.638821048890622967e-01,-1.651797980944937239e+00,-2.484601911331997570e+01,-3.009082421154150211e+01,-3.335986390895880227e+00,-2.821713887158320944e+01,-5.500305816113129964e+01,-6.966859645496050746e+01,-7.522125439304639372e+01,-8.187566384822073928e+01,-8.636888146399095945e+01,-1.046111734381155571e+02,-9.287372079503786892e+01,-9.758817745574933866e+00,-3.261319669240165364e+00,4.786920089497135677e+01,2.372877694256781211e+01,-6.279607896905613273e+01,-3.767956398123924799e+01,-2.716869637693863027e+01,-4.976052364407909323e+01,-4.934047542113057716e+01,-1.772392849439782125e+01,-3.623647851763862615e+00,-4.444071509633999995e-01,-5.800829387746729848e-01,4.749009799364348194e-01,-9.470528098922215143e-01,-2.429504815405163942e+00,-4.503007149260104036e+00,-1.833444431658508122e+01,-7.258023750223328463e+00,3.106068547012791825e+01,3.364233584748065908e+01,-3.326855934775267087e+01,-8.973477898699184152e+01,-9.670526149521901971e+01,-7.710393838453551041e+01,-5.294009994688920528e+01,-4.390455643436132505e+01,-2.209264075003316563e+01,3.675078465399113092e+00,-2.268218873418900827e+01,1.872524506375676268e+01,-9.755149388918198383e+00,-4.278754673951411291e+01,-1.622417616890106373e+01,-2.990214632484765289e+01,-2.622462925931523259e+01,-3.808198299013423593e+01,-1.017009082620773341e+01,-2.318662911353636336e+00,1.738318940463044138e+00,-7.383137375934953339e-02,2.505300682121547329e+00,-1.687009116111258367e+00,-2.717881957311312657e+00,-7.743303634711429240e+00,-9.090700083385360841e+00,3.175910907423385154e+01,4.823126751615509278e+01,5.057631804687453325e+01,2.167244583389861035e+01,-4.425394940237831776e+01,-6.038468781233008542e+01,-3.059874392958472100e+01,2.070579822046296314e+00,8.537696088621419932e+00,-3.538963890750841301e+01,-2.539001300679680284e+01,-1.188126032322894154e+01,1.440610192527728195e+01,-1.248337244922122657e+01,-5.064811470636974633e+01,-3.825332876820602479e+01,-1.909984367351836809e+01,-1.621690627411171803e+01,-2.038801310265363753e+01,-1.049001394281157573e+01,-6.215419722650862511e+00,-4.974670133784564463e+00,-5.206364960573097722e-01,-1.272644008804959759e+00,-4.661642853807486553e+00,-4.655391627113621311e+00,-7.248604031054193264e+00,-1.859906894293715141e+01,1.365619274834102370e+01,4.299433903256091583e+01,4.470655875113095590e+01,5.702350469429102731e+01,1.378594789446893465e+01,-1.278802393501500045e+00,2.881832101983340166e+01,3.157375581723396962e+01,1.573085167923039052e+01,-2.840836744678427905e+01,-1.402182708206069073e+01,1.467028815741801395e+01,-3.975697127758174521e+00,-3.139487793473159627e+01,-4.494872896030886267e+01,-5.205840603809644307e+01,-2.051021123555296199e+01,3.228321566900183903e+00,-9.112550217467029867e+00,-3.794050557306873905e+00,-3.758737863016935243e+00,-7.298934929360805235e-01,-2.411584135562322984e-01,-5.328185501597331175e-01,-7.378518601723100812e-01,-1.008669808489321751e+00,-9.233595593579110528e+00,-1.408922160171576898e+01,-1.186671036555106085e+01,-4.021839953548339563e-02,-1.036626265302264871e+00,5.060356124536358635e+01,4.959495707718443214e+01,2.593158124473130854e+01,-1.663397968063227239e+01,-1.470258289968879417e+01,1.502845596567908260e+01,-2.338490241724385399e+01,1.155875126628402150e+01,-2.104611445897256061e+01,-3.630082750690604598e+01,-5.090931939741278711e+01,-4.673361662425372742e+01,-4.746868789687120938e+01,-3.173904512752626417e+00,9.327357110227429970e+00,-7.857029594531816485e+00,-6.581690789432282251e+00,-2.910673321348326015e-01,-1.428889789908164287e+00,-6.931274682163046652e-01,-7.050158622162422395e-01,3.651496788642576152e-02,1.566848424546007479e+00,-4.949722409998904560e+00,3.219823326794278850e-01,-4.487202697729187406e+01,-4.166155757215499023e+01,-4.796717202974942751e+01,-2.728367455886560222e+01,3.501430184080433605e+00,8.193319357656884350e+00,-3.954043252335773673e+01,-2.530451816178918989e+01,-3.085877276721856788e+01,-2.940785921869693453e+01,-3.701254367366119169e+01,-5.180676176620627871e+01,-5.351858287727593222e+01,-4.176839420722465235e+01,-3.068436863473748843e+01,-3.848774901299714557e+00,5.968628116763539104e+00,1.345762880197261246e+01,-4.012120828174012388e+00,-2.101396906272453347e+00,3.846973622978881457e-01,-7.032889338186888717e-02,7.523982096392047014e-02,-6.204985287962845319e-01,4.082724912945890905e-01,-7.592145050968188702e-01,1.645775416092333465e+00,2.028242532695979428e+00,-1.918889423688341722e+01,-3.609223633356300098e+01,-2.201201148166865096e+01,-2.458292122830890847e+01,-2.502319963709420492e+01,-1.672056052111438618e+01,-3.097909860046047470e+01,-2.786559569900796163e+01,-3.134453330268842208e+01,-2.542771781103334661e+01,-5.813835864277098153e+01,-7.341483868614531616e+01,-6.079899969209449040e+01,-3.248534414331588493e+01,-8.248677070147973467e+00,1.837092870672833556e+01,2.128986723721408225e+01,1.090828199960504286e+01,2.925369346522157077e+00,-7.941821031452089841e-02,7.456749437260282720e-01,-7.087589613255722565e-01,-5.141069255807508009e-02,6.386186389539201536e-02,1.242467816676147807e+00,-1.776618190298383304e+00,1.660554435848325516e+00,-3.733919556837885789e+00,-4.203151591834317635e+00,-2.371632657379215559e+01,-2.273969903621222954e+01,-1.962390647793375820e+01,-5.912702664871147817e+00,-2.455337763522313566e+01,-3.819114604495553777e+01,-2.862830058843243108e+01,-3.988154219616012242e+00,-1.127850894428769912e+01,-5.528156149588973278e+01,-4.971817486632391336e+01,1.041488343595714516e+00,1.096463385883659747e+01,1.768825176540966382e+01,3.510617550573729062e+01,1.916697247487728362e+01,6.613563329547665681e+00,6.800717467708039088e+00,-3.803995699032617361e-01,-5.683813476779011609e-01,2.472372820045700553e-02,-4.768631994493845450e-01,2.788290182854942789e-01,1.048318868145182048e+00,-3.401053882507267256e-01,8.702104373889937294e-01,-3.560964298364481806e+00,2.663719764458875261e+00,1.064201611637831846e+01,5.882009073244645947e+00,-1.655356218641822919e+00,1.790893240536358277e+01,1.565601607970681819e+01,-1.961743629173269277e+00,1.572845192676323123e+01,2.477888262243813955e+01,1.649008867022500269e+01,8.717706641146477864e+00,2.681334016123979325e+01,3.595775751027385780e+01,3.721312962112295963e+01,3.249905570949420763e+01,2.434292753190311132e+01,1.415025037493037274e+01,8.084515013736062627e+00,6.069860853803016099e+00,6.430287215419437929e-01,-5.671721082865469749e-02,3.551844079260341736e-01,-4.474346911431910101e-01,6.687168762792535803e-01,-2.295392435671368692e-01,9.531521872647931437e-02,-4.544610232340471900e-01,1.642176177913350354e+00,1.294871019017347136e+00,9.464658450375555976e-01,1.069694861162976407e+00,5.727762118559726723e+00,6.081237274791119418e+00,1.034065236807762389e+01,8.622004980719223610e+00,1.708974188271769723e+00,-6.033335555455966670e+00,-1.063113921403552098e+01,5.776317621905588950e+00,1.921039354449517944e+01,2.201414038119735750e+01,1.945560786606427683e+01,1.600136399344779647e+01,1.400593659705608651e+01,9.268344102130761542e+00,4.842084108330324543e-01,-3.342094686353065391e-01,8.494044928282208640e-02,1.015455516638967604e+00,-8.067660403567020744e-01,-4.314709430209004992e-01,2.300402771724587014e-01,2.840966583001032220e-01,7.797698108265257444e-01,-6.384931938532815154e-01,5.270967103563186651e-01,-7.774977868985337714e-01,1.527121444199785349e+00,4.337247779872575038e+00,3.236682465963642397e+00,-6.838890363491384461e-01,-4.076851124668473325e+00,-1.405043778374144292e+00,2.593261481497302512e+00,-1.958400089838387315e+00,6.069106768830984100e-01,3.452075787011765318e+00,8.922549043537740809e-01,-5.869861796785427188e-01,1.298601742458154407e+00,1.405357224419952589e+00,2.782560436740159904e-02,8.798085186647360834e-01,1.729108559780385967e-01,4.082485129338441210e-01,-1.018723856765457514e+00,-7.361050143128891055e-01,7.689437216793603147e-01,1.758160838521118652e-01
1.215904489500706925e-01,-7.924779851641200468e-01,3.980513465038702514e-01,4.523928516272578970e-01,3.244836240255696835e-01,6.681028032866298538e-01,2.220610922956460787e+00,9.278476785562521645e-01,-9.080916719782381463e-01,1.028781342429520684e+00,-2.007167009855078399e-01,-1.169872288036117869e+00,7.417054117987209594e-01,-5.354067976856341504e-01,-1.822363354905651045e+00,-2.736966749813951050e-01,-3.139883320171765746e-01,-2.364179710111775634e+00,-3.471631962590280285e-01,-7.725877229208789609e-01,-4.481983203402867821e-01,1.934515623037841858e-01,-3.746980534349410030e-01,-1.811421581729530272e+00,-2.498392194810424849e-01,-8.468713108400965917e-01,-5.960683162833212423e-01,3.606790612220700520e-01,4.780733791082170114e-01,3.763293136338392575e-01,-1.508729653267952830e-01,-1.915553630181322742e+00,-4.580249211311693269e-01,-5.199163364497163542e-01,1.058329732504085657e-01,-8.381367278486946404e-01,-4.509173679847129912e-01,-5.846950505191730318e-01,-1.861489043214265560e-01,1.702089767473474291e+00,1.656227502771173477e+00,2.280509941835910936e+00,-5.906306897010428214e-01,2.704239431600146126e-01,8.325776042637558216e-01,1.834823188709268360e-01,1.477913302653865557e+00,7.667014626105710384e-01,-5.114434794020744635e-02,1.437560377073493267e+00,-5.389042902799284773e-01,6.024570716126984582e-01,4.195638148696628766e-01,-4.520860817724771663e-01,5.098889390845092739e-01,1.196271779984018568e+00,7.924998845008637827e-02,-8.225095073549436586e-01,-7.860245097120722724e-01,-1.264403756743717855e+00,-1.497947513328359292e+00,-1.276440009661404806e-01,4.534621666724499289e-01,-1.037582887666569587e+00,-3.396194762793627309e-01,-7.574787461128160704e-01,2.208151423009896419e+00,1.574430546420539090e-01,-1.824966042897885610e-01,3.147420529600009509e+00,2.685447710485591166e+00,-1.328126093740819247e+00,-8.338923181902913040e-01,-1.276053427161417009e+00,8.131852187534098775e-01,1.593750966988793705e+00,1.398228983210997756e+00,8.722815941836404852e-01,-3.341410341945619256e-01,-4.043197566665732677e-03,-7.249258634234113652e-01,-1.262896096668257029e-01,2.000094179446349596e+00,-7.254231703430497058e-01,6.784600693658636439e-02,-5.659275533776558786e-01,-5.450252556583080887e-02,8.412663912731736804e-02,5.753277251638175827e-01,-1.700963313288541334e+00,-2.692885116129617451e+00,-1.703672824889995274e+00,-1.902344163384210418e+00,-2.179950508031311962e+00,-8.502225210205162753e+00,-1.182335953995530176e+01,-3.239626470077767717e+00,-1.675565653875965921e+01,-1.250585290292937124e+01,-1.090650079718080434e+01,-6.820603870095038879e-01,1.568874721605470590e+01,1.778536060187777679e+01,4.296012400400048392e+00,-5.205248334540523381e+00,-2.018475999388841302e+01,-1.987172450066157836e+01,-6.754849441557869483e+00,8.980060096590205543e-01,-9.816691447081775657e-01,6.008478804263265444e-02,6.480627911914858819e-02,-1.441807719652151709e-01,-1.587325968083179495e+00,-5.873266920998482243e-01,7.106983499880884514e-01,-9.329179640661299233e-01,-1.000574768846451246e+00,-1.778546226706339439e+00,-1.087345573129318232e+01,-3.068046326386167877e+01,-2.234592467688392148e+01,-2.171143564621950972e+01,-2.765910847790922134e+01,-1.109722256948109020e+01,-1.814241251515215936e+01,-1.224775351051660444e+01,4.151407202231493621e+00,4.311721251330722282e+01,6.080614209342741106e+01,6.006066228100403492e+01,2.578551492777260634e+01,-1.229391264753265212e+01,2.350413198233870737e+00,-4.105729460474131010e+00,3.065581779127096063e+00,1.286409047844608367e+01,1.671448960211977530e+00,7.963664165651582749e-01,-1.037337651917427328e+00,-1.762596104096792127e+00,5.578930320904311735e-01,5.827080747881070444e-01,-2.005829992423249497e-01,-8.153650287240450822e+00,-1.840736497812967087e+01,-2.538306524997018343e+01,-3.283881424223180545e+01,-2.606038888467835690e+01,-1.854878661394164396e+01,-1.220658123644444615e+01,1.159193095148407870e+01,3.454475169286030933e+01,7.843494616517688200e+00,-1.427500381698171061e+00,-2.698591645674818906e+01,-2.593657535637212064e+01,2.726785159990287966e+01,3.540841882775924176e+01,1.546546310856717277e+01,6.585140409804692752e+01,6.767511043172021346e+01,6.314529284753355398e+01,5.595349312670457920e+01,3.595730874906371355e+01,7.674192546206809240e+00,-2.466423773565697419e-01,-7.221375237360934396e-02,-1.266368615174135459e-01,8.426297967232472264e-01,-1.001647901702439780e+00,-4.326405461410134379e+00,-8.871382437355984862e+00,-2.597370921250282905e+01,-3.588699537638947845e+01,-4.633439880840907676e+01,-4.990871069857200837e+01,-2.872555266060710366e+01,-6.950158184494866553e+00,4.130297314106897488e+01,4.733202544390412925e+01,2.508824372120649926e+01,5.368022280470123064e+01,2.363668170708771399e+01,2.858375425138253689e+01,5.357646165971571861e+01,9.056357197062051512e+01,9.570959774717422874e+01,1.210709894048797679e+02,9.469467912741177429e+01,7.728404022628652115e+01,8.091805367308892016e+01,5.823733820405623618e+01,1.454674641748079189e+01,-3.831072601051945803e-01,-5.162454682507720882e+00,-2.442178752101128170e-01,1.578371691121086995e+00,-1.008167374339436817e+00,-3.519041910981842047e+00,-1.805172186438852577e+01,-3.185334296166440993e+01,-4.577230366996757027e+01,-5.791274051264216638e+01,-3.714018463194299358e+01,1.533829194727455736e+01,2.426417960664435824e+01,4.378885803249676911e+01,2.848673559846006142e+01,2.919617617756465933e+01,2.619713769001937465e+01,-2.164537320815314025e+00,4.848501110076053067e+01,8.835160455860007289e+01,1.278603205273340393e+02,1.014932753934727003e+02,1.180526239441583840e+02,5.763955581800966144e+01,-3.406546601557462584e+00,1.402295783047933497e+01,3.697742918054988337e+01,7.992348091505684593e+00,-5.859055264847011779e-01,-1.445522952011463746e-01,-4.190066066211510787e-01,1.589366413170921533e+00,1.383777704308596146e+00,-3.806016105394026017e+00,-3.893099899394429997e+01,-3.761838915388072024e+01,-1.806807366559018391e+01,-1.909547499715848673e+01,1.166182152299765562e+01,4.716284468573409328e+01,8.918767783390073589e+00,3.523862071187905087e+01,1.176688713233003902e+01,-3.607165201873581140e+01,-5.833788788283818150e+01,-5.642728550068923710e+01,-5.119286912223513042e+01,-4.262352266478157503e+01,-4.659521325662682045e+01,-7.092270190894677739e+01,-6.972731310590664577e+01,-9.287094735365435838e+01,-8.218417680676246562e+01,-5.513319071035120089e+01,-6.583927842934754970e+00,-1.689965309610948374e+00,2.095335956706142339e-02,2.180730345808516157e-01,1.611238892543495949e+00,-4.010261046757174902e-02,-1.003809997249553554e+00,-1.308351034954022607e+00,-2.511858431243453893e+01,-2.185516744437625292e+01,-1.780874523393207909e+01,1.106940103455689162e+01,6.099970434367981653e+01,7.627652973783261814e+01,2.188991267518277084e+01,2.844401525831077748e+01,9.688831562196883240e+00,-6.631275540619716935e+01,-1.158103784101997462e+02,-1.598932854065032814e+02,-1.983593281334485710e+02,-2.061462428981010930e+02,-1.890628761165850165e+02,-1.821336222797438325e+02,-1.521974947922032015e+02,-1.401870051140440410e+02,-1.150261923559264829e+02,-9.411442100854478099e+01,-4.520769129694733124e+01,-1.235106187432308467e+01,-5.750417811731804107e+00,1.800515883367981296e+00,-1.960754333534740421e-02,-1.023423342987323625e+00,6.076190593304331422e-01,-1.191344164751122392e+01,-9.421037338543635897e+00,-4.954853721473234884e+00,-7.119694790402388840e+00,1.510224797995270762e+01,6.237862579593107171e+01,5.681850319327578802e+01,9.065736954718117246e+00,-5.237396154074868804e+00,3.316917434686963873e+01,-6.299339853362854846e+00,-8.412702983133776513e+01,-1.255153810403683110e+02,-1.573833685153940394e+02,-1.669858895658180984e+02,-1.662675276547810483e+02,-1.806998921249052046e+02,-1.516713302731319004e+02,-1.146710595977152138e+02,-1.086132578862090554e+02,-7.535986191195996753e+01,-3.803958275907694997e+01,-1.189009651163080328e+01,-7.834756118763385402e+00,-7.725813899565594500e-01,2.548675649644019936e-01,-6.712035468329987653e-01,-9.736120425247992705e-01,-1.280951316779412430e+01,-3.355177545355860769e+00,6.097825051119133200e+00,-7.267272340235294337e+00,1.785995564280608150e+01,2.377066975136097327e+01,-1.171502516377514880e+01,-3.795139904341726123e+01,-8.147882419301122781e+00,3.587309680323899386e+01,3.680459909729648160e+01,4.753228426642821525e+00,-2.858888335496063604e+01,-2.759321127496782466e+01,-5.510539696371851903e+01,-8.244060358973155189e+01,-1.048275873458059380e+02,-9.880048563254703708e+01,-7.999047356706927303e+01,-8.502183842861954588e+01,-6.351692824188108943e+01,-2.760462590304542729e+01,-3.731339841335328256e+00,-3.471344715517921120e+00,5.528867388613963874e-01,1.183631251324028355e+00,-2.195310568723996339e-02,-1.921300323567314006e-01,-9.935304623308627292e-01,6.909483698817480146e+00,1.094456766371425616e+01,-1.572129048454450384e+01,-1.683281968317220745e+01,-4.838647896111122892e-01,-3.136376851621224038e+00,-1.355542268726722988e+01,-1.965355552372586301e+00,5.879429576488368170e+00,1.769800003729567806e+01,-1.620444221036325061e+01,-3.298106988673268347e+01,-4.560300849637185294e+00,-1.118513295126653428e+00,-1.738834255101134207e+00,-3.979848634802871032e+01,-6.366388315365562534e+01,-5.124229639859129293e+01,-6.097328458391017847e+01,-6.722392458680846516e+01,-3.117916905928425564e+01,-2.163022309964204748e+00,7.178312568849096742e-01,-9.206871257080534443e-01,3.282695733671875393e-01,-1.369430500244767757e+00,-1.547964699392017529e+00,-7.027263222967957690e-01,5.294274814635669735e+00,1.113482893798082252e+01,-1.631479260936103515e+01,-1.614389319410271995e+01,1.938854405822240423e+01,-3.503098901336216375e+00,2.219638501546841169e+01,3.186774361252790300e+01,-6.368882225098045247e+00,3.066726792998791584e+00,7.953580002262279791e+00,-1.650796252514832929e+01,-3.995403179597555976e+01,-3.892456151273579934e+01,-2.838185279093713653e+00,3.336502154202332537e+00,-4.081624960787570444e+01,-4.033886265034184504e+01,-4.856237156472450778e+01,-6.301793348351912272e+01,-2.663401093500712236e+01,-4.205798726115459907e+00,-1.258436915493672092e+00,-3.514056510208773410e-01,1.015117397271817906e-01,-1.413808989171741359e+00,-9.010592988365898615e-01,-2.224217321848831919e+00,5.552604585115797242e+00,-4.187335550769212489e+00,-2.061139890537191377e+01,-2.552979472721654375e+01,7.685883331476229818e-01,1.216404925846893015e+01,4.743410546776105718e+01,6.293423658078384619e+01,2.723722567202681688e+01,1.649442341128501610e+01,-1.953275216010007753e+01,-6.965300890542194701e+00,-1.816963690174182844e+01,3.961031072653422580e+00,-2.835684388280875723e+01,3.741535212643983144e+00,5.594126036199553731e+00,-3.332244720721340059e+01,-4.753638395897558411e+01,-5.338201072393104596e+01,-2.359879504810120565e+01,-5.923247930150232321e+00,-7.423815148089536568e-03,2.783875805754575938e-01,1.983115311870140562e+00,-1.620196040620249134e+00,-4.946036106780842267e+00,-4.539816094942142222e+00,7.365416086366944892e-01,-1.804618525908911764e+01,-4.747582346902889583e+01,-4.589855846013275453e+01,-6.617092800472262581e+01,-4.447776785646844644e+01,-2.040178131172813991e+01,-4.305138707301728651e+00,-1.466759629403986853e+00,-2.658958795503696493e+01,-2.506240512659443453e+01,-1.651051360490904685e+01,-4.812694849284971355e+01,-3.509837578781614553e+01,-6.369003139751074016e+00,-2.580232636019772485e+01,4.632441323761121055e+00,-1.972500192915196138e+01,-5.743176714676671679e+01,-4.327034219639638479e+01,-1.724200969205555722e+01,-2.659444777569860197e+00,-6.692114796639218044e-01,5.260185502441421246e-01,1.337982982296847811e-01,7.329225262158325371e-01,-6.574297934286994938e+00,-3.326095741696158736e+00,-4.241598022561529291e+00,-2.370232009094941716e+01,-7.206888663910714854e+01,-8.343911374636665812e+01,-1.170078063340147594e+02,-9.945830127410617649e+01,-6.247634321671590385e+01,-5.116268566757300817e+01,-3.496524717777284508e+01,-2.487544031222359209e+01,5.970493202945604594e+00,-2.346097180650118119e+01,-4.280609747230577256e+01,-2.726221239300140198e+01,1.186934447933559689e+01,-1.724655317778481489e+01,-6.258234971066814367e+00,-1.826026398207628576e+00,-5.359219427204816810e+01,-3.682183688169125446e+01,-1.645737479118377067e+01,5.896446042979299751e-01,2.708583488566159492e+00,1.880158695382277756e+00,-3.718276741203119934e-02,-1.757203213083756710e+00,-6.418744032636078956e+00,-6.577898966818056081e+00,-4.546719321426475169e+00,-1.500451246298493579e+01,-4.916931087996302097e+01,-8.939415570108002385e+01,-1.192185333323938892e+02,-1.210534806965954431e+02,-1.079845086570757502e+02,-1.313318414838047374e+02,-1.041224048819563706e+02,-9.216110741744806489e+01,-6.999153203341961671e+01,-3.112987773316964280e+01,3.462645947865238272e-01,7.784920804937948802e+00,1.733538825810929396e+01,-1.200388525340307488e+00,2.418607116272791568e+00,3.289158530603326369e+01,-2.941644013957790449e+01,-3.023820164118970411e+01,-1.076315699599013698e+01,2.148470927446967327e+00,5.131029183499898894e-01,-8.221859607072259379e-01,1.802958104016228746e-01,9.429170570931099116e-01,-5.494552748105858697e-01,-8.649464986272102252e+00,3.129303726380241457e-01,2.598685939419409507e+00,-2.500621498256309749e+01,-2.280372698060524783e+01,-6.109174131448489931e+01,-9.727822928404921754e+01,-1.209900312141594014e+02,-1.365102742169898420e+02,-1.337406680476158272e+02,-1.016031375917627599e+02,-6.193388561280579552e+01,-4.064209458866134383e+01,1.294323082144473425e+01,1.895071634757563217e+01,3.730633218151158559e+01,3.909992732136520033e+01,2.074379252775887039e+01,6.641483889823480702e+00,-1.896456227575822595e+01,-2.819234625577770359e+01,-2.513300022957590585e+00,-1.685649722730868438e+00,-8.691245527550222061e-01,4.597029852188213028e-01,-1.270075612732933346e+00,-1.618096964893296796e+00,1.126719936508879627e+01,5.352861166098521473e+00,-1.059187743043663410e+01,-7.061144976812025575e+00,1.187164182593321904e+01,2.863829708772585292e+01,-6.750393854948214312e+00,-6.674642405861303018e+01,-5.466670313799914993e+01,-5.523272712226880543e+01,-6.113759915921210819e+01,-6.625502232874377739e+01,-1.100119974645657450e+01,4.576089801964850601e+00,-9.161764841935303494e+00,-5.458759750144113632e+00,1.114301264827965277e+01,1.568544541180351537e+01,1.730453663139672926e+01,-2.427637148330894945e+01,6.800782849415468512e+00,-2.855341947101477729e+01,-2.181355467713399054e+00,1.154074493385427891e+00,9.356970581047655000e-02,1.386397819067611411e-03,-3.804469340514635700e-01,6.949683435998429970e-02,5.990101504710223956e+00,4.035197652459820539e+00,1.340844624397711460e+00,1.674021642496304096e+01,2.972053028727404822e+01,4.959771280165561080e+01,1.628735230304095438e+01,-1.172721536852123414e+01,-4.981858197106440400e+00,1.468713242522392193e+01,8.466493035177714788e+00,-4.318425012348685144e+00,-6.823562095531062965e+00,-3.074458131541409234e+00,-1.825893499202241088e+01,-2.589398533461689667e+01,-1.821546119348885995e+01,-1.589618480880880647e+01,-9.258888689023052621e+00,6.862159284215924693e+00,-3.309934957427439484e-01,-2.510646002537297861e+01,-1.723054919286350017e+00,-5.770123155356742251e-01,3.639427167915256223e-01,-2.288836854382227670e-01,7.217233930310761325e-01,-7.007435165233594221e-01,-5.429796627583069579e+00,-6.067386024253433874e+00,-2.833079465852454959e+00,2.072357313731802009e+01,8.037240635526210042e+00,7.110306181854009644e+00,1.814211768139944070e+01,2.927366288229462299e+01,3.431830828581357906e+01,2.924339929866577492e+01,1.490333819558812323e+01,5.743189000281104484e+01,6.993266962819366483e+01,5.412026313980760506e+01,7.552112602964953680e+00,5.321158215684281600e+00,-1.146500789920143148e+01,-1.030734265694043827e+01,3.701167333793578251e+01,2.592985076674991518e+01,4.718602995921487242e+00,-5.829265482292078637e-01,1.155567317791581505e+00,-7.938015293566098585e-01,2.624318937718194356e+00,4.520929417826695662e-01,1.011462128999779830e+00,7.081576519196482178e-02,-2.775447977266472854e+00,-1.598221084680783299e+01,-2.335437713171884511e+01,-2.061127917847512592e+01,-2.801160637651478069e+01,-1.937393217199552709e+01,8.061921269167843462e+00,4.410856889309907558e+01,-6.893104746724593168e-01,4.903513565112515238e+00,1.827966909177434829e+01,1.397518678023469185e+01,-7.544685669199193256e+00,1.274006410264101774e+01,4.388187884080047496e+01,1.950214225001743884e+01,1.731860897094918883e+01,1.886270209784294138e+01,1.132031029442530468e+01,-1.048137546702810496e+01,4.432520183107342859e+00,6.899778007716493633e+00,-2.188451726397079522e+00,-1.695816658722808790e-01,-1.603516331278595150e-02,-2.065845860221471875e-01,4.302232455611732509e-01,1.790028209760195388e+00,6.673766711958546427e-01,-5.805498304150064293e+00,-1.901485556336371374e+01,-2.608617400953010446e+01,-2.277404089860207392e+01,-1.135027764117335813e+01,5.752110278619530170e+00,-5.653410196525258335e+00,-3.284586958294205328e+00,4.115815586452864494e+00,2.868879116943773155e+01,3.734903274248853222e+01,2.306837937436353059e+01,-1.466023828082864888e+01,-1.642881551972596199e+01,2.264582552084265288e+00,-1.389176308950881022e+01,-1.505131039540620819e+01,-2.252548492313407280e+01,-9.946556046053350642e+00,7.584629711757417958e+00,5.005972148667555466e+00,-2.250606919445651943e+00,3.656514408726501131e-01,-1.553460262351989973e+00,7.648245203933230485e-01,-9.081515006786108346e-01,3.070988224463737093e-01,-1.607793262921568544e-01,-1.077686704953041641e+00,-8.012962489216048922e+00,-1.356437845861718294e+01,-8.929000947850608938e+00,-2.290966840843940489e+01,-1.037522694899491338e+00,4.666250222402611669e+00,-4.242662876920509518e+01,-3.122189352745170865e+01,-1.676603796600262442e+01,-3.102161110983091064e+01,-4.510918535465430779e+01,-4.333055241326476903e+01,-3.068421661739878203e+01,-3.157789001780855287e+01,-3.583292317291184759e+01,-2.909771340113417537e+01,-3.956951866491774883e+00,7.924673475526537558e+00,7.746765993703306208e+00,4.891278608142715534e+00,4.379218999848928928e-01,7.217788512955034541e-01,9.972644656076318226e-01,2.746099544889333721e+00,2.736761375025580090e-02,-9.810952771490876190e-01,3.123530302485285071e-01,1.121113902290810760e+00,-2.349463725936941305e+00,1.876705726988655287e-01,-1.797587987497265116e+00,-1.007994978841569811e+01,-1.805193653800656506e+01,-2.397861888335739877e+01,-7.522350179124816627e+00,2.958062495760271915e-01,1.414966026614730588e+01,1.226631689094023159e+01,1.790930076640124602e+00,-4.072563480779295197e+00,-7.429608593518068460e+00,-1.927868312863401101e+00,1.403660308219007113e+00,1.228916214769091075e+00,2.916392585908236246e+00,6.714226758377810356e+00,5.221799108349228113e+00,3.212703638543354945e+00,-2.222499130966247294e-01,7.707719526882102212e-02,-4.883788201503170834e-01,1.012634791872417221e-02,1.006423278211729500e+00,4.625078555126314606e-01,-3.033104201185037874e-01,-4.928188493315521224e-01,2.486470554303046032e-01,-3.403639664554815036e-01,2.071379890667922385e+00,-1.226228883150043858e+00,3.982534228092443063e-01,2.211226907034044564e-02,2.115341714333691225e+00,-3.631601443444897548e+00,-3.382769109745301428e+00,-4.390365579910604943e+00,-2.356288707526504655e+00,-2.610479299061583269e+00,-4.527179665678248810e+00,4.915640336725560777e-01,7.188540882602393323e-01,2.459684544132629380e+00,7.512118677766682850e+00,7.826067220211117004e+00,3.051956250053951436e+00,-6.246939664989152874e-01,-1.356660529201581422e+00,-2.188488913261461999e+00,2.160632608629229623e-01,7.434058562022229921e-01,1.013545827255452947e+00,9.023136368747959324e-01,6.108921597570151629e-01,2.067957863063464519e+00,4.529054099204306572e-01,1.734121499984362602e+00,1.052379319165672872e-01,3.184156289152513808e-01,3.765934875330155529e-02,-4.839891022915637775e-02,5.636600553163144678e-01,5.848669520218988671e-01,-7.676016694165160859e-01,-2.102560338480873536e+00,-2.603080000977289754e-01,6.919731844943259880e-01,1.788344084703545001e+00,3.989289400176311839e-01,7.298968920421676776e-01,-4.848399347652781466e-01,1.110355793916681044e+00,4.792357101605290715e-01,-1.174940715106703504e+00,-2.180861141285609150e+00,4.597316593042932720e-01,8.455852145071642845e-01,3.810178012907427525e-01,4.305274360725781513e-01
