-8.443728653187776434e-01,7.455693612888526500e-01,-1.051687532868309738e+00,3.862457186737618953e-01,-1.065118617077942087e+00,-2.712869044525397233e-01,-1.743312891467034609e+00,1.075476534566263132e+00,1.356621418426305459e+00,6.460306383035364641e-01,-1.032048880887857845e+00,1.700470947228539309e+00,-1.334132547972921135e+00,1.525849013254263475e+00,-2.426129415231802200e-01,1.871110298639528491e+00,-1.065463300383510559e+00,-7.917834923936800662e-01,-1.321356366519523151e+00,5.225364837486961012e-01,3.093808393637477172e-01,1.124310874477720129e-01,-1.278781054797052841e+00,-1.208908562320484048e+00,4.644627103424029402e-01,4.656645694654154566e-01,1.661084812181199188e+00,1.386459731584281485e+00,-2.231109100556432911e-01,1.021018576920479592e+00,-5.178570179249386563e-02,9.628393566496695755e-01,2.933611721281526585e-01,6.487765455897611666e-01,4.614239312793229630e-01,4.129644418500793557e-01,4.504791193796794935e-01,-3.356008964867056021e-01,3.370445513315871167e-01,1.493577127296819240e+00,-3.477950287479473768e-01,3.287782375262046086e-01,4.535820359894364717e-01,1.227527657163537844e+00,1.269157514951535504e+00,-3.757788647675788241e-01,1.086835344468173731e-01,-1.290617130350517616e+00,1.292541946797085339e+00,2.668697658743269252e-01,-2.883179503438656477e-01,-1.875828471728788471e-01,2.393839241174877952e-01,-1.175623020638748573e+00,1.638996008014332317e-01,1.165072476058600648e-01,-6.236612683917861499e-01,-4.372035452648738163e-01,1.890354808716957630e-02,7.782191667852185191e-01,4.882376946672571383e-01,-1.345016837359318318e+00,1.222989695807770838e+00,7.005705927159684432e-01,-8.677106674936865272e-01,-7.837456255265676797e-01,-2.105687475463152936e+00,-7.008697238935900353e-01,-1.383814175197731755e+00,7.417320465199979118e-01,1.045138909690757734e+00,-1.768909420927948117e+00,-6.397231630224539112e-01,7.899401298121296877e-01,-1.577223037221905586e-02,1.012113840337137693e+00,4.344355206946745596e-01,3.936146097439527924e-01,6.445137272087683167e-01,4.456954246001260667e-01,-2.652561020781086243e-01,1.503082249085221367e+00,6.709470448760063155e-01,-2.904201980013754736e-01,5.425050632929959704e-01,-7.579077761783132861e-01,3.673585114557445519e-01,9.117555709171450973e-01,-7.778936130992324394e-01,1.186091563688367545e+00,-1.925743668678979947e+00,1.542789410021782048e-01,6.152330989055803112e-01,7.676837851684568115e-01,-2.208460854817646535e-01,-1.242737965317794568e+00,-1.337014824458395257e+00,-2.143977030830221064e+00,-5.221201187007887823e-01,1.034228717744912096e+00,3.345839866706586396e-01,1.589728935011699651e+00,1.236141411780095067e+00,1.312274736917687257e+00,2.025036981787490475e+00,1.642485751832721830e-01,-1.597117413492451232e-01,-8.673005464233926043e-01,1.419430062222466704e+00,1.071755391284875264e-01,3.437070819895811646e-01,3.386780699230221847e-01,9.989134566867199361e-01,1.122362166654541138e+00,1.070722511419382572e+00,3.758687770503494896e-01,-8.318093648947485486e-01,9.481403518663309438e-01,2.360268529243380320e-01,-1.482691802405929904e+00,-5.840025843734765187e-01,-1.123179001611382510e+00,-8.295904805382837699e-01,-1.811745036759239147e+00,-4.050716225131001380e-01,-1.906673380055410316e+00,-1.731852797872686367e-01,5.086486058459809695e-02,2.592051607886325382e-01,9.458553342835078759e-01,1.591782548474651282e+00,7.113028652713891953e-01,2.067415196688108914e+00,1.792737869272474249e+00,-2.987987477485537502e-01,1.473928050471964513e+00,1.123761255295001371e+00,-4.683448274903500436e-02,1.135507116635366076e+00,4.116799918220025167e-02,-1.385800815660770402e+00,6.005097833540409269e-01,2.198495728997918341e+00,6.036573893805685653e-01,7.670759173525085739e-01,-1.131674548985195816e+00,-3.220520001168064028e-01,-1.995639505263996583e+00,-1.349654392640342593e-01,-6.596550627245727494e-01,-7.724585411262369083e-01,2.290732071212794874e-01,-7.416040959197921500e-01,1.400145778590037970e+00,-9.560542567338817799e-01,-1.224217916859608596e-01,-2.944263201639502059e-01,1.630299683017964352e+00,6.489340190109188500e-01,2.356196184592661336e+00,2.428313224590947339e+00,1.212184363383569830e+00,7.939563874440664915e-01,6.236611513910930160e-01,-7.947722597698551050e-01,2.203650875048309143e-01,-1.392677108835201016e+00,-1.015270642500723658e-01,-1.365755574481666068e+00,1.891957825737445642e+00,6.966204299541278733e-01,4.564878170964298820e-01,-4.149846461907562567e-01,-9.337651301788795211e-01,-2.652852315161131180e+00,-2.321875945592102586e-01,-5.597668505320593235e-01,1.191605130837807280e+00,-9.817991041533963292e-01,-1.539258007838044451e+00,-1.176243729337735466e+00,-6.547626502496207979e-02,1.884633690173949105e-01,3.545653378297375924e-01,-1.587487216946502355e-01,-2.076539432885552428e-01,-5.877260261576592315e-01,5.191494833166747647e-01,1.906513765161803875e-01,1.380399327485568595e+00,1.043536854035086670e+00,2.586058731578896985e+00,4.860326432028133081e-01,-2.409495665307796131e+00,4.660576682026675299e-01,-1.002646534751016283e+00,1.574079788397768354e-02,-2.131004279696766257e-01,-1.390106655636696997e+00,-1.216615458325407184e+00,-1.516643547960039584e-01,-6.240183369237477518e-01,1.426055215990542857e+00,1.562666614294064171e+00,-3.854209769970231014e-01,9.372140296788490643e-02,-7.764933695082948395e-01,3.904178152149961334e-01,2.301928736073283188e-01,-6.484338098012419893e-01,-3.343988666808504484e-01,-1.096256793916832242e-02,2.810843366278248934e-01,-1.029600837666878155e+00,-5.920910065522536764e-02,1.039907938239590823e+00,9.681222050099217435e-01,2.213742170100646334e+00,1.923048161853135207e+00,1.388855860425251443e+00,-6.961477783932007446e-01,-8.363505315322536937e-01,4.531069090369294616e-01,-1.558876767130717544e+00,4.230225172573130049e-02,1.285455272490854395e-01,-7.163999348929093181e-01,1.034341964873690012e+00,-8.857250806488090600e-01,-7.018527229621476238e-01,-5.377990704351361950e-01,-1.061316490148779268e+00,1.344929780565993660e+00,-2.934285773244718065e-01,3.278979934771141802e-01,2.460681850151988037e+00,6.669358959893141314e-01,-5.491534933851540679e-01,-7.923059788560201655e-01,5.538218338607049374e-01,-2.610357064117888037e-01,-5.484903117521682248e-01,-4.220865506480430684e-01,7.771284554017402479e-01,3.190499707210229463e+00,1.890397570066690180e+00,1.589038222130364053e+00,2.415832217828564943e+00,6.823853590620784226e-01,-6.133010096830368019e-01,2.675237577489354646e+00,-4.502037028735318414e-01,-1.824925728794837942e+00,1.501000547209197789e-01,7.865236575628523630e-01,-7.047973731967491738e-03,-2.866289861449457632e+00,1.127209295990577953e+00,-1.583237457464338638e+00,1.053471248383707648e+00,1.336805050163563768e+00,1.866487705581758805e+00,2.092158190225752445e+00,4.353273560659644548e-01,2.027883136401503528e+00,-1.741002816114777030e+00,-1.293398489104314431e+00,-2.665280938176166625e+00,-3.247658869041158525e+00,-2.702519037507419952e+00,3.324253439131678173e-02,1.221169677485215210e+00,1.959123646211286429e+00,2.629032645807235280e+00,2.839617605404486156e+00,1.440038753225350021e+00,-9.336384371897519241e-01,3.627612538621410865e-01,7.205388583134240965e-02,-1.724522737068524103e+00,2.893075391068251623e-01,-4.901708997646437305e-01,6.947951237308733763e-01,4.710910977790737642e-01,-8.130463054993227745e-01,7.069936825726613749e-01,1.376977387861120006e+00,2.382670944881437158e+00,3.312532773511341677e+00,2.210507971495054846e+00,5.789890265877167125e-02,1.602388351728492921e+00,-9.604152328757604717e-01,-2.478865639420940958e+00,-4.551570823605045391e+00,-1.699601271607183106e+00,-6.776432503165135124e-01,-2.729637661867317933e-01,-3.396906306244936169e-01,2.470351127823523285e+00,2.678168119724017249e+00,1.859423202723922364e+00,5.995870655852472142e-01,3.208510338046606791e-01,1.136026479691690516e-01,-8.007934210600993197e-01,2.083318434980557521e-01,-2.913836987046077021e-02,7.163507493190417463e-01,7.373755773943428959e-01,-3.234511595655595873e-01,6.977251931801448093e-01,6.051750853059999491e-01,6.182040793034837556e-01,4.278166763158272046e-01,1.404827107962071775e+00,1.257079016858195120e+00,4.598339887918683755e-01,8.398362595894122151e-01,-7.280387533649788079e-01,-9.509463660111044936e-01,-1.205312201512594994e+00,-1.139288431934310397e+00,8.000373825635492819e-01,9.548549767563730972e-01,2.459978237078666030e+00,1.435286379999995088e+00,2.827838045097494479e+00,-1.735403704246714016e-02,1.919910061019419079e+00,1.206843219359215791e+00,9.887167636141840354e-01,1.378310470055489345e+00,-7.195277209029472543e-01,-9.270151855058468282e-01,-3.118888249523755207e-01,-1.246500571350606240e-01,-6.740007867621314874e-01,-1.122305557319863256e+00,3.479978874707401887e-02,5.087497851559504847e-01,1.175911804772861835e+00,1.824823308424076362e+00,1.147768761963155804e+00,-3.518343190672930665e-01,-1.263328213986966375e+00,-1.812250503970402438e+00,2.639412308445916455e-01,-1.364093365464453589e+00,-2.093292657636686427e-01,-1.333947052914410403e+00,1.242723667407914734e+00,-1.145844452615691622e-01,9.032417006188168118e-01,1.712220032854642415e+00,1.632760529400119953e+00,1.740287492040487161e+00,5.849216322560445852e-02,-5.783288793603451605e-01,2.532028647376443953e+00,-3.438720965069937407e-01,-2.060585571232007862e-01,2.524688524757210839e+00,8.932228785800863102e-01,3.089820637832947914e-01,-6.791873267004897574e-01,2.228751537328858223e+00,2.495730506231470969e+00,6.508462426767210873e-01,-9.694104331956861567e-03,-7.624844863162335562e-01,-2.797909149315389588e-01,2.394124377888089961e-01,-5.179064952423582113e-01,2.708141524267035916e-01,1.757576085190391879e+00,-1.599969091272127608e+00,-5.096984484413854544e-01,-6.390050213901544707e-01,3.701827259811783510e-01,-5.738651771607993224e-01,6.506805683687877373e-01,7.822844091208651651e-01,-1.139490373086624153e+00,-2.402992412206288009e+00,-1.042884631674726670e+00,-2.156864508898342248e+00,7.224219292610608578e-01,6.520477411957160685e-01,1.478215150289957092e-01,3.637895416319184561e-01,1.292297859907987512e+00,-1.182596068543867729e-01,5.208600529557224496e-02,-1.028531369509944282e+00,3.701912989814355459e-01,-8.639662663741523030e-01,-7.406602270270804533e-01,1.149648039219101747e+00,-2.103404901466383592e-01,1.505961141905779677e+00,-9.303211910864183087e-01,8.941743337008394299e-01,1.241954756224433520e+00,-2.138160350507130325e-01,-8.466509322693854811e-03,-2.126536369244252933e-02,1.125392494900988805e+00,5.939687165290566950e-01,1.041705277312317789e-02,-6.315073801740861414e-01,8.032940852168395096e-02,-4.590011322516900916e-01,-7.455450309283285781e-01,-4.114366679207448474e-01,-1.227347518102901214e+00,1.035819875173404903e+00,4.499719408037954060e-02,-1.739313242815786920e+00,-4.235877076649805298e-03,1.892531212132431417e-01,-5.417197768438988259e-01,7.966618291809567376e-01,1.414970881100410693e+00,-3.017655611555250528e-01,1.923651877651526787e+00,2.190153574804439562e-01,6.966401846874977766e-01,7.476630396533323619e-01,3.716710422552052528e-01,1.171082390333764156e+00,1.660285596094827953e+00,-9.566459809800961778e-02,7.875062726072844244e-02,5.422279877156230832e-01,-5.805356219581625510e-01,-1.190567575877876427e+00,1.170989042808123354e-01,-2.600674011393539486e-01,-1.004820295690099785e+00,-1.145416300109366015e+00,6.320925574440839911e-01,-2.416736005741470031e-02,-3.117215786520043802e-02,-9.517820440536004512e-01,-5.726817774846719722e-01,-6.692786127682263109e-01,-1.562454162202491670e+00,6.151622780941325974e-01,1.783379601946124104e+00,4.407194030977991117e-01,3.018598736523964710e-01,5.675306188480194747e-01,-4.869328012330897404e-01,1.268739972130550120e+00,3.280545875426715829e-01,1.194798146549225226e+00,2.394779968333516695e+00,1.715972618191016430e+00,4.402986293165033871e+00,4.333532645969745190e+00,1.459574195951038655e+00,4.646142427388933460e-01,1.940790865697862022e-01,-3.581267285100835918e-01,2.038982429668939333e-01,-9.166567991192501319e-01,-6.069903921811268255e-01,-4.081393841728222505e-01,-4.298091630241565042e-01,-1.926881519542095855e+00,-9.915927845657193096e-01,1.146072644032642085e+00,-3.364568162927939476e-01,-8.817217340598897390e-01,1.846479713265104516e-01,-6.383284221532519176e-01,-7.415512808455158034e-01,8.628770325305152866e-01,-1.456981232216959299e+00,-1.030925073597255714e+00,-1.758949021687346292e-01,9.485537796316535486e-01,-3.747701289976054090e-02,4.712056565086382154e-01,8.911786452703963635e-01,7.869793951734950221e-01,2.046157551979594480e+00,2.282872143457601144e+00,3.302970155301541588e+00,3.168589073285695168e+00,3.871905502013230027e+00,1.015808813775681774e+00,2.566291248016666290e-02,-4.589866493542352766e-01,-1.067170798463646264e+00,-9.283657132089667696e-02,-2.614675584534626118e+00,-4.980316717792789838e-01,1.095093848947521042e+00,1.656998124261666705e+00,9.534187029392258150e-01,-2.216068663827981677e-02,2.227924275821857591e+00,-2.646320947836014112e-02,7.773647501063167820e-01,1.920468499254953221e+00,-1.285812864387246623e+00,9.182941774010087155e-01,-9.627420805433055673e-01,2.740009487099341889e-01,1.754343524359801343e+00,-1.541702789284802977e+00,7.441987523063382515e-01,1.453537782396026268e+00,7.888257298979973742e-01,1.200778815116867237e+00,1.120657958640740581e+00,1.734726458118113213e+00,2.920628550019785941e+00,6.420260037643223949e-01,1.684705964745912832e+00,4.770890656974870470e-01,-1.320161638339155674e+00,2.020635150339953889e-01,-3.280306717757631163e-01,-1.919850262553107756e+00,-1.100837718861390924e+00,-1.887511355159365412e+00,5.318516751015293920e-02,1.759194530783137811e+00,-8.545507363720292737e-01,9.648280275678210449e-01,5.853713774485111987e-01,1.160420071818979659e+00,-2.949378974895663363e-01,1.240071403816255025e+00,-9.423880044824565205e-01,4.990109273484988339e-01,-5.690413771357166750e-01,7.785938885896611650e-01,1.213362211397822410e+00,-7.924451606195678788e-02,2.198286933198606352e+00,-2.796631967540278429e-01,-1.031991011397375591e+00,6.485827914963322727e-02,1.456921688534542847e+00,2.034572636704650925e-02,-7.951472720167392094e-02,-1.281401500469864230e+00,1.594176818507590798e-01,4.961106877958592065e-01,-9.214420445707903473e-02,1.045962862933959681e+00,1.521275153116423071e-03,1.661593495187327907e+00,-5.818850361734435872e-02,-1.254895527920258103e-01,1.177799268094164437e-01,6.100701122079336125e-01,-1.093136935598276738e+00,3.704894867624115018e-01,-1.917852616155584222e-01,1.234042848320484831e+00,1.790073003646039274e+00,4.944720146558330143e-01,-4.662110463860057452e-01,7.837891066810535046e-01,-5.320759502440720601e-01,-9.097668396104925670e-02,1.191998930588748923e-01,-8.921167028332064319e-01,-8.021589653161862454e-01,2.841898909894374770e-01,-9.952523607682729478e-01,-2.330714099286023411e-01,4.925893654079052664e-01,-7.639658593771981865e-01,1.201384121349510892e+00,-6.972332717837926852e-01,9.797239703666101029e-02,3.370605759847105087e-01,1.975820550870197367e+00,2.094370170409278753e-01,-1.187968981160354209e+00,-4.268972125956501107e-01,-2.710304295788252271e-01,1.046149459139955162e+00,-1.255272074545014549e+00,6.084126697972349618e-01,-1.014984555954060730e-01,5.882347502621072532e-01,1.074817943997773861e+00,1.352419188931334171e+00,-2.845342234951676597e-01,-1.072291924147002612e-01,4.858422199184317947e-01,5.805069616269726840e-01,-2.045739126474142855e-01,1.239710726526980888e+00,1.743332159948141891e-01,2.752528625380690208e-01,3.767822614209882515e-01,1.016284422152316180e+00,-1.225183832666207229e+00,3.695572000117007261e-01,-4.659096202175984636e-01,7.646860188851700713e-01,1.152606448151263452e+00,-4.672530725589331135e-01,2.002376203603645433e+00,5.590384123759118973e-01,9.699467045907502749e-01,1.867639125975415482e+00,4.950470313953890811e-01,1.620582180329555477e+00,1.168267039065635560e+00,2.545155078282773875e+00,1.688220117157018807e+00,-7.835676396139277244e-01,1.261535953023148193e-01,-9.321851668918812450e-01,-4.144424233254969114e-01,4.880856882637908400e-01,4.881584569506398630e-01,-6.760224878827982842e-01,5.074177379384142705e-01,7.482170429291659652e-02,-6.056017317715431947e-01,-1.087145309704442786e+00,-1.421401935170159281e-01,1.136582601488967059e+00,7.947480945060956259e-01,-1.027077228857099733e+00,4.332829650113119435e-02,1.039129163331550032e+00,1.706304592099415984e+00,-1.320010614859981890e-01,2.564312113572732588e-01,5.875811117441261944e-01,-1.551627055331217919e+00,1.219079167646938133e+00,-3.487775503190874288e-02,-8.385596754098423311e-01,6.684974811206131351e-01,-9.874707167449303657e-01,-1.248636457578649495e+00,5.586246540538852834e-01,1.121306342541937173e+00,-1.856316336143545298e-01,-6.414915959259624989e-01,9.554082069245425357e-01,-1.431200925612246544e-01,-7.060573493668605982e-01,-2.279898041580117329e-01,-4.617355095698347789e-01,-6.649155520807292774e-01,1.601405230539837410e+00,6.952466343648807667e-01,-4.491490822190495336e-01,1.563627748171211973e+00,-3.363565384286910671e-03,6.542955257312220718e-01,4.281422828846407347e-01,1.186726285730959951e+00,1.562017801678258211e+00,2.443133094729077026e+00,6.899322514400767492e-01,1.530718966459446495e+00,-7.975778842641144672e-01,1.090474692062508161e-01,9.793577746338714141e-01,1.400435676896515158e+00,1.537569852640841561e-01,-1.012220431793749764e+00,-2.745557537984411045e-01,-1.720917539343537195e-01,-1.492833076934897973e-01,-9.199412434002993133e-02,3.773505301695204150e-01,-3.704400804693622762e-01,1.827632377717489431e+00,-2.004145703472163531e-01,7.048345423076961269e-02,1.130020199683953397e+00,-1.742781400495500455e+00,6.187544971614270528e-01,1.769632497645292846e+00,1.894662945275190857e+00,-1.316099776430172286e+00,-7.543223096366817870e-01,1.068960320278506737e+00,6.959332656487069446e-01,-8.975411969107964516e-02,7.027021797659965818e-01,1.177416204134729361e+00,4.049902875012788561e-01,-8.503911171462327223e-01,1.452123844632812411e+00,-7.198788470789933003e-01,5.281639920321027359e-01,1.046933146898314515e+00,9.417728523034081256e-01,5.720489466575920945e-01,5.135658351650869147e-01,-2.909356834898526589e-01,1.234763445075229615e+00,-1.700466389831062575e+00,2.584732329271332771e-02,-1.006917717233092535e+00,-2.533522847913843856e-01,-1.574599219501235381e-01,-2.629327793895369636e-01,2.416264238109293132e-03,-9.526519178971982749e-01,-4.503312667497273436e-01,1.648590627886125537e+00,-3.208268334003281930e-01,-4.665709127064942563e-01,7.773661402142302557e-02,-1.289802975780326710e-01,1.497155146719629792e+00,-2.237292667355780529e-01,6.641429385816000064e-01,6.025686517968694700e-01,-1.304687221173923106e+00,-1.320782962507695446e+00,5.255933459813388886e-01,4.072342764060870590e-01,3.828410798436831519e-01,-2.339150193576065018e-01,9.491684901314959566e-01,-6.301566356720776918e-01,2.418255298465298020e-01,-1.214704621059463641e+00,1.442189419288782970e+00,6.120461448042165964e-01,7.421140793927817336e-01,-2.706490220963299054e-01,7.184602540587401442e-01,1.308035085750348214e+00,1.929543580550483264e-02,2.267329658833619366e+00,-7.269647483514186659e-01,-1.516272245306148070e-01,-5.103843204257032529e-01,1.140663499038813589e+00,-6.277361170083390896e-01,-1.144681687751852195e+00,1.131789909513639891e+00,1.621113531071793346e-01,-6.193580177236412791e-03,8.896525487025742918e-02,-1.567984956144061748e-01,-2.369009948550434771e-02,1.097740455662262304e+00,1.326594844300115428e+00,2.406468261984941459e-01,-1.030515067050147948e+00,6.785797850747363746e-01,4.510323156051140869e-01,7.699943614913482559e-01,5.880371481788907451e-01,-9.449901296218530256e-01,-1.574033850959846381e+00,1.518991564714512910e+00,1.571573492559983798e+00,-7.519244789584431654e-01,1.248810343365617248e+00,-1.296154275268251443e-01,1.151416084066910539e+00,9.413680576463602234e-01,-3.372402340548522615e-01,6.963684679072994488e-01,1.145480630935930888e+00,-3.021763428947735891e-02,-1.288917550915655852e+00,5.220351409372825380e-01,3.525535802382029904e-01,8.086305833087515937e-01,1.307290865380000555e-01,-5.920390903218638451e-02,9.323829388092990111e-01
-3.289501114772051538e-01,-9.148794233910538809e-01,-2.961653876132392949e-01,-2.417180028436076711e-01,5.981221828468162860e-01,5.390910714483480026e-01,1.532066953890686811e+00,-1.475542667502143024e+00,1.326424188975902974e+00,-1.644026959813269295e+00,-4.279171332756988022e-01,9.030665248636318143e-01,-9.538859783617509303e-02,-5.602996869561551740e-01,-7.110978891836573501e-01,-2.039738930856137333e+00,-5.136127857525436546e-01,2.742477071908025477e-01,1.533196333451842586e+00,-4.075601732035339930e-01,5.183293758909340854e-01,1.534383842970132861e+00,3.909977025255125804e-01,1.955260666741725217e-01,2.479689652805068534e-01,7.361617911419313653e-01,-1.342643978305838148e+00,2.320713344301801595e-01,-4.875934770169644272e-01,6.698763162257082016e-01,1.470379992099484501e-01,-3.701136003103381866e-01,8.366772814206394626e-01,-7.468405357665537370e-01,6.911272733481815811e-01,-1.380659015845234538e+00,1.261372941233110945e+00,6.104895471646666349e-01,5.414127246166898777e-01,-1.105443526594228620e+00,4.230712642007661284e-01,8.150880263906725709e-01,7.045711541765986574e-01,-1.425743168134624206e+00,-2.042127984355165959e-01,-6.705985619650072227e-01,-4.887572058589074175e-01,-5.060896110330259656e-01,1.481002223981018551e+00,-4.924567722318443641e-01,-6.679921112055573484e-01,-1.728898947299150335e-01,9.381213019623574345e-01,1.600450244377501940e+00,1.003090263124324588e+00,7.767951730985700465e-01,1.207100413943553940e+00,-1.117319929093297359e+00,-3.798505180568088058e-01,6.610283870501068026e-01,-3.942025556879797943e-01,-9.526968200621511729e-01,-3.939712448061976485e-02,7.125247675396242375e-01,-6.798900776607729179e-01,7.066862825601565312e-01,-1.253886572948972100e+00,-1.494333213108653136e-01,2.386667799819836677e+00,-1.711332612596037972e+00,4.174217910288967603e-01,5.263790261585780117e-01,-6.727644191066646240e-01,-7.492511677980998597e-01,-1.863424114869097314e+00,-3.639503132168738220e-01,2.951311026869831156e-01,-1.840578152066264739e+00,-1.791539712174724519e-01,-6.448959956197541921e-01,-3.912215688377934097e-01,-9.478512954676431290e-01,6.494629373965878916e-01,-1.642583184348351599e+00,1.539264499721048063e-01,-4.529714989038933215e-01,-6.985350958989936521e-01,-1.035238096753703818e+00,8.187788744864042956e-01,1.293590502403760167e+00,-2.042568494319255967e-01,-8.325638790403161460e-01,-9.810074010531188993e-01,-4.215929988504608650e-01,-7.631622982494952467e-02,2.108310774839000923e-01,-1.109785265152432032e+00,-1.046126876224091173e+00,-2.826009591086585004e+00,-1.650607750395510553e+00,-1.503153184588721603e+00,-7.704663991121062372e-01,-6.306712756595161951e-01,-7.570236628516568977e-01,-6.869790405129546640e-01,1.703849676021998438e-01,-1.417617722979578110e+00,-5.986668748096216075e-02,-1.369710335555214042e+00,1.024626267083903253e+00,9.370202045669145940e-01,2.474966939932644050e-01,6.126680948426216355e-01,-2.699422297768988011e-01,-1.005987727061388171e+00,4.885732036426553848e-01,-1.545930420360130952e-01,3.635789748337930893e-01,-4.140149395926706610e-01,-6.285770179366361177e-01,2.485076656275991558e-01,-6.317234888311415997e-01,-1.419223250659762625e+00,-1.144585705291401689e+00,-3.396554833864259271e-01,-1.015276464941667012e+00,-9.867155357385706260e-01,-1.360215329014170083e+00,-7.656352586478450961e-01,-3.107949941433702512e-01,-1.555659719322407264e-01,-2.708703237602386515e+00,-2.478596152795096597e+00,-2.539685147400196463e+00,-2.768521080609616991e+00,-7.884882130509714981e-01,-1.358188577868383096e+00,1.484809480660023162e+00,1.521116004790684928e-01,-5.675711772868000660e-01,2.574092482491454614e-01,-5.172368558225705348e-02,1.351349433787865983e+00,-6.586105937492543472e-01,1.310423039504054366e+00,-8.542487435660126582e-01,-9.544208549972986733e-01,-8.230012861897866294e-01,-1.371777603233826026e+00,-6.632366279601985548e-01,-1.467752055028515690e+00,1.858155478900364033e+00,-8.519695391937134321e-01,-1.285634644768005375e+00,-5.886824346467011138e-01,-8.224799629833038361e-01,9.928814074020407832e-01,1.233061123686259863e-01,-1.062841284787244822e+00,9.952338504612130432e-01,1.147587075689762814e+00,-1.176964917415217915e+00,1.633469294328725230e+00,1.202058304052373350e+00,-1.600850555215492577e+00,-7.756806177097907984e-02,3.629847124272066461e-01,-9.562235089265544996e-01,-9.341092582077659134e-01,-1.160107257307436246e+00,3.545163236971914933e-01,-1.720084298534575729e-01,-1.094395755887717314e+00,-1.005054762222922005e+00,-2.485112479272082897e+00,-1.146714667755589945e+00,-1.885472036400988038e+00,-1.192982782088076732e+00,-1.187993915792928235e+00,-6.957671634224835699e-01,-6.799014969904786099e-02,-1.135966950150781307e-01,3.158223179773025913e-01,2.068783986662115770e-01,-1.033399903711074375e+00,1.180116124956248624e+00,-4.237886401436172235e-01,1.219176037615215202e+00,8.431109360035677902e-01,2.508126754797604274e+00,1.009517795014343911e+00,2.189776406461603653e+00,2.550044252222984031e+00,9.479678389284910134e-01,1.794198591962386846e+00,6.806358904971060442e-01,1.593290621969829290e+00,-1.282636175853452132e+00,-2.759774637808414255e-01,6.360384349046714902e-01,-2.517007395360441047e-01,-1.014163992045475915e+00,-1.804359023662234218e+00,-1.421061170131042495e+00,-1.800811393048857012e-01,5.375835823813502889e-01,1.520613155108161862e+00,-5.835639168738822047e-01,1.566142457532317067e+00,-3.973875945944895793e-01,5.417441340810942307e-01,-8.920544280639707280e-01,1.484866402241110106e-01,1.377186323351241137e+00,3.614640241273562871e-01,4.526301617514271736e-01,1.775529520190819444e-01,1.501080387121811688e+00,1.499779906146527342e+00,1.146105816383699461e+00,2.979562244349381217e+00,3.402738183272935313e-01,2.521518317832028844e-01,-1.906823789703585847e-01,1.867333450409473516e-01,-3.277207311408019685e-01,6.939811320857075527e-01,6.178560055606012735e-01,-4.243236176896018619e-01,-7.504030704689403919e-01,-2.884174289427149374e-01,-5.777819892722043660e-01,-6.039165634820670148e-01,6.842007139263392990e-01,-1.024955595741848358e+00,-8.324750440594684830e-01,8.482833246056745158e-02,-6.499127519712656342e-01,-6.788846554812721923e-01,1.797203994491979040e-01,4.226954264930761207e-01,-1.403423259293065550e+00,9.193318203313188830e-01,7.975178820780639555e-01,2.055930060644968638e+00,-1.098506756310576454e-01,7.327017380401525948e-01,3.071257897174212825e+00,3.877617152723281890e+00,4.063003284966317352e+00,-1.079472211139212101e+00,1.209379523864071437e+00,-5.356287025569088645e-01,-1.633343776881653220e+00,-1.817977291045700605e+00,-1.689150470257213543e+00,1.060483452630624157e+00,-9.842841011374155180e-02,-1.705458627476760247e+00,-1.597250929386757834e+00,1.005045698693438405e+00,4.204800127951431876e-01,6.405566665550569416e-01,6.740321096059330719e-01,3.744056025162689205e-01,8.574034591611364720e-01,-1.130263945516547297e+00,-7.178096519016353705e-01,7.805643328857868601e-01,1.347173763095355081e+00,9.246702412040034291e-01,1.059189583529918099e+00,1.590172559981550160e+00,4.117909480614449613e+00,2.202976608109666223e+00,9.794721601230125252e-01,3.011029424815583777e+00,1.788645077994568844e+00,-5.183489765226018120e-01,1.403326281645530083e+00,-1.068301532118123953e+00,-8.048484060839545817e-01,-5.370660105389961636e-01,1.154595392158294320e+00,-3.727352585699451604e-01,-1.297798026794358517e+00,9.151386963945573605e-02,1.127966958298766587e+00,-1.060174310640638273e+00,-4.605876275518099288e-04,3.001608106066140813e+00,1.142981082785730962e+00,8.487676663794119225e-01,4.066467059339074624e-02,6.388768508242898469e-04,-1.947266333113863546e+00,-2.446846540825756033e+00,-4.809462848059048445e-01,-9.306961693381405887e-01,8.948694974009160363e-01,6.325533012566674218e-01,2.050033491889732939e+00,9.323171506196091807e-01,3.836693995981208527e+00,7.977604504627383575e-01,3.038528889712151404e+00,1.063419634983963524e+00,1.390379729317506419e+00,5.795717016346038086e-01,-2.390181173488821198e+00,1.393342239557213702e-01,5.625606093548004560e-01,2.361033467087647886e-01,8.703227918018502374e-02,-6.497163996627455251e-01,-1.811905895181800674e-01,-9.903231756520322060e-01,-9.281277414487616451e-01,-1.199855753700914462e+00,-1.185517061629211888e+00,-1.837179261535190733e+00,-8.551444249683342047e-01,-3.711370240036059531e+00,-3.243656956729913610e+00,-4.164406163122111870e+00,-7.208249354592815017e+00,-6.143595505822026404e+00,-4.621435173526104556e+00,-7.461271296660147101e+00,-3.936865471057978461e+00,-4.422100188223507367e+00,-3.042994132631992699e+00,-3.685823899610636722e+00,2.490057439265906392e-01,7.051674034736965524e-01,1.645122743597295933e+00,-5.341074691826664944e-01,-4.979360148661158281e-01,1.302353803316708802e+00,-6.834665425582299170e-01,9.658717661143558786e-01,1.161198285207525327e+00,-1.522795271597909839e-01,-1.542252499528464771e+00,1.674151175804620140e+00,-8.262403640833666796e-02,1.293263231256390311e+00,1.548357789747225821e+00,-5.848461201545720467e-01,1.155313481781472085e+00,-4.873223501885841080e-01,-1.647094939102913047e+00,-2.277154165246019435e+00,-5.662626936759566298e+00,-7.582761508423178753e+00,-7.777461291587259851e+00,-3.625370731873764019e+00,-5.926140173350805895e+00,-5.467744335903950592e+00,-4.937226550905383426e+00,-3.913403753330051416e+00,-1.600390806242233177e+00,-3.982638777325230861e-01,5.157275077014638054e-01,-1.527252404939082542e+00,-5.949408049584131719e-01,-1.398099165649085984e+00,-8.670818420490915557e-01,-2.348062395869787364e-02,1.202519050548413793e+00,1.504501712850852213e+00,6.336188697434698147e-01,-9.062542086434061117e-01,1.557518368015758936e-01,-1.233427651944834363e-01,8.278093037549032474e-01,1.091432202493297782e-01,1.129447287028420233e+00,2.709094031257235358e-01,-3.111279077941930815e-01,-1.200660279595905100e-01,9.681503682562765389e-01,-1.150313195481931006e+00,-5.182462324865869441e+00,-5.638960668336538085e+00,-4.702460367338418656e+00,-3.559636384391130726e+00,-5.627468790102332363e+00,-1.473397806192791926e+00,-1.437242486536791652e+00,-5.177967889600809670e-01,1.116530287954248690e+00,-4.231871102782799876e-01,2.280313439661208474e-01,-1.397929993328059561e+00,-1.325394358226322233e-01,2.563822396539231718e+00,2.827973804053305392e-03,-9.603536391552182361e-03,-1.072181198974810235e+00,8.810365596572504732e-01,9.633999948053664220e-01,1.972299640653310204e+00,-1.166582403473119145e+00,1.875591201160805133e+00,-9.401798442862766558e-01,3.100426081938779943e-02,-9.094648633905557666e-01,-7.547853123749411752e-01,1.448238953143609897e-01,2.706761176577185957e+00,-2.040188968591120755e+00,-4.244326300852689471e+00,-5.212797535328812515e+00,-2.400673489267120431e+00,-6.166674381092461132e+00,-1.264147504163792846e+00,-1.523229272713981119e+00,-2.832716412481253165e-01,-1.266786421343442326e+00,-2.518324547815565251e-01,-9.415196345560113977e-01,8.052475326451691284e-01,-9.270653023727394304e-01,7.768014246768316644e-01,1.934740454667751783e-02,-1.524845408687574677e+00,-1.651993194146542665e+00,-3.339638961948881990e-01,2.835369774353276306e-01,1.004361185318320748e+00,-7.883735123797658284e-01,1.600872832107046451e+00,-1.943210315477690020e-01,-7.821693509993863369e-01,5.337913378043703805e-01,1.602863125753443141e-01,-6.927532421424610343e-01,1.235777963698506232e+00,-3.347743079548443079e-01,-5.816939208693978625e-01,-2.042823983766415719e+00,-5.170640448745642992e+00,-1.809341381655086956e+00,-1.318356152286831229e+00,-4.293897518454916074e-01,6.866845344980960775e-01,-6.265599484956450027e-01,-7.053001627105967009e-01,1.053447226523094082e+00,-9.725396095761360549e-01,-5.749293800199536952e-02,-4.950000299104996837e-01,2.407007394938981193e+00,-1.841919382449624054e+00,-1.122884776028415521e+00,-9.216993929830249455e-01,-7.922919187305295097e-01,-1.174699824728240749e+00,-2.575947510442439525e-01,4.957421029481449137e-01,-6.246677204667707706e-01,-4.638382603238754287e-01,-1.571353622086480994e+00,-9.648800722680329622e-01,-6.523170482626482192e-02,1.228893839948143746e-01,-2.648335177902109150e-01,-6.431697234526210227e-01,-3.441435122633117238e+00,-3.184522080620410645e+00,-1.570533031523944301e+00,-2.445864084572663355e+00,1.233363529328119074e-01,-1.375783069165017913e+00,4.430237120166071740e-01,5.557149873990505640e-01,-4.087446110251353182e-01,2.802436592735041421e-01,-1.589850904419451094e+00,-1.382522219738963276e+00,2.596722640547765026e-01,8.874947984256725819e-01,-1.614745701235828501e-01,-1.081302478147087243e+00,-2.130799258639786142e+00,2.216081041616285996e-01,-9.285740283851413590e-01,-2.675577820192900358e-01,-1.981483161163614781e+00,-7.098467473980960563e-01,1.904039432544002153e-01,1.956740524187984054e+00,1.713720972350139871e+00,1.303611544771930142e-01,5.643357367901999933e-01,1.879662518920215131e-01,-7.489617169748340464e-01,-3.101902552903612609e+00,-7.770522513497768458e-01,-2.210080356055113548e-01,8.090863928845669628e-01,-7.588610403616264932e-01,-4.463247244242435352e-01,-1.216007478892268123e+00,-7.715343958164702087e-01,1.347099456231321657e+00,-1.514570153800893326e+00,1.484103523985544071e-01,5.013549702023908372e-01,1.910112631354832891e+00,-1.584520989850693118e+00,2.140158278242687562e-01,-2.161939675228010671e+00,-1.551854117198709471e+00,-1.721141246081749898e+00,-1.877893726044446154e-01,8.418625929394611962e-01,2.121494233607119362e-01,1.967787831360497952e-01,-1.439491993192412167e+00,4.801903376340820873e-01,4.423216693032485103e-01,4.116064273420414477e-01,-3.268446697919487054e-01,-1.197341198455217137e+00,3.471414367647614463e-01,-5.111423970768160796e-01,-5.850381254952110588e-01,-7.633200167506952460e-02,2.279998602969609767e+00,-1.081907292124315134e+00,8.134121792081084878e-01,1.619368151825811841e-01,-7.257016488281130551e-01,4.075618476995290229e-01,-8.713365401595972726e-01,2.125948585568005200e-01,-4.254973418692084564e-01,1.329682954276450113e+00,8.378533862387282927e-01,-3.044790460890470229e-01,-9.397678827688779046e-01,-6.984160382867510286e-01,1.639351553432928821e+00,-5.042419794042741765e-01,2.767284984598256115e-01,1.232914617385191258e+00,2.633712213101795929e-01,5.998482009756679334e-01,6.314789820294000044e-01,3.680041475274212215e-01,-9.214446998095461583e-02,-2.568517374388959440e-01,-6.203794791051557567e-02,-3.390639683284327743e-01,-1.746771525677264236e+00,-1.002304221872151735e-01,1.291006203802234742e+00,-1.332435604869874668e+00,-3.907520293490495122e-01,-4.367833356343708839e-01,-6.615341162161013644e-01,-7.566416385708538694e-01,-1.828713914446589150e+00,1.089297633848973712e+00,-3.847259860639677398e-01,-1.481000805238884999e+00,3.182926645317757375e-01,-4.519464391320690555e-01,3.183216942638550373e-01,-1.473903526748622864e-02,1.509107335284249896e-01,-2.217537512659811250e-01,-7.632240070413665034e-01,-1.056656020169335353e+00,2.193877766395163409e+00,3.510662559813804151e-01,-1.493110494850541370e-01,9.797333515633260825e-01,-1.019872408148089632e-01,-1.492190638486302845e+00,5.383259902950944253e-01,8.267510006092082531e-01,2.342642872344218863e-01,1.162796715875413778e-01,3.645636023911646428e-01,-1.207220023925767105e+00,3.593024667173528863e-01,3.541454380087296627e-01,1.533403286086282069e+00,5.576595869217088053e-01,-8.949805646249964219e-01,-1.702153529552525857e-01,-1.468436526164254574e-01,-1.606606127145876028e+00,1.593184453187269201e+00,-4.999160472573331848e-01,1.876838683057221679e+00,6.369540351930971234e-01,-2.076436031292855589e+00,1.100532050088659231e-01,-9.429874311731394343e-01,8.588123759526392620e-01,-2.754794347554859080e+00,-2.156494619849963768e-01,2.435893464306141398e-01,1.638725568653724707e-01,5.357980909444051143e-01,1.150663599177186969e+00,1.406482455737570136e+00,-2.259762950623702693e-01,1.666256145302549840e-01,1.504352709580311920e-01,-9.980852814986073129e-01,-1.170659146676574558e+00,-2.956174936949438337e-01,-9.191111596678718243e-01,-1.310182897031956450e+00,-3.501092236262243196e-01,-1.141316951984276296e+00,-2.551038923966701510e+00,-3.626661739622241698e-01,-1.531281514809212041e+00,-1.017991164154209704e-01,2.447408687258625093e-01,3.010845462417985341e-01,1.525498338147569743e+00,9.425281270674105150e-01,-6.143573503681846182e-01,-1.242219447539416183e-01,6.197986470980056950e-01,-5.137750384809420812e-01,-3.979557608697865678e-01,-1.387375415590238692e+00,-9.454174746225371129e-01,2.061836761251341965e+00,5.762873986518832758e-01,-2.250284353190153963e-01,2.685790677160898587e-01,-2.657054618265594637e-01,4.196807787213064356e-01,7.092903649217866535e-01,1.222577569645375839e-01,2.258283478088487950e+00,-9.065320940457549659e-01,2.553328402265845898e-01,-4.784843449471680721e-01,-1.048145301330282386e+00,-1.283603773397379300e+00,-4.515079390354695410e-01,-1.002672277660511257e+00,-4.801472057736843047e-01,1.645807809216723594e-01,-1.837740582674113332e-01,2.039857396061576900e+00,-3.746787725930750268e-01,1.453613047408446046e-01,8.952742145485480529e-01,-1.169447123041504666e+00,5.111534016324805751e-01,-5.536464428084815204e-01,8.881123549006095796e-01,-1.435770897599918383e+00,1.526037055033481193e+00,-7.095842682730846285e-02,-3.481740056384880627e-02,1.585896926260486950e+00,-8.888034822244181288e-02,-2.089642354851867001e+00,-1.707940140564293996e+00,-9.491985286261622745e-01,-1.263826939211246447e+00,-8.393003571383450545e-02,-1.692477888010863296e+00,9.860997205934796117e-01,5.117842260556759726e-01,-4.134961601670507636e-01,-1.483681360208967126e+00,1.114219971506384077e+00,-3.112250846663206505e-01,-6.602804648507293317e-01,-1.505976984859988432e+00,-1.101378819842938173e+00,1.614315515177305649e+00,-9.877164938963146623e-01,7.856231855585014134e-01,1.594603170889475674e+00,-4.244129982295050119e-01,4.790833062487779848e-01,4.829978591941643251e-01,4.308757761531080699e-01,5.714516555980688750e-01,7.560261355240200931e-01,6.717557621976081306e-01,1.895007666792139833e+00,9.151214347768021895e-01,-1.170966054588251204e+00,5.620664857111861146e-01,3.031103938815901122e-01,3.604071827040025711e-01,-6.140762070133306549e-01,5.274045149802433219e-01,1.007950809898181754e+00,3.035154104549393494e-01,-1.437489017683589720e+00,-2.686673617605177089e+00,2.829771000445826523e-01,-1.852796776448443872e+00,-1.095539060015245258e+00,9.141318699307370288e-01,-2.912317052460436373e-01,3.429200968473043454e-01,-1.258661629514771230e+00,-1.017050759183294240e+00,-5.049121489606622770e-01,3.659612205170544863e-01,-1.229094272956817058e+00,-1.152550809500610006e-03,3.019972097816955858e-01,-2.899617972610474825e-01,-9.870503184313607070e-01,-5.691915582402323759e-01,-1.981010841513488122e-02,-3.487495299736673715e-01,-6.303280757329440265e-01,-9.257962651899035444e-01,1.763822301092384359e+00,-1.171089350651093458e-01,-2.902024771771440914e-01,-1.180615021187232827e+00,-1.331927579048554744e+00,-1.407512834225381759e-01,-2.172480629786435469e-01,5.299226813564943406e-01,-1.884917801739733667e+00,-1.945818626153112962e+00,2.877161616366186864e-02,-1.683681823418743839e+00,-4.857648929365962487e-01,-6.868080096711723925e-01,4.784349980345147246e-01,-1.400427660647371564e+00,-2.995138232033057180e-01,-1.726691627380865651e-02,-8.104933492597308220e-01,8.340021451726772339e-01,-2.586464776968172008e-01,-6.252195272677775195e-01,1.384124069755412467e-01,-1.753122648285398322e+00,4.503338197140615007e-01,7.301641495072463961e-01,-1.488212434447424792e+00,1.284450813947521697e+00,-8.974887498396698637e-01,-1.340300874224146455e+00,7.472964754949811272e-01,1.979688930742791175e+00,-8.621026251766636950e-01,-3.873475402692233560e-02,-1.027013631002033495e-01,2.786696337597688866e-01,-6.849815747250710407e-01,1.492440092017568221e+00,-3.117588534712043558e-01,1.913782442693154062e-01,5.537046815061523741e-01,9.869514860900460151e-01,-6.381727297394365062e-01,-1.090356122682304640e+00,-1.826846795200816054e+00,-2.398459409744427617e+00,3.498429564919807583e-02,-4.777835776899077014e-01,5.641073211672010812e-01,-5.012740203849549436e-01,1.285215529170219195e+00,2.184352563763106048e+00,1.711598732750726048e+00,-2.410110986805986955e-01,-6.310919842896384191e-01,1.134778143736144829e-01,-7.863565676928783166e-01
2.062742831825910450e+00,1.567639747696333519e+00,1.239540404847940369e+00,-2.013165265760976652e+00,1.082974966558129526e-01,4.116301832420204421e-01,-1.113224663377408552e+00,1.947598014096666441e+00,-6.571820171306641534e-01,-1.261572345852216781e+00,-2.088247567387609138e-01,2.611679627793590530e-01,-4.171052817603657648e-01,-7.780805971498944151e-01,-2.004309515879415249e-01,-1.658244541949903672e+00,-2.449034672531242435e-02,-7.876576637026355687e-01,5.702591517813988542e-01,6.530616660858095113e-01,1.540728532245405902e-01,2.088366962805981164e-01,-1.197839440675970035e+00,-5.409474284618484008e-01,6.134232849794775122e-01,1.988474063772328604e+00,2.685886860803898823e-01,-1.775867560250731225e+00,-4.397436269688109189e-01,-3.859753809757781595e-01,-1.480477346210000988e-01,-7.907852611991862402e-01,-1.605889112662262086e-01,-1.568805015017314730e+00,3.742546183647716407e-01,9.767143642886598476e-02,-5.076768770875405012e-01,1.032022686959879060e-01,-9.157445669687315215e-01,1.587150903555487602e-01,4.217586005686508321e-01,1.235031382692325930e-01,-1.623430863495155807e-01,1.273881731805287520e+00,1.205237846461362672e+00,-9.850660651937802603e-01,-7.859795772605786546e-01,1.554376053055793072e+00,-4.834580037884441683e-01,-9.816551433790555725e-01,-9.867763470379620205e-02,2.216305217570989639e-01,1.653280050602935064e-02,-1.051509930759613631e+00,-2.048546447682630500e+00,7.696030506935327420e-01,-2.722092941549572598e-01,3.507503398688378571e-01,-3.091187954972391072e+00,5.722745416077010816e-01,-5.951123602226666698e-01,-2.478206046437615162e-01,7.587189900685264998e-01,-1.252352237392101268e-02,-1.992408663158965476e-01,1.074414990500086819e+00,6.232511787591393793e-01,-2.426503897255796738e-01,1.291634583650657919e-01,4.247047540571525226e-01,-3.369593642183349447e-01,1.598968647593601133e+00,-6.204708014184542320e-01,2.670847233343226490e-01,-1.068046029956633891e+00,-3.132170877249538243e-01,-6.827188349720269001e-01,-5.022349511057357940e-01,5.385747016717908897e-01,1.218192927024207117e+00,-2.764059553817576134e-02,-4.020592179353957296e-01,-1.741179684054925958e-01,5.066538870407183426e-01,9.254251193558215016e-01,8.784789293247983188e-01,9.950713244438591509e-01,1.381331819726821841e+00,-6.478216346471248333e-01,2.529714544430361922e+00,2.022014533599757691e+00,2.351552691660572791e-01,-6.736627101284063668e-02,-9.832485467583806926e-01,-1.106163454342380392e+00,3.745373634051837319e-01,-1.774452671238361923e+00,-8.174731381409894304e-01,1.646259477254912618e+00,-1.380604625800559759e+00,1.067601858683538518e+00,1.523317749276129340e-01,6.255897624536205237e-01,1.669308198222049233e+00,9.384025708595782334e-01,4.892605724619832896e-01,-2.152947838076571863e+00,-1.006218413576763115e+00,3.227547845013971073e-01,-1.092780198500260314e+00,-1.379115031056452334e-01,1.236029592974996927e+00,3.506960000792706200e+00,-1.555990634927692851e+00,6.416893479795841015e-01,8.905976450616036599e-01,-5.424139203380963226e-01,5.022767969510956165e-01,4.824554015384670547e-01,2.157267787513938162e-01,1.647677937872823017e+00,-4.204381120374404701e-01,-3.005428131418279580e-01,-6.260850630876823031e-01,-4.771129985773878840e-02,7.725917303006815118e-01,-4.369010476713527380e-01,-3.770846624260510982e-01,-5.448940717320938099e-01,1.343375044233138693e+00,-1.792213497877846173e-01,1.912750392888484807e-01,6.776416724355577292e-01,-1.209912506294700041e+00,-1.061751772308994868e+00,-2.388187342914830091e-01,1.761018954453722751e-01,-2.323081452533174995e-01,2.245248938415433493e+00,1.886742319439904947e-01,-2.253580993545932998e+00,5.599343489379881023e-01,-4.781264753861023120e-01,7.643797340754671099e-01,1.868372064907001029e+00,-2.936205578516086767e-01,-1.050028727063439415e+00,-1.158827359822319547e+00,-3.431992632171266266e-01,-3.694909618982911148e-01,-7.595394907829404740e-01,-8.234182543833541423e-01,-8.210209799862671076e-01,2.774572270927861961e-01,-1.010054004402429984e+00,-4.131099278891544602e-01,1.678307115224876231e-02,-1.145590026267799377e+00,1.380337420631366108e+00,-3.166338414431270620e-01,7.842227616298420578e-01,-9.562316981589048526e-01,-1.721085754588181915e+00,-2.935911876069017268e-01,6.458482952111577191e-01,1.476497106942971538e+00,-5.932386584654585349e-01,2.645348765089791665e-01,-9.701667647081911872e-01,1.155433622871232968e+00,-2.057101074214893188e+00,1.208083647257576082e-01,1.596234614794372897e+00,1.153310055766060938e+00,3.867223526851577831e-02,-3.620485118689190096e-01,-4.085663660357709559e-01,-2.830308704506166728e-02,1.113582453827790808e-01,-2.867227342166428494e-01,-4.564059000070801453e-01,1.704272817419108521e-01,1.084140859058319306e-01,-1.003379896587766940e+00,5.930382206734040595e-01,-1.667706968539280354e-01,-1.048006736483441254e-01,6.291970107494709863e-01,3.834628836347345193e-02,6.446936834557978058e-01,-8.228038163387085824e-01,1.916114901438125406e-01,-3.497794217313817122e-01,2.142900792479797811e+00,1.253788292311158070e+00,-5.314110441209565217e-01,1.837879058444852109e+00,1.327698255599503607e+00,9.623908813681925078e-01,1.913384870044992914e+00,1.197943965313189585e+00,2.511397133810342908e+00,1.621703198535871193e+00,-1.368485158818752989e+00,4.332200790054104855e-01,-7.067400231552473100e-01,-7.370704098461203779e-01,-4.033983855960406317e-01,5.181034722520506675e-01,-5.034268264151761096e-01,4.114354288903962487e-01,2.753225857452784031e-01,8.365524758910828362e-01,7.322422129225144571e-01,6.464237265225178941e-01,2.426725625391537300e-01,3.421309820065495111e-01,1.018627767061718981e+00,-1.673595840998628903e+00,-7.490293845686830654e-01,-1.143968406597585030e+00,3.422611908206943387e-01,-1.381095248406144504e-01,-2.032493181896658507e-01,-6.620220716671697536e-01,-4.924343234167717354e-01,-1.797274449460020962e-01,9.547269267677945814e-01,1.640718154174564569e+00,-5.299556033718031411e-01,1.299285198944281738e+00,-2.045072880459243847e-01,3.839194061328968233e-01,-1.093224546375683559e+00,1.216114257047169911e+00,1.127434948751560917e+00,-2.697658439587374613e+00,-5.427453803005022337e-01,-4.825290603713631721e-01,1.079692366770067080e+00,1.461216865454006975e-01,-1.158810137643736804e-01,3.832913478697968362e-02,1.300321852897692088e+00,1.388163101252139375e+00,3.649867714864676784e-03,1.547227420568047851e+00,-8.791281929569836340e-01,-9.922538010963412036e-01,1.175266641576314885e+00,1.110660223321650708e+00,-9.773727060244281617e-01,3.565870005983318158e-02,3.293115320427194015e-01,3.942203382546445589e-02,-6.405140773155336698e-01,2.053117853808912319e-01,-5.447059282183898121e-01,1.377128575182412717e+00,-8.482475427909124122e-01,-1.455211660848251709e+00,-2.193736074141860309e-02,-1.552383292074929200e+00,-1.936277007870499611e+00,-8.940844349586368756e-01,8.162315610975312552e-01,9.806971943346048937e-01,1.914968059065019323e+00,8.801454978285653263e-01,2.212532665682077848e+00,8.516851230794354466e-01,3.184730443111261633e-01,-2.096090130677337737e-01,-1.213904257936155966e-02,-3.701109348264851606e-01,-2.816928155962576952e+00,-7.798505113476502659e-01,1.319637228999883005e+00,4.998358698311868298e-01,-2.541495797561534320e-01,3.177230164779132893e-01,-7.295133558726852874e-01,-4.492382656740522284e-01,-7.644048967607189882e-01,1.378905859226425168e+00,-7.266965698124820960e-01,3.419431050489688539e-01,1.019114984991988715e+00,-7.070219076687677129e-01,-2.160128835238409373e+00,-1.468724962687390390e+00,-2.651343690343035409e+00,-3.074685479030051294e+00,-4.212623593792176602e-02,-5.146857629730253736e-01,3.489595514231106588e+00,9.683407227842090181e-01,1.261799470419723956e+00,1.969085307265026952e+00,5.056186494320197983e-02,-5.517835478368583457e-01,-8.157509983432709166e-01,-1.795624514738753119e-01,-4.667034863578213844e-01,-1.966803198202191849e+00,-1.695488749720663602e-01,7.461175038315005781e-02,-8.099093243989502477e-01,2.458875054357592571e+00,8.938162329217700375e-01,-1.762061217700491067e+00,-1.044523204893559765e+00,-7.623156395098742433e-01,1.403151047541564833e-01,-8.849612386400947939e-01,-3.031654656342930299e+00,-6.100326375477457264e-01,-2.554161727484492328e+00,-2.601311103836022376e+00,-2.617184983636428708e+00,-3.167326136553936800e-01,2.073501351380953928e+00,2.299718361194273086e+00,2.867638804246678497e+00,4.766007073184794773e-01,9.681488679053699975e-02,6.764554706921751537e-01,4.522990973128844239e-01,7.097653200338948087e-01,-5.768078898343418359e-01,1.380837322439215920e-01,-5.752201120484643493e-01,-2.748111590363936374e-01,-7.035610390158525407e-01,-3.165532828751386196e-01,4.302990945364494890e-01,-2.638304490730483121e-01,8.458522438769380258e-01,8.466521717682137238e-01,-7.369680545865432419e-01,-6.742340727913490595e-01,6.797772427141653973e-01,-2.151521546413317942e+00,-7.015030453161026358e-01,-2.040545041282495475e+00,-2.176747161576617184e+00,-6.031707827322164706e-01,6.264427731534248922e-01,3.915564958612057778e-01,1.681871441620851781e+00,7.839847291041116550e-01,1.459639774560093528e+00,-1.026000656664147304e+00,1.536571122359317032e+00,2.912417023695322849e-01,1.124304250300975916e+00,4.078450937298399026e-01,-1.026384048614197075e+00,2.382617319933337807e-01,2.613148155448055121e-01,3.496578267513691506e-03,1.943285348099803578e-01,-1.458329834937061309e-01,7.133910619088558169e-01,-4.493394144947393531e-01,-1.213690252751380205e+00,-3.408797690943171088e-01,-3.711696495565356413e-01,-1.700604257501208583e+00,-8.405774354293403805e-01,-1.157186136281875832e+00,-1.156393497235777890e+00,1.612194120202559144e-01,-9.225733696164559738e-01,8.728623169820218797e-01,-5.332676659606493397e-01,1.766392174673176108e+00,2.187959380659295849e+00,4.643584098732758680e-01,1.847406413031555505e+00,4.389875085508569974e-01,1.769929965279541717e+00,1.221288190856827161e+00,-7.426584633456577433e-02,2.302856342782590438e-01,-5.908593456851941594e-01,-1.317503142681293982e+00,-4.553396202737978182e-01,1.807356696460939993e-01,1.993965602057452824e-02,-8.258761479617440227e-01,4.172498039209350806e-01,-8.075574970749320736e-01,-5.880238908557199329e-01,3.783488952920425197e-01,4.051562101754880296e-01,-2.031016505628109314e+00,-6.377212305308334328e-02,-7.340650723381988429e-01,-1.653510959088114074e+00,-1.140375851863002721e+00,-8.533496029364153745e-01,-2.707722391419400410e-01,1.653908236506802965e+00,-1.304994656317947366e-01,2.288727060191731999e-01,9.484028955794283622e-01,1.587217908285780243e+00,-3.492666891303365384e-01,-1.756759940672158737e-01,8.785408437691144545e-01,-3.887848048538669055e-01,9.282967404453142946e-01,-4.835753763695965768e-01,-1.411588013026099153e+00,9.590122246533300254e-01,6.642758499862051469e-01,-1.480004195120047550e+00,2.691212178452913606e-01,-2.614162559400361463e-01,5.183285708437029848e-01,-3.284671917984095524e-01,1.198623723119824236e+00,1.135977943594709938e+00,-1.686392064739734353e+00,5.294101928862636475e-02,-5.384924482702034831e-01,-5.954089748987801967e-01,-1.306182763345963282e+00,6.093261361809486631e-01,-1.036021056092725434e+00,1.489864169336392097e+00,-5.507648355770946580e-01,2.782025693145775858e+00,1.345195137548842013e+00,5.487579322449214203e-01,2.164070163926878343e-01,-7.424458575466589272e-01,-3.761317068990965296e-01,1.479453531275710942e-01,-1.648709080906980429e-01,-2.781969535869963095e-01,3.369817196661157865e-01,3.300355137815723650e-01,-7.699494999921051575e-01,1.165380329339150922e+00,-9.869191568246009627e-01,5.968821110910274008e-01,-1.199065653290245947e+00,-8.956154130969447014e-01,1.249604767791822058e+00,-9.259454195645937524e-01,1.010005948589517200e+00,2.278010467093212199e-01,-1.601054601628826735e+00,-1.283331320993571278e+00,-8.974842400305228507e-01,-1.060148344035215517e+00,-2.079210228167915897e+00,-1.269653866254233932e-01,-7.432642023857222169e-01,-5.397720352466264804e-02,1.611994656051927599e+00,-1.220250728300724230e+00,-1.410746487639417790e+00,-1.474292773951589419e+00,1.573275909930581751e+00,-6.470809260837273591e-01,-5.827354105159215925e-01,3.241954430285605704e-01,-5.859594511546726281e-01,-1.068345092801371132e+00,4.248019481709158218e-01,-6.461715478238135857e-01,-4.769091894673201382e-01,-4.897839705935453924e-01,1.228918723458839901e+00,-2.053067469923223198e-01,-2.439525009756283724e-01,7.981003450232355273e-03,-3.911193240422885520e-01,-9.780453020025876576e-01,-2.751283238940848364e+00,-2.047796581009398320e+00,-1.023004231438497724e+00,-2.802784355946764894e+00,-2.379558518729174121e+00,-3.053128510900314119e+00,-2.202952372795036862e+00,4.493122437696044913e-01,-5.866370797591328179e-01,-6.065350153924730092e-01,2.447098205950092864e-01,6.872352609236042076e-01,8.697608487501954366e-01,5.353170182096523844e-01,1.142460879548715225e+00,2.782446979211794513e-01,-6.458819105568811558e-01,-8.413786430896956769e-01,-1.562083257456029939e+00,7.114502286288728605e-01,3.452235295214814981e-01,1.595228055547577961e+00,-9.791948725327973557e-01,-7.819141500184358107e-02,-2.604069220683402075e-01,7.827903096952861794e-01,2.144803518962301148e+00,6.925622183866351200e-01,1.064758218060211981e+00,4.647384942226361337e-01,-8.298337542058186189e-01,-2.564515078379090873e+00,-3.485025354367198069e+00,-4.299899949736296634e+00,-2.696822503063072585e+00,-2.923997217405055249e+00,-9.943401130478219940e-01,-2.920926657653630798e-01,-1.778037192179914017e-01,5.542879844807949707e-01,1.070326334012977387e+00,-1.260485580765308589e+00,-4.293907293982697215e-01,1.393324046636807145e-01,-5.752648565713881501e-01,-2.038171288685100002e-01,-8.274388552033532518e-01,-1.683273756536788790e+00,5.094985600202805304e-02,4.102077106288996022e-01,9.574201952167745722e-01,-1.449487105898959571e+00,-2.559939754337538620e+00,1.134480653572180309e+00,2.120802970926061626e+00,7.080158482759957295e-01,1.699324743464220466e+00,-2.660098119632976932e+00,-1.267909000299562994e+00,-2.134512154049406973e+00,1.756104803833154759e-01,-1.751933469506294028e+00,-2.100573812424046061e+00,8.046949675898558141e-01,-1.347572749971035933e+00,8.882324359534660152e-01,7.990413126727095028e-01,-1.494645997568667672e-01,6.889020924933593193e-01,4.050746952900380893e-01,-6.597909718053345252e-01,7.576589519809012740e-01,-1.434408649443049466e+00,-7.561491568990253986e-01,-1.199895485044498278e+00,-5.776631098417828181e-01,-6.728770011619826796e-01,4.235418315405156675e-01,-1.512710468970820177e+00,1.319597233566492278e+00,8.903794072118850211e-01,5.572337005016408246e-02,-3.785543662546351773e-01,-2.011643975301133092e-01,4.882497513748781243e-02,3.658599260818731769e-01,7.974541065405491569e-01,-2.147204303189983732e-01,-8.650446652398757763e-01,-1.240179687085751770e+00,-1.785062509090692640e+00,-9.022690159647407393e-01,1.402284414680262215e+00,-1.688648351011752535e-01,-1.776057258223402713e-01,-5.769493847635212003e-01,-8.147269564240577910e-01,3.209759139244509618e-01,3.808852050621741592e-01,-1.885061752486671682e-01,-6.620097086433008871e-01,-9.801117729146874291e-01,-8.234305473982840295e-01,-1.061392700662458166e+00,-1.101214007001483308e+00,3.021516365151382111e-01,-2.058095063228797608e-02,7.407147058440272103e-02,-1.926271655656583148e-01,9.324612011739402684e-01,1.313203965015605768e+00,-1.792334268617923110e+00,5.012168648096256840e-01,5.105439644596613258e-01,1.475934624091797542e-01,5.125204056771334032e-02,5.670612157585047663e-01,-1.317816887004375603e+00,2.440328076449023182e-03,2.559224535909415676e-01,3.542309593562461556e-01,1.088283478331966370e+00,1.132325144115614357e+00,-5.917197213901308483e-01,1.962514656358508747e+00,-9.201646157963255801e-01,-9.570564450929043288e-01,9.755369946868763797e-01,-3.388260669535023833e-02,-7.435709212720057470e-01,1.021174938320571268e+00,-1.477107286840778633e+00,8.995625690660065121e-01,6.024391207978965213e-01,2.196682263213413089e-01,-4.322750272867025290e-01,7.989654821393879502e-02,7.615603130821847755e-02,7.124329494052896727e-01,7.999543559528885517e-01,5.338667223582453936e-01,4.564270180994275949e-01,5.271370416789841196e-01,3.014756092308798485e-01,-1.538366262544906160e+00,-1.544898048238266819e+00,-1.281382531101158406e-01,-4.550566501459087781e-02,-1.482365570950197720e+00,1.475266536658020433e+00,2.067085147806662082e+00,9.981921997867503338e-01,-4.377804021674737145e-01,1.529293460593736054e+00,-1.293363972235251902e-01,-5.182189840291369087e-01,-5.873027941780373240e-01,-2.069631286177875840e+00,5.624728472371026688e-01,6.406310197465023837e-01,3.021082852158938903e-01,-6.435631210004967295e-01,8.126853101801743140e-01,8.290001394536707091e-02,-3.773312976144082009e-01,1.296470983161097434e+00,-2.651400747183594309e+00,1.578639291711642967e+00,1.372502079370958805e+00,1.327881068171448797e+00,-8.001649495337894713e-01,6.643112812702982595e-01,-8.929062710880074361e-02,4.061413210807154339e-01,-1.459201298983999973e+00,-5.762632262238267522e-01,-1.194116764573358358e+00,-7.110195150363473049e-01,-6.446172173251488724e-01,-3.490102827424711451e-01,-2.833616299338052591e-01,7.429332017335600336e-01,-9.152954047042621832e-01,-9.582832803642303832e-01,-2.398998328288438064e-01,-5.115713817230929106e-01,-1.001967611295040861e+00,-5.329606561714772539e-01,-2.181164878772848259e-02,-1.091130176728472012e+00,8.351431433651042013e-01,-1.360481056491223750e+00,1.939727604714953646e-01,-1.036780594668786692e+00,2.108324964224005171e+00,-1.283859942662850306e+00,1.932602908017387877e+00,1.835139317465909747e-01,1.496084634272954794e+00,7.152072331173614517e-01,7.270904188722446815e-01,-4.927483811416719650e-01,-6.593695787215618775e-01,-1.632601344908382324e-01,7.715857050855220445e-01,-2.075747429533834343e-01,1.771638474506899152e+00,5.532798574117455681e-01,-1.199488664999682319e+00,-1.000502881257691046e+00,-1.006845326603309942e+00,1.393903698039270722e+00,-5.708038568056088558e-01,4.538322416505038981e-01,4.303796533473081554e-01,4.672680693573179611e-01,-6.875759668608273367e-01,1.302013767306568370e+00,-2.025856703033721118e+00,-8.199359609972860508e-01,-3.759947220076624297e-01,6.398591212405184692e-01,-5.316583674858489372e-01,4.549940113348784343e-01,-1.288613655470777219e-01,-1.220088798579776812e+00,-3.102868276368497824e+00,-1.529436476578300286e-01,2.254393760097661292e-01,1.811463365745932530e-01,1.183604244591122567e+00,-3.634378298669440066e-01,2.131261043130570965e+00,-1.363142512542301898e-01,8.647394155537456717e-01,7.908036768866997246e-01,6.276461498806310546e-01,-1.101817914268014453e+00,1.624954145869851596e-01,-1.657136030482776690e+00,9.257642503982851379e-01,-1.273424837660495045e-02,6.483953435102388085e-02,-3.974506101513698431e-01,-4.380331841682339467e-01,2.896220474993464467e-01,-3.257004478337005571e-01,1.725994404433059681e-01,-3.051446022198029961e-01,1.664560338304848786e-01,-8.044953234084818439e-01,1.065366441399759445e+00,1.788815132550716780e-01,2.036189500147170817e-01,8.800464033543886622e-01,-7.321644695491869026e-01,-1.251249660314916579e+00,7.131598079762067055e-01,-2.369618331404778622e-01,-1.653592407387729279e+00,4.820681774074998815e-02,4.407813595209764124e-01,-9.004828227487580161e-01,7.831858581374810946e-01,-1.382328385307353136e+00,1.076515032961063767e+00,8.979055816577824478e-01,-7.687572891692513455e-01,-3.416606826023181331e-01,1.868868505521732448e-01,1.680600740235756174e-02,-8.836090817567061606e-01,-1.262569189282632731e+00,-6.659263501152404841e-01,7.011449354717719240e-01,5.060263955140217318e-01,-8.727137569001335304e-01,-8.642800374411268027e-01,3.993811190407297040e-01,1.378614812815816659e+00,2.526704198928375056e-01,1.280352626528323823e+00,-1.929421460105195330e+00,-1.342625211049704115e+00,1.018106840847954109e+00,6.277778396406969996e-01,-1.804511125435038776e+00,-1.351246422216179521e+00,1.176591128882439774e+00,-7.893662475324416672e-01,6.410159791055419776e-02,5.258666145833261751e-01,-8.859449309248332849e-01,-1.526779180697656335e-01,-9.882139697006177004e-01,-8.172036567998720580e-01,7.032629231804686798e-01,-1.977106797526876347e+00,-2.921760617169844032e-01,-2.348127395806035023e-01,1.185667458784730455e+00,-3.999764945179686698e-02
-2.137724420157797844e+00,-4.840073009438899954e-01,1.712075731988949023e-01,4.565472874304520312e-01,-1.759945962920341334e+00,-6.268030560756682190e-01,-3.313912316336272146e-01,-1.538643598043632599e+00,-1.091718077498610162e+00,6.166323166598025596e-01,-1.207804321118340907e+00,3.904500967875895734e-01,-3.566474830276456509e-01,-2.163495048959792388e+00,-4.617713934345479831e-02,4.300824166166591356e-01,-6.469343634425074319e-01,3.546210368333430063e-01,-1.635991065874607298e+00,8.242928109895319988e-02,-1.011239035301188638e+00,1.752450899656090577e-01,1.083785904288770308e+00,-1.218517371022608486e+00,-1.628817860106627213e-01,-1.324593866971973455e+00,-8.575696932523925176e-01,-9.437697903064943272e-01,-7.935694089552584041e-01,-1.669811568819782543e+00,-1.289532846341551631e+00,-1.006630208131130244e+00,-9.943166376228838033e-01,-1.722346724288492670e+00,-4.146710141687668383e-01,-9.953528102905082608e-01,1.033566859797122817e+00,7.375188449860814455e-02,-1.032220620429479263e+00,-1.285103374750744543e+00,-7.460306509982201906e-01,-7.080888792409109067e-01,-4.123192086232026488e-01,-5.415680064703309871e-01,-1.676890349901001054e+00,-1.680905526855930976e+00,-3.718989100006017678e-01,-1.203552356607619611e+00,-2.654788671540126543e+00,-1.677932059183985469e+00,-1.957571470221608489e+00,-1.668532846857325724e-01,-8.425941120624693692e-01,-1.223000582295231453e+00,-2.178273010410663346e+00,-5.970897525005315343e-01,-9.235571749255184759e-01,-1.327301395708610610e+00,-1.021034267388184480e-01,-1.837044416433382565e+00,-4.430894635512600543e-01,8.931813769688140559e-01,7.976071137398443867e-02,-1.399201241929998396e+00,5.640802239076757596e-01,-3.815962800139902078e-01,3.961782825387326623e-01,-1.080928672305444760e+00,1.871271541779634395e-01,3.303868214493578259e-01,-1.021926122333159714e+00,-9.062609747101172397e-01,-3.057122891869923365e-02,-1.150456775669350895e+00,-2.319025478397008566e+00,-1.127343998758939758e+00,-1.276659119037441892e+00,-1.609266239425378164e-01,-1.021144074896640497e-01,-1.127414806538368897e+00,1.171116113815044990e-01,-1.352313420437173619e+00,-2.115557865024706885e+00,2.288658733880378771e-01,-1.370673403817435076e+00,2.128902244556597489e-01,-1.912853124191302268e+00,-5.592764716271912961e-01,-6.053745881462379019e-01,-1.246856496203693876e+00,-1.220045499306172898e+00,-9.796427600211303766e-01,-2.092929679877608695e-02,-2.480491366142628440e+00,-1.649866071464374695e+00,-1.281608599556744776e+00,-5.001721698957038997e-01,-7.816944115536602622e-01,-1.439854370205761125e+00,-1.438934418003106730e+00,4.094492977317457649e-01,-3.282632545451905082e-01,2.471595413367189131e-01,-2.585726689641402398e+00,-7.932986650803485196e-01,5.493437204881601588e-03,-6.120263475564012845e-01,-6.700430055511547023e-01,1.184253482213665887e+00,1.746443721089360190e-01,-7.664058846430593652e-01,1.406921228684041569e+00,-8.517249943132855217e-01,1.413891951796570012e+00,-1.064941111001721508e+00,-9.408680254413187560e-01,-5.571596852709795877e-01,-5.563415983332303805e-01,-1.911266420837399949e+00,1.994001725595839769e-01,5.692057964365287992e-01,-6.634511855617218901e-01,-1.200275753899215703e+00,-1.687453882978417363e+00,3.531559824299941863e-01,2.337173806987858371e-01,-8.575764220445724062e-01,1.296217873453394953e-01,-1.217182138184191187e+00,2.228091726967075525e-01,8.585048224766198555e-01,-5.702410178133588969e-01,-9.854775789608267722e-01,-2.353740926909132281e+00,-1.679636452252820433e+00,-1.522356147538440618e+00,-1.537144210607056527e+00,1.055118392338283417e-01,-2.098085488398516163e-01,-1.091439082519212178e+00,-5.606857857966051073e-01,6.627179794494713061e-01,-9.247217400073990401e-01,-5.659252556139692247e-01,-4.118634640675612468e-01,-2.786494157135280259e-01,2.320058683013868084e-01,-1.197184013650274048e+00,-1.398563186245998624e+00,7.164231169882370742e-02,-1.249726460531562555e+00,-1.570081023318256719e+00,-1.579141011171255160e+00,-1.470604726174008281e+00,-2.878355573382641808e+00,-1.689930110648043105e+00,-2.460824998731781843e+00,-2.129349939877483777e+00,-1.834197948504478592e+00,-2.536330756433778366e-01,-1.055311976057022205e+00,-1.089586732116555989e+00,-2.796147964493309157e+00,-1.980871049268872364e+00,-1.777705997958785034e+00,1.052040580143562387e+00,4.462801690307860447e-02,-3.672058024988250624e-01,-2.153377784112625815e+00,-1.601768189181886015e+00,4.895828850941729149e-01,-2.195395273157012550e-01,1.857426405913139567e-01,-5.587219270499346191e-01,5.612648655061710512e-01,-2.552568447315254119e+00,-1.002455154365256229e+00,-5.610639697291025518e-01,-2.243474658316523040e+00,-5.984844363247333598e-01,-2.745768237180658211e+00,-6.513039019863601231e-01,-1.788962926450201607e+00,-1.806309807103677390e+00,1.745334619206286020e-01,-1.298382895825762828e+00,-5.348075670298583217e-01,-3.333507150395600860e+00,-3.103987544524134390e-01,-1.041239816339150970e+00,-3.111806869212936366e+00,-2.417965328053082619e+00,-1.670031840014972957e+00,-8.998516792273032472e-01,-2.303979535241610588e+00,4.920845921922079036e-02,-1.212689348047985671e+00,-9.426331880068831159e-01,8.351300942423305340e-01,-6.270826027039403394e-01,1.405094921219130155e+00,-1.056910014384092600e+00,1.767207851699249543e+00,-6.366014755217022092e-01,-1.733265245677803712e+00,-4.348787270844064329e-02,-1.410006549088681282e+00,-1.944419548440728729e+00,-2.017577386488446756e+00,-1.169570202826803351e+00,-1.309681894359705723e+00,-3.655441919780007543e-01,-3.045345540586324784e+00,-1.971549414464097039e+00,-1.643394696734432170e+00,-1.270087297806586468e+00,-1.472269205483938137e+00,-1.201855888397879019e-01,-3.446227417756443145e+00,-3.208979345913552716e+00,-1.195250537229291865e+00,-1.076255042176377241e+00,-2.604886483503025540e-01,-7.636069161580573139e-01,-4.006035317480111102e-01,-1.104628787803167977e+00,-4.273518276375653513e-01,2.538071277696450356e-01,8.959264970250523374e-01,-6.069922319330673943e-01,-1.719381496923421793e+00,3.403912405089862259e-01,-1.129253985163390706e+00,-1.470096373810143353e+00,-2.209948113042248696e+00,-1.523133336830601925e+00,-1.664906363312685933e+00,-2.031826647419432419e+00,-2.966069960702251151e+00,-8.873822062148447598e-01,-2.086604437252930211e+00,5.928226024307945430e-01,-9.793483218312516447e-01,-1.365434223730546570e+00,-7.518899551640578771e-01,1.295986024295430417e+00,-2.125017298502364094e-01,-2.885239560899849121e+00,-3.993634735844438399e+00,-1.953622948248242341e+00,1.450462763086139084e+00,-7.086760925730993810e-01,2.275833742568060813e-01,-2.591616921749761993e-02,-1.324114106454720163e-01,1.561650312391510198e+00,1.502020501693277499e+00,-5.965622868471307516e-01,-4.527696405068056817e-01,1.224245641899970094e+00,5.865064441754855307e-02,-1.028799342439288056e+00,-2.210976821810239024e+00,-2.478043269994818498e+00,-3.017572429076381013e+00,-3.387521511707064725e+00,1.110878827754800069e+00,-2.949259666659528878e-01,-9.933649989486205145e-01,9.924142510012178287e-01,-5.680154001888297888e-01,9.318792898216429199e-01,1.795866336707095057e+00,-9.391416753843875309e-01,-9.290756762440044447e-01,-3.733638051990883167e+00,-5.475974778972354073e+00,-1.170045927366463179e+00,-2.059552901458197915e+00,8.442254978782155472e-01,-9.037779575208764182e-01,7.345885187365350788e-01,-1.551522233292094821e+00,-2.891469075887992957e-01,7.972340259560758424e-01,-1.548453743550736172e+00,1.268885507326827922e+00,-6.756024009358689852e-01,-2.066062726348010692e+00,-4.532753882738000506e+00,-3.608896446834155114e+00,-3.756932144367358006e+00,-3.879811233139327520e+00,-2.449110771828042932e+00,-8.873916704565011360e-01,2.763806114920498214e+00,1.679254749128678004e+00,2.935453251261534446e-01,9.425236238844868497e-01,-1.215924147810097278e+00,2.164967594382163352e-01,-1.755602982541335066e+00,-2.200122686857971743e+00,-4.114687571885057515e+00,-1.616242949779125748e+00,-2.202298538564126940e+00,-1.041806078020895532e+00,-7.195239276741225432e-01,-4.139231782782276658e-01,-4.859066496702654225e-01,-3.001665877275637717e-01,2.387445262145337921e-02,-2.378694570097627636e+00,-1.269649171407746469e+00,-2.228211418392095133e+00,-3.130062193664415737e+00,-3.371909275587559485e+00,-3.723902300167575063e+00,-3.176318532750871171e+00,-2.949496250949771969e+00,-1.436918336729312573e+00,-1.493289087896396472e+00,9.133384004064045714e-01,1.046889720971638127e+00,5.467753651320709229e-01,-7.603694805860718997e-01,-9.651040465318497241e-02,-1.022609802440569704e-01,-4.423296173978037982e-01,-7.635706429268503959e-01,-1.533692253836675956e+00,-5.484035938087190587e-01,-1.159128625815254887e+00,-4.251846254086381616e-01,-5.799138830686469959e-01,-1.826110216966157385e+00,-2.160300622373107160e+00,-2.078508099646190210e+00,-8.915626724842796724e-01,-1.536607348093077530e+00,-1.129001458920018131e+00,-2.352825440185435824e+00,-7.565227817746025263e-01,-1.119583164071990433e+00,-2.215710353463389293e+00,-1.302632433001010837e+00,5.897183859471652467e-02,-2.798843117334552044e+00,-3.675205299614429100e-01,-2.580900875175115017e-01,1.804152811354921893e+00,-1.465040091331023531e-01,-1.411737691953526497e+00,2.111079099674087467e-01,6.970185346797684867e-01,-3.527758815417455507e-01,-1.243286314177610929e+00,-1.617834635193387660e+00,-1.924677616258203994e+00,-1.453557813868516568e+00,-5.167155479294799347e-01,-1.083064699801838948e+00,-1.389391058457082773e+00,2.018373066407120886e-01,-2.099844812964061447e+00,-8.438312248766710599e-01,-7.883301246152063513e-01,-3.979670500654346466e-01,-1.732389433472425466e+00,-4.368833091542028146e-01,-2.893909598026735530e+00,-1.953159446638848440e+00,-2.344449755501421429e+00,2.855111693631846581e-01,-1.749867972746132150e+00,-1.862706978973778682e+00,-2.120953534436335719e+00,1.606787223188200553e+00,9.377795145541594213e-01,-3.330336097831366748e-01,5.072402807008682402e-01,-7.380943874108737424e-01,-4.259009018692000437e-01,-1.415302061907378395e+00,-1.883668665065478809e+00,-9.578311266068846308e-01,-3.602579768492784940e+00,-1.836884025575112656e+00,-1.801129125941338227e+00,8.420669852637889807e-01,3.038287926462723831e-02,2.200654676827273892e-02,-3.497836283128305190e+00,-1.461004876773373651e+00,4.343324427580101954e-01,-1.413884568052333757e+00,-1.197866306638002420e+00,-2.042607401007411561e+00,-2.502715385893104383e+00,-2.794212672581324330e+00,-1.340049381079865265e+00,5.055593338392903036e-01,-1.632219548518052399e+00,-2.343861464916959569e+00,-1.291087490337722521e+00,-1.191526096187307315e+00,9.274504285104243628e-01,2.420443991800313444e-01,-6.122133647258026778e-01,3.642890867575444003e-01,-5.283325746045827165e-01,-2.535708167071293317e+00,-3.217423058435680439e+00,-9.307066585417690385e-01,-1.487417011235583786e+00,7.660088012984499206e-02,-9.979162414887741139e-01,-1.518134251280220059e+00,-9.611187159968450633e-01,-1.642725673501074901e+00,-1.653423395595117862e+00,1.647100181404682617e-01,6.410786107511881049e-01,1.735965328527645513e-01,3.380551816570990242e-01,-9.637028298004338689e-01,-3.934590464640949747e+00,-3.331435067746831180e+00,-3.693486067476848156e+00,-8.613424368128125286e-01,-4.391383547051159186e-01,-3.700938539581568598e-01,-7.838961655389764527e-01,1.093306184174170692e+00,1.036466282246086834e-01,-5.779019802736481415e-01,-1.505965459908937820e+00,-8.341081439772587425e-01,-1.364962575508485987e+00,-8.789342776199515761e-01,5.542283165679624535e-01,-3.008116553585089559e-01,-1.661892998661371523e+00,-2.948526631055798930e+00,-2.722452301366945271e+00,-1.404500870088922770e+00,-1.267172552919066275e+00,-2.605979556623875482e+00,1.336694795672334735e+00,-1.998399455333119468e+00,-6.992053917393290519e-01,1.142656867406729893e+00,-5.381094151895391420e-01,-8.491649382181005734e-01,-2.389521175555062271e+00,-4.158466660978000107e+00,-2.472845370990264247e+00,-1.646659122913095352e+00,-1.575310007866305151e+00,-8.504002191582097359e-01,-5.701742334249754185e-01,7.366707599390921457e-01,1.332510122133178987e+00,-1.109633310547712748e+00,-3.605546529039720838e+00,-1.829840711980790680e+00,-1.098949557133218402e+00,-9.220944770390125944e-01,-7.935852516871421125e-01,-1.164385087609286273e+00,-6.735015361225352715e-01,-1.419602022361654559e-01,-1.945756532305228603e+00,-2.222400014047123840e+00,-2.479178864582157971e+00,-1.913218673240057788e+00,1.033483464689919362e-01,-7.218001827533339076e-01,6.865332545289307697e-01,1.220310343811594533e+00,6.738519770834068279e-01,-1.551109121385552347e+00,-1.654864758382355472e+00,-1.198142137068799684e+00,-3.512646719980656584e+00,-4.592564821110165063e+00,-5.411723043484810702e+00,-5.538732825999619358e+00,-3.678311822858400859e+00,-8.869414991894318812e-01,-2.904964629540651266e+00,-3.024559899268740804e+00,-1.525285117494451503e+00,3.397971446079987579e-01,-2.851418251221201405e+00,5.880395796947475162e-01,-8.303248667662738169e-01,-9.268561753963091565e-01,1.954355509181388006e-02,-1.762846084953825887e+00,-3.105561562086384342e+00,-2.479894213156593530e+00,-2.714936281959348108e+00,-5.360466886440988787e-01,9.150479549001542257e-01,-1.871252068386672907e+00,9.314995149388367590e-01,1.434758882356129472e+00,-5.601020799931981653e-01,-5.820552508893888088e-01,-3.263339148284553626e-01,-1.227773878795951568e+00,-3.365023716907407980e+00,-4.111066201209829352e+00,-4.055909932841073484e+00,-6.292236165072066179e+00,-5.670548802087464146e+00,-4.862155258271990022e+00,-1.913229879440138781e+00,4.664533060409170595e-02,-2.021875939327808069e+00,-9.506154662032774150e-01,-8.144047104180310859e-01,3.831135472330856606e-01,-1.229027733750645890e+00,-3.695583112799324943e-01,-4.451971099020635703e-01,-2.997286336366555393e+00,-2.275798820790943200e+00,3.787102460566326156e-01,-6.889808889647475176e-01,1.711449875203200910e-01,-1.918200033273823601e+00,4.414855124724112456e-01,7.625821705107864723e-01,1.479004604094365405e+00,1.151562302868458953e+00,5.618728834180790610e-01,-6.701927543972543422e-01,-1.642660779265585402e+00,9.578146800948186268e-01,-5.230040243321771865e-01,-2.532813370464167324e+00,-2.845199782659813881e+00,-3.430006142896734556e+00,2.538574299299179438e-01,-1.883682690427290751e+00,1.245252578107822750e+00,-1.345838637596512788e+00,1.556070705101304297e+00,-2.658086290536572638e-01,-1.089535938385986918e-01,1.090993678854826454e+00,-1.812283852154228381e+00,-1.616546673699508774e-01,-2.025522194994521019e+00,-2.854102907055581895e+00,-4.106398294008913874e-01,-2.609976234717941601e+00,-2.603313111491373899e+00,-1.256884608490293598e+00,-9.699720371795632623e-01,1.079846577341068703e-01,1.099443686867916270e+00,1.002448634739748545e+00,-1.201686430981372844e+00,6.259784091995252986e-01,-4.010867397791414990e-01,1.039514948473377887e-01,7.099608411856557222e-01,4.336774980886676789e-01,-1.838107450769329798e+00,-1.160506127902852569e+00,-1.707344035254924897e-01,1.427244881351686256e+00,2.777589253516837275e-01,1.685306314968287866e-01,-9.905775386910400937e-02,4.316468557035993969e-01,-1.356353141222460978e+00,-4.470718024519114153e-01,1.606487839856030331e-01,-1.319250437864887937e+00,-2.880316706101739399e+00,-1.723020070731835274e+00,-2.010994116492459405e+00,-9.408636160841337137e-01,1.719740669623246454e+00,-1.870320545331291218e+00,-3.501006809522648755e-01,1.047553976489020711e-01,-1.663901606416304246e-01,-6.263191181868004165e-01,4.828746803413465627e-01,9.612907268821948570e-01,-1.326470331794998181e+00,-1.833593904917403927e+00,-2.861550826981464901e+00,-2.629559185038743419e+00,-1.822459412981740634e+00,-1.526072307118285787e+00,-1.453821805448123561e+00,-6.028015508023961688e-01,-7.819158738024875044e-01,-5.426902701024605147e-01,-4.840063475715033481e-01,-3.423018351544984683e-01,-5.059649876321611339e-01,-4.973473782189951620e-01,-3.128856258601842910e+00,-2.851899801225556530e+00,-2.304248491550668909e+00,-9.854031320168169517e-01,-1.127496544717951910e+00,-1.549001620607731500e+00,4.643700282036433702e-01,-1.623848556079317218e+00,2.418414086416105224e-01,-8.931185366646554602e-01,-1.798502298924135490e+00,1.513118524146880084e+00,-1.425815152903614269e+00,7.563792265265595338e-01,-3.903959267875529160e-01,-1.413828753389896775e+00,-4.873353436442483949e-02,-4.075417654916591581e-01,-8.491213544056244178e-01,-1.374395070083767045e+00,-7.880863441997307817e-01,3.553335607955597775e-01,8.691894983367484118e-01,1.266739379695875911e+00,3.218006692714794337e-01,-1.330773927883886487e-01,4.833761143683973915e-01,-1.408450255607481827e+00,-1.220169983672150904e+00,-2.235201698005122584e+00,8.811992846203595686e-01,-2.278808180543745010e+00,4.944491249137376032e-01,-1.431944585562770822e+00,-1.295496139162329863e+00,1.474259561051555756e-01,-5.369195650750347992e-01,-2.198235490454518271e+00,9.832348098524337221e-01,1.884405232661826024e-01,3.610525509163387547e-01,2.952003424884840355e-01,-1.280625700601228267e+00,-3.941659735936665077e-01,-1.201491020277876798e+00,-1.095794762447779735e+00,-1.333083411424660580e+00,-2.549101894156891035e+00,-6.337165324331527350e-01,-2.061180484644208111e+00,-6.597143592533264433e-01,2.646917920063188157e-01,-1.102709972842656150e+00,2.089669944667791324e+00,8.699259051291259315e-01,-2.136928682257405843e+00,-2.568009603531659302e+00,-8.522706703714555410e-01,-1.061976644256865665e+00,-1.849880731303853221e+00,5.631394346783413773e-01,7.290268088722418049e-01,1.290109737813441182e+00,-6.920155416083301203e-02,1.215611820559709955e-01,1.082157010415552012e+00,-5.246524472019760132e-01,-7.842234856244217900e-01,4.145002550584101497e-01,1.470908327753640110e+00,1.377281874598823119e+00,1.750945771609572654e+00,-3.505852651309032120e-01,1.354402525280903991e+00,-4.302859114910638771e-01,-3.286618009792514616e-01,-3.254437921320588178e-01,-2.283245316973193884e+00,-1.646541871946655133e+00,-6.272477058287710960e-01,-1.521862029019232398e+00,-1.365502463666399269e+00,-6.925672995265561571e-01,2.643843142213741615e+00,-6.321944087255942923e-01,-1.589579761307416406e-01,-9.513910503579519062e-01,-2.272011715330401138e+00,3.571063602018664795e-02,1.227072571159085967e+00,-1.177520533215165588e-01,-9.811615910765552062e-01,-2.296566610257202434e+00,3.449900581441650016e-01,-1.142363512498406841e+00,-8.410740746623162067e-01,1.029120964320444420e+00,-1.512575445165248000e+00,-1.822206280647102883e-01,-3.179108802293287295e-01,-7.156839290202433590e-01,2.843136779722146290e-01,6.396604576120739072e-01,-1.811323689982931306e-01,-9.444717148603558599e-01,-6.155653034929529921e-02,-2.095730121242116883e+00,-5.024860556858139482e-01,-2.031676294601021948e-01,1.957242768348874007e+00,3.272856792311167884e-01,1.665836727521766925e+00,-9.715128393496608172e-01,-1.155106248078094033e+00,1.117285012532927002e-01,-5.766568097370385892e-01,-6.234779862092193481e-02,-5.657383056600725491e-01,-9.464028678379814430e-01,-1.413283117378514753e+00,-1.465600429037702046e+00,-2.732448743447040140e+00,1.041881258690665835e+00,-7.655760502650686972e-01,8.439389232995844203e-01,-1.081510027985827627e+00,-1.606673629138993586e+00,-9.086618673786095446e-01,-2.357358131910562427e-01,-1.631704064828365608e+00,-1.592965525636723223e+00,-2.908999425095514457e+00,3.369204549362118661e-01,-1.987622360187070725e-01,3.831462407664582015e-02,8.606207647954727813e-01,2.658330795396920965e-01,-2.349394155853996580e+00,-5.069955596102366790e-01,-4.687869313788695091e-01,1.119088553028974031e+00,-4.207754648038408707e-03,-7.599168708931565153e-01,5.984726560946790341e-02,-1.004133655846593864e+00,2.565144881605642135e-01,2.798240839510793831e-01,1.491524863107636656e-01,-3.746491765911204586e-01,-6.988887905474006068e-01,1.962838257525458818e-01,1.688008188762404549e+00,7.309630836394487297e-02,-2.613440049621411077e-01,-1.476260056188556824e+00,-8.300473349589873040e-01,7.627684336877116333e-01,-2.605885462046019230e-01,-1.463899087321234749e+00,7.274085970227984754e-01,-8.977584433285077381e-01,5.106747189096918493e-01,1.298431281295730003e-02,-1.755203052317432455e+00,-3.948262968137050688e-01,3.014658912639699428e-01,-4.528974048251213080e-01,-9.749725489357243813e-01,-2.056023432339099344e+00,-3.960876255356641784e-01,-1.835811362396694735e+00,6.161956461167350518e-01,-1.721588987159684558e-01,-1.225937596098534810e+00,-3.312309081012154710e-03
3.318782981520992936e-01,7.999013268264593135e-01,5.167660907917561719e-01,-7.057529145701224582e-02,-2.186647250572881784e-02,-1.402860570236897919e-01,8.554245873138025535e-01,9.146878148314716572e-01,9.729798705095898947e-01,1.469932458876788139e+00,6.626390447275475326e-01,2.125846771517865275e+00,1.421799816642882686e+00,4.100889499533303950e-01,3.210780346983519995e-01,1.758695908727493928e-01,1.746460374764598367e+00,1.368262956759945137e+00,1.676362609071712750e+00,2.001110542640907042e+00,1.213859090626385084e+00,2.693241765200130033e-01,3.016855075413863996e-01,1.181418476137145568e+00,-1.143138585273303143e+00,7.331518405547405859e-01,5.704947631519918794e-01,9.198346493492612908e-01,1.241802797912721967e+00,6.169863924748399953e-01,-1.784242893553241949e+00,-1.596377651607193693e-01,-5.052139282544995114e-01,5.979619843660093359e-01,6.054286181693312452e-01,6.380647665436478544e-01,6.533365426489868844e-01,2.967743509782994060e-01,-3.239590605562778780e-01,9.592743667278895714e-01,2.038182727070897982e-01,5.642030674082181285e-01,1.655494713254721972e+00,1.869286904508181690e-01,9.625191631343894549e-01,1.045046532727356814e+00,-1.440830068349246984e-01,-4.004938345087557527e-01,-4.132089469086408506e-02,1.462828991759508868e-01,2.227322079748272898e-02,1.050441631510428353e+00,7.002135066900160298e-01,-9.021907171124398106e-01,5.906399324813653706e-01,-1.686404978337657790e-01,7.222820736085312499e-01,4.581479295670814467e-01,1.908446900080165154e+00,1.273550022824585515e+00,6.261472179888788459e-01,2.388298668349443155e+00,2.117186782818476942e+00,1.156922958054720674e+00,2.173282160991092837e+00,6.198806070358935383e-01,-6.447873559384103004e-01,8.418495970880980617e-02,-1.335473809422659253e-01,2.795416942075950595e-01,1.290946760324718667e+00,5.021874043205765137e-01,6.118423206016849747e-01,2.305723808873196834e+00,5.573970917145688597e-01,1.246952994187964237e+00,-8.955422266828284572e-01,5.725587606655510031e-01,1.127650188512460794e+00,2.140925242041253340e-01,4.545095153897423801e-01,1.008115610529833228e+00,-2.644738621519305832e-01,1.094314215182772054e+00,9.702983280255409460e-01,4.153963646739411431e-02,-1.081821919913476648e+00,1.437472237535074027e-01,1.221967312862636712e+00,-2.253022715031686996e-01,1.269519985930864348e+00,6.800459032923428238e-01,2.543969795667433975e-01,-5.719597363433053250e-01,-1.229352738390070698e-01,7.350210918456934195e-01,5.187496605936874235e-03,6.064969681191741818e-02,9.123814286160760734e-01,1.357898798718367495e+00,-7.136394795216893794e-01,2.852346778760787016e-01,-8.195082918326010435e-02,4.604864049354153721e-01,2.096712725359380691e+00,7.959486798454752376e-01,3.615725925973840571e-01,1.359478543070858358e-01,7.318908940154659204e-01,3.033908241735558065e+00,2.119523454674462570e+00,-1.546500877241946625e+00,-2.189665955083086590e-02,1.321397883845416787e+00,6.567278592084577760e-01,1.494438900573471285e+00,6.057610886123276916e-01,1.090479450624309843e-01,1.908858235963120320e+00,4.418219172157020203e-01,-6.297532187516743374e-01,5.949126459942256639e-01,1.161344239984870352e+00,2.151252885042845286e-02,-1.670804347271136692e+00,1.132685134924668935e+00,8.045833911993476306e-01,-1.569459308540423592e+00,-5.378648152551380734e-01,3.764245839347439282e-01,2.038566512500536110e+00,1.142464011045071892e+00,9.800646425768282377e-01,4.325089444167553449e-02,-4.131055737272443934e-02,-2.073935706416856969e-02,2.105346924636938954e+00,1.418434823564847402e+00,9.565227612252324985e-01,1.297235853113195336e+00,7.819641887739805508e-01,3.163286867162906080e-01,-1.315571214135430544e+00,3.583391167668991129e-01,-2.291592186822478949e-01,-1.059353445921064285e+00,1.979123589199097255e+00,-2.001624671758699958e-01,1.232711392779782589e+00,9.697318510133987601e-01,-4.046944343846237135e-01,2.531996041582367685e+00,-3.846836035872916448e-02,1.329569876916678384e+00,1.547225968379309924e+00,8.996480555658317169e-01,2.202511375793893222e+00,-8.088475779617919637e-01,1.194841393383064609e+00,-1.850430409163038581e-01,1.031276782164841199e+00,6.293840795730901716e-01,1.736657850075301379e+00,2.764755012890831032e-01,1.042652674154014081e+00,2.805938789567468117e+00,4.582602557256193476e-01,-1.318184381452087939e+00,4.935442422339801349e-01,9.246339099048309640e-01,2.990966970979893613e-01,1.640129078757911918e+00,1.964417984590169919e+00,-4.507705310973544321e-01,1.000776881983014510e+00,5.948295271436063736e-01,1.782469701924702110e-01,1.683480712780083488e+00,1.278559144532427583e+00,1.041291471724075324e+00,-2.264439127842192423e-02,1.732884644750694259e+00,-4.448094834432479994e-01,1.641406381047424701e-01,2.747579938127833632e+00,9.181340200569511056e-01,6.518853894121310333e-01,8.722740442776073522e-01,2.194846381642522548e+00,4.659103189607696205e-01,4.623323537319496968e-01,-1.299808153784902942e-01,-7.094234666499527053e-01,-3.742127352002292406e-01,-1.621533365300802387e+00,-2.383734258118209715e-01,2.111157699737653104e+00,3.856718353266601618e-01,1.097361094149361227e+00,9.203721605607982637e-02,6.770689003950214335e-01,8.308318556639484598e-01,2.047258283879080487e+00,-7.580429932245462410e-02,-2.453357096650513880e-01,6.908885179262987952e-01,-7.797829395019957310e-01,-5.718969442994340513e-01,1.408677030992169454e+00,2.534528588646214886e-01,2.009455638089332030e+00,-1.774100538418921236e+00,-4.716481614115275445e-01,2.220560341244675495e+00,1.249312231009872542e+00,1.088345465037273030e+00,-1.350776593686179028e-01,-4.877266325072343589e-01,1.255767104963235736e+00,-3.439444390426903975e-01,-3.443446652373308159e-01,4.288109189794443998e-01,-2.892922360253024627e-01,-5.598495087504413714e-01,1.136425887816080227e+00,1.294052417564265589e+00,5.733230944012041030e-01,7.397060310974810093e-01,-1.769427343335466252e-01,-1.480548825593886120e+00,1.808127965575772489e+00,9.663292216232333143e-01,5.888247619970076174e-01,1.426815991277279094e+00,2.275310223688100209e+00,1.384937427679483246e+00,1.813791120473226881e+00,3.982717913774234120e-01,2.285649902481078133e+00,1.551016525331182727e+00,3.024852133004997112e-01,1.473131254281110802e+00,7.792212090638174216e-01,1.582870349837130153e+00,2.923676208958344014e-01,9.234338571165699727e-02,1.352814329896187884e+00,1.221949756969880341e-01,-1.314929148757185029e+00,8.969978037108177205e-01,2.137301982289266267e+00,1.291496673039138621e+00,4.252074954209839053e-02,1.025059667051750334e-01,-1.083343265625523744e-01,2.732428332275432803e-01,1.997799764395423505e+00,2.976954238519396334e+00,9.449944315929291738e-01,3.224139914153121733e+00,1.125583814731626831e+00,2.191160325834469624e+00,6.071789379009330245e-01,1.436923612485702551e+00,2.301816575790665897e+00,3.201429038850263975e+00,1.112642714128016852e+00,1.306425505893441308e+00,2.651171268126228386e-01,1.095575319799214631e+00,9.699915678606995106e-01,-8.156677786808795849e-01,1.970340154754256279e+00,7.255707716031385424e-01,1.412389009744310808e+00,-4.847602803588980658e-01,7.084291521428152105e-01,-3.031947268167370368e-01,2.304239190711575569e-01,7.665233242820360671e-01,1.790057787774644638e+00,1.329686611654509187e+00,1.065297357074525664e+00,-6.589971009445915184e-01,1.325249693712685195e+00,-1.513420656380257912e+00,7.409099893396629000e-01,7.039550251100085143e-01,-6.233923026377102827e-01,1.122640686263529419e+00,1.280102690359283812e+00,4.361596479537429571e-01,1.472480786828237465e+00,1.760107380563115109e+00,1.921837419544526915e+00,1.621482165421011867e+00,1.333917057942652473e+00,3.337142172660510497e-01,1.778276397117950935e+00,1.414418187728949006e+00,4.118977379707151609e-01,3.738256813526779632e-01,1.273202127431122488e+00,-6.296298862875053803e-01,1.003932345896498157e+00,-1.008120196322641382e+00,6.647968483228322567e-01,7.597081682930689750e-01,-7.798552562420490997e-02,8.789840386871127231e-01,3.832188766161587767e-01,-9.484384883356451468e-01,1.620452745722070098e+00,1.305898493539086491e+00,5.777280105393738374e-01,2.501039676626695130e+00,1.588676120948319115e+00,1.507439888455571309e+00,1.695278229288820659e+00,-4.111203697036043825e-01,6.575701359159870085e-01,1.014074265721889301e+00,-2.035027742453652810e-01,9.622269510494243505e-01,-1.060673238540639912e-01,3.238503866072788839e-01,7.765641706237419450e-01,2.103991301956340099e+00,1.720642264189774950e+00,1.690493502715469054e+00,1.285285230583677940e+00,9.692380815417799000e-02,4.859032022720788935e-01,-3.195292209731940419e-02,5.089876955789038870e-01,2.938730247460774048e-01,1.027832836758891810e+00,3.326732723640463130e-01,1.743539542011262267e+00,1.977040128033221489e+00,8.979747896536305340e-01,3.313161926673451330e-01,1.856887485098414503e+00,1.228723602643919888e+00,7.681737642556312196e-01,2.456393026448948191e+00,2.550182064382630731e+00,2.444231173788237399e+00,-4.291335805885762023e-01,3.424664448497536373e-01,-8.686107619925523826e-01,4.393200505927924993e-01,3.011464939448181610e+00,1.036662906376532467e+00,2.689700102262954085e-01,5.511190096019225049e-01,2.941421415481061952e-01,8.464300840784647617e-01,9.790641756537437068e-01,9.266613120654269009e-01,4.125939859088573747e-01,6.993290577259496654e-01,1.325475816473802082e+00,1.641422547871114190e+00,1.912784843554248937e+00,2.035490880959317295e+00,2.254920105675219055e+00,1.024358317092554760e+00,-2.380789765505404998e-01,1.454830999488378351e+00,1.473657361460069870e+00,3.920896515773547031e-01,9.520951562025494752e-01,1.901533221201139323e-01,-2.367595814705990009e-01,-3.413163761628087434e-01,1.398739714998083805e+00,-1.551522786498951367e+00,-1.268180567636092437e+00,7.571495351779106153e-01,2.375940686084919928e+00,-3.585305616266077355e-01,2.758219355505966419e-01,3.105999424390831209e-01,9.607805422480767410e-01,4.030077614864087665e-01,7.452996076916836854e-01,1.836480545448857971e+00,-1.314214384487614407e+00,9.220498848733585939e-01,1.294565926200981876e+00,5.999998829210646534e-01,7.798379315050968374e-01,-2.911265983405779689e-01,-3.746462288173454391e-01,1.785391634693147100e+00,2.927981577309223260e-01,1.859868409566672209e+00,1.464344919545379264e+00,3.397416135256357439e+00,3.325415492071827739e+00,1.768166073670226268e+00,1.428426978701763383e+00,1.160281374817221600e+00,-1.064637475194131766e-01,-1.244957300038006753e+00,-3.150515287439039636e-01,2.055760198042487497e-02,1.459864279710786805e+00,1.636777093505121794e+00,1.327862627652483640e+00,7.155329672970273114e-01,1.842930502972467188e+00,1.216701736695971814e+00,8.965139867139861884e-01,6.912165322647616517e-01,-6.178278510820558456e-01,1.099417715248961258e+00,-4.549427662744084389e-01,4.620320152373306732e-01,7.918310303790643268e-02,2.187834386483353821e-01,1.697203049677594278e+00,1.694478058264527132e+00,6.889534475195804308e-01,1.143870669632090498e-01,2.134735556540008350e+00,1.700313343190198889e+00,2.520172895764511534e+00,8.823377378303416674e-02,3.049156890643102358e+00,3.293348724130508720e-01,-1.151922633362758575e+00,-1.031429768489948051e+00,4.975619729243447864e-01,2.062784905287758708e+00,2.177049625040719416e+00,1.244076893975804676e+00,-6.671420786172859163e-01,9.108509382756633244e-01,2.409383523563096929e+00,1.105492594130806028e+00,2.031083106064391242e+00,1.908218467483818515e+00,1.759110837590536658e+00,1.714887819971414595e-01,2.686613853471230495e+00,2.008450211881786185e+00,2.555595756601359181e+00,4.223350533057963485e-01,1.614647088285094068e+00,8.765868201556246131e-01,2.664769007542505008e+00,2.113135484397685282e+00,1.042124750244809439e+00,3.005297662073645348e+00,2.575251661573325190e+00,2.548555281541826645e+00,1.921097253464562504e+00,6.899237419070195498e-01,-3.500340745526214770e-01,1.846175586102054567e-01,1.279149331065193351e+00,1.535485999895059184e+00,1.710810147699195483e+00,3.263185810165535994e+00,2.725844536100170412e+00,3.208182056918872149e+00,9.210560517773751510e-01,1.204371267429918069e+00,3.460442567911222178e-01,2.685129005176182027e+00,9.099874727717621736e-01,-8.653319217188960577e-01,1.114686243298912860e+00,1.288866047799982040e+00,2.784101164394725547e+00,1.618816127653732950e+00,2.409682447534613470e-01,1.003984312503591880e+00,3.045314232007281241e-01,-2.666952967867001201e-01,1.898837872937836346e+00,2.949080684030498833e+00,1.377199528196131340e+00,3.600071273615872869e+00,-3.940236606162237920e-01,1.272112527640476332e+00,1.782860795269947118e+00,1.893699083116147763e+00,7.192486860511575486e-01,2.550717091149997007e+00,2.172301698505595180e+00,2.658974058891398595e+00,1.065240566467913430e+00,8.546073204455022498e-01,2.622423252871266403e-02,1.214046272666964299e+00,4.606881773016602843e-01,8.523168934780617212e-01,1.721254940714406212e+00,1.903552547499941294e+00,-3.880703266432801168e-01,1.086522074979029417e-01,-1.897642693042254081e-01,1.022738130782510080e+00,1.903110550452672634e+00,9.764551111629860003e-01,3.783640525686108869e-01,1.023627513618228901e+00,1.465970891484690508e+00,2.389579462281624433e+00,2.042213276949740308e+00,2.232238798250219869e+00,1.859401058782619520e+00,-2.748478233066858345e-01,2.168866592897635392e+00,1.060630218744383901e+00,1.517722918119367881e+00,5.292165229034729856e-01,1.043626622168048135e+00,9.138328677541052159e-01,8.057071430180134941e-01,1.150940782037780163e+00,1.580198358721755847e+00,2.178876104075649689e+00,1.735854165080144229e+00,2.798720504053346048e+00,2.290908896192307864e+00,2.990114782317360387e+00,-3.002595429212124856e-01,2.336773561108417496e+00,-7.713952647589213951e-01,2.632741690072231688e-01,9.597580635919922276e-02,6.737536411707950590e-01,1.011847970486896786e+00,1.481079172575429759e+00,9.523231813446606520e-01,5.879432149155349174e-01,1.155653808153235484e+00,7.139991762973080247e-01,-5.114972182544103019e-02,-4.905967787002090130e-01,-1.566738379274534632e+00,1.003678814195468005e+00,1.649949931155464400e+00,5.392337054654205986e-01,5.185218623808404148e-01,6.494642503846508319e-01,1.790505728487559622e+00,2.069562656632018438e+00,1.242306654637882035e+00,1.581273304712560890e+00,1.099471079893186154e+00,-8.216045855139109122e-01,2.567815620519855457e+00,1.645898906401620732e+00,4.092663257130932930e-01,2.660861670974552062e+00,2.165193487008628459e+00,1.153726910294414987e+00,-6.854140315734487121e-01,-2.248304623048990591e-01,-2.175955224590082893e-01,-3.096476027536975706e-01,-8.230441529531886680e-01,8.612226814239763995e-01,-7.473906996880855802e-01,1.454396904845811189e+00,-1.297410399761664453e-03,1.849431629972256630e+00,4.329153373538708327e-01,2.000984670724418546e+00,2.372823955604402180e+00,-5.070746557099822249e-01,-1.721120784314841001e-01,-3.265806172114687489e-01,-1.347208973877660199e-01,-4.635650726175505887e-01,2.473180278129889054e+00,1.286873554671574549e-01,1.826612678156242620e+00,2.806910079590457130e+00,3.134986688595620130e-01,2.072367866559760241e+00,3.408157507379502071e+00,-6.828176430817078923e-02,1.559554818244646812e+00,6.066304654097658400e-01,2.884543918617163416e-01,9.778137937325959150e-01,-5.955825757906744178e-01,2.531620424612207598e-01,2.873985780605132767e-01,-3.092078094268873034e-01,8.983405719394454980e-01,-8.102741826107354717e-01,3.508448834576331499e-01,1.630519626593486926e+00,-9.220915258162358796e-01,2.419456172015857845e-02,-2.361031555313604924e-01,8.983386424726438890e-02,3.780022000174538266e-01,-3.369405988184779877e-01,-2.785222162380491806e-01,-7.959498677007834644e-01,-1.487023262642303445e+00,7.996167583385478395e-01,-8.353679041497710234e-01,7.874009975809715955e-01,-6.474951097618626417e-01,5.401691866268737430e-01,1.377920423909621828e-01,1.573136009028896165e+00,-6.442460559950353716e-01,1.886097222292875797e+00,1.065795082049219300e-01,2.104706292886401542e+00,5.228207332987895306e-01,8.473331720202360584e-01,1.169834896812941505e+00,-9.273817782813857657e-02,2.636930365449833835e-01,6.726511285016312236e-01,-8.719142779072888705e-02,-9.537379963828011009e-01,1.068143272950351358e-01,3.892727853398216253e-01,-2.916613505762601921e-01,-7.601401704983078433e-01,8.203964327303751025e-01,-4.146187558462836875e-02,4.255840328801445138e-01,-1.386052834174203108e+00,-1.006534052325696704e+00,1.096130916164329339e+00,-1.230151784143542537e+00,2.456923263444679706e-02,4.599120768826978622e-01,1.898795762052020830e+00,8.141943952047292488e-01,-4.001351592015731096e-01,-1.979413266802729776e+00,-1.981010525290961111e+00,1.497734977267688894e+00,8.761315827398794553e-01,-1.217698936026752943e+00,-8.695736355945389295e-01,-6.027247434284469657e-02,2.043447872393096554e-01,-1.699870114996130388e+00,-1.209499821684533849e+00,-5.265567933733192874e-01,-1.297367594830267368e-01,7.011401364310246853e-01,-1.608568521521693828e-01,-5.544462904935997249e-01,-1.799191935240185058e+00,-1.541764465125037509e+00,-3.126943809935056051e-01,-4.246048212386847598e-01,5.294245806830309986e-01,-3.700907486021179360e-01,2.586680834136947382e+00,-1.189635477373890415e+00,4.810665355079301458e-02,6.571656350811458380e-02,1.728355654269539743e+00,2.790356900201529378e-01,1.035785749056125749e+00,1.822421610983803397e+00,1.995375590431345270e+00,6.783008647119660450e-01,1.036721868296431426e+00,-3.293449050276411882e-01,-2.154341029626162918e+00,-8.980128648745261399e-02,7.417165498041802252e-01,-9.637309967671465749e-01,6.899802015793747856e-01,-1.192839552613993659e+00,5.694305521154437999e-01,-3.904899159221328908e-01,-1.119250185096819283e+00,7.988849419574918231e-01,4.793570375264475381e-01,-8.177105281661368741e-01,-5.619135038839819796e-01,-2.116043452438577388e-01,-2.298837714209875926e-01,6.280274647349499278e-03,-1.810566877695494403e+00,7.259171172822745932e-01,1.473142801799546930e+00,1.440696696033129776e+00,3.676314771520260427e-01,6.412199148337481835e-01,-4.208330723724235112e-02,9.123123993473662985e-01,-2.095050918259129813e-01,1.564261474838795962e+00,6.713424773886107755e-02,1.467669135804376968e-01,5.563177205616690602e-01,2.166053623181088128e-01,1.550867740277494855e+00,-1.290205229528543107e+00,6.412238771151757000e-01,2.064793668494133261e+00,-5.110009506085226860e-01,7.242086234605921158e-01,3.182250436991156950e-01,8.440783670126678073e-01,-8.843286170550687109e-01,1.809188623805181750e+00,-1.421691029743781920e+00,7.399337487611267195e-01,1.342442709645186749e+00,1.399694214183841545e+00,1.328765866731268508e+00,1.078357309534712316e+00,2.401417117009404523e-01,-1.753764065458664478e-01,1.181019095736213220e+00,2.699058776052624786e+00,-1.577312025153656094e+00,1.928099624024252057e+00,2.462314817876231743e+00,7.131241986104872588e-01,4.829473144692115749e-01,8.653770908180378196e-01,-1.361793439373196746e-01,-1.067113432028796050e+00,7.275419354203049860e-01,-4.505769561213101015e-01,1.434064671079847031e+00,-6.412227859751991055e-01,1.739928225322767918e+00,-5.242008166334646280e-01,1.520250592580791649e+00,1.368446299144195688e+00,4.329841151881815842e-01,2.065690801838369374e-03,4.974106428259094520e-02,1.229356455651430119e-01,1.612121368196682614e+00,-5.367901771971178571e-02,1.898646032450141075e+00,-1.293540545392843688e+00,-1.841673984878618442e-01,1.441241572902048906e+00,6.999351364919705887e-01,5.773266437656215944e-01,-2.773649437054078737e-01,-3.883585439534109618e-02,1.412676041221061718e+00,8.310976463168455730e-01,1.454480646401217436e+00,-2.633315831963641274e-01,-7.079179782903979312e-01,1.635147126192726175e+00,1.479361658815444291e-01,1.400119413868596840e+00,-3.933817123079184630e-01,-2.382888448491134459e-01,2.711091662905854349e+00,6.085864332292119094e-01,1.069258298452672395e+00,1.948836650503304568e+00,2.732575524152902058e-01,1.311845999962070186e+00,1.991653126548334374e+00,6.072622698403743469e-01,8.516915188371358969e-01,-5.726625172638227790e-01,6.406906548017791136e-01,1.904910444444811279e+00,-7.494525662262910837e-01,-3.637713771677787977e-01,2.436963743490472289e-02,6.199612396166366279e-01,2.166058726451929040e-01
