-1.140464108013111710e+00,-1.090109632606131695e+00,1.230323586235162192e-01,-9.378695325547803385e-01,9.002999438495855600e-01,1.632034803100780584e-02,5.831320798816179707e-01,-6.049450266530730369e-01,-5.619708268550717423e-02,-9.847368213344507293e-01,-6.959266449568929369e-02,-8.105837231798934672e-02,4.121891253697012591e-01,-3.455585837287747930e-01,4.469068157807759567e-03,-2.125855575191389624e-01,-1.602023205382907101e+00,1.343693126045877873e-01,-3.263960989370627841e-01,3.887373499309453306e-01,2.511022348007148075e-01,6.271476985962034512e-01,1.149242157041838075e+00,-7.191822640214743378e-01,-1.066985397798771773e+00,-4.768115424263157931e-01,2.069801475142233116e+00,-1.281674691037566260e+00,3.673130534575497208e-02,-4.531795279181278779e-01
-1.318648303806702504e+00,-2.749943067184649204e-01,5.493474981936433688e-01,-4.024249379713957381e-02,1.779707523989364493e+00,-6.521873836938818503e-01,3.511817369202027694e-01,1.165157586006281276e+00,1.318605824384256990e-02,1.486512431351580066e+00,3.611136484157422277e-01,2.124088561279968701e-01,2.644531990972705596e-02,-1.171215901849028906e+00,3.369879956458298742e-01,1.243322229185768180e+00,1.164897006412063840e+00,-4.129046498512541907e-01,3.804853260977862917e-01,-3.648101409512206628e-01,-3.562403262824339611e-01,7.165250658633048886e-01,1.956329773503029834e+00,-9.113500492752829585e-01,8.589101198898894951e-02,6.331094843497705460e-01,-4.036538381378310669e-01,2.440347437655914220e-01,7.348714638529280085e-01,1.830273855302287367e-01
