-7.120978910439953458e-01,-5.120134867920089761e-01,1.411994871604948854e+00,-5.158437948050322852e-01,-7.252344008696847144e-01,-6.309975649986531154e-01,7.970851415582977939e-01,1.592562520452226016e+00,9.916128313617319501e-01,-6.346629131675066704e-01,-3.465985976535906898e-01,3.683319109506361655e-01,-1.102720558252175076e+00,-3.644417655971998737e-01,-4.594340693486856919e-01,-1.829128301938233170e+00,-4.391373004928992296e-01,-5.814205339534030820e-02,3.275744666577569686e-01,9.082005230982781452e-01,-1.440852274913341002e+00,-1.409794825848465216e-01,1.197461263480034566e+00,-9.864911814930846790e-01,5.470004035816120602e-01,-1.039770876989015269e+00,6.460638041301099976e-01,-1.011835826733200161e+00,-1.195416209162008192e+00,-1.365668900435006439e+00,1.767225462502346744e-01,-1.566662081912331583e+00,8.525083201434005553e-02,2.471187893317479053e-02,-2.864007849361320246e-01,-1.747940567780366994e+00,-1.658665367870649332e+00,-7.309683064974683564e-01,-1.191697772129312050e+00,-1.483051196881597589e+00,-1.880036536554047899e+00,-5.363242513314661064e-01,9.813033476884093220e-01,-1.298011586850841281e+00,-2.524661107739697652e+00,1.072659628416098743e+00,5.445053592758869465e-01,4.273647144458979641e-01,-1.681308762145167668e+00,1.323708415241794611e+00,3.213946014853001909e-01,3.723306923832305632e-02,4.657665597299354698e-01,-1.578541947585557104e+00,-7.336209495769330236e-01,-1.194378391562940900e+00,-1.216656266216255222e+00,1.578414292386580264e+00,-1.880523691790672025e+00,-6.985493572920179473e-01,-2.827829009309285047e-01,4.593482205879919622e-01,-6.105892443308359452e-01,-1.779705320198736507e+00,8.807550799913254069e-01,5.803674240598701850e-01,5.039144540925922788e-01,-2.729981132228365484e-02,9.154421249460403809e-02,-1.961804213397140007e-01,1.391474581496560559e+00,-1.146873292990973070e+00,-9.295730985763279719e-01,1.488108634775100692e+00,8.566125841216591930e-01,5.877753675722605653e-01,-1.681746391982215982e+00,4.487265140079531034e-01,-1.290846540456522584e+00,9.112448667257938562e-01,-4.126938129916166154e-01,6.060332038450842729e-02,1.803423141183696288e+00,7.490486796940458714e-01,-5.007289005988745101e-02,2.144792112773045378e+00,5.219533742711682800e-01,1.362431982366186567e+00,-1.264798992645576714e+00,7.300334304373091721e-01,4.997772470819745738e-01,9.778649755800251642e-01,4.006080691823228346e-01,-1.367611765264589829e+00,2.132079407352021949e+00,-3.490648516610184715e-01,6.522295254114051088e-01,-8.243495176104391753e-01,6.674388014239810429e-01,1.059004531578310759e+00,4.799869185126561244e-01,8.784303077025122919e-01,7.028206610036960011e-01,1.852660578724061535e+00,5.447284060213122281e-01,4.566754971100495664e-01,9.996243313669147534e-01,-3.209356284504853996e-01,1.068004641016250700e+00,2.337161231609407253e+00,-1.072403528172472642e+00,4.703315092085142424e-01,-1.264704140746658600e+00,8.779578945419195257e-01,9.170477125299381083e-01,3.884989356790953807e-01,-1.072651069292750670e+00,3.983994149105039573e-01,4.012312976435359335e-01,-3.360529160248846292e-01,8.055341900222803275e-01,-1.320884980447064150e+00,-1.308327479685306605e+00,2.833614056021646621e-01,-2.548735872901455313e-01,7.330712087035388125e-01,-8.253890874452876059e-01,-6.997015524029354117e-01,-7.564840516462441045e-01,4.186129885149840191e-01,-4.484568082665238431e-01,2.084057910106185130e+00,-7.216676871048736119e-01,1.678834451415014695e-01,8.138915024988812030e-01,1.463336058962313446e+00,-1.598182124975678908e+00,-7.433994491064997989e-01,-9.570340156015958444e-01,1.052257122687064950e+00,6.385169949970972425e-01,8.176508525702612384e-02,-5.129489362792213347e-01,-1.214736433158213780e+00,-1.860322229877111377e+00,-6.755043079445741672e-01,9.133342696618408640e-02,8.229214601670447049e-01,-1.738736210735377374e-01,-1.520629883941442717e+00,1.158123026733264060e+00,-8.390231757535678847e-01,-1.321443769198304752e+00,-5.942596044518396736e-01,-6.457334469163275026e-01,-9.947187951308613663e-01,-7.019137465648750407e-02,-1.315394808864372100e+00,-4.680163087758423823e-02,-5.240736098565331597e-02,-1.205055321236121912e+00,-4.293047214988732763e-01,4.764044006533237896e-01,3.110661474802098314e-01,1.292279474558527763e+00,-2.524991213006232416e-01,3.353635442024129332e-01,4.340647616350949978e-01,3.560156334555911739e-01,-1.618846625448357335e+00,-1.597825345551978193e+00,-5.713856862649272506e-01,-8.064275448750264363e-01,3.782554013132422011e-01,-6.783349319807800981e-01,-8.719181478015489706e-01,-1.377507599790953163e+00,-6.147890774647515322e-01,-1.851983121552472911e+00,-2.129019481662857594e+00,-6.545950027620690559e-01,-5.654565000572482347e-01,-7.849082832689389111e-01,-7.861404595605349099e-01,3.788638916580264193e-01,9.173855864232376145e-02,3.933115862806382812e-01,-1.612067202450911951e+00,1.332364377239063202e+00,-9.231099584066955188e-01,-9.696939577971602775e-01,-1.389842212962006940e+00,-5.326145426793371662e-01,-8.749145259472397296e-01,-1.983083426975815466e-01,6.278814943932512493e-01,4.279014069887531607e-02,-8.444578807879998816e-01,1.086905688398327602e-01,-1.981052330829023544e+00,-8.954212002295279804e-01,-1.403084607584960342e+00,-5.032453269665223550e-01,-2.570026548704816838e-01,-1.444303026788344324e+00,-1.062150418204892866e+00,-1.757977561015140022e+00,-8.277772233289776294e-02,-5.400015891056594297e-01,-6.785602275125468541e-01,5.401796300081588287e-01,-1.728850509337519270e+00,-1.130643597651447063e+00,-1.270257510479768426e+00,-3.476730323336571504e-01,-1.505604589382194547e-01,-1.217719315937290547e+00,-6.252828051512268059e-01,-9.845628149937858398e-01,-1.187165545320695736e+00,-8.763360000978416275e-01,-2.839492784585881391e-01,-2.029491923387317931e-01,-7.519208101798234845e-01,7.569114851394617149e-01,-3.345821188697894466e-01,2.708991759873961236e+00,-7.058794937666783564e-01,-5.699394277404823406e-01,-2.225962684295343497e+00,-9.484611256545436575e-01,-2.146888945951693994e+00,-1.151958689616795928e+00,-4.413164518809036818e-01,-1.812635387537752552e+00,-3.024561507733058430e-01,-1.276661893126497027e+00,-4.335365002960933634e-01,-8.525260451388247951e-01,-1.741722631556244238e-01,7.778074563476973513e-02,-6.755816318033440737e-01,-1.090874589754324608e+00,-1.097129212312375035e+00,-1.042963739983288507e+00,5.717857769584614447e-01,-1.873418249931554369e+00,1.453026383245596742e+00,-1.381465968793679666e+00,1.427573528131627301e+00,5.538221181321653086e-01,1.866351829778987614e+00,-4.695932808885150966e-01,4.996161004956093388e-01,5.040565358448095834e-01,-5.045974505852587194e-02,-1.708727173589004389e+00,-1.661445661023946530e+00,-4.935238267246284671e-01,-9.199820051380261932e-01,-8.332704602037589725e-02,-1.395561613414005198e+00,-9.586198514064323550e-01,-1.260845183705253891e+00,-9.798968000252630262e-01,4.031743467747680443e-01,-5.811556006780080885e-01,-2.889776071578257222e-01,-3.799257716122145467e+00,-6.840840312520575506e-02,-6.916091954388367546e-02,-1.843167668119241487e+00,3.797904993540853202e-01,-1.797479536060276439e+00,-1.278973082453964016e+00,-2.596025109057298774e+00,-3.213006647973639218e+00,-2.185807896549538665e+00,-1.317163478950322153e+00,-9.560038623984847828e-01,-1.914072111801516041e+00,-5.548925985663387683e-01,1.587801328174738846e-01,-1.592450309404745079e+00,-2.497666105620057309e+00,-2.456649977583035493e+00,-3.125923182717257331e-01,3.571992408735866209e-01,1.034223330523682760e+00,-5.763090044033650772e-01,-7.951504847731273307e-01,1.162217246023881656e-01,-6.727241479727643636e-01,-2.316458864363699188e+00,-2.078920644063681600e+00,-7.694472573420028105e-01,-6.233634537063821313e-01,-4.493203042542077696e-01,-8.942694086983999924e-01,2.243316713670364948e-01,-1.313790843869748093e+00,-9.725020082371118590e-01,-5.246739519187335749e-02,-9.291943941924490913e-01,-2.612231495187966601e+00,2.721505184587827419e-01,-6.384008154602265339e-01,6.072316375381924258e-01,-2.889317561288744951e+00,2.914267718155195142e-01,-1.204890592033198704e+00,-1.366070526213452485e+00,1.156632233590536435e-01,8.117057292789550127e-01,-6.791923336348613116e-01,4.942150619774240972e-01,-2.617319228251648311e-01,2.050294745125838425e+00,8.627849563693320567e-01,-3.731331495677663868e-01,-1.033779305196794951e+00,-2.178964108817572853e+00,-6.719522177094137128e-01,-1.088546767933703974e+00,3.960911413865180752e-01,6.316966832974826307e-01,6.092302837326081244e-01,-5.252024960091624672e-01,1.858097313089456692e+00,-2.101466219522296619e-01,-1.750777446374926827e+00,-1.416417897577880947e+00,-1.937211938510317033e+00,-1.672014312373499845e+00,1.293690843281664407e-02,9.260982897568942329e-02,5.987325219843406821e-01,-1.037223112489059490e-01,-1.347144837917795268e+00,8.796623814322990231e-01,7.364207727767235756e-01,1.457122359407963197e+00,2.859930597749339665e+00,2.527620369641383480e-01,7.381376544291429198e-01,9.491196978965968922e-01,7.629435268789561686e-01,7.784891933807752684e-01,1.655597553139563249e+00,-1.064540899245610017e+00,-6.211205030809324734e-01,5.006739627595397923e-01,1.890572481413345551e+00,7.777807218350847318e-01,-1.367873640905206967e-01,1.207932570532148198e+00,1.909116238869644211e-01,1.269948208716625837e+00,-8.652817410395485798e-01,-1.474924343857371811e+00,-1.931445334750244491e+00,1.603976487512268900e-01,-2.069432354078648117e+00,1.812235308876606887e-01,1.798926440412761174e+00,7.211589693421276148e-02,-1.317936639258150688e-01,-1.274878226217835142e-01,7.592642285744741759e-01,1.360055448932170341e+00,1.114736816957003551e+00,1.811134521136814834e+00,8.567178573443415268e-02,1.676247242088574563e+00,2.828011589753616217e+00,2.728589979541935939e+00,7.839100455055955097e-01,3.771178758748851667e+00,1.695648190391088272e+00,1.122687675286375919e+00,-3.687815238621999780e-01,1.907435491704937647e+00,1.125225368481975075e+00,1.532896127807906961e+00,1.499296157650854999e+00,1.132777108561321189e+00,2.339224999466360977e+00,-7.351980307290576500e-01,7.536876880609204993e-03,-1.636278231709025865e+00,-2.135667591258077813e+00,6.197432048265926197e-01,7.953237796760177503e-01,-7.962528189246721455e-01,-8.854259863727684809e-01,-8.900556134836765665e-01,8.420020428066774532e-01,1.753612032780360597e+00,1.957946638542064965e+00,1.791822988384891513e+00,2.450261893538907554e+00,1.983221737874480084e+00,3.285692277576070519e-01,1.406249779367272357e+00,7.551924288667135610e-01,9.201472958916381284e-01,6.559395335670133997e-01,2.164617518785100447e+00,1.813623577513692187e+00,3.222042432457227767e-01,2.318944692480434666e-01,1.134287534523216401e+00,1.675118411136533370e+00,-1.342634768462991124e+00,1.439814367743378787e+00,-9.902937242947959517e-02,-2.467614631736812225e-01,-1.529075363771323470e+00,-1.726894783627867191e+00,-7.839740778180114278e-01,1.935097462101143806e-01,2.555928125934733286e-01,1.578053151323513204e+00,-1.397121112995080239e+00,9.370439756200132919e-01,8.934740195799966145e-01,1.053161097351107411e+00,1.175940366538043458e+00,1.129828218466072176e+00,2.351225185222969027e-01,6.232304754447871575e-01,1.783711983829638026e+00,-5.039615654128916100e-01,1.031467257584754105e+00,7.695735739223263927e-01,2.182625172060408403e+00,1.399406635547306710e+00,2.500771397442189237e+00,5.580233158557490469e-01,5.554415123912828101e-01,-1.679511757422743889e-01,-2.978938984400291701e-01,1.144554419754187091e-01,1.158151121517950882e-01,6.617749176201942474e-01,1.465539718770030753e+00,-6.164539840808255233e-01,-7.399477453267312432e-01,1.650984581337244794e-01,4.380357223050699300e-01,1.761935037561862261e-01,-7.868402119955384411e-01,-4.388360753391486457e-01,1.393938638528344764e+00,2.038632672773361243e+00,8.335654960748871689e-01,-2.145086578231963914e-02,-5.466836475500734815e-01,9.057353869633427701e-01,1.946561106174080624e+00,4.671670723097230971e-01,-3.309033189902957917e-01,1.376523256029034359e+00,2.654415054998038759e+00,8.477141980546399891e-01,6.375032085080647483e-04,6.396655092187037983e-01,-1.346923839490792751e+00,1.907101260407883192e+00,-5.153251389071672461e-01,-1.457427992916659476e-01,2.599932715482234369e-01,3.079757918245860093e-01,-1.246674475296554840e+00,1.033359611086246410e+00,1.445006398530405800e+00,1.133054445642206032e+00,5.027272784091323388e-01,4.742980870316779729e-01,4.939858978537604584e-01,-7.847945232599746745e-01,4.843835255141652474e-01,7.227192855537505345e-01,2.279709642991152307e-01,1.523769970254636341e+00,6.183775394659394298e-01,1.192584744825111176e-01,6.161387762683165903e-01,-4.320808352566765653e-01,1.152306490400547695e-01,6.586676220419961370e-01,1.363877606267463349e+00,9.702592961306564234e-01,-5.746372520929868277e-02,3.527109008454253347e-01,3.845857231221312400e-01,-4.679743894794809456e-01,-3.057020977500970460e-01,-4.314218201035145972e-01,-2.567677087001876690e-01,-2.749609820620462219e+00,-1.683172084470710761e+00,8.129786988068723463e-01,-1.317745748318099597e-01,-1.883810318753711410e+00,2.836236967449023427e-01,-9.958015241831715825e-01,7.491232068167618108e-01,-1.270249516281529045e+00,-1.199044610535452193e+00,-5.051446344777037467e-01,-9.156010950507182528e-03,1.184330393148188776e+00,1.063955250697802724e+00,1.443037148189185936e+00,1.026707954950576429e+00,2.841930192685061529e-01,3.161697417923188813e-01,8.532065944926877643e-01,1.430289415299682343e+00,1.102804131340964888e+00,4.911016417763409692e-01,-1.256824060719159419e+00,1.297291292545413866e+00,1.819397544264074851e+00,-6.239845089629626473e-01,1.136748318507881106e-01,-1.954284780448715120e+00,-6.738766415782696528e-01,-1.100911282874923458e+00,-1.070596927607183391e+00,1.781877497554566814e+00,1.132670182201283016e+00,-7.389225721159612403e-01,-7.391440845637931023e-01,-7.250815008469594369e-01,-1.025651615129728224e-02,3.223081505319212448e-01,-7.081863672697430445e-01,-2.896444479906612468e+00,-1.286386940517950106e-01,-1.059754643880662428e+00,5.582798551068351989e-01,1.074187589925664765e+00,1.065033705829019350e+00,5.251183871786456736e-01,1.194968687914203853e+00,1.777988383780878812e-01,9.324251808166081901e-01,1.249040052359690067e+00,-2.127105045104567271e-01,1.055505768309640935e+00,8.845750499689124524e-01,-2.088798983500093520e+00,-1.773576855667672536e+00,-1.080933573659206726e+00,1.385316865498563699e+00,2.330923885965232589e+00,1.865881442558775249e-01,-1.144769919445470796e+00,-1.292265423164850047e+00,-7.658190747002502352e-01,8.849214173205073586e-02,-6.735600322141820362e-01,-1.557723901822701817e+00,-5.301116849241420681e-01,-1.716332954024338386e+00,-1.387027988316022586e+00,-2.153027695513503481e+00,-1.616173917484310940e-01,-1.820324877806031472e+00,1.687020986860083560e-01,1.136690013928031351e-03,4.796312045586683670e-01,-1.147743661827995698e-01,-3.285532419206110277e-01,1.113687121404403735e+00,1.310084897816743699e-01,7.017375367524354424e-01,-1.491570917118084649e+00,-1.465560422443501487e+00,-1.048737943155267083e-01,8.692917239057281753e-01,-2.314783055698302672e+00,1.383074783159554455e+00,-1.187452430801655856e+00,4.175524471292889617e-01,-1.029205920201497065e-01,-5.028236571809273636e-01,-3.405007888336172850e-01,1.831447928587673690e+00,-4.137185223917139165e-01,-2.985195446010928677e-01,9.080313764569476476e-01,-2.288527781226299407e+00,-1.869666208320628575e+00,-1.609824118107168411e+00,-1.390739924628022983e+00,-2.120451375780332270e+00,-1.502213144406154166e+00,-1.486243325131683557e+00,-3.174051871675419301e-02,-5.644490081137987225e-01,-1.924358106260431578e+00,-5.397227311241001857e-01,-2.105684965060032443e+00,-5.190258522528972129e-01,5.340341028380285460e-01,-2.793988604856118219e+00,8.506034665318099597e-01,-1.133040483340640225e+00,1.024323796014190713e-01,4.460575479649788178e-01,-5.234770498091419200e-02,3.734890598266771972e-02,7.076895541046495097e-01,2.628733653055905783e-01,1.303902258798898650e+00,2.195347567728854976e+00,-4.166869548518308819e-01,-4.180454564320648658e-01,-1.196765335119331031e+00,-2.919711704006088260e-01,-1.236762339857332860e+00,-1.562850010747217855e+00,-1.606480067762682262e+00,-1.715424641151157115e+00,-2.284893240933304259e+00,-1.934057904910863490e+00,-1.343110351229310495e-01,-1.766837623097169407e+00,-1.980300837149074233e+00,-1.676240665525526863e+00,-1.358940213944213271e+00,-2.094033970742308792e+00,-1.165422308145334540e+00,6.286079065770566743e-02,-1.445293159045058173e+00,-7.768975018721956394e-01,1.771691266924421693e-01,-1.812413076568649473e+00,1.709967269129441636e+00,3.796072425297750824e-02,1.827099610365111149e+00,-9.796385092479901191e-01,1.999616813802954918e-01,2.200436577726375912e-03,7.741294713727028265e-01,-9.889258100797865270e-01,4.811068114329897227e-01,-3.558688426763261803e-01,-1.236904099394254164e+00,-1.159234870456298694e+00,-1.520434424570729526e+00,-1.994769406299435666e+00,-1.565646070966537184e+00,-3.858397809628550501e+00,-3.914909764110114043e+00,-3.006936968430758306e+00,-1.702269926567487657e+00,-1.493026090641518921e+00,-2.606941933902022335e+00,-1.958701779011299493e+00,-2.111005242735966569e-01,-1.770621837738468152e+00,-4.743300687003804694e-01,-2.002471244840773601e-01,-1.327923025133319390e+00,-1.271236837868063185e+00,7.614521825708736591e-02,8.851619899557997551e-01,2.491081050038817246e-01,-2.716909667836020503e-01,-1.089922862235840562e+00,-5.731584312627673317e-01,-1.775677948505383075e-01,-7.613693243357634310e-01,-9.154101130143287302e-01,-2.008936310555266280e-01,1.970548828774864480e+00,8.477001342828063279e-01,-5.490100395675365785e-01,-1.188686575616803465e+00,1.868656759166375247e-01,1.713076151627858368e-01,-1.596214100479959486e+00,-3.887220798806416688e-01,-1.235251192902552253e+00,-1.644191731879996343e+00,1.830357870708466672e-01,-9.602136719975032930e-01,-9.939647184730288076e-02,-6.388836487800092501e-01,-1.582828397227319939e-01,8.837624099715433168e-01,-1.366230610028654979e+00,-1.396714884350119534e-01,8.261999811596754117e-01,1.363653697000088705e-01,-4.957855316578572147e-01,1.213203116555929606e+00,7.000952144227893248e-01,1.160151822359706930e+00,9.015017354909760083e-01,3.742113794531105597e-01,1.318016081801810957e+00,-2.063503475577808388e-01,1.261729030724604850e-01,9.681929302674487925e-01,2.756357866755375086e-01,2.373742237484904594e-01,-2.733386693528380151e-01,-7.726155006531034708e-01,7.415767011520641994e-01,-2.943439768594296457e-01,-2.440772236388893124e-01,-3.625915562608390541e-01,3.441100038678590600e-01,9.217724045712891723e-01,-5.046488126950336994e-01,2.958716776353132349e+00,1.789506711759791369e+00,-2.363163890936454958e-01,-1.347678108940632891e+00,-1.243735597830755601e+00,1.485529233702741037e+00,-8.994068257338461159e-01,-1.457710942819755440e+00,-7.492845307831962343e-01,6.738656361249366344e-02,-5.162507286819218999e-01,-1.127633184766682506e+00,3.621517323479902517e-01,-1.114711453798147844e-01,7.111021523532687905e-01,9.419284637210452171e-01,-5.180226482570290392e-01,4.626347900957620829e-01,-1.111000697254038050e+00,-7.004300073279343675e-01,6.658336459232164772e-01,-1.562841236089602237e+00,2.500748250794396776e-01,-9.682502653423182837e-01,-1.573306507955713363e+00,-4.685348236972188274e-01,5.174099601013376626e-01,-5.567552515582417927e-01,5.289659424921756559e-01,-4.484286903426311088e-01,6.624149747794138010e-01,-7.588440992103082650e-01,-5.166914549629133546e-01,3.750890702668083776e-01,6.539363800683262173e-01,6.572378208370832642e-01,8.635797873041117789e-01,2.493989436196281662e-01,6.068540534626567506e-01,1.845953189505546502e-02,3.084690942098498520e-02,-7.136025327286332764e-01,5.903750470960286156e-01,-8.638858480316655500e-03,3.140425712852721873e-01,1.913741590036161233e-01,-7.986503739974423199e-01,-8.935959994572061360e-01,-1.316733072336284671e+00,-1.816553748471427809e+00,-6.451435487027059601e-01,6.051887432990779025e-01,6.370780056397131741e-01,-7.801817528497610732e-02,-2.049402445990601562e-01,3.169618434156621922e-01,2.019007955434957979e-01,-6.622227368201606401e-01,2.674957322350466904e-01,1.514415193687808081e+00,4.023695990820655988e-01,2.051297345185137733e+00,1.522303629076854348e-01,7.319493348355549101e-01
-1.111126537667238567e+00,-3.664930581669584297e-01,-1.668029310433457146e+00,1.965044858925373283e-01,1.529440063543660910e+00,6.005485014093009388e-01,-4.848191568237587151e-02,1.555897538143661052e+00,-3.281569996338014605e-01,1.449275248421589612e+00,-6.756875709294231092e-01,1.309823980409899224e+00,-2.723981104539424103e-01,4.446849144516660246e-01,-3.305563793119108418e-01,6.168641302890087719e-01,1.446736555074642938e+00,-3.892288469700661002e-01,-2.224701324657112345e+00,-1.243432266562626731e+00,-3.377779622079327138e-02,4.144191853478368381e-01,2.223631618491680173e-01,7.901959312081552333e-01,-5.840109736574717464e-02,5.381352858780237280e-01,-7.638901370841152394e-01,-1.172281474677923319e+00,1.993639457871746457e+00,-1.333686270855036327e+00,-1.919774983395719170e+00,-3.829810556250473619e-01,-5.945469039055670257e-02,1.188812576258075460e+00,-4.032319215437819571e-01,-1.902537744483013160e+00,-1.733163727586825020e+00,8.640902253376748776e-01,5.557628470515198899e-02,-1.987989983245671555e+00,-1.634560646076882451e+00,1.617277019607124278e-01,-2.904701175511985589e-01,-2.019943525625301106e+00,-5.530745836838792950e-01,-8.220909163316548751e-01,-2.368765300991995115e+00,6.988350436925829801e-01,-4.145941396618249009e-01,2.163681483816879136e-01,-9.609121920362629909e-01,-9.454799974006856678e-01,-1.969798890767985311e-01,9.683957992941322201e-01,5.660920121992925047e-01,-9.453237952123348942e-01,-7.812562959601575541e-01,-5.860300598260960447e-02,-1.869185674999260249e-02,2.116434159919488578e-01,-1.601271201726922389e+00,-1.466401882885208785e+00,4.879737981735412511e-01,1.279009341904608688e+00,-1.713664136955859396e+00,-1.208525356739962087e+00,4.555656220988356375e-02,3.523706166864198908e-01,-2.327435482519413235e+00,4.478604249791980352e-01,-2.762149560857010688e-01,2.056950690811452098e-01,9.924232872635541103e-01,1.725409422008227445e+00,-2.210312972866379164e-02,2.166169043338945333e+00,-1.450588910758526140e+00,-1.035243941339633711e+00,-7.278713198711177501e-01,8.479334321901031979e-01,3.223779837289838301e+00,-2.700823058203151161e-01,-1.082201387719178287e+00,-3.941158956636316435e-01,5.298663201947578782e-01,7.409932085470222196e-01,-9.652942785504929901e-01,5.690695367554080564e-01,9.826576754789161094e-02,7.934042253482200824e-01,3.132638482198308871e-01,-2.087651293545169512e-02,-3.531493945655432842e-01,1.030182228814146006e+00,6.095648227195623603e-01,1.678172026832392971e+00,-2.988934256538664513e-01,9.653621367772795558e-01,-6.302348780072961620e-01,-1.055381697083069614e+00,-1.410033263614219434e+00,8.008255456414583584e-01,-1.509352674483441348e+00,-2.907946038511250234e-02,-2.172124555024396830e+00,-2.163791368895029710e-01,-1.572853645845314619e+00,5.901681044827745276e-02,-7.328369662961252695e-01,5.461005484004326505e-01,-5.535903697404206403e-01,4.212133393151462624e-01,-1.333438143805238507e+00,-1.548640488245741409e+00,-2.023137931947441570e-01,-3.050726575816655739e-01,-3.862525689358303760e-01,-1.998248674474665809e-01,1.355729334701538447e+00,-9.643675271908366819e-02,4.479895131127603625e-01,8.844162883797817010e-01,2.491260134512729707e-01,8.116190559543937644e-01,2.891337615755538160e-01,9.319673808833062179e-01,-8.374028079357733745e-01,-1.022489884535668025e+00,-2.103307919408833992e+00,-8.680232176807709532e-01,-1.268040545657683538e+00,-1.427398469064398379e+00,-1.707988745906218853e+00,4.431137857356294840e-01,6.039314766996671802e-01,-3.090993619571166806e-01,-3.219855203231979601e+00,4.020053192525475105e-01,-7.675565511736478497e-01,-4.236595721995117247e-01,1.581753363102752497e+00,-5.900954735205375945e-01,5.305351133128086150e-02,-4.586307308720576348e-01,1.146554779651571127e-01,2.286610567079771617e+00,-4.192134327732039978e-01,2.833394447985923548e-01,-1.489257834858106200e-01,5.059304262269666008e-01,1.113446794949255692e+00,2.799708083857761931e+00,1.311794246435542544e+00,3.182878131156606782e-01,-1.147872675471949266e-01,2.382046308031881665e+00,-2.793788610607864431e+00,-6.315063697797108633e-01,-8.919919918676977311e-01,-1.148984578057649086e+00,-2.103516362735363687e-01,-1.642149337047841273e+00,2.391274662945395979e-02,8.711825731514131199e-01,-2.063496072454507058e-01,-4.201724639151347418e-01,-5.437117203654994180e-01,1.055931014033890530e-01,4.035548372828840158e+00,-8.312679663331102864e-01,-9.715454256713096370e-01,-6.557861974368105473e-01,-6.012346675036825960e-01,-2.068004852625672796e-01,1.610469609496254950e+00,1.572226423963430486e+00,-7.763910278389508646e-01,1.938100825011848549e+00,-3.487285185377675401e-01,1.558982083500023874e+00,-1.703915303802141734e+00,-1.081851872090866307e+00,1.501788409667058621e+00,-1.695582951660319804e+00,8.403161048577136860e-01,-2.084273454702579631e+00,-6.700246245971367420e-01,-2.074870001331621694e+00,-6.063790595601822320e-01,-2.542306000127654730e+00,-7.711138064090120037e-02,-2.972382433936963109e-01,1.990042618219408088e-01,2.811432931001408009e-01,-1.126161586035360429e+00,2.470427134429485638e-01,5.796432244496946967e-02,-1.110240463169360980e+00,4.228471057014905887e-01,6.566572041130768200e-01,1.013628630031732758e+00,3.597261615705441007e-01,9.517180647709528873e-01,-2.286138953031293108e-01,-7.775504396186366796e-01,-1.807117841463171448e+00,8.869065498166583961e-02,-1.346187918296867680e+00,8.970724269564685910e-03,-7.114292915368696235e-01,-2.201976908172867398e-01,8.050450630854812939e-01,8.077610841085421101e-02,-5.613112258944606969e-01,-3.271154291519025037e+00,-1.120154527561131763e+00,-2.502713333790596018e+00,-5.029394666513234968e-01,1.973473489343271214e-01,2.874300433903276275e-01,-1.963053732324623990e+00,1.526682777431961791e+00,1.356454339712559909e+00,-1.326033126926366323e+00,5.116110426481668139e-01,3.361118683185614353e-01,-7.298413039915647715e-01,-7.514407908648043088e-01,8.874754779724278730e-01,-1.426477003763527707e+00,8.947055665672978275e-01,8.967297048635174406e-01,6.096920266327505722e-01,-1.707530882720128540e+00,8.858938436556107465e-01,-1.722167227691339564e+00,1.832106824822595348e+00,1.563447901098355963e+00,2.005276638989851534e+00,1.133613640625940944e+00,6.146678150377939964e-01,-1.512209665485970911e+00,-3.618165919677482467e+00,-1.587454917448779756e+00,-9.625782998197919271e-01,-1.565616382978552101e+00,-6.173965180639592321e-01,1.667843242490509414e+00,-7.683082126562942316e-01,1.944576552288938831e-02,8.013095445955039642e-01,-4.255293147228951245e-01,-1.458442015862580821e+00,-8.743623760534344758e-01,-9.087835711283437368e-01,1.448634006740934510e-01,5.845330262233043861e-01,1.054934833916492343e+00,-1.182368559373545569e+00,-3.182293483143838198e-01,-1.196699434185373612e+00,7.445350599505231592e-01,-3.275554782636243001e-01,-1.559012472924281356e+00,2.404799481687578122e-01,2.113353636493592980e+00,2.024920315142785476e+00,-2.219637115447277154e-01,2.441037617396263126e+00,-4.071471955892606576e-01,-2.360833200345723082e+00,-1.025962467642830056e+00,-1.489507134140793498e+00,-2.749505526080811446e+00,-7.792449193088994974e-01,-8.324488300668002605e-01,2.200794012897914487e-01,-1.763775330519995910e+00,-1.758526575229832634e-01,-6.991334610695359997e-01,9.998207170765278651e-01,-1.469610173674965825e+00,2.021204273039952648e-01,1.361281298741322754e+00,1.121772149537379359e+00,-5.510726528977566430e-01,2.040428862607793992e+00,-1.144955865238969528e+00,-5.975364228977116943e-01,-6.602998658948012745e-01,-8.549551344590279323e-01,1.064940407250645649e+00,-8.905587640325863807e-01,2.952028336701125522e+00,2.375718347425988863e+00,4.674070091506112856e-01,6.683043042869861727e-01,-5.590392777236765504e-02,-2.168523032152939845e+00,-2.700646698651943733e+00,-8.123238113171845631e-01,-1.169821242607826661e-01,-2.508305374057596127e-01,-2.652553445316312986e-01,2.989985101833086967e-01,-1.532233096934736860e+00,-1.730717404080575061e+00,-1.910200283049398484e+00,-1.813647426862572687e-01,1.969635346325583625e-01,3.522528599653710901e-01,1.875718875500539617e+00,-2.995067118909996995e-01,1.632790097438752808e+00,-1.421531558938582629e+00,-8.593958337498767142e-01,-1.791017335656921894e+00,-2.431105744024819951e-02,5.808179611945475385e-01,8.223279688880945626e-01,1.927677046302298303e+00,1.095081392461060954e+00,1.200905069276522408e+00,-1.061113838752874461e+00,-1.433823099027180081e+00,6.507042719821977128e-01,-1.812219668375141701e+00,-2.101328404928809679e+00,-2.011000031903100727e+00,-9.335656466087864924e-01,1.230918440394031865e+00,-3.959132779566141846e-01,1.578078206853247512e+00,-1.067169738373336063e+00,7.306130487048684286e-01,-3.742131970706940591e-01,-6.873191265538008965e-01,-1.341905948368521395e-01,-2.807558613194664598e+00,1.657537487568099488e+00,-1.403479726388842774e+00,-7.222788422714028211e-01,-2.596334107923018997e-01,-1.498511219363094726e+00,1.538307264952627484e-01,-2.805384627355198002e-01,4.024677587548894930e-01,1.549121114378227304e+00,1.308086427628573523e+00,9.995258894051377574e-01,2.335169495658471650e+00,-3.633616289565865243e-01,1.508360650948551707e-01,-1.204869285215244140e-01,-4.025344282227607984e+00,-2.444787599795867461e+00,7.739573487712356759e-01,-8.395830739863585634e-01,-8.565610497239347643e-01,2.170997897657119813e-01,7.663849680499668082e-01,-2.271120551388236652e+00,1.049478485984072229e+00,-1.148584678583533414e+00,-7.582978228563235223e-01,-6.853890589103740771e-02,-9.209166993548925095e-01,-1.475465042553044670e+00,-6.999793623248329322e-01,2.922970688145150042e-01,1.395296239638804392e-01,-1.838300207443111178e+00,7.732603760496829792e-02,5.820940383759747316e-01,-1.108121978345707470e-01,-9.660088830392554726e-02,2.072223141241395172e+00,-1.875974468452377142e+00,6.927257648833970438e-02,-1.153955158971942785e+00,5.637726381935246334e-01,-1.709678818346165308e+00,7.107409800275669154e-01,1.195744818397247000e+00,1.699695338000644096e+00,2.057365834941424498e-01,-5.470088269356035982e-01,-8.083137171940016352e-02,7.821180825899293199e-01,2.642261399793180976e-01,7.837331222678577403e-01,-5.644110817215233222e-01,-4.323194919502736933e-01,-2.608697995629555066e+00,-4.684429519967755473e-01,-3.805604434171247497e-01,-2.449725241472920256e+00,-1.393838484657700327e+00,9.055511661700913484e-01,-9.830958636958029295e-01,-2.005147408409085341e-01,-1.279990682105005273e-01,-6.661758579867760321e-01,-1.440025130977771628e+00,1.729708851552059778e+00,-7.806081249055845106e-01,1.010915211557028570e+00,8.190560382232953129e-01,1.465340902412874680e-01,1.250746404300012993e-01,-1.188953515893801827e+00,-4.152361875862007889e-01,-9.385763366254534779e-01,4.755985821284531290e-01,-1.308505257330752292e+00,-1.581488171483802940e+00,-4.335536907079988733e-01,-1.904257623080682471e+00,-5.129488195644423820e-01,-4.861082211617495652e-02,2.831442776302107167e-01,-9.807110245594712339e-01,-9.583654725275762010e-01,4.102766835071269824e-01,-9.880288402385062341e-02,-4.022843288029021025e-01,-1.900371323663894385e+00,-6.938900447377056580e-01,6.634335322165305637e-01,-1.722670770873579116e+00,1.607810137611460355e-01,1.440440885778325963e+00,-3.068191388005613529e+00,-1.202956071715207242e+00,3.200053636029799864e-01,-1.520863097557144883e+00,-3.370342040670159522e-01,-8.979493352188527844e-01,-1.284757187440201509e+00,1.459686838039048418e+00,-1.212660213568138162e-01,1.280742398211968391e-01,1.168418549013414465e+00,2.263521181533689475e-01,3.101636070205734952e-01,2.415190208613183120e+00,-9.434201473718724085e-01,-1.107236433772464945e+00,1.821966470050374376e+00,-1.005038898209393405e+00,-1.335361095536234277e+00,4.763037348073473343e-01,1.396876540323769511e+00,-2.220563135360216489e-01,-6.625027837374264372e-01,-1.430987076238918188e-01,-8.513732381053235043e-01,-3.900390475523488748e-02,-5.237735835229806458e-01,-9.618407496127262535e-01,-3.888369567203364685e-01,3.734343187912311790e-01,-2.390427766143109700e+00,5.881950488185795356e-01,-1.425398737091084111e+00,-1.027487120236147966e+00,1.095250797338534365e+00,3.576895168546809778e-01,1.319355512601471991e+00,1.091069314702386883e+00,9.379122620486748940e-02,-7.821457986365242254e-01,-2.800288786592749005e-02,-8.647304090235596874e-01,8.496392225240635421e-01,1.658269061535975197e+00,-1.780384565043389600e+00,-9.005045621973859493e-01,-2.256425007259712512e+00,-2.393718425038164899e-01,3.589590791903346512e-02,-1.421283022324328238e+00,-5.632484307539706858e-01,-4.930103538085305326e-01,7.581236862016884626e-01,4.770796457821657732e-01,3.730570309441061383e-01,-1.408984839235205566e+00,-1.059564569275584095e-01,-2.645030261667346561e-01,-8.810871084470133230e-01,-6.773967313339465113e-01,-1.725003947375913782e+00,-1.191100354795070704e+00,-7.484556608322701088e-01,-4.580969721147977181e-01,8.876535906424058708e-02,7.437088179739603788e-01,9.065808915056401407e-01,9.045190493984349711e-01,1.106864254603048714e+00,1.063282179117495341e+00,-2.296551501898711489e+00,1.264230869814898739e+00,-3.148021219556867978e-01,-7.626936144692620934e-01,-2.520418877072767572e+00,-2.266898705996113483e-01,-9.770218572407087798e-01,3.114344844376700228e-01,4.292711656887936988e-01,-5.012090508802931055e-01,-7.562133239668609175e-01,4.469952949130358288e-02,-1.569303463682462541e+00,-2.240099165109297630e+00,3.456659009654638459e-01,1.007817177127442010e+00,-8.603248677023611624e-01,-2.619016295892837021e-01,8.964394679911281971e-02,1.358400174645787439e+00,6.849081634640240557e-01,-1.765508707029327939e-01,9.783231188388314958e-01,4.493381080916961645e-01,2.592172745522882127e-01,-5.921955469966835306e-01,-8.370202354000018385e-02,-2.255727476547586097e+00,-6.705805663904275127e-01,-1.211933981633857682e+00,1.645656990467333713e+00,5.237093391059318565e-02,-1.966013238026922405e+00,-1.812422327206161476e+00,-2.875802229194306392e-01,-3.056156756996160073e-01,-2.280224447060655857e-01,-6.425892720680018710e-01,-1.814376443181455523e+00,-3.901061308714905973e-01,-1.654486607965943934e+00,-1.427622482988492869e-01,6.876482921673170434e-01,7.237674178647418577e-02,-8.160738090771253450e-01,2.576456332286101159e-01,2.456715204049960688e-01,-9.949234303407269997e-02,1.018174278842940206e+00,9.993320423763936144e-01,5.165277956349816346e-01,8.738541165231832331e-01,1.321278425825358260e+00,1.367316098418559278e+00,-8.461423334420287157e-01,-1.493930462349012611e+00,9.106866910415828409e-02,1.207793505359601616e+00,-6.875817427223970824e-02,-1.039795206449321663e+00,1.942411835631848716e+00,1.005425448511778480e-01,-5.831614199882142469e-01,-1.741013823133316651e-01,-1.470385957267385413e+00,5.370361404595621613e-01,2.122016453953954773e+00,-1.741004532066136035e-01,9.169021188712205284e-01,-4.614531935265004936e-01,-3.589625687706710644e-01,-1.549290835947612299e+00,-8.142131246388915888e-02,6.744918834882732694e-01,-1.024996126568815669e+00,-2.863481935718675819e-01,-4.070008999289381757e-02,-3.212628476764131102e-01,-1.109143344205756110e+00,1.027201114800954662e-01,-1.540372526355784921e-01,9.698754085990581864e-01,-4.277948327948819518e-01,1.687720835349973303e+00,-1.569530987777598030e+00,-1.439916541232549863e-01,1.522217946532722910e-01,5.910191990225809322e-01,1.325892736657514337e-01,-1.461107525003044527e+00,-8.418963978472179255e-01,3.420992308010990524e-01,-6.774728783793408926e-01,-1.511173679545232407e-01,-1.512669178229344658e+00,1.132112624264243639e+00,-3.148069066738230504e+00,-5.850767552724241982e-01,-2.526049486358767471e+00,5.802278886829522753e-01,-4.434774614553919636e-01,-4.518195388030134541e-01,2.350479108293042352e-01,-2.676239162976159491e+00,-7.784854915881955773e-01,-1.201880564326093470e+00,-3.257224005001599920e-01,-2.041155091743403815e+00,-9.747949599694322176e-01,-1.110940639394372598e+00,-1.076699809074835645e+00,-2.000893524379320776e-01,-9.092907819684054038e-01,-1.248264846833612579e-01,5.317029058027807897e-01,3.301173527796821272e-01,2.141401538998684906e+00,5.423780509232812852e-01,6.281768695947018144e-02,-1.377345963267666784e+00,5.554073913100482374e-01,-2.469325905514454730e-02,5.925024263132747659e-01,4.911944859523070250e-01,1.003966597012331485e+00,-1.309844689148871755e+00,4.924059774860562455e-01,-4.534132100838685897e-01,-5.361612146095341702e-02,-8.814409979008264173e-01,-2.962164405397636480e-01,6.359126034606541467e-01,1.307595445380925092e+00,-1.018750826118890451e+00,1.269404660158720111e+00,-2.936010944420898005e-03,-7.005660530264725683e-01,1.850589002330409683e+00,-7.767668596871966091e-01,3.684797349526109933e-01,1.472933363900456039e+00,1.608511360036389282e-01,1.097418196447505156e+00,4.140811436330287809e-01,-6.811897955733208221e-01,9.677691307718818692e-01,-2.058355068813043420e+00,2.448465187498932938e+00,-8.533212018155560408e-01,-7.217230850573949086e-01,-7.139512362973017279e-01,6.982678142812588640e-02,-1.745576577848972022e+00,-2.704157998002086893e-01,3.947802582713237918e-01,-8.616890449128860041e-01,-3.551960088301311380e-01,3.577310625351866613e-01,-4.378045689634359472e-01,4.492223562439450618e-02,1.848859558303108941e-01,3.138514402821772631e-01,-2.343945821297304111e+00,-4.859141057932767072e-01,-1.452287730564450818e+00,-1.242994416581784556e+00,-1.034684847117554929e+00,4.320148185775980476e-01,-4.984730390736968331e-01,1.785935558241152687e+00,1.407793901019740668e+00,-2.088451027139968108e+00,-5.683295103135235227e-01,7.534255920532747508e-01,3.578806965079637803e-01,1.210948161792717359e+00,-8.841060565805096694e-01,2.844085599189423719e-01,6.885355088905974197e-02,7.731077183613917214e-02,-3.210272378151682315e-01,2.083382631004281560e+00,-3.050583100428788663e-01,-8.603409188828390342e-01,-3.576558832304376767e-01,-7.501779608550948608e-02,-1.061176912111679194e+00,-5.075552691463157684e-01,-3.188461238872215553e-01,7.289021110039528573e-01,3.738241697959283627e-01,-1.008743118811623596e+00,1.752726863723875483e-01,4.660730441535383406e-01,-1.228102418122140715e+00,-8.907142889947515796e-01,-6.150939477536914168e-01,1.496343477485284845e+00,-5.307260105205987566e-01,-1.658812994887354453e+00,8.565064097184094116e-02,1.071899665496455656e+00,6.870453585170699373e-01,1.614507623951390469e+00,2.755084572911412621e-01,6.329875580016222081e-01,-2.019588697498037877e-01,-7.705210637508731475e-01,1.451378659924356329e+00,8.074552130227398150e-01,6.225528168818710295e-01,-1.760974568283263375e+00,-4.529298666066123857e-01,1.997945095512919433e+00,-7.873556982073034449e-01,-2.725254198118668425e-01,-1.110177257425346120e+00,2.247539941461195456e-01,-3.682439182600242278e-01,-1.869259725919933737e-02,4.160647384586593778e-01,-9.498013562849194624e-01,-5.255519361891409780e-01,1.083860097692000535e+00,-1.366514637365263019e+00,1.291662619849803351e+00,8.334243454180046973e-01,-7.666762984116504143e-02,-2.819433027352302723e-01,-1.074148993812353181e+00,2.014679788087247569e+00,-9.375758129080666303e-02,1.142836983759572961e-01,-1.673380242299680631e+00,2.654391278094104245e-01,1.169672770147958812e-01,1.349821877600708930e+00,1.349768441135247299e-01,-1.033100130089377178e+00,6.411629887868129929e-01,-1.180152506445252714e+00,-2.848210108184811240e+00,-1.294167215229776180e-01,2.374956933406447424e-01,9.712867246156078327e-01,-7.229300847803056262e-01,-1.528217536087587147e+00,-4.160951323038362092e-03,-1.940262618105881021e-01,-2.421955344104187446e-01,-1.709809362499273566e-01,-8.390974944616997888e-01,-2.065508000512130238e+00,8.034740862965574770e-01,1.746486156857036454e+00,-8.619927352561620459e-01,5.915865235033709313e-01,5.777252488356739157e-02,8.607831974542654030e-02,6.637814277190480228e-01,1.282509960784852687e+00,-9.765761997480912893e-01,1.132441402487486676e-01,-2.997884111381260985e-01,-2.984978803636174849e+00,1.480985942357992080e+00,-1.129567508436109646e+00,-7.122781482135315256e-01,3.473047653853294503e-01,2.212948638725379114e-01,3.226576449188104379e-01,1.095686736917512033e-01,-9.724558989038205592e-01,-2.192925444682920499e+00,1.115995520778816585e+00,2.301050285108540983e-01,-1.702259358610187956e+00,-6.618066816487333526e-01,-6.940282502671719922e-02,-6.073692062615887455e-01,-1.486288926864211213e+00,-1.507689636495067598e+00
-7.108310430401020286e-01,-1.347988855091425631e+00,-2.164206028911591084e-01,-8.181710112341094021e-01,3.324591497256123018e-01,3.723905379050178599e-01,-1.931650052165970743e+00,1.092933019177461551e+00,5.699164630051826164e-01,-3.075481577911186037e-01,7.739770971752477635e-01,-1.795946904954714318e+00,-3.426485191587594903e-01,-4.722727909232312116e-01,1.751429596832623503e-01,6.863198874589627740e-01,-1.384990835734828840e+00,2.487718899721658994e-01,-2.159078683847793112e+00,2.970207254178927503e+00,-4.691678352819317332e-01,-1.621343036018988992e-01,-2.284160664917935790e-01,-2.295578840224837602e+00,-2.569019708243763578e+00,-4.714316877482124801e-01,-1.574545205668401504e+00,6.098983719123888259e-01,1.439280861741539574e+00,3.993306513739274255e-01,7.620825308712375623e-02,-4.690831853930386153e-01,6.293364307273148217e-01,7.325745969073115260e-01,-1.378434144948539553e+00,-9.622426649201997195e-01,6.672505585652599436e-01,-2.554414627170754071e-01,-1.363508851029206215e-01,1.350606911494768747e+00,-3.315411105307459749e-01,9.598189929299377754e-01,-6.198650163882973851e-01,-7.203361079930318267e-01,-5.720752349719406826e-01,5.399108487956910674e-01,-7.094694854954177732e-01,-8.428359333541273202e-01,-8.756059088966063886e-01,-7.023378343322964623e-01,3.844629171923494293e-02,1.413381072372929814e-01,1.911210286080032628e+00,9.699129899826882673e-01,-6.514582761797768073e-01,-6.094811827695300055e-01,-5.996547871369836136e-01,-1.389916775694323592e+00,1.120094816504116908e+00,-9.627561453324608998e-01,-1.539052686690270955e+00,8.446966438223278695e-02,-1.229017345787492138e-01,9.631673097170601050e-02,-1.826870016964834864e+00,-6.648546190630081343e-01,2.415980547623068464e+00,-2.858341387360287533e-01,7.639436942304417277e-01,-1.363462214182375565e+00,-4.305715315504662910e-02,1.947774182865995130e+00,1.084508223765981105e+00,-5.279045896964579265e-01,1.651132310484432653e+00,7.369272427856216057e-01,-7.411234367000955059e-01,-5.767978714019549313e-01,-3.148169147664763856e-01,1.901557969931695125e+00,8.496154361410440670e-01,1.196116332434874474e-01,1.059724549399871485e+00,-9.935496481886632036e-01,5.006366424479214983e-01,-3.453845000729026116e-01,-1.298764340009206597e+00,6.738305599181546590e-01,-1.412040694806670382e+00,-6.735665875429610594e-01,-5.312430970675896535e-02,-1.780433303051008442e+00,-9.171052693506057674e-01,1.625209223215603738e-01,-2.693930130198211259e+00,-7.528330174845292433e-01,-2.484143590245860622e+00,5.929946235128448484e-02,1.466956551060070391e+00,-8.484043203459665783e-01,1.469898833065825527e-01,-1.664584322009507178e-01,-8.684745947154772772e-01,-4.904206034910902345e-01,3.601737927841992815e-02,-1.817509682887129108e+00,-1.687806726179774328e-02,-1.729208374610880616e+00,-8.993462188920198219e-01,1.737319460447824537e-01,1.867174301504026968e+00,-1.691413999147389768e+00,-1.261932982049431828e-01,-1.860286098897889762e+00,1.226410751522762022e+00,6.742943524368044672e-01,-1.724353512264847621e-01,1.776253835501432565e+00,-1.464715989732297885e+00,1.973752937479128722e+00,1.480462152476329576e-02,-7.801712781888121562e-01,-1.504240605414272347e-01,-1.372216061960980227e+00,-3.095285695571183826e-01,-1.036860946439474851e-01,-6.506546852510081136e-01,6.628406893762380792e-01,1.373155743342193480e+00,1.408008821282672740e-01,-1.793482811793684739e+00,-2.140868715741300665e+00,-2.154634968461840716e-01,-8.312974530666434880e-01,-5.030418758413975899e-01,2.049245599448778155e+00,-9.622008264340519146e-01,-2.322328296556266380e+00,-8.642264810385176244e-01,1.553663185272976310e+00,-1.244856610982036510e-01,-5.464207809399269644e-01,-2.455295929072558170e-02,-7.939217240586577962e-01,6.627532462498900712e-01,6.299644439378782046e-02,-6.579673405356879501e-01,1.105355414476753673e+00,-1.932834052939811642e-01,-3.939242062226949725e-01,2.020910428251663365e-02,-7.229580843427217962e-01,-5.275134601329474204e-01,1.860164233137616419e-01,-4.592035576471337754e-01,-7.484263826761532457e-01,1.845645930178116401e-02,-2.566608243603967665e+00,2.042197694647837292e+00,-8.939900690475155454e-01,-5.628161388720438474e-01,1.546009022246929820e+00,-1.127467435020085063e+00,-2.604817915817158713e+00,1.035007385845280320e-01,5.769119735164071061e-01,-1.117837407134348204e+00,1.734465909426211150e+00,-2.670621908849311887e-02,-8.760815713066840704e-01,-5.735472730481919745e-01,-1.037600592631655744e-01,-6.415334197358473212e-01,-3.713136682764106022e-01,9.650242792691963167e-01,-1.925562869987468506e+00,-5.773495005536006391e-02,6.193505719677960819e-01,1.661235573423433420e+00,3.288009198391533272e-01,-1.170758697948012683e+00,-2.891912134207634266e-01,-8.192623795794587993e-01,-1.064377787995385294e+00,-2.768813798410972304e-01,-8.134744763171620763e-01,-8.005370061851010410e-01,2.481535549488177450e-01,-3.250599523145241143e-01,2.226803246316438611e-01,2.768837185066138629e-01,-7.068198794270047491e-01,-1.829354429642391366e-01,-1.847444295576448736e+00,5.100373658905166946e-02,2.013083223947753631e+00,3.895670183388760255e-01,-5.211000181494498396e-01,-8.948433889373043071e-01,1.097713285499358982e+00,-1.419277975311949325e+00,6.329583279318600209e-01,-9.758214654788829323e-01,6.756716345749397279e-01,-1.287129357832548004e+00,5.311347571489087871e-01,4.042781695774514961e-01,8.076073877432164982e-01,2.622619170285123147e-01,-1.671399802347037999e+00,-8.732101889093352165e-01,-2.814224370245479445e-01,-2.404020328520888594e-01,-1.102124583007380476e+00,-1.925541817942403089e+00,-1.113945208545105148e-01,-2.024223802502361558e+00,-1.767025322077144578e+00,-8.534237789870131596e-01,-1.073184502496299653e-01,-1.852164254996186976e+00,1.177500635462146450e+00,-5.822048127439622967e-01,-4.047412531256543988e-01,8.410296505941730061e-01,8.151302869728562772e-01,1.759998730781343168e+00,2.604382345431329182e-01,2.346068551376113032e+00,9.296906068628046915e-02,3.520960960885944346e-01,5.795552714770824121e-01,3.647073439446953946e-01,-2.784494198694423273e-01,5.483396167769133411e-01,1.677666880441464892e-01,1.701816885516434619e+00,-4.277290808041163128e-01,-1.123294384048983741e+00,2.231512030680789516e-01,-2.050531550691900406e+00,-5.526131152547256731e-01,-1.233745172012838953e+00,-4.503108247606112391e-01,6.037808292294670753e-01,-3.888592078900629523e-01,9.973238903511570663e-02,1.396528619436038676e+00,1.208247010423312146e-01,8.302982715843316985e-02,-2.028592453437577436e+00,9.500768422460035278e-01,-8.235444609362181367e-01,-3.732025690683002939e-01,4.947662536842969971e-01,3.956460975942120428e-01,-9.212098613642695499e-02,-1.014296323544814360e+00,-1.371068429559023860e+00,-9.014747555681069668e-01,-1.215089410381633289e-02,5.541073880660510875e-01,-4.525385279674986119e-03,-4.086547579111801665e-01,-6.337754967131660200e-01,5.324161601455074111e-02,2.617982040278239886e+00,-2.960214266482606993e-01,-3.951091105604812581e-01,-1.533238752405352290e-01,-8.188888015808261089e-01,-8.096003112073746344e-01,3.815621987564911111e-01,-6.868042637994610233e-01,1.427644487614401492e-01,1.050468589102918182e+00,2.130676783939501051e-01,-3.202654233956406249e-01,9.375349433924479170e-01,-8.158571536693072224e-01,3.165923880142219177e-02,1.329514946169090495e+00,1.890793808004421317e+00,8.658130961761522082e-01,1.186150422471938137e+00,-9.350743239427243836e-01,3.094744414608586736e-01,-2.239383115506646149e+00,-5.217561579917269210e-01,-2.451251874434539957e+00,-1.703327645697664483e+00,1.703035423651980906e+00,7.721101805580111721e-01,-8.588318477885410474e-01,7.261663226440622232e-01,-2.942663930214988177e-01,2.421297916910289505e+00,5.398018507997602855e-01,7.310887607612518435e-01,-1.228494321052481020e+00,1.322553788733303315e-01,6.921557049126771943e-01,-2.911051843809393525e-01,1.703862017059011857e-01,7.503050677929681278e-01,-1.056905906009464102e+00,9.169740480769982272e-01,-6.648811462372457015e-01,3.647470852405699793e-01,1.652486861930041462e+00,-8.782883000560602893e-01,-1.452536624821657796e+00,2.459120207100422006e-01,-7.213631749039329799e-01,-8.677785478544911557e-01,1.187666221012738221e+00,1.542335119684901334e+00,-5.067054789383574898e-01,4.998973093382034216e-01,-1.029714568187852564e+00,8.029377788405309690e-01,-2.686776529793069579e-01,6.145422093929877594e-01,-1.066193488109558496e+00,4.412986191346596372e-03,9.745011804096445629e-02,9.036030852172621808e-01,-1.583406032964636001e+00,-1.750071611194390586e+00,3.395048519705125556e-01,7.676811611447609263e-01,-3.163487047731189383e-01,1.411370117565924343e+00,9.766808626221432643e-01,-1.326398334178874538e+00,4.919296571478398161e-01,4.289977942377382614e-01,2.071211456642915449e-01,-6.992993460597048960e-01,-1.464420322529933483e+00,8.839702055757568955e-01,-3.224486953943344614e-01,4.685436190107360455e-01,2.621874500972439792e-01,2.252108165773933357e-01,9.766859798534244241e-01,-1.036136785142161898e+00,1.630499550678648213e-01,-1.494262703473717979e-01,-5.374758026578636549e-01,1.527808595022820404e+00,-5.521599660518564656e-01,5.407885644223997534e-01,-7.519894946600366170e-01,-1.237015309029204424e+00,-6.183044123857942553e-01,1.923007159750498574e-01,-6.771680117551494293e-02,8.408987490218014504e-02,-3.505493253395297049e-01,1.434209687490831664e-01,1.464578051251534507e+00,-1.622050179055395391e+00,-2.548201093664356875e+00,3.640272894915529966e-01,-5.135644255463692742e-01,6.939281493090900810e-01,-1.589345304893868827e-01,-1.336949974940599084e+00,-4.545321722126912101e-01,-4.312699583595030473e-01,6.257118735718996128e-01,-8.224445817298964290e-02,-8.419134945945949688e-01,-1.998236453676855984e+00,2.511165518523478468e+00,8.494734422188514600e-01,1.617626320333370504e+00,1.743468011547159691e+00,-8.162047622643580080e-01,2.823877847591416690e-01,-5.846992591876160050e-01,1.143125212801629376e+00,-2.366753462620136528e+00,-6.266872534832343411e-02,1.021377740887539964e+00,1.110347413272077866e+00,-4.904248946188131675e-01,5.411239142923410794e-01,9.420392350767928802e-01,1.539712264091332106e+00,3.756782126276572154e-01,-4.360779447281503129e-01,7.557680128500179340e-01,-1.312527165012096653e+00,6.021518142753955471e-01,1.166620206907280771e-01,7.488325108799629426e-01,-1.104698468723222415e+00,2.829912970508916104e+00,8.212506803876145067e-01,-5.484365381665023964e-01,8.422632049016499645e-01,2.224830199295935618e+00,9.205276621419397065e-01,5.440921458680190170e-01,-1.724962721120352871e+00,3.915353176692752402e-01,6.116050481302326425e-01,1.065383517410108671e-01,-7.943309453856712832e-01,-4.195783788606733955e-01,-1.050713323457758808e+00,-7.382246297560058901e-01,-2.709236441326793865e-01,3.450541253768973915e-01,4.621201289128445966e-01,-4.362747186468710070e-01,-7.961260192741471675e-01,5.433886679119862007e-02,-3.055997474055213159e-01,-1.927009551401545728e+00,1.636560666687032040e+00,-6.664735719489359167e-02,-6.645161629452162044e-01,-1.951877044178994769e+00,1.305121341465898255e-01,8.073064910034579711e-01,-1.749407972647682163e-01,7.456742503465999539e-01,-7.393175206219972928e-01,-7.412278640551585029e-01,-2.024216168636484847e-01,4.588678686377657967e-01,-4.370769241043443998e-01,1.822300206165162750e-01,8.333679807504926207e-02,-1.027146926946748140e+00,1.631711289043613844e+00,-1.238123195409746025e+00,4.437480451043546714e-01,-1.207144815345318062e-01,9.107153524180181536e-01,5.203030837066343617e-01,-1.350627299817655169e+00,6.007561820651698969e-01,-1.072307023018677752e+00,-7.384441514868617107e-01,2.159276036616233074e-01,-4.115787376746811166e-01,1.876723714549685118e-01,-1.394337938463672488e+00,1.130088129136764152e+00,8.832698962946662347e-01,1.383459801642245690e+00,-6.705747462033839756e-01,2.649879553053174353e-01,1.610260487705305055e+00,-4.041900692019181895e-01,3.477012814795268358e-01,7.409717444093774086e-01,-4.838372859675991733e-01,1.204575265698589526e+00,1.025097392350086123e+00,-1.618356078210395177e+00,5.287718991325310869e-01,-1.271678788399393190e+00,5.462227072082657120e-01,-6.801875809152081453e-01,9.718469589003945197e-01,-2.507462866575870808e-01,-1.202561118854021505e+00,7.880953633284110138e-01,-6.668783712160785138e-01,-1.164532133855447293e+00,1.375252203186153377e+00,1.834836005540101955e-01,1.205588708808482012e+00,-4.944952684700118506e-01,5.734363421223129809e-01,-8.136659624490238940e-01,7.745389904993792429e-01,-6.846793568952870279e-01,-8.121313183706662109e-01,2.598538688691437226e+00,3.829750779303003894e-01,7.546627928048194045e-02,3.268724417841569752e-01,-1.485223281269002771e-01,-6.372168755056113465e-01,-1.331649347440508335e-01,-1.512435899431779918e+00,2.682534364777625080e-01,8.856018171888725699e-02,-3.918734319967743795e-01,1.810319748742789392e-01,-5.989158008543215422e-02,2.019959868857444940e-01,4.237237430827565654e-01,-9.151637544951055636e-01,-6.180905995720509249e-01,-5.477619917614502398e-01,-1.038978330575809794e+00,-1.511684006302381311e+00,-1.004171764903259989e+00,-7.867162417282942410e-01,2.453834326566733115e-01,1.113880119374355493e+00,-1.076275098848616940e+00,5.703385506189021514e-01,1.920088242653288368e+00,1.004255311455600486e-01,1.003903798618583476e+00,-9.586559781767841626e-01,1.375148937882254785e+00,-1.014161528375097765e+00,2.396879694820078580e-02,8.299710791223883222e-01,3.071023227683438162e-01,-5.654031856499789344e-01,-7.821327229351385801e-01,-9.897327239114971364e-01,5.217656979170395282e-01,-6.979445104403348976e-01,-6.607551931930428779e-01,8.121087179825233759e-01,1.801112973996845890e+00,-1.844356095334403811e+00,1.480846467855320592e+00,5.078123988855006710e-01,-1.970621955463827346e+00,-3.368255986891129927e-01,-1.891390083425349866e+00,-1.025666919746248906e+00,-2.749881377497245261e-01,-1.095589630727127339e+00,-9.860171789133524989e-01,-1.452584254563119126e+00,-5.497176894194698571e-01,-7.233250153867072374e-01,-5.284922056166238002e-01,1.399927329616868388e+00,5.902554570490359254e-01,-9.719805513731227808e-01,2.370314814880763343e+00,-8.550064607233306413e-01,5.283183475985694239e-02,-5.682016010105963577e-01,3.384302103668916928e-01,-8.636403293106043044e-01,-4.409726451925229940e-01,-5.647896513453730671e-01,-6.076054271188416900e-01,-1.314014728667149523e+00,1.035184117673992876e+00,1.182378342393734183e+00,4.945073478318059990e-02,7.895000005715517855e-01,1.049700996089949268e+00,1.200642459802141904e+00,-5.226427303125327217e-01,-1.253814925684628434e-01,-4.268311411443602710e-01,6.289975897305649655e-01,-3.993633504814561030e-01,-1.690068307222651223e+00,1.412398988983861181e-01,-4.807831940795583292e-01,-1.409339470028429631e+00,-2.559418432003705487e-02,-2.650456270257791624e-01,6.250715248176105798e-02,-1.917375144020380340e+00,-1.514154011800570299e+00,-1.311149548172372503e+00,-1.646643692930630731e+00,-1.478097890882102083e+00,-1.352564342342505110e+00,-1.277708725535970258e+00,-5.522196869174884615e-01,-8.804736412706223314e-01,4.996902291614057634e-01,6.515671806096855478e-01,6.010553293561384791e-01,-1.441336290149868749e+00,-6.307205334760073168e-01,-5.419599362742606452e-01,-4.823194608570069986e-01,1.205653074731674490e+00,8.466987860573806091e-02,1.615031144682659014e-01,2.962021195295634901e-01,-7.693347751573534898e-01,4.594958339804898206e-01,-1.469161789622511760e+00,6.893762516291911391e-01,-5.231754510225690158e-01,-1.878730490461100189e-01,-3.105215655923824203e-01,-1.298726550026805482e+00,-1.083821931362692448e+00,-3.677439127224891302e-01,-1.114616760465892753e+00,8.459279009208032774e-01,-3.073426960782925654e+00,-8.009377462331709330e-01,-2.878282523278677285e+00,5.190658031811976603e-01,-2.902953885613023477e+00,-3.466910320166581183e+00,-1.206964116334242609e+00,-6.037224529852774912e-02,-2.641705263501120116e-01,-1.172909005504675584e+00,6.412906472939159386e-01,9.544725528845846574e-01,-7.639257026404793205e-01,5.543990885066683028e-01,4.148712177194279205e-01,1.388947948297471591e+00,-1.422487513665322556e-01,8.508554985498417711e-01,-1.927336478261671981e-01,-2.534735388881391493e+00,-8.426261863672874775e-01,7.716425501225272487e-01,-1.283946619087135144e+00,-2.629227934074790385e-01,-2.110333890676331647e-01,6.284640962564423672e-02,-1.008633788135529175e+00,-1.446261792927111267e-01,-5.378422365587323117e-01,-5.577649415709350356e-01,-3.397997357229031179e-01,-4.500239068041745338e-01,-3.546270779554401842e-01,-5.882225166917423032e-01,-2.424846341719524567e-01,-4.497383457463363099e-01,-4.549395011627156982e-01,8.282399446498623918e-01,-2.540919655517738907e+00,-4.589611462402553577e-01,-6.368555142143417225e-01,-1.726266336781647093e+00,-9.242910312161713993e-01,2.166013024700093048e-01,-1.189587565686258896e+00,9.519529402954272912e-02,-2.882928223985305460e-01,-1.727227517362498910e+00,-1.232819154652114335e+00,-5.767188051123147696e-01,-5.050190260428142341e-01,5.640192726624856379e-01,-2.333679649161736869e+00,-1.177499775870544774e+00,-1.783616699100097347e-01,-1.950495502859110886e+00,-2.561238124343617750e-01,-1.018847172032258275e+00,-1.252261799491580119e+00,-7.506351330650918863e-01,-1.050867211890490704e+00,1.195605282310188144e+00,3.632411520576135366e-01,-1.021272825662721706e+00,1.605604613742450323e-02,1.724540662285982129e-01,7.357421263244541543e-02,3.939272158565703674e-01,-8.181479335777118445e-02,-2.236278807526662415e+00,-4.351615334933967016e-01,1.661067713089542153e+00,-2.132853085156473372e-01,-1.332434820785719065e+00,-4.146964380342416101e-01,5.936719695952981102e-01,-1.481787991238384228e+00,-1.243997159803445385e+00,-1.445405694589441348e+00,-1.339255351067963340e-01,-2.431894623561129176e+00,1.007972073520969847e+00,-1.812316085317106307e+00,-3.929811595115301759e-01,4.693029705609980118e-01,5.000071571394392178e-01,-1.100645147481151831e+00,-2.505748594203834223e+00,1.142254371758341991e+00,-6.051186387509171344e-02,1.041410255025478626e-01,1.212592170542940995e+00,6.397815226679832712e-01,9.606990179844261679e-02,-3.141268597230894577e-01,-1.641309898240722820e+00,-1.428904365617611916e+00,-1.869315969638878916e-01,6.254406231940287187e-04,-1.340696565279631436e+00,-4.537031221155349986e-02,5.953172731041508348e-01,9.695272200975685317e-01,4.115661034910630955e-02,-6.653977175188575677e-01,-2.136243145598055171e-01,-1.474537548572490309e+00,-8.193363423251172062e-01,8.146994557438164142e-01,1.672966829711233089e-02,-1.306091714179094865e+00,1.112540279727092463e+00,1.619725412783097784e+00,-1.422596897265437033e+00,-4.869673609687256710e-01,8.956727661684089625e-01,6.863881289997773860e-02,-5.991678285027548512e-01,1.298081682464626851e-01,-2.093419014816301216e-01,-1.683037017343731234e+00,-1.812565289356299791e+00,-1.569974772720663214e+00,1.528370252212828649e-02,-8.668713088970514402e-02,-6.521319179401121602e-01,-3.722918452287251601e-01,6.999281390792965185e-01,-1.868287791563382871e+00,-5.575999823704664848e-01,-1.136543627655369537e+00,3.205926243137283693e-01,6.756052095232910615e-01,1.030397079630060997e+00,3.791689331832173715e-01,8.982933194808342403e-01,-1.571326905855118694e+00,-6.121676288005934996e-01,-1.545534541983824006e+00,1.762179174243758251e+00,-5.705526222190905328e-01,4.135711990866391963e-01,-1.452001019974974438e-01,1.277436311011961034e-01,-9.968862601839301174e-01,1.612779607608220978e-01,-4.335155249159575175e-02,-1.359877297456900003e+00,2.593532458491950021e-01,2.042235254818800527e+00,2.536616014858912860e-01,1.940584787918147924e+00,-7.950289424873392685e-02,-8.810260354623352663e-01,-8.613487201422590500e-01,-2.326832203400457932e-01,-5.475726029490064067e-02,-3.372366162513251164e-01,-2.343293676942615367e+00,-1.523695960026154594e+00,2.956514375855464061e-01,-9.494252963804719059e-01,2.287195000848401549e-01,5.186628250899479875e-01,-9.881179339117227012e-02,-6.084378544718391790e-01,-8.184654259109498675e-02,-2.131405114567359149e+00,-4.948862638735192498e-01,-2.337176208639528963e-01,-8.075774059216604961e-01,7.167956418083117065e-02,5.738190513195240428e-01,6.550252800051040714e-01,-6.704355689529847284e-01,-2.431332946204596279e-01,-8.325756923679340504e-01,-8.177260390115284050e-01,5.754082809859623060e-01,1.923062077577043782e-01
-4.221325038716708944e-01,4.149155467926010088e-01,3.290428283775331808e-01,-4.907036521219625969e-01,2.429727009881822372e-02,-9.325466656704416435e-01,-4.050991573502844001e-01,-1.802545630133447041e+00,4.228324397735739870e-01,7.633808194319333662e-01,-8.081831786414382934e-01,1.616337985320801807e-01,9.506630223127816581e-01,-2.244821254600524174e-01,-2.337230954225569257e-01,7.530864835053534267e-02,-1.271784822931924630e+00,-1.607399583587801661e+00,-1.615140194251578842e+00,9.689631002521306158e-01,2.175811115964976228e+00,-7.921668465563748152e-01,-6.482601003965859920e-01,-4.120083030579521077e-01,-3.767923795437352341e-01,-2.602220439783854200e+00,-4.295844337041412331e-01,-3.470350159920457256e-01,5.982168735192837650e-01,-1.674840549528485156e-01,-3.818635327898379228e-01,4.932277427000529221e-03,-1.123626928657176505e+00,-6.445544969342640318e-01,5.187936985483468932e-01,-5.224553863110914520e-01,-5.939197868241861133e-01,-8.419913862770977975e-01,-6.513118111718726455e-01,-3.118542252531169456e+00,-1.732301417217017026e+00,-3.133957791591882591e-01,6.238491013557905251e-01,-5.148648844061429752e-01,-1.074929237883555544e+00,-1.164989542242191867e+00,-1.030321320761563797e+00,-8.579693503754893813e-01,-1.225200307572628322e+00,2.269979422680968306e-01,-7.400411314674523178e-01,-8.029177708808817870e-01,-8.212600366386983985e-01,-4.617458635324520611e-01,-2.601411370873215834e+00,-5.549811459914816281e-01,-1.077143187682048087e+00,-5.097140811195977061e-01,-8.649852836541469525e-01,-1.750216928575892839e+00,-2.588881786741549229e-01,-1.386243710642211191e+00,-1.778370003176440228e+00,-5.474538467863760971e-01,-2.625967573643942510e-01,1.566649727158005767e+00,-8.531945478025607654e-01,-1.130691351782733695e-01,1.898304807420577722e-01,-1.224817502060574492e+00,4.339351301632516367e-01,-1.813816142189937253e+00,-2.679979458355775113e-01,9.285441830713899725e-01,2.348447286819692337e-01,1.030454117304450135e+00,-1.021186646562614264e+00,4.331684573351256562e-01,1.891562892092097492e+00,-1.769877316296594172e+00,-8.459372893024736939e-01,-7.996206024588071726e-01,-2.278666197456145348e-01,1.358926739292699803e+00,4.690775591464431127e-01,1.400492046041903915e+00,5.157189970599391771e-01,8.898709712372396829e-01,-1.721121852673861141e-01,-9.325041233766714344e-01,6.391455706849999974e-01,9.039039267905246700e-01,-4.564380379084064243e-01,1.220146403532887724e+00,-6.356192083236608115e-01,-2.357091253342545212e+00,6.840492270969436017e-01,5.531342795018606706e-02,-1.477129688161943899e-01,4.524832023875831610e-01,8.638165612464535625e-01,-1.828201012198497954e+00,1.088426988726342026e+00,6.480024841608830188e-01,8.521703910299783802e-01,-7.029971379127049058e-01,-3.701441345550885442e-01,3.559050611659552721e-01,1.663376088783470041e-01,7.082158598190728682e-01,2.711879448282307759e-01,-1.222193714242787443e+00,-7.134206593018840303e-01,-8.757312447829840307e-02,2.249696510036431063e-01,1.062676996336752611e+00,-2.649595329470699201e-01,6.050852311376367920e-01,-6.028570970332313150e-01,1.046902174085380111e+00,-1.047734658842710331e+00,-1.536172064415714189e+00,-8.471935378779629211e-01,5.648649615455170192e-01,-3.199292816873497425e-02,-3.176376207484283287e-01,-1.573374101512190759e-01,-4.412793296725939229e-01,2.056194674038796855e+00,5.004913628536474812e-01,-2.296888560847174521e+00,-1.084783448659923044e+00,1.491087057875093713e-01,1.226172650019793808e+00,4.738271813596540705e-01,-2.060565205530848321e+00,-5.163139789333950347e-01,-5.586065403756426129e-01,-6.492636346319136109e-01,7.627624274686732875e-01,-1.026303110539115826e+00,-2.128115541205711114e+00,3.925167468262623360e-03,2.092791151559418306e-01,8.247902952484684747e-01,7.578920026044905223e-01,-7.556111577097021081e-01,5.988437065149326832e-01,1.889755591843127691e+00,-8.154281071670211878e-01,5.922233070386703213e-01,-6.350478174811606813e-01,1.164940545284355977e+00,1.442778045899464789e+00,-3.551471539860717730e-01,6.591196173774664935e-01,-2.099721351982329343e-01,1.814374577896092466e+00,4.240290442859325215e-01,-6.831359550742177600e-01,-2.476793475581915427e+00,-7.287913157432066580e-01,-9.403355335681871929e-02,-1.556082361457443997e-01,1.334835908769522517e+00,6.442659371681623837e-01,-1.661394772222451577e+00,-3.635683939920598129e-01,9.953825908941249523e-01,4.554457402719520043e-01,1.567813107485672486e+00,9.070409072647631632e-01,-1.849248742752380492e+00,9.560651013702879952e-01,-9.461340143742812403e-01,1.564070856795674924e+00,1.465059407811516667e+00,8.950325758126037590e-01,-9.271946154609758128e-01,1.259087727411243529e+00,-3.364011782382873017e-01,7.268740809198323549e-02,-1.922056015584982791e-01,3.498781054423165671e-01,8.379227204071522106e-01,-2.061075449187002917e+00,-1.315559881493798766e+00,4.686547379399035318e-01,-6.868008697039268418e-01,-8.747149275650373257e-01,-2.615514957771203006e-02,-8.150865074766472373e-01,1.527067245852684607e+00,-1.638170355072950946e-01,-2.132745038937813864e-01,6.212155608586302780e-01,-1.909075320363332329e-01,-1.956320820467490229e+00,-2.013150997593232128e-01,4.288891381610066555e-01,-8.502475019641202447e-01,1.518832539703917961e+00,-6.271984153431364728e-01,1.205787436531163603e+00,-8.017123041537670414e-01,7.892373527939758882e-01,2.824498916197926701e-01,-1.334799869672728678e-01,-3.119590966183260778e-03,5.961397839141469035e-01,-7.813182062960918328e-01,6.845288276003518302e-01,-1.090081020902595593e-01,-1.290925031578978310e-01,1.190586837815202026e+00,8.496262772771803196e-01,1.220543300006599496e+00,1.097102025321334828e+00,6.605731518064086316e-01,-6.679591986284264538e-01,-1.600523509463422700e+00,9.105165984739438390e-01,-1.514943386901842493e+00,1.313216746593134365e+00,6.269547054484736481e-01,1.185760501301807102e+00,-9.684087381761793401e-01,-2.187462713170688300e+00,5.270612382276619323e-01,-1.508712278142517460e-01,7.802392961175969033e-01,9.737913070278064742e-01,-4.412284875665368755e-01,1.347096547043023507e-01,1.295991710161589650e+00,1.970001189446703771e+00,1.286514795347791784e-01,-9.515653252941298490e-01,-1.655447808035743762e-01,2.561394118249705976e+00,-8.172749495863005365e-01,-4.660778312841625248e-01,-6.076414793031414963e-01,1.022574405618136728e+00,-4.584629354774056309e-01,5.111357973262831839e-03,-1.233970628928175106e+00,8.838090533395194237e-01,9.917164507799173245e-01,1.148564349825815123e+00,-1.867446346563896409e+00,-7.930070521511490833e-01,-5.869873025124987542e-01,9.195101569731083503e-04,-1.875831427177310495e-01,-2.041192861703878147e+00,1.982818404212498553e-01,-1.083469956976461923e-01,-7.765866324343239091e-01,8.154809221869283031e-02,5.576053055309025952e-01,-4.334872204406814422e-01,-7.974676719892610510e-01,1.970585333382368909e-01,1.064803758782522980e+00,-1.987727916660395167e+00,-7.820979374556975838e-02,-5.633826075231814778e-01,-4.173112438974858063e-01,-1.993436114997926278e+00,5.171088224366059416e-01,-4.646136091026799586e-01,-2.238778231751572978e+00,-9.310553925606427361e-01,1.133022907786983835e-01,-1.698272638213229324e-01,-5.622168351584241330e-01,1.468672866687302347e+00,4.482731407545160751e-01,-5.937039557918487587e-01,-2.619571424231302917e-02,-1.071712152601067114e+00,-1.618208347589476404e+00,-4.547583060579771241e-01,5.795222167551045134e-01,-6.981741646021826231e-01,-1.933354090925937518e-01,-1.375484014376207043e-01,1.240839620577486591e-01,-1.275363567013295396e-01,-2.463724221824716565e-01,-1.001843403620458206e+00,4.692491184951902428e-02,-2.267213731097756035e+00,-2.182802905237056154e-02,-8.781156008555001113e-01,1.121158673329425648e+00,9.537328351330236487e-01,1.990847196835180410e-01,-1.441441800450590449e+00,-2.085521496171166278e-01,1.377856727510553103e+00,1.468602931853721632e-03,6.541299261532887988e-01,-2.471353972315809278e-01,-1.091337525458884405e+00,1.061112031209140022e-01,5.389819913901503640e-02,1.008683653725714224e+00,-1.520180980410019034e+00,-3.199683776063187990e-01,1.754055945432240193e-01,-3.866325115430940262e-01,5.876334072496911531e-01,-1.259617869195544415e+00,-8.183611382896039954e-01,1.847049085077984598e+00,1.235697596450066049e+00,7.094633181225875607e-01,-1.110718423971157165e+00,1.835130698141201055e-01,-9.475546720400856993e-01,-1.086834743917246326e+00,-1.098514944229133317e+00,-2.270961031208219794e+00,1.516723719148160843e+00,-2.155796228312207019e-01,-2.381322991936990763e-01,-1.157101928934966217e+00,-1.228688290828229057e+00,1.415518517272790558e-02,4.639197082521560045e-01,-5.480298554155909052e-01,1.245030589300058221e-01,5.912302818270009919e-01,9.107862659209893241e-01,-1.049277991165192159e+00,-2.231886275327889635e+00,-1.453388633212684411e+00,1.353809326879194419e+00,-1.219385374418217483e+00,5.220034201611852831e-01,-7.234938871803130445e-01,9.445399975489499056e-01,-6.368958259331720939e-02,1.953394540208490959e-01,1.154871060488809942e+00,1.038294121914076884e+00,-4.031401227792535402e-01,-1.161742229577878538e+00,-9.196783648696521540e-01,1.315029500455130729e-01,3.658588871953958460e-02,-1.404176491731954669e-03,-2.052004232432036890e+00,-9.032101731970917369e-01,-9.423761614137688980e-01,-1.996049504059353552e+00,1.136350362709407091e-01,-1.236824177331607100e+00,-1.069996687072632957e-01,-1.456807177952900823e+00,3.143999823004730021e-01,-4.936172044985173701e-01,3.073049128464672153e-01,-1.497944109697501247e+00,-7.908626458922380920e-01,-4.791731118049906701e-01,5.071003367735890111e-01,-9.181402439188786069e-01,-2.891599949553880222e-01,1.250110394289914106e+00,9.719763782693207066e-01,-2.089860130904071800e-01,-1.871686291666573743e+00,-1.844777659127230462e+00,-1.915248912177163643e+00,8.130415204968574061e-01,-3.625479461198500425e-02,-1.209756982694530025e+00,8.894324713448301112e-02,-7.076499827868526493e-01,-8.111983891280983849e-01,-9.626643604844751234e-01,6.806348882585541160e-01,-5.059304696169402149e-01,-5.484263389729044924e-01,1.018884752442984043e+00,2.393727344920757893e+00,1.160939936044872445e+00,-3.490208864789547116e-02,5.671907415366359562e-01,-2.550331906782332125e-01,-1.210527279605413398e+00,-2.052890621064530352e-01,7.888049775351560489e-02,-1.270130110904032827e+00,2.693447724607390611e-02,-1.027432521329098458e+00,-3.262810807157566217e-01,5.602514464549955830e-01,-1.647913266231548546e+00,-2.635424446681245980e-01,2.805229082285219944e-01,-2.785947662418378989e+00,-3.593463865459365931e-03,-8.172516160183703748e-01,4.181901672845492884e-02,-4.046235976574302090e-02,-2.091184377611159939e-01,-1.656295833549757957e+00,-1.292052812994374023e+00,6.550175264151145704e-01,-1.245036241960384427e+00,-3.496516783813107820e-01,-3.479136703682137455e-01,-1.678409188420765030e+00,-8.472484367598136501e-01,-8.451955770038324101e-01,-1.370015946641507609e+00,-2.808466517457997025e-01,-3.022594403626275850e-01,-1.715714949706016013e+00,2.685784303628865333e-01,1.800647802174957721e-02,-1.256110531623876314e+00,-1.485158785032685724e+00,9.080575982286192005e-01,-1.816539169968489076e-01,-1.577323002076327141e+00,-2.279784133703483817e-01,9.619193067333163816e-01,-1.576246536433846490e+00,-7.879672329648921281e-01,3.780441635210463613e-01,3.688500924755743759e-01,1.567524284667482504e-01,1.153958558858887651e+00,1.562440784978055552e-01,1.319032488455774033e+00,-3.950377660848587991e-01,1.035042213731956595e+00,-1.230193757295182655e+00,-1.520447783095968175e+00,-1.301190817303480018e-01,-5.600199270873189583e-01,-2.184903749196291045e+00,-2.040157756222450214e+00,2.172621721771261227e-01,-9.522335848698380012e-01,-4.724621025641333183e-02,6.056071498073367643e-01,3.622990496294213325e-01,5.086985821568893451e-01,5.358245933742833422e-01,-9.809237015720753128e-01,-1.981419489278435919e-01,-6.173180307582757376e-01,-7.464345707872513946e-01,-1.196910215436769231e+00,-7.148615018224384610e-01,5.822783396784368681e-02,-2.924845466126289595e-01,2.086174631579625238e+00,-1.023621213681482622e+00,-1.090509598669743285e+00,2.833632879756534106e-02,6.077141825268927988e-01,-7.190990904022732666e-01,-1.269385841013431548e+00,-2.213592043676877896e+00,-1.274173342199449888e+00,3.199809437915596133e-01,1.294261638241141821e+00,-2.298880391606430706e-01,1.310858781566636710e-01,-2.796836994104010543e-01,-1.363494060794540053e+00,-1.791262207993416844e+00,-1.216117432439866031e+00,3.288605209202515312e-01,1.513829714132195026e+00,4.795619354653222755e-01,6.564945097146173136e-01,-2.053653437105433521e-01,-9.475664096638632961e-01,-1.959299859098888819e+00,-7.515378578383523633e-01,1.596692220819527108e+00,-1.464153247879948605e+00,-1.887634429473851849e+00,-5.783353224980787299e-01,-7.104571082724842057e-01,-1.468665370994067798e+00,-8.624745934411801596e-01,-1.056679934634249252e+00,7.915964265213276674e-01,-7.603114914123381141e-01,9.849645082041785793e-01,1.390308070157754816e+00,-8.686624043986933552e-01,1.477376557970787374e+00,1.652473403109408379e+00,7.052823360050279877e-01,-4.273472836575181177e-01,1.227959296385245230e-01,-2.279458049836423639e-01,5.228746439631936083e-01,-1.741424971671379884e+00,6.890671969332811120e-01,-2.995182384338956449e+00,-9.881863555223417972e-01,8.551957247501905668e-01,-1.784827470549130934e+00,-1.397969687411890982e+00,-1.975826262855901461e-01,-6.303188715017697952e-01,-1.380808835321363892e+00,9.267352183065672433e-01,-1.274512013478243944e-01,1.549830013578038512e-01,1.938102602778936923e-01,4.116053481123130298e-02,2.716174889598205411e+00,3.475133669609999920e-01,1.565483998769040819e-01,3.430409801836833972e-01,-1.333041245569182853e-01,1.054912290509254363e-01,6.944115253258706932e-01,-2.320690799908997182e+00,-1.389442156782607629e-01,1.693517246549252064e-01,-5.712089163501680167e-01,6.512800502401959735e-01,1.834549863392049840e+00,1.100705215296106321e+00,-3.561549719614302556e-01,-2.565426834199779016e+00,1.798023324934804990e+00,-6.892710226062088996e-03,-1.173009274499228871e+00,3.645927938727159812e-01,1.515006618918228520e+00,-1.048380501338262105e+00,-2.148680080869840581e-01,5.604674854350792934e-01,2.139029588552031402e+00,1.300473802928962641e+00,5.059700985787695116e-01,4.353391960141351213e-01,-3.565165520920730025e-01,5.558497377673422557e-01,-4.555323674574573989e-01,-1.521422705546460474e-01,5.609091485282022838e-01,2.239495203036075743e+00,-8.572461304562899453e-01,-3.277105199898782129e-01,8.185993389304205836e-01,-6.910121604083822033e-01,-2.073869980334135388e+00,-6.785217938806983318e-01,-2.464116064346433821e-01,-2.718686152861168881e-01,-1.697130777814064073e+00,1.251553677140085474e+00,-9.068605033349566025e-01,-1.002015727305464399e+00,-4.672312321078664343e-01,-4.128836212909900993e-01,8.445132256515571756e-01,-3.504445461015321395e-01,-6.664544951323959909e-02,-7.401792501288273485e-01,6.736247762367844616e-02,1.075525811074536042e+00,-4.782376915128447870e-01,-1.470386039664844713e+00,-9.265612224943331476e-01,-9.719134962715416659e-01,-1.995878776670540589e+00,-5.360303552503109525e-02,-5.703309637634451645e-01,-6.982813636315886585e-01,-4.797098679204236382e-01,1.562522016008747405e+00,5.152503599796349754e-01,3.763274091724043702e-01,1.708321238274693066e+00,-1.184968800941602063e-01,5.204538687696623478e-02,-7.441391949276104922e-01,4.285395446189170232e-01,-1.004756329255453995e+00,-1.537473678791748399e-01,-7.176507370114655338e-01,-4.423253265640910148e-01,-1.478186052420356056e+00,-5.660956335723476007e-01,2.071194864042303907e-01,2.325060702731840401e+00,1.174759802931504504e+00,1.718541108299534992e-01,-1.059500721092514031e+00,9.495613960653027652e-01,-2.254914138525804766e-03,-9.187145871819925036e-01,-8.718783057964097916e-01,-5.096889095923657909e-01,6.401299895715595323e-01,-9.059090487132621661e-01,4.324779628306328894e-01,2.228195609552995060e-01,-6.070843883485421699e-01,-9.028400779811315280e-01,-1.086302450135014919e+00,7.393462485357638059e-01,1.956183605573185436e-01,1.198359379830045590e+00,-6.553360543501531854e-01,1.342616740670997455e+00,1.132483002020362006e+00,-5.089599792789201160e-01,9.867245709927566777e-01,-6.919960838355806443e-01,-3.700135525698015626e-01,-1.328301277301241257e+00,6.177771706170088750e-01,6.849750421765644637e-01,-3.992037719083221803e-01,-5.185884667347604449e-01,-7.780790568807192109e-01,-5.765418780028174206e-01,6.911308006647560731e-01,-2.929840015650728158e-01,-1.639328449345300587e-01,1.740558603447569519e-01,6.781423829090065247e-01,-8.261876374405022760e-01,-1.077760280500534407e+00,1.808923345064808563e+00,-5.990569033343179361e-01,1.558383462438857725e+00,-1.364316416982759017e-01,-2.496549284071487573e+00,6.660293507807134583e-01,-1.776887810361115760e-01,-2.092825637508519243e+00,-5.624060245163102489e-02,-9.062693570810907984e-01,1.637018887707038517e-01,-8.090574598378642845e-02,-2.308621627311064350e-01,2.308780323400509427e-01,1.274591386345023669e-01,5.662219736593727681e-01,-7.029243587689104622e-01,2.166665185635145152e-01,-7.478890051251282367e-01,-1.247142987647082979e-01,-1.097036188350027253e+00,-7.045436480194411377e-02,-8.302776257189928844e-01,-1.891020968037861738e-01,-1.363292970003926907e+00,5.504166497043077450e-02,-7.916207516017151891e-01,-5.311602924246915380e-01,-6.767785588212285042e-01,3.507610460228496180e-02,1.071596327916929159e+00,1.142701989448422051e+00,-4.123488634001785669e-01,8.331134742795250903e-01,-7.719759292564207787e-01,-7.613879946222832373e-01,-6.149454571063267538e-01,7.797203874969831361e-01,-3.549741852755309846e-01,-1.588954234319517045e-01,-5.074921004697836580e-01,-3.213233801682944812e-01,-3.462200834148748130e-01,-6.154927378431389595e-01,-1.554064430314881173e+00,1.610829560704496455e-01,-1.215802295125860688e+00,1.094120952497996402e-01,-2.082750167216144810e+00,-6.954521394335659856e-01,5.123925120390150356e-01,1.094925843410390204e-01,-1.078078306259038666e+00,7.743575008909588941e-01,-5.219585620668928949e-02,2.440087794349913020e-01,-1.435544282373705682e+00,-4.240187577099458482e-01,1.445678968197402492e+00,1.134237378211441910e-01,-7.131781063090579798e-01,6.663451052999014301e-01,-6.213685475291356175e-01,-1.363569302026512720e+00,1.379679240084703551e+00,-2.163616969639766907e+00,-6.197331035992721393e-01,1.168532537740387900e+00,7.690457301253620370e-01,1.816210252822571203e+00,1.061648023256583695e+00,4.744248676357855077e-01,3.920241102889582274e-01,1.903896576277830821e+00,-2.115621145088256438e-01,-9.179361699768991481e-03,-1.313960727003671058e+00,-1.207556407847752533e+00,5.800366951299481544e-01,-1.141912525455502703e+00,-1.084724322596506862e+00,-1.791573523867370454e+00,2.364315818782638731e-02,-1.416849232399333580e+00,2.646739050806736770e+00,5.280561609669519596e-01,1.267760373332424528e+00,1.132871662038316546e-01,-4.973143453836077477e-01,-8.223031146853363449e-01,-3.646035368409570321e-01,1.602762593439258421e+00,1.377737058451846686e+00,-1.455014524877907833e+00,-1.795726636070810622e+00,1.344990270426293377e-01,-2.606436996736620770e-01,-4.253731164962066408e-02,-4.515981743422957662e-01,-3.708100443047830375e-01,4.514439506889554310e-01,-1.420237875240047520e+00,1.011741150230515363e+00,-9.113219454285700349e-01,1.078487548404193141e+00,-5.330327543407645807e-01,8.495007976238869718e-01,-1.236376045949702185e+00,5.153175580612292528e-01,-1.330411265802037502e+00,-1.328687609885287113e+00,9.364465933008516707e-01,-4.138864432865785314e-01,-7.664732072462631107e-01,4.102890038948044937e-01,-1.327864217630537524e+00,-1.368439921009026561e+00,-1.937210282901528746e+00,2.114977603781528437e+00,-1.185230534729942775e+00,-2.008761024276988660e+00,-7.522462727524781290e-01,-4.261226836904771220e-01,-8.896806106488677202e-01,9.999798755952130636e-01,-1.398253416084563661e+00,4.452876590303307958e-01,1.015156795870469475e+00,2.003392411163875675e+00,1.342953623997251933e+00,-1.170825836352514138e+00,-9.227157178344997934e-01,-3.344436868663874129e+00,-4.114872353229628854e-01,8.355098960247956397e-01,-6.621998870343658306e-01,-7.632188948803028117e-01,-1.254533849412333035e+00,1.352134531570260145e-01,4.480047159626399100e-01,-2.229636214986510989e+00,2.095127178943447521e-01,1.598927727066713489e+00
