1.605068514403354740e+00,-1.250738462324751943e-01,-8.557668550179055034e-01,-1.191878225138298220e+00,2.846310132227102274e-01,7.765645166728651905e-01,-1.861996639118015828e+00,-1.266048114499115362e+00,1.328975810320337514e+00,-9.161420195073737283e-01,6.236412745674043689e-01,-1.511650502836895393e+00,4.455965193953278364e-02,-9.779473936579916593e-01,2.502383163725337312e+00,-7.074540149485104568e-01,5.245254363201952152e-01,-6.268661085736131344e-01,-5.160960678348536224e-01,2.162281279670764889e+00,-2.497134272349085526e-01,6.970850871736486987e-01,9.379706639024007475e-02,-4.649110397885353740e-01,9.463484631911649458e-01,-1.819917698771758463e+00,-4.201681360510619023e-01,-1.139896108246512690e-01,1.024884490633779066e+00,-1.564224713807304878e+00,-8.035481897080771763e-01,9.926021425104419871e-01,-8.450170649767096975e-01,-2.678277393004384610e-01,-2.097644985485048963e+00,-3.015899880737358818e-01,-3.965324864644029779e-01,1.499467309094904666e+00,7.693685329166208287e-02,2.716003472858004475e+00,1.957058916701153450e-01,-1.227964974865778380e+00,-1.822233442368499823e+00,6.362369127330376184e-01,3.791180450099453092e-02,5.912728626503123142e-01,-7.774740368978187710e-02,-4.311236831196040287e-01,-9.624489536963958258e-01,3.849379043161950675e-01,-2.120156954596507326e+00,-7.893470560767670285e-01,-1.217549739411735832e+00,1.149372509260079944e+00,-3.244671947563629311e-01,7.617194798036842629e-01,3.781070337574611862e-01,-1.626644174038974766e+00,-1.433217379680995940e+00,3.572678023961580185e-01,-1.145683321238360364e+00,-8.575786202375811074e-02,-1.753819641583662381e-01,-9.275884615313746417e-01,-4.987726004937697577e-01,1.184449149053001360e+00,8.664419772210393278e-01,1.098290333555699716e+00,1.227891650330036999e+00,-1.273379982903615759e-01,-9.075332426726353541e-01,2.969429995138522238e-01,2.524474216598343035e-01,2.170029095137703257e-01,1.077026058591649571e+00,-6.760418294512775539e-01,1.404849093238952906e-01,3.550277603046739228e-01,-1.449438502106180859e+00,1.356216691777855976e+00,1.632718644719909351e-01,6.650455358523714444e-02,9.685085150038962309e-01,-9.054507461093787013e-01,1.675709558519113296e+00,1.000092357632936579e+00,3.815010084837627824e-01,-4.997105189010087600e-01,1.346061019379448664e+00,-5.375954773835399658e-01,-9.534675042276577472e-02,3.069143842082122098e-01,-8.572836441992131018e-01,4.101693379356111668e-01,2.009073892277124074e+00,-2.356505039233036225e+00,1.786808818359388040e-01,2.613332683835749126e+00,-3.864644293697508393e-01,1.993233974408107567e+00,-4.431806521846738400e-01,-1.815873839648922683e+00,1.752117434294477638e+00,3.006368889595720240e-01,5.932969493510754644e-01,6.262521622378595110e-01,4.500128863868688711e-01,-1.865350648084997065e+00,-8.029611007676442647e-01,5.059418115560085916e-01,-5.826397445807218051e-02,1.176540271128029946e+00,-8.972330560168273461e-01,5.881669123348819417e-01,1.885886086007670104e-01,3.985838820746617772e-01,1.001674057792502959e+00,3.868201323884878362e-01,-4.485025811167370896e-02,-3.897875856367740144e-01,-3.036047309554881779e-01,1.320512530687228681e-01,-9.446707450881376422e-01,-9.100029277902528524e-02,5.150980775625678687e-01,8.631580222394966140e-02,-1.046338854978077437e+00,7.998747061284409154e-01,1.720428785129205940e+00,-2.319542537060572951e-01,-2.088840573607624318e-01,-4.133686926112677407e-01,9.310044311880428802e-01,-1.120778356871899639e+00,-3.292125529929864625e-01,4.405609400905831641e-01,-7.268995516381662574e-03,-3.252088268834474327e-01,-7.400255821744062823e-01,1.132398478105381079e+00,-3.663488325210290802e-02,-6.087133603784556923e-01,1.937411925064392193e+00,-1.692032334300137997e+00,6.355108069037749274e-01,4.830093211946280274e-01,-4.671753363258361325e-01,-1.361394604984291545e+00,-7.629987054084467202e-01,-1.194519205762435643e+00,2.651404771030734311e-02,4.731839743662681896e-01,-2.183373738522448870e-01,2.745967603366962440e+00,5.141103064446029824e-01,-6.348519534843127810e-01,4.421020578710850857e-01,-2.015310438069923549e-01,1.537146740993538208e+00,1.053618452363286773e+00,-7.467129886918418002e-02,-9.398805028763070890e-01,7.294137340271023007e-01,-2.247586916656153733e+00,9.149983925708761179e-01,-3.181341144558921252e-01,1.098670177288000760e+00,2.112229247434000978e-01,3.303892922449909175e-01,1.256527706526021360e-01,1.066602820976507993e-01,-4.725568322124972243e-01,-1.286363681061454933e+00,2.033461183810619133e+00,9.678001651324027454e-01,-3.189480694995420751e-01,1.190174943611967961e+00,5.924016593827841071e-01,1.985789465760127603e+00,1.326320112694583830e+00,-3.699310070806559048e-01,1.471683098584747051e-01,1.317029205121377666e+00,9.967815422004746573e-01,-9.637847290309409232e-02,-1.859343755711362345e+00,1.620138169451836863e+00,2.048724481460083985e-02,1.246106171075246127e+00,-3.014951361759640736e-01,1.738845277847428372e+00,4.040412682667810507e-01,1.314090457451746685e+00,1.830106737636964631e+00,5.429063609179869410e-01,7.034474694351683377e-01,4.719236906024603662e-01,-5.454372222063785802e-01,-1.020216972160102653e+00,8.166584295795216164e-01,-2.332620055063146514e-01,-1.221231235532057813e+00,2.011745463270036893e+00,3.318182339291891880e-02,8.920141483426962115e-01,-1.602574541593545787e-01,-6.791155652534728304e-01,4.904095895485939827e-01,2.671010468589666842e-01,1.585262235682521892e+00,1.008492530863996928e+00,9.747524835640697383e-01,-4.971743479805838528e-01,2.587126282844323111e-01,-1.916941821846078087e+00,-1.080616597179329785e+00,-3.444935126352133281e-01,2.073818796887987315e-01,1.376012601885691078e+00,-9.230113945450604263e-01,-1.026300628997165232e+00,4.309088671660430414e-01,3.065578232564312167e-01,-1.757050035353364459e+00,6.908334025617172136e-01,4.864791451177455373e-01,-1.276924028685924695e+00,-2.195012603287936626e-01,-6.605991461750174709e-01,-3.962431745104764702e-01,-4.521438598411787191e-01,9.849430945585975206e-01,-7.894694278182396996e-01,-7.874108354014711653e-01,-3.527244585549338396e-01,-1.568811138783681169e+00,-9.782962099836545189e-01,9.296663076257316582e-01,-1.112658010089634109e-01,8.046001561148711234e-01,-2.358107296414759524e-01,1.481620395531582091e+00,1.769342047229429893e+00,2.003113059163871945e+00,-6.886359378337839621e-01,5.667127027493246150e-01,-2.844972107489881497e-01,5.115373359042866275e-01,-6.002637761727969146e-01,4.647008842334348633e-01,1.915206244238971012e+00,-1.504739015574232119e-01,3.485851415978978296e-01,5.219893882997663770e-01,-8.383168682519198667e-01,9.537668836159532981e-01,1.853219726089728736e-01,-1.449233329930747605e+00,3.250302204014183238e-01,-1.215315786790396313e+00,5.234142254387780246e-01,-1.053044499784159926e+00,1.282350530466747518e+00,-2.144954644464267535e+00,-4.949914759011297405e-01,8.253612777099093023e-01,3.300557778231753558e-01,1.441667406750589020e+00,-5.194182009405650113e-01,4.053852151776387025e-01,-1.732044657223106021e-01,-6.138259272004394085e-02,1.520177521360759121e+00,-1.011717281358737841e+00,1.512635547349863607e+00,-1.050270878940650493e-01,-5.393363492409879445e-01,-5.442495550484226507e-01,2.225235772704610704e-01,6.435229491083775677e-02,1.381047841827945044e+00,4.128520121545621868e-01,1.947986074657011235e+00,-1.116708167884733705e+00,4.591592898856998173e-01,-1.149462413838000296e+00,7.571080421589571063e-01,-8.826569584896805098e-01,-5.865782455274014540e-01,-9.792781400430129457e-01,-2.011746331312847413e+00,1.304364188936885327e+00,1.962870150152283610e+00,-2.455828882426953907e-01,1.005128216501627758e+00,1.053336410440254500e+00,2.774045327876265343e+00,1.322566157085529603e+00,-7.929836623516961502e-01,-1.636727576558044905e+00,2.124413719690811664e-01,3.292077468032338916e-01,-3.185405462196637116e-01,9.745696852914127462e-01,1.152822716056694924e-01,-2.714090748550001542e-01,1.069273822713681543e+00,-7.414377366700172223e-01,-1.143460693715853349e+00,-1.490073076348903403e+00,1.580801875531788081e+00,4.206847660030598179e-01,1.193133732901769273e+00,1.037595348771118253e+00,-1.843773587717149609e-01,5.027576435673443145e-01,1.863279817119225967e+00,-1.072066725111166630e+00,2.036693165205770484e+00,2.106358783006241908e-01,-2.349543493772109581e+00,1.518745531898397561e+00,2.447379473053963028e-01,5.889523525469767540e-01,-2.242840321789203006e+00,6.636078897772021978e-01,-9.201846465907775885e-01,-5.382013351158504433e-01,-9.302536005176299805e-02,1.411547151128887734e+00,-1.578425203565721358e+00,-9.150963847799908901e-01,-4.548579324238578026e-01,-7.340124100604126234e-01,-6.067237228559519968e-01,1.669724208669555621e+00,3.954829270774637973e-01,-2.167534123429722681e-01,1.530030085842514875e+00,-1.350001133043090773e+00,1.093065493221924145e+00,9.955989923480521586e-01,-7.623139400714212810e-01,-4.222783653735646264e-02,-6.565083850955778511e-01,-6.960801401950751366e-01,1.777792548322469912e+00,3.120757111210830659e-01,9.081728931320965925e-01,1.206337517515418067e+00,-4.591081303872920905e-01,1.798715006409671524e+00,-6.854196430798807915e-01,1.190336615022257849e+00,1.034783591262620206e+00,3.598858374724514531e-01,-2.881636446624839532e-01,7.325868364873729943e-01,-1.546425489342933224e+00,-6.962654685464632065e-01,-1.211960705209239597e+00,6.743806481731809965e-01,-1.748947527841097749e+00,2.794895416824006995e-01,8.924645289522156189e-01,-2.256734363960214707e-01,9.542121066373436822e-01,-7.790014436850418722e-01,2.382948565257896778e+00,-2.751101903379303160e+00,-1.234254361091155772e-01,1.043255746433208397e+00,1.126643451362884463e+00,-4.519845847242598968e-01,-1.306645046801088172e+00,1.343504873841273151e+00,6.765468176798752342e-01,-7.285014863179459232e-02,1.305580986586293291e+00,1.987407802320425021e-01,-1.744838074705088671e+00,2.173526650879975985e+00,-7.032415374851614942e-01,1.129628080397364176e+00,5.858114419276760909e-01,1.085962286279504585e-01,-1.442255541605428348e-01,-1.816368784673084935e+00,-5.901206969794673407e-01,-9.474788825347554289e-01,-7.910539361021875493e-01,-2.028937509098958092e-01,-9.670087672347023044e-01,1.218465237407944990e+00,1.143573771623463298e+00,-5.414315462147947233e-01,1.910251070035221821e-01,-1.225873243940433399e+00,1.683864945475873065e-01,6.589565840483838643e-01,2.201027564672236852e-03,4.617545244698296747e-01,2.799564520376591759e-01,1.200726777677570523e+00,4.713131391189855357e-01,-1.164698245802705534e+00,3.479231023566954906e-01,7.264897997092335802e-02,2.738043826287843152e-01,-6.827521913274475773e-01,2.028752510267266274e-01,4.716229444635081786e-02,-2.666459255358260005e-01,8.851436801615032435e-01,1.527561802426853799e+00,2.049789817869940578e-01,2.772015633086346020e-01,2.092593046244259458e+00,3.314679589081556688e-02,7.945646602686469162e-01,-8.814157161374904792e-01,-1.023110047149252466e+00,-1.196598879244633151e+00,3.226007642087085903e-01,-8.792592322182292419e-02,-3.276934599193520592e-01,-1.290169878524749292e+00,-1.601127447226640799e+00,-8.237509250788382920e-01,5.486057334865729329e-01,1.829421402107388461e+00,1.072565981457106743e-01,3.773348720370484966e+00,1.276038006628092303e+00,-1.906655668383772650e-01,-1.415756097622536736e+00,1.546291082294378727e-01,-3.981625593806654706e-01,6.746345791086834076e-01,7.059166937928751384e-01,1.026127610122146983e-01,1.243726132084042452e-01,6.189165356965917741e-01,-8.058953491038540751e-01,-2.668982628356701414e-01,1.973821580103175544e-01,4.952137043283156848e-01,3.089960552625621304e-01,2.065642590721000982e+00,-1.997656414886165854e-01,-1.307274295845133327e-01,-3.238036706533766185e-01,-8.770786369754407508e-02,1.092402675480570906e+00,-2.927946305538065563e-01,-4.433678475526014462e-01,-1.523375497102096743e+00,-1.295729700166038834e+00,1.083346588864534610e+00,3.650358600588558128e-02,5.900829265571122528e-01,-1.759515771768868753e+00,-3.071073675798290450e-02,-2.140719308719102598e-01,1.575931097783462853e+00,3.197535319364349649e-01,1.716194514302930907e+00,1.858639486540321628e-01,1.960028535662484694e-01,-3.168053655677054992e-01,-6.905729425371331942e-01,-4.459759595497937990e-01,-1.344166051946369955e-01,1.277297455423977546e+00,3.281078485084254481e-01,-1.297828144996359123e+00,4.919726940711944274e-01,3.500979314642955198e-01,-6.075590782733610029e-02,2.709014937044470495e-01,5.218300431047282473e-01,5.572149678622686508e-01,-1.568672840391507561e+00,2.971226712249327440e-01,1.129422467284515008e+00,2.788372075294538899e+00,1.694943745512018651e+00,2.400208277249234468e-01,1.395603607550695013e+00,-3.738578729746203644e-01,1.240725252721019745e+00,5.534047177347680702e-01,2.205228128294222517e-02,1.670234002029759468e+00,-7.506656928752323266e-01,-6.003691663208976514e-01,1.925803047152328529e-01,-1.813554109436025796e-01,-3.448644191332404518e-01,3.609670180100909564e-01,-1.266047517828154501e+00,-7.873311806651174527e-02,2.711426735666225968e-02,-1.834821611927585527e+00,-1.208640753453741556e+00,8.745734295873301978e-01,-2.691238692680253397e-01,4.599515339518468471e-01,7.959649285095385940e-01,1.506877934590425738e+00,-1.845740496384688623e+00,-5.803885809397993922e-01,1.116265153967151563e-01,1.390271354187676556e-01,4.800392082617322975e-01,-2.505277513942030243e-01,-3.111032163752177615e-01,-1.871166262267991431e+00,-3.466392622275396573e-01,8.305275449041493729e-01,4.258294077129237132e-01,9.350749457784370833e-01,1.164086094304283447e+00,-1.044941821472516574e+00,1.920901056946396457e+00,-2.614413994346614367e-01,1.315583510495771158e+00,-1.542897504321277147e+00,-1.124897297999877921e+00,1.193232797644460552e+00,1.744129052233651223e+00,1.210361338828482625e+00,-1.621283118891696073e+00,-2.560999134393518450e-01,2.726402284377034135e+00,-2.087127857788207308e+00,-1.118809830122662052e-01,1.400438560714548419e+00,-2.262624513480735733e-01,-8.471569942503648365e-01,1.247105690008478485e+00,-3.412504725724772592e-01,-5.134519506996293448e-01,-5.464352879060188073e-01,-2.432251117685254593e-01,-7.530387051402336329e-01,-4.347475753498254714e-02,2.177092015885686016e-01,1.799205761519769853e+00,-1.576152522330880046e-01,1.422181003924919973e-01,1.634706093579157971e+00,-1.252240414460161544e+00,-4.828784864986836456e-01,3.559602746749149227e-01,-1.640390769512267255e+00,6.417468969410945745e-02,6.286749614721294233e-01,3.388977938741253859e-01,-5.596341208091228925e-01,4.004689522419958569e-01,1.075571321211783893e+00,6.052539641959386874e-01,5.182563924853873516e-01,1.103043801609670638e+00,3.716556928563752860e-01,-1.483040320709334781e+00,9.276210441126425676e-01,2.267181414782029059e-01,2.988637528354831652e+00,3.257787319615031985e-01,1.884574617770689020e+00,2.633153317590217313e+00,1.210989362989266294e+00,2.252246350827374233e+00,-1.167721960074159793e-01,2.839892121732772723e-01,9.070813203969835259e-01,1.136356393792578912e+00,2.860268400036903302e-01,4.847752200795077959e-01,5.221872333152735024e-01,1.420386610535802896e-01,3.032441002956862697e-01,1.636780894971700206e+00,-2.117262602537639538e+00,-1.277389978911276369e-01,-9.127777775061909349e-01,8.328452229514721195e-01,5.889795606338216194e-01,-1.309513137142617856e+00,-8.782183814909970687e-01,-2.930574400698484072e-01,-1.381887507999493891e+00,-7.322526450735755699e-01,2.356133058116102408e+00,4.077416495339443725e-01,-6.054250683186246373e-01,-2.268003344253368414e-01,-3.620517424039597087e-01,-9.804506057881671177e-01,1.315710798049739561e+00,-2.229969558966972132e-01,-1.110559349258576578e+00,1.776909253638003117e+00,-2.392941954832784046e-01,6.170563149909283895e-01,1.019120070677073248e-01,-1.103223019424224155e-01,-2.215942429657322965e-01,-8.824033940363860129e-01,2.085965931910599647e+00,4.726123873066916947e-01,6.447762851707031229e-02,-7.724937667234195449e-02,-6.308024951777949640e-01,1.081652659889637436e+00,-8.963290816034201747e-01,4.993151395906526846e-02,5.290098242455453237e-01,6.917232805182864652e-01,1.151512586968988394e+00,7.133000899243352455e-01,5.099289119024893457e-01,-1.002619688641260165e+00,8.158329342830482611e-01,1.384673095357213501e+00,3.210269741441684199e-01,-9.756658262317788877e-01,6.874611088284905414e-01,-2.041165661330817560e+00,1.723254753646356052e+00,9.302198371140872890e-01,1.041982435125696771e+00,-7.916391475255047938e-01,1.030407201006192236e-01,-5.406800488737774080e-01,-1.273912206595891217e+00,-3.314997262543811218e-01,8.436148725417290661e-01,-9.890527250241699653e-01,9.367491306369492010e-01,1.154262890023852739e+00,-3.519036111552090174e-01,6.970439203843730169e-01,-7.879577111903028896e-01,1.093737933821037567e+00,5.198383961763314298e-01,2.882101586098841928e-01,3.150298367514979270e-01,-9.668931654472943116e-01,-1.173803478795030664e+00,1.236647384607299616e+00,1.588219397569425873e+00,1.395174715655916442e+00,-1.949839294779375010e+00,2.032262156651061691e+00,1.324052343688229882e+00,9.284521221624153497e-01,-1.113920250320026506e+00,1.520988735467172226e-01,-7.268878815802808369e-01,-7.982920142491549409e-02,7.805633014560917626e-01,1.157122694127239892e+00,-8.591628224411154702e-02,-9.559194234053212114e-01,-1.122092046565422496e+00,-6.088230390668969427e-01,-3.096065750084489587e-01,3.127956881684721968e-01,-6.885258613264412242e-01,-8.437913162588619453e-01,-8.859210470132504733e-01,-5.213380354507218817e-01,-4.152403775926936935e-02,8.540948014181216630e-01,-1.739007965785352439e-01,9.191310548159796756e-01,3.475998733432191234e-01,-3.921913493257457861e-01,1.872329081058859979e-01,1.001332971462973509e+00,5.662975009114638025e-01,3.690583803950145958e-01,-3.508688327520905759e-01,-6.780184081261185491e-02,-5.839475782641982970e-01,-7.314182296467699462e-01,-5.993295707990345944e-01,-7.079628679116908296e-01,-9.846261895295227440e-01,-7.658550396117586034e-02,-2.403524303888026625e-01,1.885633575602399803e-01,1.258286267375055278e-01,2.118048363098157527e-01,-1.654919112808742376e+00,1.512852835138904561e+00,6.007881357575226566e-01,-5.083937784650901515e-01,1.058189917478518982e+00,4.968187703685319478e-01,8.377538176369977441e-01,-3.411539519885339877e-01,-7.225777850254115897e-01,9.807103236735945639e-01,-8.336550466136196658e-01,1.028691794674588128e-01,1.717967239963906101e+00,-1.456881110708518889e+00,-8.156050486740871186e-01,1.088694518004499123e+00,-1.253114260782648648e+00,-1.005322656886977750e+00,-1.071058760176431202e+00,1.181774126650400492e+00,-8.927287662920612155e-01,-1.268347158781286677e+00,3.325062281794968766e-01,-2.361866254243792998e-02,3.654137804010929580e-01,-2.538693621173012116e-01,1.159382241603589714e+00,-9.914998511652970414e-01,4.054635656860962611e-01,3.896413838517071571e-01,1.009793918940310037e-01,7.524832314336031835e-01,1.099922020697426672e-01,-4.606828622495806602e-01,9.690394377721893715e-01,1.903187883680559078e-01,-3.455964338850950890e-01,-1.527492005260535635e+00,-2.227306708482554409e+00,-1.384323425034991395e+00,-1.281292710437723414e+00,2.726045958585737172e-01,3.100587605081356890e-01,1.531843532668221153e+00,-6.361194492385565669e-01,-1.920849572224715862e+00,1.018803910930029311e+00,9.303247501724318802e-01,-7.181674863340363479e-02,1.500731546953371076e+00,-5.132466805441754376e-02,1.820364934788436528e+00,8.892189845590954267e-01,-2.189564862472263562e-01,-5.359727791676397457e-01,3.027998290029888517e-01,4.979754660866717586e-01,-7.575936041604648397e-01,-3.352306012304857585e-01,3.226003403704222339e-01,-2.396105540292923664e+00,6.962152995394536026e-01,1.300686155306020331e-01,7.284388899330344058e-01,7.420551790063707465e-01,-6.734544796545552936e-01,7.896487981943930423e-01,-9.341595183479664000e-01,1.048508808326654496e+00,-6.221152845174098278e-01,-5.126375598045954662e-01,7.343455125963984642e-01,7.967420950212609210e-01,8.937706905139748415e-01,-4.330309814148779468e-01,6.201538894308654681e-01,2.297336259396195679e+00,-1.054106060805939826e+00,-9.228836044532532368e-01,-1.590245184037309412e-01,7.367170064946375607e-01,1.847061485982863793e+00,2.953859374140894167e-01,-1.115873001673781229e+00,2.662978682542083142e-01,3.338020082323010090e-02,1.252146457866615936e+00
-5.371589576215475281e-01,-2.144420571644040652e-01,1.381824183904852399e+00,-1.360443306050505452e+00,1.147166766518340070e-01,-7.556375464082923377e-02,2.545130126884367794e+00,2.011225104824061916e+00,2.365567992550425824e-01,6.776576517001514643e-01,1.252340334746679495e+00,-3.967113065840652819e-01,4.714734753589084892e-01,4.344670383830521176e-01,1.001525966543975077e+00,-1.192623368089114066e+00,5.871449012015381164e-02,1.744542311362418552e+00,2.537901703339795478e+00,-1.524304846992348694e-01,6.244918615878404244e-01,-1.788658287442927985e-01,2.187841119662883749e+00,3.421792744756015914e-01,3.084467798030876118e+00,-1.523371444980314016e-01,1.295710766816456916e+00,2.428626519884982571e+00,-5.403260921615651302e-01,4.326023139553043517e-01,1.265812061607756389e+00,2.194520103975377071e-03,-4.855220818393453097e-01,4.678292680628465261e-01,-4.740751766421034130e-01,-7.483435080223707070e-01,1.309241059019105702e+00,1.660499515678105775e-02,6.747485053048521975e-01,-7.609020902537324549e-01,-3.693722237652399820e-01,-5.018342920424179177e-01,-2.004722474503911056e-01,-1.245566185960785832e+00,3.699652527664059054e-01,5.409260356962601879e-01,-3.006885037195731192e-01,9.052994961741471780e-01,-9.756973281108033413e-01,-1.780715735117332166e+00,1.060528736120653903e+00,-8.639555709264672423e-01,1.871136858676157422e+00,-7.111425898851835292e-01,4.756419789422547950e-01,2.346903232622410962e-01,-1.726875833224757351e+00,6.841714752947166689e-01,-1.097295225640372518e+00,1.925744578196536771e+00,9.238748354843665522e-01,2.683813038259264538e-01,8.934739724646802161e-02,3.170448610676986079e-02,-7.078237264167829279e-01,5.539344605945177857e-01,-1.788234553224850698e+00,-2.139813211002064897e+00,-9.303528026181506760e-01,-7.384045150542222213e-01,-2.244653650720223048e-01,2.143649275650436579e-03,-7.007443751477576699e-02,5.997397733883675919e-01,-1.226007031431391558e+00,-1.267844584137397979e+00,1.822298921022381002e+00,-8.759201329424052274e-01,-1.469073758343934832e+00,-4.540246388582617199e-01,1.475658080395689131e+00,-9.537575723457018817e-02,-6.516021675722044604e-01,5.221706285456168689e-02,5.024369052156385518e-01,1.099828073742824680e-01,7.348887965094396020e-03,8.546105560687645708e-01,-1.930257773010342293e+00,-8.053002943842220429e-02,-3.658387023054465170e-01,-1.958809988546860170e-01,-1.858641413290698763e+00,-8.508636056932413760e-01,7.088160492222533859e-01,-5.559377454135512320e-01,4.429232515022192285e-01,-1.449390069636646849e+00,-5.638002160624888681e-02,-4.035468220791328942e-01,-2.996329641299571023e-01,-6.417794235612814813e-01,-1.153007810734471672e+00,1.269737638381016609e+00,-9.866893921124029188e-01,-2.773735928133924666e-01,-5.528891310770299716e-01,-3.441404689902863301e-01,3.547851969894853519e-01,-4.303821294494585836e-01,1.540088131242151326e-01,5.067267125108697590e-01,-1.130121800900715234e+00,-1.835519638381684304e+00,-1.265428421463722586e+00,3.780939267821285532e-01,2.647428034592664847e+00,-1.184693078703598634e-01,1.009312120907010391e+00,1.069097413657994045e+00,2.175353767106731784e+00,-1.309016402640279964e+00,2.193363056232287001e+00,1.907713011369601253e+00,3.901185412642060868e-01,4.274267218182959543e-02,-2.728403542274719373e-01,-1.176567137463912616e+00,-1.093771495451274278e+00,-1.164984459160684827e+00,-1.243243413375384909e+00,-3.213952117776580852e+00,-3.356615183317467332e-01,1.713289138976041570e-01,-9.258681178615211227e-01,4.931967300760768946e-01,1.010072141111073796e+00,1.061726390607062642e+00,-1.112325880027208225e+00,-4.916794892893758262e-01,-1.301153080735091061e+00,-1.829286813486701080e+00,-2.002896289954673448e-01,8.208417175951688849e-01,5.103531495149332686e-01,-1.206160028078888002e+00,3.462517394581099417e-01,2.501146793379271482e+00,-3.375536434447172773e-01,-3.485253431872309959e-01,5.579780823398888812e-01,5.271717711779884130e-01,9.564717528892654475e-01,-3.839433260904264733e-01,1.851363306365178429e+00,9.614607013725386953e-01,4.917380285582128585e-01,-1.194282218902602777e+00,-3.460620457476323852e-01,-2.925666453410799672e+00,-2.553053143558715821e+00,-2.976973361336737511e+00,7.578245502868441452e-01,-5.792589259078130270e-01,1.690439334431620422e-01,-1.059198701997217995e+00,5.477367089225644303e-01,4.043642989313138147e-01,-7.278962939922611897e-01,2.344029747590451462e-01,2.462758368396401332e-01,6.664104489174693668e-02,5.418572012769405921e-01,2.212112352565617446e+00,2.506089246853345998e+00,-5.929866444373971257e-01,2.448709788923737918e+00,-1.169006506881098417e+00,1.020873943005799145e+00,7.593947367708331342e-01,8.883829210312572666e-01,7.857691189699816947e-01,-1.715033579215440029e-01,7.514077677466490801e-01,-1.179705291017294932e+00,-1.808045961213432085e+00,-4.750828350821001966e-01,-3.211019988584686846e+00,-3.055847559708694483e+00,-3.923249197200472604e+00,-2.192876432605272097e+00,-9.733468969555424399e-01,-1.930864236016846647e+00,7.530361775718507067e-01,-7.601309920331836834e-01,-1.300528947306014427e+00,-4.936173897082388184e-01,-1.054750071020674973e+00,3.432723350848010391e-01,1.249853008090563017e-01,6.557821538283992169e-01,5.249964975646825849e-01,1.655112585469119324e+00,-1.848775182332935973e-01,-2.703873848425173976e-01,6.313396751441714416e-01,-2.159123685072342091e+00,7.198298157403893631e-04,-4.425794809068858693e-02,1.502735827823142412e+00,-6.779086028205631997e-01,2.865963794016194721e-01,6.131961532890133938e-03,1.595801955955666873e+00,-6.599301629883447262e-01,-2.989746451300591801e+00,-4.193121837778211791e+00,-3.026367407723347114e+00,-1.922428127521938146e+00,-1.253869776087918719e+00,-3.664762115786202035e+00,-9.570096081610377503e-01,-3.599334931433144369e-02,2.754669721090157730e-01,9.837825547105352175e-01,-2.284260161268752753e+00,-2.112457116935497481e-01,3.949544136706469311e-01,6.584651627933563178e-02,6.024548609162525548e-01,1.152059444305742059e-01,-1.342712675787041343e+00,-7.759984978480005680e-01,3.229452384311908286e-01,1.944239058952329957e+00,-2.169850959842920979e+00,-2.185838800491706646e+00,1.336229155452359763e+00,2.050339982712951592e+00,8.188513892257175131e-02,-4.508252519175739437e-01,1.220187359523779769e+00,-1.811058024902091113e+00,-5.006086765049738929e+00,-2.352696234269067599e+00,-3.592214168573144573e+00,-1.158229250414760436e+00,-1.506470593116957302e+00,-1.842311228188067140e+00,-4.325692026168290183e-02,3.518623694629207654e-01,-1.202209323967048160e+00,-5.394450828326483732e-02,-1.701287562412121535e-01,-1.316131697389788746e+00,-8.069414471764315699e-01,2.043555568953867585e+00,-6.893077544218843833e-02,-1.166001696206768884e-01,-7.595833204148735307e-01,1.583482508240772746e-01,-9.648160346884980809e-01,-3.999912451478580544e-01,-4.834138551186051291e-01,-8.218934578909866673e-01,2.082971777948007031e+00,3.836361050647231874e+00,3.377336845823708078e+00,3.050575041038738888e+00,2.139296255709959294e+00,-1.485529534009288000e+00,-4.980255345504193798e+00,-3.004443196631288338e+00,-2.762334468181280922e+00,-3.012943250688567609e+00,-1.295652908089730548e+00,1.147680780458369271e-01,1.962697793603461471e-01,4.718978229245952005e-01,2.675246577194445030e-01,1.838811995698653057e+00,1.305389407756510023e+00,5.467938191789216418e-02,9.258844245046784494e-01,-4.384022161288570474e-01,1.151247589655502779e+00,1.243720587690807511e+00,-4.340991219026683057e-01,-2.585822294890581130e+00,-1.236378501757709136e+00,1.151731558404377187e-02,-8.286562114454851247e-02,6.459531731120742304e-01,2.932044613915017806e+00,4.500021198446120252e+00,2.305324390442466953e+00,-1.139610576027922706e+00,-8.456229535538368758e-01,-1.689604337797638411e+00,-1.453360125688683002e+00,-2.673191633147226742e+00,-6.871836009698270020e-01,-1.389045019662260350e+00,-9.614656679293502872e-01,-1.410599852132431442e+00,-1.608502276162913636e-01,-1.067027956835608249e+00,8.677698383152127048e-01,5.331540675173354060e-01,-2.042577782539740650e+00,3.922754031594312130e-01,6.839013697867455388e-01,2.537940240059284314e-01,-2.504810430173827207e-01,-1.828116637207599871e+00,7.562490636216238904e-02,-1.257730283754621148e-01,1.056655365739808394e-01,-4.040593820405382064e-01,1.825607192231174514e+00,1.453469691550060894e+00,1.896159515633992099e+00,3.101990467502526272e+00,-8.530549595776470984e-01,-1.793946731843032882e+00,-3.096469693680609314e+00,-2.982543201606474792e+00,-3.211598149385287204e+00,-2.763042289653374617e+00,-7.592306608968841797e-01,1.324071671365269820e+00,9.787906210421616349e-01,-7.883113323453778687e-01,-5.954134959765161605e-01,-8.815576889457379384e-01,5.435073949481912248e-01,5.807680421335166265e-01,-1.615992408027896454e+00,-3.445275397753527757e-01,-6.988865511502293515e-01,-4.369602403090658838e-01,4.799384469626313265e-01,-5.884251499896447912e-01,-1.734660326136495900e+00,-6.223484837330807429e-02,-5.005297663028350774e-01,-1.024709127946944465e-01,9.521857596230524079e-01,2.039068285720733176e+00,-5.769951628546098749e-02,1.134508390664628719e+00,2.358338970977156723e+00,-1.118685881079141575e+00,-3.018051050243845790e+00,-2.249752138832228798e+00,-1.585998402402618357e+00,-2.143921623692102152e-01,-8.623841258423280420e-01,9.874265625035216765e-01,-9.199479574366574708e-01,-1.437483358044945980e+00,4.112888691662505147e-01,7.102609896229228337e-01,4.282156307043422649e-01,2.294938785685715354e-01,-6.464068288065409895e-01,-3.538826721797068142e-01,-6.731371775729558804e-01,-2.306585996489848023e-01,1.164787805274561272e+00,-2.081557275956130049e+00,2.413537495161721391e-01,7.352800729507584787e-01,6.595519859254345141e-01,-1.255463532536835292e+00,-5.802773781045792497e-04,1.432362247617600337e+00,2.682448762559857744e-02,8.925184685674871776e-01,2.369071152405720915e-01,-3.389677301799270959e-01,-2.433033166079330289e+00,-9.975684870302937990e-02,-1.661602866781092813e-01,2.278962159163414825e+00,-3.592567941368526307e-01,3.367210919816001069e-01,3.115455537776392059e-01,6.949737431353265882e-02,1.108375097420699174e+00,-6.674457882919959673e-01,1.975040458490591622e+00,1.197190568880741879e-02,-3.875422326877766555e-01,-4.276986394962463411e-02,7.211683573237441802e-01,-7.071998258703704465e-01,-1.631886024258265344e+00,-5.373366045928196222e-01,-2.889921850462920383e-01,-1.674338908886620694e-02,1.338394949510234744e+00,-2.049489653980347104e+00,-2.967618511759010924e-01,-7.750146903853577518e-01,-1.007126803949009997e+00,3.988356221425073400e-01,-4.023311221945691241e-01,-1.956089366665607177e+00,-1.230049166221477197e+00,-1.655055614877415815e+00,1.449616880650072215e+00,-5.462844101319502821e-01,1.482757710390383288e+00,2.367878896490856810e+00,1.435916778378169445e+00,-2.618899341178961282e-01,9.373627421696426598e-01,-5.603451711431197690e-01,-2.513127030681550522e+00,-6.785636003629007540e-01,-7.532281239608852597e-02,1.190834052829381345e-01,7.987197854280433384e-01,8.057075076146958947e-01,-4.035805513445874793e-01,1.575551750249410743e+00,1.833290095880279746e-01,1.901433053710543386e-01,-1.559078316052757429e-01,4.568001550575928049e-01,-4.560843294598307396e-01,7.385998505648713741e-02,-6.379002160847048186e-01,-4.306352834518906714e-01,-2.742801306086217750e-02,-6.323117906497369711e-01,4.680547512122401610e-02,1.544109198899673574e+00,1.391004436686515300e+00,1.653792802511560023e-01,7.462458756394402259e-01,1.166469259198911201e+00,1.329743725821088685e+00,6.725607991127890983e-01,1.708230539342742382e+00,2.953650312227227293e+00,1.392572606337306833e-02,4.619136653186119434e-01,-1.173180820414378323e+00,-2.632892760106579355e-01,2.489361785837067298e-02,6.809841631576611931e-01,-3.727760084551776654e-01,-1.347889528460929354e+00,1.307264671398155720e+00,-1.340906360493352989e-01,1.216495063527566423e+00,3.593240940975485076e-01,9.895739209834679695e-01,-8.034373304798222426e-01,-7.454667985690552889e-01,-8.535888209867391607e-01,1.428278588583525022e-01,3.363305922246659918e-01,-4.483411540409904528e-01,1.596594027589724796e+00,2.272481452716096362e-01,8.269914712598906703e-02,9.303934603790066094e-01,4.952509562365289830e-01,-1.414780454316666991e-01,2.841214347986791844e-01,2.984924496368171476e-01,1.728540167378902925e+00,-7.421600708967074356e-01,-4.850624468468556216e-01,1.382423806664677235e+00,8.401655621214102476e-01,-1.206275160241067623e-01,-5.767313945932291963e-01,-2.322922337487410172e+00,-1.229106679510519218e+00,1.663299052566304947e-01,1.853716190173576306e-01,9.032991797125875522e-01,-9.750491180024510873e-01,-1.302028124238768569e+00,-1.589041581801864611e+00,2.039237262121639027e+00,1.391389379557765427e+00,-5.115943321966441859e-01,-4.291998541318099991e-01,-1.049796189961236109e-01,-1.090822211515372508e+00,-3.401872698113315757e-04,4.178176967278923737e-01,1.362268047575860619e+00,1.674944403253515013e+00,6.849935047860489234e-01,-2.718071176035278258e-01,-6.502985298629311295e-01,1.728192067747085447e+00,2.388376527107180625e+00,6.575778750638956449e-01,4.370500593959086300e-01,2.353343083209793019e+00,-4.336296195328227521e-01,-9.882963838238890686e-01,-2.091553910856996656e-01,3.316676829506708946e-01,2.287289196456825657e-01,-1.203314479091260047e-01,-9.124510802625943606e-01,2.040896485352467205e-01,-4.444457985929370913e-01,-2.859630079396072500e+00,1.219528237276865101e-01,-1.273790797803495245e+00,-1.416903443918855920e+00,-3.461052039259683855e-01,1.893789306161647978e+00,-2.541034712056324252e-01,-9.467366113637204483e-01,5.968232439109599774e-02,7.574053475777906552e-01,9.849434144907220912e-01,-1.422153454247425397e-01,-7.716428384313805955e-01,-8.243574596534899435e-01,1.234232104276560049e+00,-5.146970141617728256e-01,-2.407933440053339869e+00,1.338427100951276483e+00,1.405621158450877095e+00,1.392261220754153150e+00,4.048135121246624335e-01,-8.956271159395841064e-01,9.268791451146630722e-01,-2.674975162225026182e-01,4.436620983017064423e-01,-1.273855767885502699e+00,-1.038539129184859466e-01,-2.404908413848723114e+00,-6.656507849788720899e-01,-1.850971407597044704e+00,1.187053097480771369e+00,-5.338004356316084636e-02,-6.206459731020117498e-01,-5.002091531365890908e-01,1.302146274857443276e+00,1.130733793076434512e+00,5.626276835728513115e-01,1.786459136934151593e+00,-8.254406639568696580e-01,5.132608381317371737e-01,-8.284156797549218493e-03,9.602650341853040394e-02,1.222824295349650647e+00,7.773859822005875220e-01,1.520159289936226510e-01,1.777337694584106009e-01,-1.378150395675565854e+00,-1.994694579465202677e-01,2.526112186397793669e-01,-1.788716663561514854e-03,1.000990811807335401e+00,5.246014253899288216e-01,-5.731669558914413987e-01,-1.074243594248252442e+00,-2.930706329858078218e-01,1.017285913257870850e-01,1.302583332304270772e-02,-3.472290799948261619e-01,2.085342487184919769e+00,4.177919834013049116e-01,-8.063641987443045389e-01,1.748981096543185121e+00,1.832215087827184508e-01,-7.798124153279514248e-01,-5.786054493182571923e-01,-4.036729486347785389e-01,1.208470052968284442e-01,1.790327805607705880e+00,1.753753921857856390e+00,-1.084138932462872296e+00,5.606616768025315389e-01,1.033081415731465780e-01,-6.768889332042715701e-01,4.939279571875573871e-01,1.949679305841121257e+00,-2.070232536376911181e+00,-1.988572142813742616e+00,-1.538031819529832145e+00,-9.974955633863552551e-01,-2.123256425806502090e+00,5.962961523646141959e-01,-2.357051200595184914e-01,-1.049447674751093684e+00,-2.123375730780423798e-01,2.142631667195805389e-01,-2.236229289685188970e+00,-1.347610945353921563e+00,4.484132928440757171e-01,1.776105604689073580e-01,-7.435513218501167421e-01,1.587341721592598620e-01,1.342527055681992154e+00,-1.665534278591576323e+00,-3.072858212096053698e+00,-5.098736224763070757e-01,-1.386413107456482718e+00,5.461530487660437583e-01,1.095260205299348311e+00,-1.730905812580010861e-01,1.328379622125750670e+00,-1.625403355954117279e-01,1.508306036542596207e+00,1.183483272370703610e+00,-4.070375754625726872e-01,4.543862015430704671e-01,-2.288713278185764699e-01,-6.582641399907191992e-01,1.005363071149692811e+00,-5.617879911993125530e-01,7.305441793844931198e-01,-2.270408196861913586e-01,9.347166537855344792e-01,-1.673994773339692488e+00,-4.064631807455605927e-01,7.526987774508309137e-01,-4.013916005473279203e-01,4.105468950394033922e-02,-1.027152818724017092e+00,-4.042172033734462572e-02,3.627353959636757663e-01,2.238966469548852700e+00,-4.670180469077568897e-01,-4.807320372090076455e-01,3.882161823155084179e-01,-2.671386264507972785e-01,-5.997889501698174808e-01,4.808500828112803327e-01,-4.836564769947554465e-01,8.417818132408619869e-01,8.530215427322478117e-02,2.095512272664704856e+00,-3.308091239200813272e-01,1.348592103442118662e+00,1.811833762815763471e+00,-8.732633439375937501e-01,7.233584983647723954e-01,9.348772129723381674e-01,4.093143535391471355e-01,9.190152864417761025e-01,9.404873706945662271e-01,5.348874538932938405e-01,-1.523293452634642220e+00,-1.421510605703575347e+00,-6.694365255921419511e-01,-1.091428280762869241e+00,4.068879750239342008e-01,1.534262051879367872e-01,-4.831580217096596019e-01,5.332387974939888364e-01,1.807269393021907478e-01,-1.522926596777073760e+00,-1.486061255226205136e+00,5.871682301573019069e-01,9.849892085916248652e-01,-8.892658895851952572e-01,3.919566248905959061e-01,-6.420137835711596797e-01,4.467548142819336432e-01,-2.462419626218489421e-01,1.061988495258399778e+00,7.554757912468040848e-01,-1.480330134805433184e+00,-2.066159141100381458e+00,2.433442942924574776e-02,1.587229421367292392e+00,2.058985748430606222e-01,-6.444492575619674701e-01,-1.025106026119154690e+00,1.364441995914051908e-01,-6.917678661424141451e-01,6.335184971835869927e-01,3.195923390214943094e-01,-3.984838788426607881e-01,3.652228879478525148e-01,-5.587827574829266897e-02,-1.606173276332977906e+00,8.903042586282583493e-02,-1.713174540563349169e+00,4.207211414765643087e-01,-1.178733581653880758e-01,-1.158881514210333030e+00,-1.188511686137403434e+00,-1.953358449995925561e-01,1.138732182928077652e+00,9.547296805867876435e-01,-1.765472185494912361e-02,1.020965856036479442e-02,1.123744604743980302e+00,4.965542737689384589e-01,-5.970651286278431114e-01,1.093867975304116946e+00,1.844583412304825920e+00,5.720552244102544703e-01,3.989191310302175331e-01,-5.954474323103888800e-01,1.838283920240897151e+00,-1.545981798147686659e+00,-9.097259730707885073e-01,1.083876014787318320e-01,4.883202177673723332e-01,-2.508132178180737526e-01,-1.849018644817949530e+00,-1.621852337678000966e+00,2.243691611078552639e-01,4.195997165780879778e-01,-1.057487607707929378e+00,-1.684180345718147676e+00,1.350324583357762842e+00,-1.915041518842812429e-01,-1.818310575282530372e+00,7.712793174352562398e-01,-6.431750624788157289e-01,-7.218267513978010586e-01,-1.440474203480893167e-01,1.190950357284402017e+00,-7.740831497890094948e-01,4.311076620112114233e-01,-1.469564759540466836e+00,-1.295038024265277699e+00,-6.219085539314348487e-01,-4.725141303990206265e-01,-1.808736857375016771e-01,-1.109527349629647386e+00,-2.176763477101605559e+00,-2.497531952593348148e-01,-6.018500472403907064e-01,-1.830400266498347639e+00,2.885181210154253995e-01,4.251003752324336027e-01,-6.172434886192865733e-01,-6.133720472167270010e-01,1.296150171073253421e-01,-4.308660548549089198e-01,3.265503946904604882e-01,1.515262894877653366e-01,-1.923699262192548332e-01,-2.355529277810001876e+00,4.617739469181628142e-02,8.808302746859604238e-01,-1.732356550555568919e+00,-2.370784315060142367e-01,1.253871930171668092e+00,-1.557988441272293023e-01,1.832267750973644249e+00,2.490976798287224681e-01,-1.236680170264739198e+00,-9.565640567991841037e-01,4.112330504187289293e-01,8.502014394336435688e-01,9.896751731408420794e-01,6.171768218515937265e-01,2.238496713887961231e+00,-9.427634511367370962e-01,1.095013776309242459e+00,8.387315412796856329e-01,-2.892272805908054772e-02,-7.857177697842956388e-01,-1.352701952462844526e+00,-5.900212268603658439e-01,-4.007527105470751368e-03,1.824281960910836553e-01,4.848900297546380744e-01,1.594088392835552315e-01,-1.371554933578596813e+00,4.018203616907716214e-01,-1.408477188055885954e+00,-1.280508058399257021e-01,-2.273724157807526791e-01
4.022581993883545676e-02,2.467204947801414916e-01,7.811735455183039800e-01,9.552261320188141225e-01,1.952935636833600386e+00,4.269420080609206969e-01,8.394530772207230152e-02,3.569438554831010912e-01,-3.599225659899683016e-01,-3.295886080157727771e-01,2.978802297278790867e-01,-7.030727623956936068e-01,4.105883481069447782e-01,-2.073444942489518217e-01,7.569129101065871223e-01,3.370074146111002450e-02,-1.136952782925187422e-01,-6.999529130582816672e-01,-2.224197282011395327e-01,1.695955270258774794e+00,4.924764959096873951e-01,-7.479276901042751780e-01,8.449178764815704623e-01,-3.834734081995559429e-01,3.640220670696704963e-01,1.391486888125181620e+00,-7.341419798979564870e-02,-5.681503797229164876e-02,-3.742868022926236771e-01,1.659502725548274160e+00,-4.476251858077601731e-01,-9.037096399927478652e-02,-1.316428043756685984e+00,2.145649038090826632e-01,-9.651074686048364271e-01,7.326442220954125506e-02,-1.525366040125299305e+00,-2.240641804726057618e-01,1.691439894436034930e+00,8.068251610313432742e-01,-4.425423211528619061e-01,2.342907520603167537e+00,-1.039795874942220477e+00,-2.148751512105904204e-01,-7.914249408601650160e-01,-1.859958481020993759e-01,5.388085945904125262e-01,-1.156491593774498616e+00,-1.384327395254064397e-01,1.338765235592439984e+00,-1.914441823205249804e+00,-2.791722380914946067e-01,-3.728272589574571083e-01,-6.369432099667138303e-01,-2.500653192234841282e-01,-3.589657620948853434e-01,-3.726554336719515303e-01,-1.372921483835947587e+00,1.160691579933408102e+00,7.260198291231524381e-01,-8.415967225652983830e-01,2.141226485197401885e+00,-2.924179765444008705e+00,7.602388921950107292e-01,-6.550859046333540325e-01,9.681838838729731611e-01,2.341793036188997978e-02,-3.178324747672127693e-01,-9.659794419173380886e-01,-1.704936043848201688e-01,-4.704343348742694997e-01,8.971940409371056968e-02,9.567965987532436323e-01,-7.764194725479189874e-01,9.943840356002111580e-01,-1.356289382155335455e+00,7.619737961024826145e-01,7.622543253622005022e-01,-7.466818843300194741e-01,-3.467309128270816831e-01,7.810926584975214082e-01,4.545614768398055783e-01,1.363636569926545417e-01,2.527341716003346228e-01,-9.797707663883008511e-01,-1.359744861186688913e+00,-1.036490314248438516e+00,-9.034795161975084365e-01,-3.795891741413003062e-02,1.904302101754247467e-01,7.689807588750355860e-01,-1.333568342670905293e+00,-1.326456452325657301e-02,-7.121523889367832316e-01,-1.238204440315653798e+00,-1.010831887413339736e+00,-2.275842501226474468e+00,4.359685201390551268e-01,-3.726993478026380813e-01,6.675532430148113372e-01,1.292188909235889582e-01,-5.850170156744914918e-01,4.248519240612747550e-01,5.764453089568873922e-01,-2.926743683976212318e-01,-1.080830932825949331e+00,1.587179749130804840e+00,-1.475792426971821447e+00,-7.710134665837221624e-01,9.991194303138037913e-01,-4.250963017569016067e-01,2.933364812475623418e-01,-4.593007835600719235e-01,-1.081594748981553167e+00,4.397341261179870120e-01,-3.490826997598219794e-01,-2.650532905002634942e-01,4.297915620781506130e-01,-1.682870190860994916e-02,8.304324662909778887e-01,7.828898377391053653e-01,-1.326534366715141244e+00,-1.154414521244040842e-01,5.957420878491443972e-01,1.107340232470942210e-01,-1.841066429802175275e+00,-2.273469748964322079e+00,2.944027631260787814e+00,9.763757991822737958e-01,-4.743264432081894522e-01,3.879085748053484606e-02,1.739957420867209281e+00,-5.131020984884886449e-01,-5.912177975663038820e-01,1.841929714937919016e+00,9.774752243408704189e-01,-1.053512211421089723e-01,-3.490642667423670131e-01,-2.152166296411593127e-01,3.451139097063548461e-02,4.415428108367387972e-01,-3.526928860045287495e-01,2.671250425410862106e-01,1.334367938404589671e+00,-2.385971142738243789e-01,-1.396104197556555793e-01,6.317519720755791768e-02,1.687233062220296342e-01,2.080026900318831196e+00,-1.373939669328104518e+00,-3.601095265898036080e-01,4.802000054721246580e-01,1.202382017996507679e+00,-3.234664693446739125e+00,-3.154201142056753948e+00,-1.984465482136022807e+00,1.972617693587475518e+00,3.424439566642376143e+00,1.726485239339222710e+00,7.432184904787819679e-01,1.146675941311063873e+00,2.158930644860710846e+00,1.153653844017418439e+00,4.386066866682817311e-01,4.198141431023670322e-01,4.633179970847709495e-01,2.805163275587680971e-01,-1.656662815598980876e+00,-9.273916091936977579e-02,-1.020273967102089063e+00,1.443874997304227303e+00,2.273948082546792815e-01,1.990863640934056530e-02,9.847407921600018765e-01,-2.748422257994394546e-01,1.871175925859139166e+00,1.433332474999457151e+00,8.859637434251476096e-01,-1.277693124098118638e+00,-1.075977240668409607e+00,-1.922247714833399623e+00,-3.054480821588184902e+00,-5.492392568245349160e+00,-2.736144045331993180e+00,3.392589757987049537e-01,1.625411051743720581e+00,-5.843573865206956874e-01,8.766041364769942001e-01,1.097302281073604169e+00,8.952855514899470402e-01,7.936249301848392612e-01,1.496408259349188752e+00,-9.317000072488184070e-01,2.619559711194354712e-01,1.280531738290148880e+00,2.545009757346376467e-01,-6.513814728981642821e-02,-1.434151908012302634e+00,4.018706545213072134e-01,1.660245446726420493e-01,-1.535469647474932087e+00,-5.056211167579113819e-02,1.120044884561498089e+00,2.781292961013219212e-01,-1.186673489575460705e+00,-1.381607024128670869e+00,-2.114347594198271896e+00,8.489617255199860546e-02,3.937293228106645282e-01,-3.697637378421723131e+00,-6.709828777849025094e+00,-1.669781937293287888e-01,4.129207392064859206e-01,1.932133535908937549e-01,1.473537669099653558e+00,2.085605979426862433e+00,-1.842122782796632580e-02,-2.713375367263721749e-01,7.949639923213587256e-01,-1.904350349670123621e-01,-1.788138181189375953e+00,-8.868369161119912247e-01,-1.021672576078765937e+00,1.514984783410479041e+00,-1.509946316326240101e+00,4.548193302578595332e-01,5.594076081627101793e-01,-7.553643499607499701e-01,1.264750755295296070e-01,2.936463378078527420e+00,-9.189450054011429891e-01,-4.112879819360388406e-02,-4.672657714412963292e-01,5.896673492960304713e-02,-1.936391861288465910e-01,-3.987225813235459326e-01,-5.122894827834071352e-01,-3.067709424245928851e+00,-5.971188591782729205e+00,1.603064888548487721e+00,3.633396587119945287e-01,4.911878666250121123e-02,1.355708313716555535e+00,4.239907137894130540e-01,-3.156834628461907544e-01,1.051807888395669098e-02,9.472357027735403001e-01,-1.027639355939286236e+00,-1.006058175093010654e+00,-8.400308330206088803e-01,1.872702800595897332e-01,1.062309933808744722e+00,1.334814030236230353e+00,-1.481950661164805449e+00,-9.646845185398162936e-01,1.570708302146628099e-01,2.492597910815289725e-02,2.837926098643938633e-01,-7.844599962073945942e-01,-1.421137665109711179e+00,8.829123173473579778e-01,-5.038412923419768319e-01,1.428187419269449365e-01,-1.371940982862176917e+00,-1.350266774936858871e+00,-2.914330803821239435e+00,-4.544045964953951966e+00,3.014163813146907844e-01,2.847236990871187867e+00,1.077844881715305680e+00,7.483328003252204264e-01,3.280630208674774617e-01,-3.513302061360919493e-01,-2.461595107987990250e-01,-2.877903221877719186e+00,-7.557864192240599799e-01,-2.522753027388011660e+00,5.856697127828653926e-01,-4.451569634819341759e-01,-1.079782881673285955e+00,-2.855791885915855421e-01,9.754593945845948522e-01,1.614762595126897127e+00,-2.883983464763579391e-02,2.379828872232822301e-01,-3.793212928063214862e-01,-2.352760800007470898e+00,-1.883758437637840011e+00,-3.595098364667099200e-01,-1.351386060372732623e-01,-2.643607468264333460e-01,2.038414879554431014e+00,-1.352071328640961356e+00,-3.992628184910131495e+00,-4.693457356465542851e+00,-1.037566893705739401e+00,-4.968864580111086449e-01,-1.817768477359754664e-01,-4.597550315788217490e-01,1.431636778258219334e+00,-5.373884549105938380e-01,-5.023604562178747290e-01,-2.368742525894126594e+00,-9.944130031990465746e-01,-1.465229985182331940e-01,-3.498223865950967348e-01,-1.053945418392461253e+00,4.914739575237740965e-01,5.750725740844021550e-01,2.654488276734420005e+00,-7.877807693812838297e-01,-1.654686909664118799e+00,-2.296515169422049529e-01,-1.559013994901639277e+00,-1.533387983736835380e+00,-1.423182087563532372e+00,-1.497486666651383913e-01,5.390063421902702157e-01,2.712430395202155078e-02,-1.855233721000099978e+00,-1.446202098996983709e+00,-4.719124536564430983e+00,-1.652900076628891934e+00,4.899664530381453997e-01,1.037810871139792424e+00,2.464967384970437436e+00,-7.085308291600141972e-01,-9.562661647887833460e-01,-1.072073518756543775e+00,-7.997690167263894478e-01,8.510437867714666649e-02,-1.174731941088605458e+00,-1.923765374720046717e+00,-4.135261087047238937e-01,-1.679989884526987165e+00,1.544907223371941196e+00,6.022875119027680801e-01,-2.464015933407884829e-01,1.715883420246505087e-01,4.240316583740166845e-01,-2.577309779621792529e+00,-1.528221367032765905e-02,-9.011509387004184787e-04,4.460197253818461993e-01,3.788430186398657473e-01,-3.448806138817028799e-01,1.117397198224895360e+00,1.660309942546193351e+00,1.253322076360255721e+00,-1.601767815259396988e-01,-4.073667125437870351e-01,3.238625175651726473e-01,1.861346243405261336e-01,-1.346828822020739613e+00,8.338237110525499318e-01,-1.008870625258196263e+00,-5.072843475529734691e-01,3.011055434106850726e-01,-1.470257271040776414e+00,-1.958570175408714142e+00,-9.776073794660494753e-02,1.745653950187817216e+00,-2.209661098880419061e+00,1.217812671636597344e+00,-8.899041901668949262e-01,-6.086697758077064258e-01,-4.663356082969801197e-01,-1.172916544310184106e+00,4.124067877945734595e-01,-9.311777053451143482e-01,9.841399918006589198e-01,-1.582259543360663656e+00,4.634679442899969359e-01,1.080291170771098930e+00,1.199388913472632101e+00,2.291024193143064824e+00,1.271283064477149560e+00,-1.286702474054999490e+00,-1.497154711102058000e+00,-7.164026581671231186e-01,2.058955309218903462e+00,-1.197987976933519993e+00,1.059536275493395241e+00,-8.011969106475026747e-02,1.264960966708970735e+00,1.488628698849491894e+00,1.619367178661186291e+00,-8.300896598231437551e-01,-4.799284893911811012e-01,-1.609571207444871588e+00,1.436204310781648286e-01,1.249065374153746077e+00,-2.643304605779204230e+00,-1.378307077600815500e+00,9.849826070214791063e-01,5.161527294953958261e-02,6.827775359963067503e-01,1.995650722377595790e-02,1.479087730620132213e-01,1.072569007885373349e+00,3.951504735845265404e-01,1.103644212713336570e+00,2.498451111580816786e+00,9.349583540122710090e-01,-1.122456785490920234e-01,-1.706082630789935717e-01,-6.082269286678031461e-01,-3.427351368802619008e-02,1.529425744951573574e+00,1.441442474671430052e+00,-7.092188271272531486e-01,7.380091000881510155e-01,-5.450160398112144922e-01,1.266972323051669180e+00,-2.422306290453846433e-01,1.176848873639038257e-01,-3.050656797769326634e-01,8.474453745018655226e-01,-1.005132633942860260e-01,3.946370612387787441e-02,-1.145315513655277728e+00,1.257103088447717898e+00,-4.414532317987390209e-01,7.809632532366973523e-01,1.504943843489133792e+00,1.967926603992138812e+00,1.622990100108257838e+00,5.364544581835879455e-01,6.676769089425105275e-01,1.787483275169693187e+00,4.330260731170214594e-01,-7.845380630179296100e-01,1.746806735699799829e+00,-3.877871849052465930e-02,4.086783843043139131e-01,-1.107166431657275879e-01,1.251702601034295315e+00,-1.589359874933496571e-03,-1.914151345698719420e-01,8.190871148129564849e-01,7.799247091699730572e-02,2.763743031655404581e-01,2.181962007695537314e-03,4.602740609252570780e-01,-1.105348591512722800e+00,5.866742402733512440e-01,-1.550966127957700502e+00,1.451732740708526981e+00,-4.697602429274098657e-01,-7.939762512198239586e-01,7.992738571793562841e-01,1.122058934683685116e+00,3.413531193902640815e-01,6.776858966310518317e-01,-1.419119125944805937e+00,1.643708354700396557e+00,-1.000018264577226423e+00,6.642428999525918920e-01,-8.328083534418181388e-01,-1.862780948314995744e+00,7.996133279640136315e-01,1.731260143522398154e-01,2.345984278781949151e+00,9.899909989117204878e-01,9.592796119308790725e-01,9.353141508540578908e-01,6.032269131778362770e-01,1.762040709520086734e+00,1.632623753655956467e+00,1.705246092108522848e+00,-7.547496894807806944e-01,-2.417076594033150116e-01,1.508386016971895005e+00,1.428230840144759206e+00,1.954134585787841993e-01,-1.600823056228150021e-01,-9.682803307388884173e-01,-3.171359465012405510e-01,-1.441284609239274817e+00,2.674711531014720145e-01,1.350694031933939332e+00,1.490041820291334584e+00,7.038356554745385241e-01,1.288673947020835486e+00,-5.690867483096710977e-01,2.109846027397698887e+00,-1.216731773606063438e+00,-2.285795007821398162e-01,-1.866066277228979331e+00,3.477065273124217981e-01,2.489539472814398025e+00,2.268219840111822538e-01,6.410230981997744326e-01,4.419484926169388039e-01,7.344534439635217460e-01,-7.583429285086851213e-01,1.190165220756084663e+00,1.094053213249898571e+00,1.755670396982689507e-01,-1.696490946385612153e+00,8.570985012318431406e-02,1.007463226643688259e+00,-4.784634994898778748e-01,-5.264516719375854636e-01,2.888908052459567277e-01,-3.428904586085899653e-01,-5.256959620673438138e-01,1.216824680279573329e-01,2.002527316170225613e-01,1.466104149729225314e+00,-8.679935700009012711e-01,-1.908826117919806553e-01,2.082157206840901664e-01,1.553099852118801708e-02,2.582453440353416618e-01,-1.777149325199808727e+00,-5.404086193408399463e-01,-6.410791170758275426e-01,-6.198167309658417778e-01,7.664662183898353076e-01,2.406535205017981682e-01,1.105820150529660983e+00,-3.177573388125655152e-01,-9.109403358660357330e-01,1.790823128748878501e-01,-2.744740613304869625e-01,-4.093845967951139087e-01,-6.443468992375385174e-01,1.105263041769198457e-01,-2.079518292813986591e+00,-8.227800151413001972e-02,-4.663759405771711331e-01,-1.421892298850211622e+00,-9.624632539438624512e-01,4.941709281735153225e-01,5.534538897321051865e-01,1.178092425929817111e+00,-1.110757838718550383e+00,2.474227643106959196e+00,6.804044630404453009e-02,1.226710171621309131e+00,-2.471836649658151419e+00,-2.006156503517404488e+00,-8.841133622801905512e-01,-2.298234126452741499e+00,-3.534905268582107241e-02,-1.586000092232515923e+00,1.871637506240755311e-01,-4.286724853183973560e-01,-2.420456748205003783e-01,-2.520719823718630126e-01,-1.148567863937947964e+00,1.201702306620624050e+00,-6.888875483827786583e-01,-3.544914177971307812e+00,1.687070885306395596e+00,-1.104952875364809683e+00,-1.217181070460745529e+00,-7.901045056184551330e-01,7.107349005650929197e-01,4.203364378455217154e-01,8.081276049573827835e-01,1.550707915963089878e+00,-4.070077280744617831e-01,9.124676151523427592e-01,-1.509909061723383183e-01,1.391484967339527756e+00,3.816596775701397992e-01,-1.564850500529546773e+00,-1.483203735944914836e+00,4.027750069673033395e-01,5.848118112298582583e-01,-8.048821711439999582e-01,6.471472744634936269e-01,-5.653490909428886546e-01,4.292455139755954607e-01,-3.340290077685589831e-01,-1.486745169383060006e+00,2.425320617444694238e-01,-1.724884310037423152e+00,-1.292185247338475118e-01,-8.448906081721716532e-01,-1.223685063117630811e+00,-2.523288581465620295e-01,-2.489933645118579397e-01,5.832457849023079399e-01,-1.416324829231933036e+00,-1.545251199610945037e+00,-1.953104558381630440e+00,5.109077225369653696e-01,1.509408943809977144e+00,1.783749224430331681e+00,1.543962320622431772e+00,1.206681016047284949e+00,5.716269823023251151e-01,3.153821025510051834e-01,1.288760754616978810e+00,-4.804428998372139437e-01,-1.945459712691580467e+00,-1.599295131373162926e+00,-1.666414466776733772e+00,-6.172805017496246771e-01,-1.986279443023924340e+00,1.004855185627675090e-01,-3.452043721118554509e-01,2.875041873514548318e-01,-9.539867516335552855e-01,-1.145853896056961974e+00,8.682452973108907290e-01,6.496327829872299287e-01,-1.650621847613712931e-02,2.365570851859942536e+00,-1.076322966111398216e+00,1.305538574929728135e+00,-8.568029555419092169e-01,-5.326943184307326717e-01,8.669488634503388358e-01,2.463381281299411585e-01,-7.891966655425748656e-02,-1.758439848581158094e+00,4.570112603600556267e-01,1.344602135982704061e+00,2.981382185341797442e+00,2.040775115599990919e+00,-6.587938493419857044e-01,-1.622891320803383053e+00,5.431079209773368444e-01,-8.468677384932906671e-01,-1.059053229828437859e+00,2.940280981931822288e-02,-5.295968682461820176e-01,-9.312015763279964942e-01,-5.326662782618754033e-01,1.297072762620990749e-01,1.048020267587896681e+00,5.622049180337522767e-01,1.084730847414405508e+00,2.595759416108874174e+00,3.669200809523620044e-01,-4.831150421262744854e-01,-1.771819821792964156e+00,-1.021124494097904289e+00,2.283015202904365104e+00,-5.176402727531218551e-01,-1.322122342615853263e+00,1.446055437755909168e+00,-6.016588296775962075e-01,1.497415979086518245e-01,1.564628660663832868e-02,1.008070823125734039e+00,8.180854887640390816e-01,5.817746217861321512e-01,1.832760316122874267e+00,1.441808951663100968e+00,-9.406571087347496141e-01,-6.744422691082997412e-01,-5.601839997963061757e-01,-1.253520316631340892e+00,-9.502545742655484906e-01,-2.381399068708602365e-02,-7.032261370170753700e-01,-1.198977519650422874e+00,4.166834624242619078e-01,1.461737384906942883e-01,1.583706192989662975e+00,-7.715044468895285723e-01,-8.250458816005171170e-02,-3.208322289514654813e+00,6.142118631366682013e-01,-1.762523677836469460e+00,1.193432301680239060e+00,8.632918962608840951e-01,-1.096284193119183792e+00,8.879458815377567760e-01,1.895657334290233934e-02,6.545816456450898047e-01,-5.027909017219220900e-01,4.275411968864779033e-01,3.483515206155468613e-01,-1.099933974349552201e+00,-3.361681559563699517e-01,9.081599702839601718e-03,-5.317906473332240092e-01,-1.185345310045621270e+00,5.401120287502146899e-01,1.073292165002904586e+00,-5.347338068903373376e-01,-1.234184278845214644e+00,3.887400786088594518e-01,6.592974799087610027e-02,-5.471796745320449684e-01,3.483168281665269816e-01,-9.495629368698174089e-01,-7.321693166177528633e-01,3.053558251435692372e-01,-2.536986539106488969e+00,1.142998799501453222e+00,-1.030649694290312501e+00,-5.404622114809897182e-01,1.198755451693196639e+00,-2.964444337587989198e-01,-2.998612632450855520e-01,-1.032034291342589505e+00,9.206187639183928129e-01,3.505872876710385277e-01,-1.619829215860287608e+00,5.319928830028441274e-02,-5.324461948245108323e-01,-1.038874582044027717e+00,-6.705669216214460437e-01,-1.218144704715313109e+00,-1.555334638732801311e+00,-1.710714095332175777e+00,-6.654755370230196476e-01,2.142327498752261972e-01,-1.073610039232139712e+00,-2.442624285699026121e+00,-7.384516751323763062e-01,-1.521220097104722946e+00,-5.927845996227055769e-01,-3.025319278178954630e+00,-1.532816631472653013e+00,-1.425065962167597178e+00,1.109074839535126422e+00,-7.165213647991906798e-02,6.571243754434175077e-02,2.415458320882494236e-01,3.959244857118799921e-01,-2.192616116622418954e-01,-1.665737408766515104e+00,-9.508486194793879243e-01,6.002926533001232690e-01,1.739441757820936185e-01,-1.606455336549930946e-01,-5.001407014093401937e-01,-1.440976062827221016e+00,-2.669344789883601118e-02,-2.175483225077600391e+00,5.789250657807779588e-01,-1.166631207000286441e+00,-8.145897262667397554e-01,-1.577465987523171354e+00,-2.652485486505866685e+00,-1.392114232234294091e+00,-1.085210513002573318e+00,2.256591672912581781e-01,-8.404318239005494906e-01,1.669904261500206877e-01,6.363678685256065615e-01,-1.847669171502676511e+00,5.168017087881665583e-01,-8.661183032045872698e-01,-8.202873340380119060e-01,-3.729166687778969758e-01,2.495306879764379593e-01,-9.562405414841889106e-01,9.310695094231727365e-02,-1.120164015295175064e+00,1.343851889659615884e+00,1.305906180061294108e+00,-7.048941898514197169e-01,9.536955520361027616e-02,-1.552518281273161105e-01,-1.205717031189109445e+00,5.751229818324403720e-01,6.767337437215857621e-02,-3.398307634250957721e-01,8.322303626929088427e-01,-7.796261273311906603e-02,1.008422122859456982e+00,-9.683609620612156910e-01,6.476028117218518565e-01,-1.178074605180357004e+00,1.008147354610714252e+00,9.227954852232352900e-01,-5.596105423199295714e-01,8.943133289438005562e-01,3.927194256345017953e-01,1.929919252283242848e-01,1.247810485014493542e+00,-1.123782873428176066e+00,-2.125270641738994382e+00,-2.389000381312816543e-02,-8.576160806032537831e-01
9.879069429991761686e-02,8.404541715128418522e-01,1.302946215125220242e+00,-1.027088163195168269e+00,4.996629491155639147e-01,4.307925062901141189e-02,1.338065592341458887e-01,-2.419511907151979724e+00,9.961207558990612387e-01,2.936520869311481374e-01,1.806227303492425218e+00,-5.980130082276662318e-01,-2.769742758172033525e-01,-1.633984223873350183e+00,1.360938539371763456e+00,-1.451643926416386510e+00,-1.239229843793174801e-01,-2.713344514466560220e-01,5.277892272625377412e-01,1.469552879141362567e+00,-8.733730133396747641e-01,-1.580745948850472912e-02,-4.020192976931269979e-01,-3.564041705282648964e-01,2.326252566486610163e-01,1.222156055788878731e-01,-7.193229619100445227e-01,-5.253468508445569007e-01,-5.317041946067352365e-01,-5.026568730674975116e-01,3.615059799421135311e-01,-1.028992344916230151e+00,-9.392224437635683376e-01,-1.101492912152851167e+00,4.936324041750169145e-01,-1.267917310296163613e+00,-1.516036839121859048e+00,1.070855669522942755e+00,-1.096700332645172749e+00,-1.445654668902292217e+00,1.476015878606580012e+00,-1.385110266262782330e+00,1.730287096535353841e+00,1.845619533490270081e+00,-3.701669431168337909e-01,3.535727793274220376e-01,1.165124474096144613e+00,5.326391534580444675e-01,1.534921991948216213e+00,-1.562837318437078515e+00,-4.602940942321678275e-01,6.735327914768783897e-01,8.646531579068469364e-01,1.957534325309292222e-01,3.624345271316717909e-01,-8.279270561539620044e-01,7.374463660963359590e-01,-1.686806865853833992e+00,1.577539840652551484e-01,-2.295176818806612395e+00,1.599724863606093672e+00,9.814035813299688549e-01,-2.631581720033504546e+00,-2.052573003140696350e+00,-2.346538064373994981e-01,-1.954008526213949049e+00,-1.279374602178982467e+00,-2.574732560176616891e-01,4.021768557165357749e-01,1.679448029283842070e-01,2.875405312796617818e-01,4.789974706387304382e-01,6.656145270073009490e-01,-1.314162694600191195e+00,-8.462496384009288164e-01,-1.263628018297312305e+00,6.953165703156920507e-01,-7.370237074193931592e-01,5.315235736810258738e-01,6.436851363127839010e-01,3.983748966806043845e-01,-2.313302757299739165e-01,-6.060063239259031453e-01,-6.223790721998049280e-01,-8.190364490293656763e-01,9.051725866186978164e-01,1.521326403212990952e+00,-9.982549398075556413e-01,1.099079655048776916e+00,1.280698431792752556e+00,-7.472018238160509085e-02,3.037994630385479899e-01,-1.217360694657541487e+00,1.194856098171516834e+00,2.497384700038497163e-01,-8.917434701769909600e-01,-8.256384157057674589e-01,7.172582944361003410e-01,-2.640889805103941446e-01,-4.296504959390471390e-01,2.712254895227322327e-01,-2.176928381127220258e-01,-3.224564978608714938e-01,-1.183585173701926729e+00,-5.046080594229741534e-01,-1.063369876892777066e+00,4.157511950628358655e-01,-1.922878514943320294e+00,-7.600059068042952504e-01,-8.105986080818893269e-01,6.728648247682859074e-01,6.303840209793082350e-02,-9.698491099061850029e-01,-1.067054534880439221e+00,2.636622186404877777e-01,2.810702715843170996e+00,5.943870982518179025e-01,5.748252455010155471e-01,-1.404784382513850349e-01,-1.768164870054538040e+00,-2.147214942996270803e+00,2.382583120729751466e-02,-2.439391848825337217e+00,-1.131364465037878686e+00,-1.883134226108797160e-01,-8.366091283886368801e-01,4.597730953456699021e-01,-1.076444321125881398e+00,2.476603304085226442e-01,2.650083193473496967e-01,-2.134639999203185923e+00,-1.367121136230767808e-01,-1.168022866026171114e+00,-1.710545132220342435e+00,-1.993365471419518142e+00,-1.580046018070029590e-01,-9.784021962326826527e-01,1.468014275108709743e+00,2.699074987405118975e-01,-1.041510565949609557e+00,-2.738462572523360228e-01,3.546019914283587982e-01,-8.951811013577619658e-01,1.693735121417818457e+00,1.172809212550409486e+00,4.268305873400726758e-01,7.139471450930779950e-01,1.472408128308559938e+00,-1.628937101999507586e+00,-5.527004551365004570e-01,-2.118615546048204568e+00,-1.440315912311925572e+00,-6.678930135755900555e-01,-1.731933166015763081e+00,-1.861233101313048421e-01,-2.136448701875105716e+00,-1.478479978005683981e-01,-9.610014107031754627e-01,-1.346103139654865721e+00,-1.660517480691932279e+00,-1.859234481734081679e-01,-5.706453658039990495e-01,1.338678450216669591e-01,-1.428324642590143911e+00,8.791402759986312043e-01,-3.404413210214287666e-01,2.240553254962622809e+00,1.010904969321885005e+00,7.983555488122522359e-01,4.989942287027602230e-01,-1.131362127763226422e+00,5.714307384667589584e-01,-4.861069143274942550e-01,-1.693842839295774949e+00,-1.357805281092961946e+00,-1.502973626387394512e+00,4.199753865758633631e-01,-3.269913543925673238e-01,-9.554047244689601870e-01,-3.136162597464643986e-01,1.337873268372857138e+00,-2.102694590947100928e-01,-2.136720864921310969e-01,-8.004026133769434614e-02,-1.247169537274720241e+00,4.589582802169241971e-01,-9.645372062184627282e-01,-1.220710167181162209e+00,4.335630649723820618e-01,-4.849195111578761819e-01,1.519402723837655067e+00,1.354506792515061675e-01,3.282224283848569901e-01,-3.650498004768791549e-02,-5.108042581483522859e-01,-1.071880249936062013e+00,-8.881840115510629408e-02,9.645713132730640016e-01,-1.545986329768859191e+00,4.714172313284221150e-01,-6.487598336914622843e-01,3.637272535861123257e-02,-4.499963857020005120e-01,-2.485670455377533838e-01,-1.722200567048580488e+00,-1.330701001284770202e+00,7.764149138591934785e-01,3.015866154956024503e-01,-3.315387561735704813e-01,-8.043463638830199436e-01,7.016008135049404126e-01,-1.153018029202380390e+00,-6.951849155894953558e-01,6.909880368531632344e-01,-4.004861726306457315e-01,-1.666216440253309505e+00,1.694823068065229643e+00,1.267283985554980563e-01,9.012546249855136749e-01,1.183788004916264569e+00,-9.320852716462104670e-01,-7.331421342135117092e-01,-2.461204929195000279e-01,-8.125518991251932110e-01,9.657444441780028699e-01,-2.078665074818929259e+00,1.188141499657300981e+00,2.238064261581237169e+00,-1.386776966124037003e+00,-1.457902848843619092e-01,4.977629140205119818e-02,2.904679900758601677e-02,1.298068561794509801e+00,1.559872733282072099e+00,-1.102632886653316657e-01,1.965822911460015643e-01,-8.784312789982646752e-01,-4.858133163824882583e-01,2.781272732944911619e-01,1.313213693273881155e+00,4.334731744760476069e-01,2.164960627198686982e+00,1.616039614312640760e+00,3.597090098203247432e+00,1.116095943460294837e+00,1.580753548006118836e-01,1.208865559492603881e+00,2.003726159679412699e+00,-5.730169712674770821e-01,2.368110896260721687e-01,-8.516850032617567789e-02,-8.076894123151966420e-01,-8.246793980116504663e-01,-5.749726065279774784e-02,-1.175882966904903792e+00,-7.558490507404338338e-03,-6.880786920865700207e-01,6.567015834188913992e-01,-1.928671212926328093e-01,2.068353863162406547e+00,-2.014255811317488820e-01,5.159773551096840105e-01,-1.454880595297133317e+00,-1.348442921203371059e-01,-3.073340692615660341e-01,-1.054387152347347478e-01,1.042690046918502755e+00,1.074526909079258186e+00,2.988659110034069588e+00,1.519415260078453844e+00,1.925634682716467649e+00,1.572857222752388484e-01,1.304422207201191064e+00,5.991461338365569045e-01,-7.642776975840782638e-01,1.510178849851540939e+00,9.726917024021125568e-01,1.520710392767935737e+00,-1.229567598345774337e-01,-7.283179360618864395e-01,1.281317760857675569e+00,5.377248519344008937e-01,1.047951038398186457e-01,1.503946866045850594e+00,3.003689151022949644e-01,-1.105101298141356381e+00,-8.796399115197749419e-01,-6.405700752705099088e-01,-5.288017077180777736e-01,-1.747490241084902252e+00,-8.521325645764662449e-01,-4.716134777739809936e-01,-1.931536527375234125e-01,-5.565232622285736230e-01,5.650601135711492695e-01,2.952898193467582644e+00,1.498684622347062623e-01,9.092156769982101538e-01,1.153928680348071945e-01,1.440340449112558652e+00,1.923080427467837583e-01,1.503446396185844636e+00,1.437544105215380119e+00,2.334757929444631230e+00,2.959072117528914081e+00,1.084277543352228923e+00,-1.258656471770636387e-01,1.249803141748306423e+00,2.657286802714152962e+00,-1.022501090441383820e+00,-2.643052397577115853e-01,-5.365468881464818818e-01,6.196804072985944573e-02,-9.968915878592177204e-01,-7.669647806404220614e-01,-1.678704288783336718e-01,-1.743162640968183963e+00,-4.823789384552167880e-01,1.029955184520281591e-01,-2.512059046877070934e+00,-2.334066724442971086e-01,-7.255714532570312070e-01,4.138648528712601804e-01,-2.163256862115396917e-01,5.830531842233390716e-01,-1.302850473447507484e+00,-1.534449918539560143e+00,6.770026701606225439e-01,-1.012820448668088957e+00,2.272078664930660352e+00,6.893007665302407216e-02,1.708115440204012736e-01,-1.339946742563460580e+00,2.013388591729688759e+00,7.054051843939022903e-02,1.310741315883135583e+00,1.792753290988198689e+00,-2.719834741912752651e+00,-5.555039024666190706e-01,-2.295246707296471733e+00,-4.727707649747965313e-01,-8.182275932538545238e-01,2.954866405778025507e-02,-2.623530651059535757e-01,-3.625103580655912316e-01,-4.975592077254658574e-01,-5.190962457546123288e-01,-4.968744253510414266e-01,-3.680306144926559497e-01,-2.116396833728232618e+00,-4.331572278351203398e-01,-1.145218970130228220e+00,-6.399120301166012492e-01,-6.103116449908111418e-01,-2.020886569777512243e+00,-1.530093346529866061e+00,-2.294443358828503143e+00,-2.475280989909407481e+00,-1.327112291416598033e+00,-2.344856447088782936e+00,-2.431707559474981739e+00,-1.314403779782008230e-01,1.348098673264301217e+00,3.042457753116613040e-01,-5.554675554320893660e-01,1.614959502857296947e+00,6.666321274019383347e-01,-3.968172336028333302e-01,-2.472800875431278855e-01,4.087952195742583505e-01,-1.134140737844439514e-02,1.142804283089398076e+00,1.758136759223968837e-01,-1.812971873119977040e-01,6.037800653748576218e-01,-2.759779245596146180e-01,-8.698972392690473843e-02,-1.609262289345699148e+00,1.634090764760706138e-01,7.478799852715041219e-01,-1.228406807914870891e+00,-2.448293772445881977e+00,3.704054058576347064e-01,-1.868461944579194789e+00,-2.581619404794451622e+00,-3.538683414298820828e+00,-3.338275707312464036e+00,-1.614981254222996654e+00,-1.479685012941550859e+00,-1.414722290083434142e-01,5.932508866172175876e-01,3.097154976080423339e+00,-7.733065088760204819e-01,1.122946461488127934e+00,-4.541161018535260219e-01,-7.461378203467166070e-01,-1.644354749729537657e+00,-5.271057375446551729e-01,-1.976434585147169187e+00,1.092370643042527290e+00,-4.193817703891228876e-01,-2.625119784220535935e-01,1.345790519783894190e+00,-1.005529553668777387e+00,6.938867646626242780e-02,-9.392533878784513623e-01,-6.572708792410022482e-01,-1.382469943861028394e+00,-8.661031998228566620e-01,5.729703368420500098e-01,-9.401963525587917481e-01,8.302729704970190916e-01,-3.668680177469232917e-01,-2.452377513366661876e+00,-2.328541020505902726e+00,-1.136360455691272975e+00,4.767988886678912186e-01,1.059680307128435750e+00,-1.232839813306051857e+00,1.672618273946702594e+00,1.507245292902809952e+00,-5.367368432130082967e-01,-1.071535067695588150e-01,-6.991364142036339269e-01,-1.775374484609322678e+00,-1.977664608030036131e-01,-4.387506595111093088e-02,-9.361935936492904453e-01,9.469344766391496471e-01,-1.670251039910548851e-02,-6.979545469928796209e-01,-4.893490026078429755e-01,-1.148260223796894630e+00,-5.706045821811389640e-01,-7.277368998703203085e-01,1.762155495028405461e-01,-6.051922016051595188e-01,2.605254202325195112e-01,4.725870277062803049e-01,6.996346566085073215e-01,-1.297852154105954003e+00,-2.897709804854519344e+00,-3.036215351912963101e+00,-1.074224596581618840e+00,-1.659776293624376953e+00,6.145173809393682518e-01,1.602899452051186335e-01,-7.778543012794919553e-01,-5.979925537109821443e-01,-7.356111063596098010e-01,-3.060549300748861556e-01,-5.633494388399803432e-01,-5.884880750770503377e-02,1.127205070552302901e+00,-1.631342563744207608e+00,2.403823737975159872e-02,1.436756616604969228e+00,-1.985306155358532165e-01,-3.542087724496515988e-01,-3.245722550213627766e-01,-1.355912621814136632e+00,7.383239567246685509e-01,1.967714329407034834e-01,3.691283217621985635e-01,-6.549643563530592738e-01,7.837414793968596749e-01,-3.497252985054040697e-01,-9.031550629522148987e-02,-9.240636717039858450e-01,-1.157501494226441885e+00,-1.799001078636381923e+00,-1.770567780097455080e+00,-1.482704393763104311e-01,-8.847673875885870842e-01,6.451588820101077371e-01,3.308571904531422136e-01,-6.312481602772985756e-01,8.504652109983689146e-01,-1.319700719531279910e-02,-5.594970380250723352e-01,-1.877523563934796816e-02,7.973203046657195356e-03,-1.441284064048862001e+00,-1.737893434054065045e+00,-1.551316198040965766e+00,-3.095906138258831541e-01,9.531799174769840510e-01,9.540590826391770474e-01,-7.817111645214681603e-01,-7.552374128044376800e-01,3.162271312379291710e-02,4.388090672115198543e-01,-9.902300290811808514e-01,2.298221740539720059e+00,-4.368847004281281587e-01,-9.147702400001624934e-01,6.516148315986506345e-01,-1.075161021781637860e+00,-8.246153084996239446e-01,2.291446267364261602e-01,-7.376712331199396511e-01,1.121059222848900944e-01,1.873319381650433435e+00,1.001989173101235364e+00,1.073316724151619272e+00,-1.817980553728081539e+00,6.081042257668182183e-01,-1.942293936480239847e+00,-4.232656827845128755e-01,1.566879935823437098e+00,-5.435959273958707039e-01,1.961806082295094011e+00,-1.019020520685157027e+00,9.008838188637170452e-01,-7.978509892298538686e-01,-1.130346946471500358e+00,1.231591770162139943e+00,1.411350363820478071e+00,-4.091665803645124222e-01,-1.173322983873216874e+00,-6.730601718248075960e-01,-7.439501163530958250e-01,8.133882897762807485e-01,-6.406256007799692176e-01,4.095208697767405148e-01,-2.425256407958646943e+00,-2.060011371107913547e+00,-1.062708354565163882e+00,-2.829350300838079368e-01,-4.387126623496282463e-01,3.589808892260265005e-01,1.858185862527303112e+00,1.332785842067996773e+00,1.389063842725728470e+00,6.142756123263635182e-01,-7.910693739733166696e-01,-2.273104293996663028e+00,6.602383151789317228e-01,-1.490390994091680632e+00,-6.583414653667260530e-02,7.232759826562333849e-01,1.106257828740265126e+00,1.052656115788864311e+00,-1.157452228955089812e-01,5.374666863700933161e-01,3.887037872904485630e-02,2.948536151477271217e-01,-8.761130229932417857e-01,-2.826721454399330757e-01,1.653006117883400794e+00,3.013147873027199192e-02,1.111061295431075679e+00,-5.875951690866538790e-01,-1.171027945128901848e+00,-2.824191722171268015e+00,1.634075867489182543e-01,1.460605110634858317e+00,-7.239368603874785091e-01,-1.589818780272841785e-03,4.276390624984567346e-01,-3.922860433917417788e-01,5.733263720989957291e-01,1.042823184664189995e+00,-5.623990905441048627e-01,-2.122819814999289179e+00,-2.344992181147032284e-01,-1.048757134689173726e-01,-2.829141511048032798e-01,-4.442161267290297699e-01,-1.273562202425989165e+00,9.105356115298690600e-01,1.341899264364862621e+00,9.845366361227768648e-01,9.272864484587026168e-02,1.411659631095831535e-01,-1.198034250567468817e+00,9.588586027722396654e-01,-2.094885963499407477e+00,2.942449087171280508e-01,-1.591137208193853236e-02,2.953757350356767120e-01,-2.362685395667796229e+00,-1.654091464941348733e+00,-8.772480016381398737e-01,-3.795629803837513028e-01,-2.789930676411402355e-01,1.124147602378269717e+00,-3.624000636258751795e-01,-3.126141803579728373e-01,-1.095240186261935866e+00,1.198353107577083687e-01,-5.911053980469411773e-01,-2.461315553285129631e+00,-1.620960515997616813e+00,-4.393484365359818788e-01,-3.309895407854925864e-01,9.634430865726577586e-01,2.067645168007759826e-01,-2.762796927643776379e-01,-7.765427756365157475e-01,-4.385964525604252318e-01,3.444308806212511564e-01,-4.890067737167347883e-01,1.359108339533659615e+00,4.078343260459618702e-01,-1.283478688375231380e+00,5.097253010360173198e-01,-1.655697104880047954e+00,-9.168545446279336986e-01,-1.043782351595340802e-01,-2.219997457025095211e-01,6.232110373877313148e-01,2.074190636181941993e+00,9.151823346716930763e-01,-7.230274013309025971e-01,6.735632252807524090e-01,-6.721473686605274889e-01,-2.350236654180791751e-01,2.863988734846585615e-02,-6.407491030999197257e-01,7.430489758095712993e-01,1.308512172323298695e-01,-3.807611359542532048e-01,3.029064480304059503e-01,8.658022925550658000e-01,-5.551418574207470646e-01,-2.127837848623205463e+00,-1.223160159609122388e+00,1.261386717047902506e+00,1.417631598436710216e-01,-3.652323655376673028e-01,-1.695953795996278268e+00,-2.472237329039172204e-01,6.249056218967421472e-01,-1.118627050551010305e+00,8.794431653616223699e-01,2.151955670830940637e+00,-1.207862392926316586e+00,-6.754052111274011505e-01,-1.615738075032326027e+00,5.631905173215812077e-01,-4.453140278889704956e-02,1.538524354168998354e+00,-6.544241131239204590e-01,-6.382798480850028211e-01,2.457576000859783560e-01,-1.980330207263188425e-01,-2.279308495627574149e-01,-9.900888891239687517e-01,-1.342930223667388248e-02,1.877062829284291134e-01,2.289640025833341863e-01,-1.922840764185728413e-01,1.513442618317050847e+00,1.876519081236974085e+00,4.624357554906418644e-01,-7.780557958819480646e-01,-2.124138878665484675e+00,-9.073326831478811805e-01,6.038375384295108228e-01,-9.327390766142618084e-01,-1.411985909180008214e+00,-2.213516640224277854e+00,-1.195041370280265580e+00,-9.690358289795037994e-01,1.855234142221138249e+00,-1.210827721933567247e+00,1.056977188945359636e+00,-7.129930420767423005e-01,9.753144861331890514e-01,8.088211957191556722e-01,-1.487718280648645530e-01,5.244391838873584399e-01,-1.771900381717140815e+00,4.333377013208346007e-01,8.651476456087918709e-01,-7.449076314114607689e-01,-4.145389667394511202e-01,1.244778558044100647e+00,-2.531346950150645259e-01,-1.688827925414268849e+00,-2.890883996852562920e-01,-6.956939856700775082e-02,-5.032521100427701510e-01,5.418953778182077352e-01,-2.288345226859372639e-01,-4.579860332736611084e-01,-4.102430445412859061e-01,-1.066584496818943739e+00,-4.232210395507141065e-01,-1.159379042490288114e+00,-5.138844695404870544e-01,-1.347569995495889517e+00,1.208410135901861054e-01,1.207577868507298258e-01,-1.952758054286618306e+00,6.101285529289004472e-01,-9.372872547514973784e-02,1.050247350141813474e+00,-7.048387243016401849e-01,2.541610851324688780e-01,-6.893474570953337377e-01,-1.451676508227881524e+00,-4.405698063436148670e-01,-6.948733391307466700e-01,-5.286139932865233648e-01,1.983524244895800981e-01,1.487843853027875696e+00,1.649033622909310104e+00,-8.643877684673366701e-01,2.580108023237322190e-02,-5.082320415008589887e-01,-5.532794157330722662e-01,1.576961248680017746e-01,1.155865222588237984e+00,2.850471605366671768e-01,6.368309230876130211e-01,-6.726699113503028515e-01,-1.036062128441892050e+00,-5.217536335637664724e-01,4.551627585956855016e-01,1.255493493002278471e-01,-2.195470685653006182e+00,6.265211806552491991e-01,-1.893651593199422722e-01,-3.211758009282317250e-01,3.076722388695544708e-01,-2.287447443711422557e-01,-2.294788706319990657e-01,5.315811557656094921e-01,4.978299441474209885e-02,1.082950019533345909e+00,4.613022916032662873e-02,-2.349681580792442048e-01,-1.488803884354820972e-01,-1.377624317175855095e+00,-2.135470910867460215e-01,-7.603490340122326385e-01,4.207520526853272269e-01,4.665367379222293831e-01,4.505912869427546041e-02,-1.769321536987987109e+00,5.380828100735886022e-01,5.270350431736458008e-01,-1.405299985314577116e+00,1.753544215303811882e+00,7.179388643684141424e-01,-9.321580621318529269e-01,4.690205099985962356e-01,3.634894159786016266e-01,1.855503739057412727e+00,-1.564541111623780845e+00,5.562783311983551249e-01,-6.144786367390707438e-02,1.379813292344012954e+00,-1.322299524940133142e-01,6.714564375488197845e-01,1.668019231959352033e-01,-3.407731479524827439e-02,1.214794665945482022e+00,1.381475303492379729e-02,9.856849386186435913e-01,-5.751365032957550527e-01,-1.607610610782743976e-01,-1.233066277166989244e-01,1.907902000564336009e-01,1.428384774493896225e+00,7.789428702369769475e-01,-1.974930975320498411e-02,-1.406533927780001969e+00,-7.200183301349802889e-01,-2.594729274853681544e-01,1.512800427243541357e+00,1.021582080755038535e-01,1.381248410780677949e+00,8.926748203077039534e-01,7.129909503244442615e-01,1.402065653758183261e-01,-1.728582196306764351e-01,9.871960251813973741e-01,-5.314981603549578937e-01,-2.872837043235996202e-01,1.125012382622230245e+00,-6.082278552276589034e-02
