-7.120978910439953458e-01,-5.120134867920089761e-01,1.411994871604948854e+00,-5.158437948050322852e-01,-7.252344008696847144e-01,-6.309975649986531154e-01,7.970851415582977939e-01,1.592562520452226016e+00,9.916128313617319501e-01,-6.346629131675066704e-01,-3.465985976535906898e-01,3.683319109506361655e-01,-1.102720558252175298e+00,-3.644417655971984304e-01,-4.594340693486842486e-01,-1.829128301938233170e+00,-4.391373004928992296e-01,-5.814205339534030820e-02,3.275744666577569686e-01,9.082005230982781452e-01,-1.440852274913341002e+00,-1.409794825848465216e-01,1.197461263480034566e+00,-9.864911814930846790e-01,5.470004035816120602e-01,-1.039770876989015269e+00,6.460638041301099976e-01,-1.011835826733200161e+00,-1.195416209162008192e+00,-1.365668900435006439e+00,1.767225462502346744e-01,-1.566662081912331583e+00,8.525083201434005553e-02,2.471187893317479053e-02,-2.864007849361324687e-01,-1.747940567786676835e+00,-1.658665368177664190e+00,-7.309211752500843762e-01,-1.191609118993037564e+00,-1.482923267281729185e+00,-1.879905242423157929e+00,-5.362591656568778120e-01,9.773132558282321414e-01,-1.304501719306200958e+00,-2.525568607550893852e+00,1.072659669544720362e+00,5.445053594276414444e-01,4.273647144456207969e-01,-1.681308762145379498e+00,1.323708415241809044e+00,3.213946014853108490e-01,3.723306923832305632e-02,4.657665597299354698e-01,-1.578541947585557104e+00,-7.336209495769330236e-01,-1.194378391562940900e+00,-1.216656266216255222e+00,1.578414292386580264e+00,-1.880523691790672025e+00,-6.985493572924120764e-01,-2.827829009308379660e-01,4.593484355312972278e-01,-6.105729941368513991e-01,-1.779643541162899689e+00,8.826308473875897898e-01,5.867010886948798021e-01,5.088893890811762022e-01,-2.415365800060594384e-02,9.414247520103985467e-02,-1.997793844494676341e-01,1.388280078804911444e+00,-1.151918640038579245e+00,-9.322395005534084289e-01,1.487177591435606683e+00,8.565834754155002839e-01,5.888616871830972821e-01,-1.681228999008475666e+00,4.489787752101782603e-01,-1.290667667227309856e+00,9.112616323938962370e-01,-4.126916992379150995e-01,6.060348242918844192e-02,1.803423141183696288e+00,7.490486796940458714e-01,-5.007289005988745101e-02,2.144792112773045378e+00,5.219573903088564615e-01,1.362431982363970118e+00,-1.264792598211769814e+00,7.323254117083977111e-01,5.060015398298975953e-01,9.913772137286315234e-01,4.153368353487228437e-01,-1.352752286464872888e+00,2.147324794380780943e+00,-3.329560184935183020e-01,6.576798870277664744e-01,-8.213657086551988673e-01,6.843709546711925773e-01,1.081708342643741938e+00,4.888992998493694730e-01,8.711037938880255016e-01,7.122967299886369119e-01,1.866511604667697943e+00,5.457518412646871209e-01,4.700609283791452597e-01,1.008451251158661410e+00,-3.247787020749243747e-01,1.065013950548243660e+00,2.338513117593821189e+00,-1.070790272279276367e+00,4.703315092085142424e-01,-1.264704140746658600e+00,8.779578945419204139e-01,9.170630464693242390e-01,3.884986486492078006e-01,-1.072649243703296840e+00,4.050756318781770227e-01,4.113375014397435692e-01,-3.237651735059409730e-01,8.058787593544961547e-01,-1.318093673202663130e+00,-1.306644699530751463e+00,2.783760370684556507e-01,-2.638465741010735943e-01,7.493708589585995616e-01,-8.123663039142234865e-01,-7.052738033076202395e-01,-7.616308361788898251e-01,4.251944505460669710e-01,-4.384124092374088177e-01,2.092387757391615200e+00,-7.037324747155256910e-01,1.654533107636903810e-01,8.299828326463279948e-01,1.469687179119094189e+00,-1.601586486746114701e+00,-7.391641313021563020e-01,-9.568084632982540860e-01,1.052257201665504072e+00,6.385169949970972425e-01,8.176508525702612384e-02,-5.129489388885090095e-01,-1.214936760943126970e+00,-1.860979794094207662e+00,-6.883002532597241041e-01,8.049605440033270887e-02,8.097005298414546859e-01,-1.831809703686654023e-01,-1.533166585000843352e+00,1.144855445557001472e+00,-8.157197223621598381e-01,-1.321501159541571102e+00,-5.560499401150482690e-01,-6.037528914774537014e-01,-1.005844968033182019e+00,-5.855246885637606369e-02,-1.288715251564564346e+00,-3.960758219832724580e-02,-4.462445259262094038e-02,-1.203983955305190534e+00,-4.477775416477581816e-01,4.604796116893181135e-01,3.180312399875278029e-01,1.284012392201017372e+00,-2.526723914107064095e-01,3.354026815774076575e-01,4.340648770614467522e-01,3.560156334555911739e-01,-1.618846620308403095e+00,-1.597824484373094878e+00,-5.720037712275574115e-01,-8.047876891281174894e-01,3.599927494810951645e-01,-6.994039185819628246e-01,-8.757605519494228163e-01,-1.389251876276596631e+00,-6.136108977545160492e-01,-1.885506067816434594e+00,-2.120630413425605543e+00,-6.269184029605482378e-01,-5.130309610085707073e-01,-7.565194221652064011e-01,-7.431369467736504975e-01,4.209466523966521323e-01,1.414551632936378867e-01,4.089019809765713775e-01,-1.611231737787597540e+00,1.309849481571840224e+00,-9.783601367952823313e-01,-1.040874043397178150e+00,-1.412879622452954065e+00,-5.525065855085369293e-01,-8.830205222162579304e-01,-1.991589671679843965e-01,6.278623340019808818e-01,4.279014069887531607e-02,-8.444578858617324268e-01,1.086906502556543586e-01,-1.982167818943327164e+00,-8.837569026334691769e-01,-1.393766842680002949e+00,-5.013262669856108911e-01,-2.667960046409389441e-01,-1.463152855695318832e+00,-1.064823456369632160e+00,-1.814852559671917165e+00,-5.817685617820408245e-02,-5.034389113281881878e-01,-6.410747841572401740e-01,5.283985677968808803e-01,-1.731546780986130685e+00,-1.139645547916338986e+00,-1.287686284269628167e+00,-3.710607275488292389e-01,-2.090123417397225236e-01,-1.250622886986702209e+00,-6.230387794781264699e-01,-1.026801733809936668e+00,-1.201318608407659250e+00,-8.751232577406822255e-01,-2.751338254963988650e-01,-2.074547251101332423e-01,-7.519690073572308231e-01,7.569114851394617149e-01,-3.345822018613818782e-01,2.708985692996008776e+00,-7.061835725373352135e-01,-5.534889454995149949e-01,-2.222904677452520961e+00,-9.361255906845008523e-01,-2.138286246274045066e+00,-1.160282632321500973e+00,-4.527607249289951064e-01,-1.865522521331386852e+00,-2.633523330041138699e-01,-1.252199494094931920e+00,-3.628601860186573269e-01,-8.283501992443335071e-01,-1.480653956020887563e-01,9.506939670050536251e-02,-7.040455879697280483e-01,-1.088666481321587831e+00,-1.084423699740435953e+00,-1.054131711691654427e+00,5.681086857792170264e-01,-1.884808419223421794e+00,1.452597755627321074e+00,-1.353800714597821253e+00,1.455811116419996942e+00,5.518458278943848550e-01,1.866351248164094256e+00,-4.695932808885150966e-01,4.994609915660106481e-01,5.040227650460488151e-01,-5.068992676759063315e-02,-1.694731060271701395e+00,-1.632668670357180662e+00,-4.613605443934721828e-01,-9.038775239988693366e-01,-7.015265754647638519e-02,-1.399083780564748247e+00,-9.237202380375815203e-01,-1.228035287360562888e+00,-1.021900556098523927e+00,4.064872083964203853e-01,-5.713185080094363988e-01,-3.095527762420944295e-01,-3.784387906403689605e+00,-5.449500204485691751e-02,-6.059734278268311125e-02,-1.846109557804072709e+00,3.822578886791284103e-01,-1.764732627931762554e+00,-1.284592167637257809e+00,-2.606710560139132049e+00,-3.201067524748336890e+00,-2.193373784123566317e+00,-1.318761819467763052e+00,-9.566299382139700214e-01,-1.914072111801516041e+00,-5.549550843179351656e-01,1.587975543898904607e-01,-1.592577896668028625e+00,-2.487944395633961747e+00,-2.419645734593811159e+00,-2.873487443965235255e-01,3.921172849591333387e-01,1.036661243687500455e+00,-5.668418526122148693e-01,-7.522155607887924811e-01,7.927511786099354640e-02,-7.169483432821301960e-01,-2.345414638950821029e+00,-2.083812118110556000e+00,-8.046473134131081340e-01,-6.521124813015810595e-01,-4.144957411979812156e-01,-9.137881941748245973e-01,2.333660764361744633e-01,-1.307845455285638891e+00,-9.489302713683624990e-01,-7.115207754110054739e-02,-9.483990999143565581e-01,-2.608228750346739400e+00,2.759011720063527795e-01,-6.414882816414242406e-01,6.064460520621153261e-01,-2.889317561288745839e+00,2.914353626537057318e-01,-1.204823209515856197e+00,-1.367588010845442348e+00,1.341518045780938639e-01,8.324111326518212062e-01,-6.445267152274423150e-01,4.911160757728780801e-01,-2.495582244695241925e-01,2.058269788570580960e+00,8.705476608064011135e-01,-4.688055758311289734e-01,-1.078870909201594230e+00,-2.195071542612782700e+00,-6.128576209204178449e-01,-1.138671817466769598e+00,3.780438329875354664e-01,7.039598771495388929e-01,5.950327710866929465e-01,-5.002065206134465036e-01,1.894645113618450560e+00,-1.849085791616674468e-01,-1.776022197747093134e+00,-1.450464710889980413e+00,-1.948062640883002850e+00,-1.670871345028033028e+00,5.190210388861539979e-03,9.260308372426225010e-02,5.987325219839960688e-01,-1.037224136229714239e-01,-1.347078993467147656e+00,8.781371734086601544e-01,7.551817335983490587e-01,1.497476124910977813e+00,2.865873485302340651e+00,2.389708271413032714e-01,7.643169392561052211e-01,9.274212439832034693e-01,7.208758236763765925e-01,7.403716810783981250e-01,1.687899221925580395e+00,-1.037532353894616621e+00,-6.048471620948081551e-01,4.741560230761593386e-01,1.891772793599973967e+00,8.317290998645799904e-01,-1.246928435499814469e-01,1.227435440000049338e+00,2.050535539728218781e-01,1.308917100041648851e+00,-8.465238878978418313e-01,-1.483570330303009221e+00,-1.935716022289389660e+00,1.573588858090232134e-01,-2.078728080608476692e+00,1.808828545535671184e-01,1.798931297887902403e+00,7.211580992210166186e-02,-1.318720179590149033e-01,-1.269174497524581668e-01,7.786737821463586284e-01,1.385493421034285300e+00,1.125079561988993282e+00,1.829320900947737361e+00,8.377104451174174904e-02,1.659668458819999248e+00,2.823363751735720406e+00,2.754112116292845691e+00,8.110788046170637200e-01,3.810360756765704071e+00,1.624130616463809185e+00,1.065389077788452710e+00,-3.672639548503868756e-01,1.904730916514659311e+00,1.099590923418575894e+00,1.484465331537992761e+00,1.471485028104792869e+00,1.186072032033955281e+00,2.373946757010396702e+00,-7.088393664171606101e-01,1.620449724363450320e-02,-1.628476212857248973e+00,-2.130815308940472441e+00,6.195398262382978416e-01,7.953235451287951063e-01,-7.962528788618594699e-01,-8.854068310144477261e-01,-8.881896723031922347e-01,8.561100911054049245e-01,1.788413448376005910e+00,2.008119709503299877e+00,1.835956101157585785e+00,2.445125819624000663e+00,1.936550589358139174e+00,2.379953483108783741e-01,1.396776409090447535e+00,7.646418306871924919e-01,9.231441955684933642e-01,6.464293024273731758e-01,2.173526174306654291e+00,1.813596319166191462e+00,2.879620784908873410e-01,2.292664992962691883e-01,1.093299053556024969e+00,1.702540746474708433e+00,-1.295995193728605832e+00,1.492001809944756729e+00,-7.584077620441756484e-02,-2.697751907663452076e-01,-1.531041260138545912e+00,-1.727673983849139727e+00,-7.839744579845939754e-01,1.935096694114668003e-01,2.555928125934684436e-01,1.578033580322141693e+00,-1.410223255631300132e+00,9.377129434215454307e-01,9.241556428095637488e-01,1.073148494056272106e+00,1.185853141687709833e+00,1.152431564271666042e+00,1.889092245067160725e-01,5.690433807447269343e-01,1.704297933238281271e+00,-5.392785566172993983e-01,9.629719075549881824e-01,7.445534230546423382e-01,2.146061020355307214e+00,1.331660671828823306e+00,2.430398099299098558e+00,4.797146149919292446e-01,5.305481295280866094e-01,-1.339565470862280616e-01,-2.518199509589653107e-01,1.480394540131318715e-01,1.092701518167069341e-01,6.409462933787263283e-01,1.465403861135145869e+00,-6.158992323287785231e-01,-7.399477332264572382e-01,1.650984581337270052e-01,4.382010961553919337e-01,1.751438557969327292e-01,-7.993944434277705513e-01,-4.262758967210931726e-01,1.431903247449153760e+00,2.038626969256145394e+00,8.323668429666737367e-01,-4.679057322594228768e-02,-5.935021157976233530e-01,8.144408060073961009e-01,1.921901712509983540e+00,4.395637620890006092e-01,-4.442333094496323520e-01,1.327899211385702882e+00,2.597209335785820361e+00,7.624565187906721109e-01,-6.912053050856284409e-02,5.585310288144468283e-01,-1.344900357651219291e+00,1.940041769199557287e+00,-4.611014560073754542e-01,-1.448191670445109769e-01,2.346897199924198874e-01,2.927234379333770176e-01,-1.240545358703284640e+00,1.033463907218826527e+00,1.445006656556645508e+00,1.133054445642206032e+00,5.027387534435460159e-01,4.728650798608056705e-01,4.876903143945875985e-01,-7.696928688844176802e-01,5.294771456805544840e-01,7.582501753734206540e-01,2.347563746073122459e-01,1.493475871312060610e+00,5.730794835854959857e-01,5.471089627922763599e-02,5.805983086726197451e-01,-5.295459418516230699e-01,-1.867769910926745172e-02,6.062538349832875539e-01,1.365097038801298845e+00,9.482708130194784646e-01,-1.018846573950276946e-01,3.227448422476153489e-01,3.916275163074855459e-01,-4.477072141994962173e-01,-2.713574395974806541e-01,-4.568712252132606233e-01,-2.757428701930500492e-01,-2.748097060434588013e+00,-1.676363034954311715e+00,8.129891514014009335e-01,-1.317022173211932767e-01,-1.883810969027261972e+00,2.836247323614640714e-01,-9.962510758988095683e-01,7.521990937428459922e-01,-1.258676705402282048e+00,-1.160205900559420078e+00,-4.662981480122551092e-01,-1.957254802395035770e-02,1.146506175682665551e+00,1.023975021363637383e+00,1.419885782308610400e+00,1.005614952378896643e+00,2.322290847163190064e-01,3.217499645447537415e-01,8.619751028963368311e-01,1.430077233410313120e+00,1.131335983563330538e+00,5.051177161999078624e-01,-1.201176755092199233e+00,1.375230918363709254e+00,1.860901391151057016e+00,-5.793741787056265746e-01,1.061500667618847371e-01,-1.961483166259910593e+00,-6.597904656301123438e-01,-1.096449402237663406e+00,-1.070292650200193041e+00,1.782022937940783480e+00,1.132670182205585574e+00,-7.389225801707746122e-01,-7.392986915037396134e-01,-7.067891846032221537e-01,1.245556434621188265e-02,3.616205948386476687e-01,-6.819342624304768341e-01,-2.898474478840624258e+00,-1.078081995397392745e-01,-1.024444899602205528e+00,5.999172152286841309e-01,1.077364058735663654e+00,1.027851881315354099e+00,5.263650134971296080e-01,1.219862312368586998e+00,1.991265239599011305e-01,1.000932735834289433e+00,1.258947372186250080e+00,-1.652934781868599379e-01,1.116543126511528650e+00,9.431147889448535659e-01,-2.039681883806189422e+00,-1.756201099740116733e+00,-1.085415893188385272e+00,1.380082575780036569e+00,2.332228461427473754e+00,1.866492398554928656e-01,-1.144769829129739902e+00,-1.292265423164850047e+00,-7.658190912976130527e-01,8.680579303680857617e-02,-6.749996229442168927e-01,-1.566530876781825787e+00,-5.090758656471584542e-01,-1.703473943999723961e+00,-1.375918606789741094e+00,-2.106295730612786521e+00,-6.177629727969314449e-02,-1.784691015635858413e+00,1.664274755423960639e-01,-3.893819778780471114e-02,4.788317125184206602e-01,-1.058826413712509185e-01,-3.133284049289733475e-01,1.141405902777558490e+00,1.159030055070706250e-01,7.181661813503865677e-01,-1.472192721611355504e+00,-1.440041706577763314e+00,-8.856481378593750176e-02,8.812481648833857539e-01,-2.325833873897683812e+00,1.377180165148444768e+00,-1.187422435316960012e+00,4.175975355526900801e-01,-1.029205920201833047e-01,-5.028236571742824568e-01,-3.405007335678743030e-01,1.827758372572313439e+00,-4.208454823098868314e-01,-3.092774119411595413e-01,9.106037477386939027e-01,-2.293115648744693313e+00,-1.880843962524132218e+00,-1.546956087982621630e+00,-1.364903052435183506e+00,-2.164426710196983628e+00,-1.553102162841156764e+00,-1.510609611519532436e+00,-9.032475414755014934e-03,-5.433015859665764058e-01,-1.902829139468454001e+00,-5.570137227101212840e-01,-2.141998771540051472e+00,-5.095416329047763870e-01,5.594211081463091872e-01,-2.768421417943828455e+00,8.571961262839115081e-01,-1.138244876973466768e+00,9.397296348966870105e-02,4.364546543431495618e-01,-5.214389991644772376e-02,3.736320921819689944e-02,7.076895541046495097e-01,2.628733653120278735e-01,1.303902258800975211e+00,2.191661016266235329e+00,-4.198076442816622289e-01,-4.201619011698637940e-01,-1.208659284232976638e+00,-3.144419655742635156e-01,-1.222270569300340837e+00,-1.526462500343373385e+00,-1.583331929271167837e+00,-1.753968563958740345e+00,-2.309923950476512999e+00,-1.926931719478883087e+00,-9.762585154913791530e-02,-1.784570153604173592e+00,-1.967138133297656521e+00,-1.682777966358244504e+00,-1.382300585553998928e+00,-2.065614364646044976e+00,-1.143926750810505766e+00,1.038342463292596940e-01,-1.425402754028652019e+00,-7.637766367984093474e-01,1.697293526117031603e-01,-1.821705726150454119e+00,1.709876126037555899e+00,3.796477910487374569e-02,1.827099610365111149e+00,-9.796385092479901191e-01,1.999616813802954918e-01,2.676511098973399262e-03,7.730522472814006507e-01,-9.918980993006971669e-01,4.799523981171222586e-01,-3.507360833889190954e-01,-1.195368466143549968e+00,-1.121133310629149449e+00,-1.517773781277516498e+00,-2.034792549199552880e+00,-1.621078300907895731e+00,-3.840284399214298094e+00,-3.904654509774761806e+00,-3.038926305897112101e+00,-1.771224166853784032e+00,-1.526740559136580799e+00,-2.617922949975044489e+00,-1.928287341881056216e+00,-1.617711403098461842e-01,-1.710851356485432850e+00,-4.428317891698859143e-01,-1.933438383740281596e-01,-1.343800447455756553e+00,-1.274895684936814932e+00,7.614683110933216648e-02,8.851619471410274720e-01,2.491081050038817246e-01,-2.716909667836020503e-01,-1.089922862235840562e+00,-5.730729121402950987e-01,-1.780990724491535726e-01,-7.602895664231029693e-01,-9.149695655271560257e-01,-2.102771748546135022e-01,1.973383254394056152e+00,8.572966763808678170e-01,-5.541354375906110130e-01,-1.242502056234521257e+00,1.176203020784594017e-01,1.878504544775546625e-01,-1.559684507136580578e+00,-3.598901236954014093e-01,-1.291140426022989951e+00,-1.637478965996768565e+00,1.336738901494903820e-01,-9.459312316247550090e-01,-5.707296609144719285e-02,-6.043288926686030127e-01,-1.537839978948325748e-01,8.974721624894284044e-01,-1.364798940248521886e+00,-1.433639036720550652e-01,8.262038688279752519e-01,1.363654822743367301e-01,-4.957855316578572147e-01,1.213203116555929606e+00,7.000952144227893248e-01,1.160183036438304338e+00,9.014959417492909299e-01,3.775811919208203471e-01,1.322711791442677809e+00,-2.162839500853998842e-01,1.030480613791253663e-01,9.378179420957214463e-01,2.399461141477485238e-01,2.138260737758458374e-01,-3.186154642759748135e-01,-8.478346649784153088e-01,7.455864283746856946e-01,-2.714569901667106544e-01,-2.476060295929904953e-01,-3.242758687176048871e-01,3.477709257468299953e-01,9.206657805016359442e-01,-5.026653297455949687e-01,2.978436681042117673e+00,1.799567665164129027e+00,-2.375397528524868240e-01,-1.356947510616194341e+00,-1.248606023309404511e+00,1.485531253947590224e+00,-8.994067062672074231e-01,-1.457710942819755440e+00,-7.492845307831962343e-01,6.738656361249366344e-02,-5.162507286819218999e-01,-1.127632675156133413e+00,3.621942441274010882e-01,-1.102624716671816024e-01,7.149427184590304574e-01,9.465991177463740636e-01,-5.348899125508618235e-01,4.452532899703537939e-01,-1.122210785446166481e+00,-7.040031083613694785e-01,6.695489412862505318e-01,-1.541017434342535131e+00,2.728574976992157453e-01,-9.619099137431948998e-01,-1.557963784739255120e+00,-4.647689301773519910e-01,5.107373860020103518e-01,-5.598709126029861594e-01,5.301899246219420325e-01,-4.467677698355243532e-01,6.634972620118693154e-01,-7.588394542489684813e-01,-5.166914548830046083e-01,3.750890702683950528e-01,6.539363800683262173e-01,6.572378208370832642e-01,8.635797873041117789e-01,2.493989436196281662e-01,6.068540534626567506e-01,1.845953189505546502e-02,3.084690899706772974e-02,-7.136358559505286969e-01,5.903361704036335089e-01,-8.648274722087035196e-03,3.140294926636325590e-01,1.913449232257973531e-01,-8.014371178893866521e-01,-8.941110974656824029e-01,-1.316750205623043568e+00,-1.815982077685722951e+00,-6.434199003771550185e-01,6.336858372401013018e-01,6.449230659414971756e-01,-7.786928814960950018e-02,-2.033121460496886690e-01,3.168839715902200815e-01,2.020376193426473288e-01,-6.621909615553825956e-01,2.675018739455514161e-01,1.514415081540869457e+00,4.023695990820655988e-01,2.051297345185137733e+00,1.522303629076854348e-01,7.319493348355549101e-01
-1.111126537667238567e+00,-3.664930581669584297e-01,-1.668029310433457146e+00,1.965044858925373283e-01,1.529440063543660910e+00,6.005485014093009388e-01,-4.848191568237587151e-02,1.555897538143661052e+00,-3.281569996338014605e-01,1.449275248421589612e+00,-6.756875709294231092e-01,1.309823980409899224e+00,-2.723991047724264036e-01,4.446827372370547593e-01,-3.305563793119108418e-01,6.168641302890087719e-01,1.446736555074642938e+00,-3.892288469700661002e-01,-2.224701324657112345e+00,-1.243432266562626731e+00,-3.377779622079327138e-02,4.144191853478368381e-01,2.223631618491680173e-01,7.901959312081552333e-01,-5.840109736574717464e-02,5.381352858780237280e-01,-7.638901370841152394e-01,-1.172281474677923319e+00,1.993639457871746457e+00,-1.333686270855036327e+00,-1.919774983395719170e+00,-3.829810556250473619e-01,-5.945469038956502361e-02,1.188812576260988241e+00,-4.032319784354141401e-01,-1.902537822364017694e+00,-1.733162796324816179e+00,8.640909910448102416e-01,5.557655444934936351e-02,-1.987989679746361205e+00,-1.638008609674387550e+00,1.594400967936770164e-01,-2.904962047077541687e-01,-2.020150001750736557e+00,-5.538475474211810301e-01,-8.226531883953256408e-01,-2.368855674951122481e+00,6.987230445358955100e-01,-4.146814086306649938e-01,2.163680364941226453e-01,-9.609121917859420048e-01,-9.454799974008976093e-01,-1.969798890767985311e-01,9.683957992941322201e-01,5.660920121992925047e-01,-9.453237952123348942e-01,-7.812562959601575541e-01,-5.860300598260960447e-02,-1.869185675420149614e-02,2.116434159919488578e-01,-1.601274370498622535e+00,-1.466402173502822981e+00,4.879738990159734890e-01,1.279009070171869045e+00,-1.712442144026409041e+00,-1.210114283279556169e+00,3.603310242238953048e-02,3.368589291826881715e-01,-2.345204998218644477e+00,4.430907722008680660e-01,-2.771868704811542017e-01,1.970547936620315188e-01,9.842970621893163408e-01,1.719432115726029275e+00,-3.028657566513556429e-02,2.152946745871791023e+00,-1.454341174038355833e+00,-1.035549001031468741e+00,-7.278700699546630792e-01,8.491356935084740654e-01,3.235134098852515461e+00,-2.627354444192250837e-01,-1.082201387719178287e+00,-3.941158956636316435e-01,5.298663201947578782e-01,7.409932085470222196e-01,-9.652942785597657949e-01,5.690695367549253314e-01,9.826594792318084359e-02,7.933321831410538039e-01,3.130369630974796924e-01,-2.135935555251547435e-02,-3.612872504922913786e-01,1.011745746254538059e+00,6.012557675471623675e-01,1.683694469998245236e+00,-2.994765467954744742e-01,9.512865456669632458e-01,-6.543217561245379121e-01,-1.068610644788843045e+00,-1.412408894486288480e+00,7.962947147395788017e-01,-1.523413805133049026e+00,-4.326615262154126507e-02,-2.178307146512358461e+00,-2.179054377596245096e-01,-1.571142517830651064e+00,6.074235851581379769e-02,-7.215270597411868048e-01,5.534029378233101815e-01,-5.535903697399268131e-01,4.212133393151462624e-01,-1.333438143805238507e+00,-1.548640488245741409e+00,-2.023137931947441570e-01,-3.054450412309963059e-01,-3.879941875944495910e-01,-2.023178284355557355e-01,1.349256879121205843e+00,-1.144365660921459471e-01,4.079263272649806260e-01,8.675254324707675213e-01,2.723089804850062912e-01,8.307677403964205398e-01,2.622426177947236869e-01,9.206199954869366264e-01,-8.383401414246223204e-01,-1.017550342868064339e+00,-2.102068945757705976e+00,-8.782234217867407322e-01,-1.288905591931604366e+00,-1.436609758407291659e+00,-1.709718303693414265e+00,4.442937814341878511e-01,6.000636347745881283e-01,-3.074326298803817803e-01,-3.208545019547566213e+00,4.093076726586540870e-01,-7.675565510000715852e-01,-4.236595721992721941e-01,1.581753363102752497e+00,-5.900954735205375945e-01,5.305352058436926116e-02,-4.573040210318493615e-01,1.209475653275373652e-01,2.298213209418826786e+00,-4.153475769077503155e-01,2.798556901882180425e-01,-1.650909433962616524e-01,4.806062626457113796e-01,1.139296788649110326e+00,2.807784759268537211e+00,1.319860018034194393e+00,3.142883961291229045e-01,-9.331634442151802433e-02,2.408950547173775991e+00,-2.745301487553092556e+00,-6.036220248819612610e-01,-8.961835686483976549e-01,-1.148578652778259990e+00,-2.101058954504319287e-01,-1.641142489870498045e+00,2.410149304083266872e-02,8.717990071620864700e-01,-2.006761310628629447e-01,-4.164455703547557119e-01,-5.437187336259469150e-01,1.055931011202039943e-01,4.035548372828840158e+00,-8.312679663331099533e-01,-9.714698152456586744e-01,-6.530757812133738405e-01,-5.956501771281097479e-01,-1.999299178749529005e-01,1.621076456429615398e+00,1.563702438163967923e+00,-7.839547877475406823e-01,1.936589653712231573e+00,-3.389612507025633881e-01,1.556403980399275966e+00,-1.680698914387129594e+00,-1.105154270953259132e+00,1.465481322067534897e+00,-1.717292630707609069e+00,8.490424382055020702e-01,-2.046258626175446516e+00,-6.787556726521036810e-01,-2.082177614961856715e+00,-6.044840904816892735e-01,-2.542483602809662457e+00,-7.895143067669962988e-02,-2.973398711708132858e-01,1.990333064906323612e-01,2.811435334046883394e-01,-1.126124276812397129e+00,2.470453520904020983e-01,5.796432244496943498e-02,-1.110240463483119999e+00,4.228928380780785923e-01,6.570974225930088508e-01,1.015454892171615553e+00,3.511000398644971154e-01,9.657846585324514344e-01,-2.302264417172315558e-01,-7.702334028241223374e-01,-1.788173929898606573e+00,1.243579082502772465e-01,-1.338424075606152508e+00,1.410625518472690895e-02,-7.187978063146074348e-01,-2.324306992220930568e-01,7.843064433280896308e-01,5.334501052429613949e-02,-5.645447149767169881e-01,-3.286438230819423989e+00,-1.153910731300860082e+00,-2.513428162205094019e+00,-5.107796668168970156e-01,1.903403459843816814e-01,2.842530412607270351e-01,-1.964974355440645803e+00,1.526787622307556713e+00,1.356447154177959025e+00,-1.326033470430806771e+00,5.116110426481668139e-01,3.361118675085045804e-01,-7.296364233910541675e-01,-7.516572276911989148e-01,8.888734250093985878e-01,-1.428877073156676891e+00,9.260533149030935052e-01,9.151134995825047636e-01,6.098209821257644103e-01,-1.685831985294221846e+00,9.233561758409833953e-01,-1.737231112857746229e+00,1.829855768748653855e+00,1.543695160417688061e+00,2.007018024605396800e+00,1.136938878570751044e+00,6.139499659539434662e-01,-1.520620603356787948e+00,-3.638533288927839671e+00,-1.609746692466010431e+00,-9.706675869232278542e-01,-1.568305972312410868e+00,-6.200329764838716784e-01,1.664825588592495631e+00,-7.687023254107040460e-01,1.945048599513717405e-02,8.013112864540287150e-01,-4.255293109654681438e-01,-1.458442015863274266e+00,-8.743639213109886121e-01,-9.090449915339183784e-01,1.450272775698187577e-01,5.821916231809276532e-01,1.058607015326890943e+00,-1.149030548030574472e+00,-2.952009192802577120e-01,-1.199863617086097456e+00,7.516075641726993606e-01,-3.287656560701216479e-01,-1.608080854638333834e+00,2.425803531682050873e-01,2.142184496951919481e+00,2.033518947211488737e+00,-2.180959498105783934e-01,2.430743694049223969e+00,-4.091826326673728698e-01,-2.368565620635868729e+00,-1.034959429941239017e+00,-1.500284951858789295e+00,-2.754955296575179347e+00,-7.837345511502088469e-01,-8.349662345433572774e-01,2.216596397931349660e-01,-1.762048892735261107e+00,-1.758612336338613025e-01,-6.991341520773264318e-01,9.998207170518211839e-01,-1.469560632673829081e+00,2.020290210857537128e-01,1.362622153115095713e+00,1.120878935019404388e+00,-5.463094907999440641e-01,2.057961479532735893e+00,-1.133448766370800165e+00,-5.977533824190832679e-01,-6.449648793839949379e-01,-8.685141151887122435e-01,1.033084675983533485e+00,-8.696262382914676792e-01,2.987985671861391967e+00,2.348919604539197792e+00,4.573786850598751674e-01,6.768076084404019976e-01,-6.780374978184329493e-02,-2.174208611671112124e+00,-2.700287495255217163e+00,-8.135323332962789422e-01,-1.183235643897800615e-01,-2.505104435605831070e-01,-2.613452455834029409e-01,3.060249082968561907e-01,-1.521122699617427410e+00,-1.730762843384814564e+00,-1.910199221472482556e+00,-1.813647456358893628e-01,1.969909583476320281e-01,3.523213146380860805e-01,1.877193101193325830e+00,-2.963746329763661258e-01,1.632564869361264659e+00,-1.424958082952901828e+00,-8.685762092214311947e-01,-1.791510066308912741e+00,-1.694218796199186902e-02,5.947107669309336098e-01,8.371529700152168241e-01,1.911056370196678067e+00,1.044536050159620810e+00,1.154217784700922955e+00,-1.086475193533937844e+00,-1.442352109893822565e+00,6.507316174936104147e-01,-1.804499273340172349e+00,-2.092403958661834817e+00,-2.009704735469175052e+00,-9.335241872778453631e-01,1.233989433365658694e+00,-3.883672894129471809e-01,1.593564538987640278e+00,-1.055821493527995703e+00,7.300463936392321829e-01,-3.742343803336470875e-01,-6.873191265538064476e-01,-1.341903172766445440e-01,-2.807558356937620125e+00,1.658065893653497547e+00,-1.399437264871030706e+00,-7.208465379102709791e-01,-2.693282137576871738e-01,-1.514590258397556788e+00,1.466583333451697557e-01,-2.463632342711268297e-01,4.539468606570600251e-01,1.546182544710262174e+00,1.246041556633428637e+00,9.319673104009820186e-01,2.291224452312363269e+00,-3.978810230603636588e-01,1.255550641442579329e-01,-1.296154821614376451e-01,-3.995251673838151163e+00,-2.409363799992306543e+00,7.891953893385518226e-01,-8.274354564703465531e-01,-8.476161465895483138e-01,2.270276427077041470e-01,7.820565326893366143e-01,-2.264725697645858293e+00,1.048574010124726952e+00,-1.148651181051102421e+00,-7.582955034264536875e-01,-6.853886602428385655e-02,-9.209166310726117910e-01,-1.475462174894089928e+00,-6.992416213201518849e-01,2.915304564192157111e-01,1.367670318361873527e-01,-1.848468373557262900e+00,7.041847742126031151e-02,6.050517604025222873e-01,-5.385769309039938058e-02,-7.519960271708335531e-02,2.040203428460268142e+00,-1.899458072088970662e+00,5.608271457547589489e-02,-1.187532234492012950e+00,5.222882684178958845e-01,-1.735910965343433920e+00,7.356315937558284279e-01,1.218716499469265413e+00,1.704596422937254108e+00,2.172357460766612680e-01,-5.415624322750428599e-01,-6.965914357001835866e-02,7.968057415578034819e-01,2.706149743133404728e-01,7.837724525319903490e-01,-5.638638415828908235e-01,-4.323195436839012418e-01,-2.608697995629557731e+00,-4.684429558532598459e-01,-3.805630918323580913e-01,-2.449787815446430539e+00,-1.392479152169219470e+00,9.123513222349446394e-01,-9.823700569784566961e-01,-1.999815652770668695e-01,-1.053730024008960320e-01,-6.077865911745050642e-01,-1.424854854578152530e+00,1.699994783284270783e+00,-7.875244508802592414e-01,9.813410742157556710e-01,7.676672127426210634e-01,9.963846289846585436e-02,8.459444737839896811e-02,-1.186214888419569347e+00,-3.821796383357345950e-01,-9.577201196927443982e-01,4.725250914971744209e-01,-1.289923390274836823e+00,-1.564804104656192241e+00,-4.089722589242618667e-01,-1.892529966365181782e+00,-5.131177821804751016e-01,-4.852547304181668159e-02,2.831442606778961091e-01,-9.807110245594712339e-01,-9.583654719144111267e-01,4.102395691151692336e-01,-9.918787489408925628e-02,-4.016315532503725305e-01,-1.893650580906767855e+00,-6.863163204852893440e-01,6.765831322466526743e-01,-1.691073348932299769e+00,2.056922680323552133e-01,1.475660293564609926e+00,-3.074544036134729375e+00,-1.213340896509968125e+00,2.929405442529952053e-01,-1.560507551498131695e+00,-3.910592657045425802e-01,-9.419951819911487334e-01,-1.279653914844057772e+00,1.494364991946392607e+00,-1.445383601645378324e-01,1.261458217538595772e-01,1.179899553498281684e+00,2.414409586003704034e-01,3.293590283654053152e-01,2.423234189124515492e+00,-9.433460653853205091e-01,-1.107243122460790152e+00,1.821966469976171732e+00,-1.005038965899654357e+00,-1.335361095143562604e+00,4.762693996423925658e-01,1.394572788059746493e+00,-2.244955346083920278e-01,-6.730777412392514591e-01,-1.537651066511954712e-01,-8.587356927825655628e-01,-4.315086724603412610e-02,-5.263427092296966148e-01,-9.417035547091633374e-01,-3.767518194495146910e-01,3.805843848694764886e-01,-2.403464767612031761e+00,5.660974106030088882e-01,-1.435927993441886930e+00,-1.098281190802422147e+00,1.089429963475881502e+00,3.831931167025455776e-01,1.294450197760524945e+00,1.068082894283118867e+00,9.490491087652004609e-02,-7.759590506827261924e-01,-1.645039582826394314e-02,-8.624398554005328066e-01,8.506178453710762088e-01,1.658243636265993359e+00,-1.780384565043389600e+00,-9.005046066191197962e-01,-2.256425007259807547e+00,-2.393807316426014298e-01,3.373197631144767006e-02,-1.422904155794404213e+00,-5.768700167918247024e-01,-5.085913435106508285e-01,7.421123489773123749e-01,4.666622343134814166e-01,3.749282250348037748e-01,-1.389469608095149633e+00,-7.810102383941261439e-02,-2.346132824496388602e-01,-8.496870853567783932e-01,-6.763919480972514497e-01,-1.720500158194654183e+00,-1.228245578544059358e+00,-7.751734185283462031e-01,-4.560465791521121082e-01,5.936979795807742488e-02,7.266757098770407763e-01,9.068077322600690549e-01,8.926456072285590126e-01,1.102750774125485167e+00,1.066812599540421180e+00,-2.295368445220564269e+00,1.264030594197270041e+00,-3.148021219556859651e-01,-7.626936144568003950e-01,-2.520418876939253483e+00,-2.266414738309269206e-01,-9.758583818919195352e-01,3.099078958335390044e-01,4.239462557921084840e-01,-5.048066743186216954e-01,-7.414103155561310166e-01,4.411291924713164891e-02,-1.559211869821641949e+00,-2.205941579832355171e+00,3.648543095741602627e-01,1.011493844952183085e+00,-8.480916300051730694e-01,-2.644180221029382993e-01,1.057532203670157184e-01,1.346052200671683741e+00,6.290142119837066614e-01,-2.012077869182101741e-01,9.594522319238610875e-01,4.544169708733612478e-01,2.746641301304689198e-01,-5.964009655323772030e-01,-9.315066827647723591e-02,-2.268311059935186336e+00,-6.721257934433939596e-01,-1.211916980633057639e+00,1.645656990467333713e+00,5.237093391041380136e-02,-1.966036103308277383e+00,-1.812485312689860129e+00,-2.870297255934868841e-01,-3.059755004050002669e-01,-2.209242753873082998e-01,-6.358456427831613578e-01,-1.802165522357703997e+00,-3.695338240269581132e-01,-1.618436731943761142e+00,-1.360031743135537152e-01,6.834741037502467531e-01,7.291849443299619482e-02,-7.857566049080056958e-01,2.681808341147233210e-01,2.789245683398206554e-01,-8.566944906719964337e-02,9.958789912086943863e-01,9.751439190021452541e-01,5.104484487488371025e-01,8.714219740148863025e-01,1.326860011137554807e+00,1.350063785071685452e+00,-8.630338140458664320e-01,-1.499913133985310232e+00,9.139034106470882157e-02,1.207807517194308788e+00,-6.875817427223970824e-02,-1.039795206449457554e+00,1.942373858410804788e+00,1.004206262162653240e-01,-5.829657701935646585e-01,-1.792149125838154167e-01,-1.465491573340864218e+00,5.436307706327090372e-01,2.136205436082462938e+00,-1.530839490862506147e-01,9.605625416517621362e-01,-4.427800724472352178e-01,-3.468728272278182034e-01,-1.540999844211365266e+00,-5.094297914511026343e-02,7.293222226003165387e-01,-9.633071203296226237e-01,-2.768885898838041593e-01,-5.155901509197953481e-02,-3.312687017359612351e-01,-1.126927385513324387e+00,8.391913751444564362e-02,-1.541045205913213756e-01,9.655780795266810657e-01,-4.368220153431544017e-01,1.686684475417618012e+00,-1.569286147000872544e+00,-1.439916541232807989e-01,1.522217946532722910e-01,5.910192005041364771e-01,1.325882045838406298e-01,-1.461258539129229428e+00,-8.388121462298117059e-01,3.313978733776903884e-01,-6.860537046730261768e-01,-1.423310574202421575e-01,-1.495746428305264830e+00,1.126157872048797248e+00,-3.167338531138945701e+00,-5.883684763069059187e-01,-2.520475956485827229e+00,5.612738411084482459e-01,-4.357749828243321910e-01,-4.301378460066543896e-01,2.560701660523641010e-01,-2.690168517427113937e+00,-7.984554277203935735e-01,-1.204016021166828265e+00,-3.410498690005336897e-01,-2.067101493737069973e+00,-9.709566272698253453e-01,-1.110755509718371892e+00,-1.078669458680197479e+00,-1.999484084296416497e-01,-9.092659749189336837e-01,-1.248264846833612579e-01,5.317029058027807897e-01,3.301173527796821272e-01,2.141402968981811927e+00,5.426797232469725563e-01,7.695205539441098141e-02,-1.369907226948918755e+00,5.657565963830182287e-01,-1.514148958870782311e-02,6.057448750617774325e-01,5.062343809973045561e-01,9.792512286157187829e-01,-1.324624690863261511e+00,4.813214329356917398e-01,-4.538472483845061300e-01,-6.051858232863101261e-02,-8.913086721282238445e-01,-3.372874237398023611e-01,5.902501258032812892e-01,1.286524131939027704e+00,-1.037568062583109851e+00,1.245321537262957357e+00,-2.185542664634626195e-02,-6.946315645123085636e-01,1.853388412240470240e+00,-7.766770604170298853e-01,3.684763625981358204e-01,1.472933391143840698e+00,1.608511360036389282e-01,1.097418196447505156e+00,4.140811436330287809e-01,-6.811898181761659732e-01,9.678287942370612518e-01,-2.054236876366093867e+00,2.454791253541118934e+00,-8.444322543094141542e-01,-7.144225005746411838e-01,-7.049028104344509105e-01,8.624992571839959488e-02,-1.765336472468079565e+00,-2.689726499649515157e-01,4.008623875545925808e-01,-8.552279044215577164e-01,-3.688143294303097841e-01,3.235141084023210323e-01,-4.834161544283896994e-01,2.626147066806164276e-02,1.602663344442244175e-01,2.933021832083294034e-01,-2.360323104472819900e+00,-4.955761099296758232e-01,-1.448954023337054364e+00,-1.242469912610740579e+00,-1.034678980785365132e+00,4.320141393708197830e-01,-4.984730319052298464e-01,1.785935558241152687e+00,1.407793901019740668e+00,-2.088451027139968108e+00,-5.683295101522705117e-01,7.534255342634904595e-01,3.579469446587985049e-01,1.212917190168619097e+00,-8.802780087062995751e-01,2.899080628961781536e-01,7.149608046726980970e-02,7.321490555205838191e-02,-3.399774420993441071e-01,2.090414476454968362e+00,-2.932389955236902046e-01,-8.695437674717733101e-01,-3.737182717660366138e-01,-8.167925474352406845e-02,-1.055212223820354067e+00,-5.090975514691042925e-01,-3.364382159126044769e-01,7.171031823124069948e-01,3.704341889250847841e-01,-1.004313263015603086e+00,1.792798718906006006e-01,4.661506283646183468e-01,-1.228110148002906854e+00,-8.907141614229422411e-01,-6.150939531905580404e-01,1.496343477485284845e+00,-5.307260105205987566e-01,-1.658812994887354453e+00,8.565064097184241221e-02,1.071899663450205153e+00,6.880942050027356593e-01,1.618881546932718907e+00,2.791686544069587605e-01,6.368612005829576983e-01,-1.988021502498851789e-01,-7.684626091684265692e-01,1.452152841153950824e+00,7.975977609343688490e-01,6.075681412882278920e-01,-1.763591530150678599e+00,-4.503895724664612743e-01,2.000033364791355517e+00,-7.823451034625279465e-01,-2.715429891146109442e-01,-1.115819170515474523e+00,2.219738294294552328e-01,-3.676343703937866580e-01,-1.761842491425238272e-02,4.169246572517875116e-01,-9.496493778965250376e-01,-5.255567139713166469e-01,1.083860097692001423e+00,-1.366514637365261686e+00,1.291662619849803351e+00,8.334243454180046973e-01,-7.666762984116504143e-02,-2.819433027352302723e-01,-1.074148993808790697e+00,2.014679789018321454e+00,-9.375756657781648962e-02,1.142837184688603874e-01,-1.673380235608392441e+00,2.657706284105006977e-01,1.174608816775192938e-01,1.351107547749055504e+00,1.384467948680251637e-01,-1.032637055651605573e+00,6.421133812647212835e-01,-1.177171806376272611e+00,-2.847729589064245559e+00,-1.291343487601872841e-01,2.366652069300679007e-01,9.693560625894570570e-01,-7.243282250908251729e-01,-1.528609624105105924e+00,-4.215897110978288759e-03,-1.941106172806688623e-01,-2.421973170764655792e-01,-1.709809362499273566e-01,-8.390974944616997888e-01,-2.065508000512130238e+00,8.034740862965574770e-01,1.746486156857036454e+00,-8.619927352561620459e-01,5.915865235033709313e-01,5.777252488356739157e-02,8.607831974542654030e-02,6.637814277190480228e-01,1.282509959884210238e+00,-9.765762188104777364e-01,1.132438621697145070e-01,-2.997905520424420378e-01,-2.984992465803912420e+00,1.480891229901123873e+00,-1.130140804593188442e+00,-7.123103933875259974e-01,3.473343657458782818e-01,2.214163646893406168e-01,3.225901400178573519e-01,1.090890531913250444e-01,-9.731041477800583817e-01,-2.193624434135985179e+00,1.115711448178225096e+00,2.300592281930288474e-01,-1.702265040128156715e+00,-6.618066816479412084e-01,-6.940282502671719922e-02,-6.073692062615887455e-01,-1.486288926864211213e+00,-1.507689636495067598e+00
-7.108310430401020286e-01,-1.347988855091425631e+00,-2.164206028911591084e-01,-8.181710112341094021e-01,3.324591497256123018e-01,3.723905379050178599e-01,-1.931650052165970743e+00,1.092933019177461551e+00,5.699164630051826164e-01,-3.075481577911186037e-01,7.739770971752477635e-01,-1.795946904954714318e+00,-3.426490843854874124e-01,-4.722721254103343091e-01,1.751450775412453642e-01,6.863199757030455928e-01,-1.384990835734828840e+00,2.487718899721658994e-01,-2.159078683847793112e+00,2.970207254178927503e+00,-4.691678352819317332e-01,-1.621343036018988992e-01,-2.284160664917935790e-01,-2.295578840224837602e+00,-2.569019708243763578e+00,-4.714316877482124801e-01,-1.574545205668401504e+00,6.098983719123888259e-01,1.439280861741539574e+00,3.993306513739274255e-01,7.620825308712375623e-02,-4.690831853930386153e-01,6.293364307561063464e-01,7.325745969918850964e-01,-1.378434218794733157e+00,-9.622433237970294817e-01,6.672683061380653147e-01,-2.554251110208602404e-01,-1.363435243441990796e-01,1.351625222458666675e+00,-3.294957936299633960e-01,9.608840488305487870e-01,-6.198328500639204153e-01,-7.201752851050230442e-01,-5.717310568734902398e-01,5.390979843909373681e-01,-7.097512273250784487e-01,-8.431051442713337618e-01,-8.768270747150398448e-01,-7.040718895534577859e-01,3.638205214771445678e-02,1.411698280261944882e-01,1.911210286080032628e+00,9.699129899826882673e-01,-6.514582761797768073e-01,-6.094811827695300055e-01,-5.996547871369836136e-01,-1.389916775694323592e+00,1.120094815870201987e+00,-9.626313703214722794e-01,-1.539009661614873181e+00,8.446861122097563956e-02,-1.229109598012529808e-01,9.631642447709579113e-02,-1.826866299768996171e+00,-6.657703845754940897e-01,2.413930579949962851e+00,-2.855116346306083575e-01,7.663497784870908491e-01,-1.362697558167160539e+00,-4.349596831635037242e-02,1.947548979913313660e+00,1.085617307056969905e+00,-5.268983200644068443e-01,1.651213331512894733e+00,7.358966293105329015e-01,-7.425165737953911549e-01,-5.778369205589986013e-01,-3.173817329855737057e-01,1.900577837959936733e+00,8.496105351912004444e-01,1.196086026790945805e-01,1.059724549399871485e+00,-9.935496481886632036e-01,5.006366424479214983e-01,-3.453845000729026116e-01,-1.298764341405800327e+00,6.741919735024999305e-01,-1.411920223068368063e+00,-6.735834447328696850e-01,-5.318089797295744853e-02,-1.780472493447540216e+00,-9.175476745257171718e-01,1.601170489489886772e-01,-2.695354620405410628e+00,-7.532749341221089967e-01,-2.481493481281153990e+00,6.155762515593579676e-02,1.468775983577195410e+00,-8.454552348305095499e-01,1.419490557830583866e-01,-1.729954083931875830e-01,-8.692522002485847388e-01,-4.941128640222904322e-01,3.180371068794739936e-02,-1.819042183289503400e+00,-1.765025835558595851e-02,-1.729365483915978885e+00,-8.993552463458516222e-01,1.737105084283845358e-01,1.867141694130511231e+00,-1.691413999147389768e+00,-1.261932982049431828e-01,-1.860286098897889762e+00,1.226410751522742926e+00,6.742934031272996842e-01,-1.725087061255350940e-01,1.774713977701549705e+00,-1.466569978810614350e+00,1.974244459535798857e+00,1.396391295422417037e-02,-7.820442672801859452e-01,-1.506234898593012961e-01,-1.373655521256150536e+00,-3.112359482160370061e-01,-1.072923847855623697e-01,-6.575636938846609603e-01,6.666844425472154834e-01,1.373491076372325592e+00,1.379559719595316036e-01,-1.801187458682105058e+00,-2.149529397670730368e+00,-2.233506916627249483e-01,-8.316985270171465272e-01,-5.055465645579158007e-01,2.045690621962745759e+00,-9.647878660944855245e-01,-2.323489927642102604e+00,-8.643248098055221762e-01,1.553569350926786719e+00,-1.244856610982036510e-01,-5.464207809399269644e-01,-2.455295910615100732e-02,-7.939217300947046807e-01,6.623186834691299207e-01,5.955786384256627625e-02,-6.605521643614038485e-01,1.104168710175526424e+00,-1.987928316956060204e-01,-3.970082777443585398e-01,2.135292107871759534e-02,-7.243839605900755929e-01,-5.408881052484116880e-01,1.785678109071955344e-01,-4.623527728150468308e-01,-7.458187999151341119e-01,3.197381034143773754e-02,-2.555010379448257485e+00,2.038722466687878043e+00,-9.062251146424581405e-01,-5.686760823466193715e-01,1.542938715793638504e+00,-1.131385613868185036e+00,-2.609959787399310116e+00,1.001406921488579710e-01,5.752368719744274106e-01,-1.118159463559918354e+00,1.734327388389458102e+00,-2.670621908849311887e-02,-8.760815713066915089e-01,-5.735545626255854623e-01,-1.037386613918911543e-01,-6.423529332341558762e-01,-3.742531993152526382e-01,9.656530316252598389e-01,-1.926353286967430467e+00,-6.416359670413170069e-02,6.145675116843665187e-01,1.653027318589112893e+00,3.143274293054437174e-01,-1.191210649798431609e+00,-2.948645735585038730e-01,-8.192424272936033036e-01,-1.055487998980505049e+00,-2.600863241344860688e-01,-7.922363912225909299e-01,-7.834889868898291532e-01,2.367499276786279860e-01,-3.442877325614821515e-01,2.083546623736065861e-01,2.689780731002488490e-01,-7.111286272690992005e-01,-1.852486892711077693e-01,-1.845989890860092464e+00,5.090623796530475975e-02,2.013082958628883201e+00,3.895670183388764696e-01,-5.210999948467067711e-01,-8.948496763155816547e-01,1.097868841325432943e+00,-1.421277178090339488e+00,6.351393740962802958e-01,-9.720431910514234497e-01,6.713824108182880890e-01,-1.297820363236608099e+00,5.197940521625592503e-01,3.844809990765566399e-01,7.819749605548930171e-01,2.609160088655274046e-01,-1.659728100305058796e+00,-8.693376077431410609e-01,-2.752557446114853867e-01,-2.274911396511353490e-01,-1.072611672675604089e+00,-1.900022172325867897e+00,-1.255927700326226193e-01,-2.050600862847109962e+00,-1.787420682233235691e+00,-8.602165105029341285e-01,-1.123702672359818272e-01,-1.850812497433460768e+00,1.183151438314930859e+00,-5.822664052168988746e-01,-4.047195235775511435e-01,8.410296505941767808e-01,8.151303060443507720e-01,1.759985823170082453e+00,2.606505216395418323e-01,2.345490531432373960e+00,8.845578069017963341e-02,3.428544358712811158e-01,5.635741421193113387e-01,3.460493340546711427e-01,-2.946101336372566326e-01,5.307805097411502082e-01,1.551870814342764804e-01,1.701576348860338150e+00,-4.196712504071415939e-01,-1.129645767694330560e+00,2.199369460469381699e-01,-2.043954379701746316e+00,-5.418397220494544086e-01,-1.228884333953066177e+00,-4.618026958366540646e-01,5.913719498424866439e-01,-4.047807244267916937e-01,8.979973295555147839e-02,1.398200122775664855e+00,1.248511563323112805e-01,9.020555696080112540e-02,-2.029501080440470950e+00,9.500770837691820958e-01,-8.235444609362178037e-01,-3.731944174195764852e-01,4.947657656053524033e-01,3.954492939565221743e-01,-9.402718670221438257e-02,-1.025347656871088420e+00,-1.384854296072009383e+00,-9.094700970422507913e-01,-2.013414191508521717e-02,5.548286003942416444e-01,-6.229121723864567035e-03,-4.229049257505452242e-01,-6.380824679716318171e-01,3.944019766311576691e-02,2.598822056779774403e+00,-3.049588861874096835e-01,-4.026032625992142511e-01,-1.678129868343218312e-01,-8.223048393692978797e-01,-8.125562735203800679e-01,3.655816229974084841e-01,-7.026322487553063878e-01,1.388632195064310459e-01,1.047284502502482617e+00,2.097875235561543761e-01,-3.184903344617501797e-01,9.407412974350817247e-01,-8.168556469492120886e-01,3.165923880142141461e-02,1.329515943016031043e+00,1.889458936063694638e+00,8.601085986214832557e-01,1.178701338516942698e+00,-9.542626144560130141e-01,2.947019730181155150e-01,-2.239618414096187671e+00,-5.089599115179300748e-01,-2.427472172617013868e+00,-1.695260407535893021e+00,1.701455581196170908e+00,7.861356361862572584e-01,-8.588315991188236742e-01,7.165504326813907365e-01,-2.897970472177404666e-01,2.419242176822805401e+00,5.469775862081455164e-01,7.346248476998790133e-01,-1.231436163756099988e+00,1.209429273291293544e-01,6.930000607563262527e-01,-2.739696488161640908e-01,1.959637487480730689e-01,7.641078497871174324e-01,-1.046000435067107492e+00,9.192156774933214480e-01,-6.650196423053406081e-01,3.647470852405247932e-01,1.652486861932028761e+00,-8.806872542955417327e-01,-1.456472027409847048e+00,2.380699622145670269e-01,-7.407703034454291569e-01,-8.686372278611754760e-01,1.204578717783282071e+00,1.566137649356246886e+00,-5.019778901166261909e-01,4.952918358426122714e-01,-1.012990764906998464e+00,8.085127965063722000e-01,-2.580494831712452641e-01,6.369155742448023849e-01,-1.049029248277819182e+00,1.949048172140624424e-02,1.031005663398262273e-01,9.011931222847275880e-01,-1.570451207989369546e+00,-1.740759572313805847e+00,3.560301778133705963e-01,8.011314365932783454e-01,-2.816454376898949175e-01,1.444287685409897382e+00,9.941185828597234320e-01,-1.323579921892738875e+00,4.920832506564359887e-01,4.289977942377382614e-01,2.071211456641341153e-01,-7.010493102481804018e-01,-1.464491174435172738e+00,8.829793276407531533e-01,-3.366214522761676875e-01,4.826267936655814217e-01,2.754552274740962314e-01,2.271208624511506236e-01,9.802613215779445444e-01,-1.030217962442454338e+00,1.684355395930813570e-01,-1.452547302693367182e-01,-5.121821859191189041e-01,1.554558722048050567e+00,-5.276639536535989716e-01,5.464192324838539339e-01,-7.654029521705189021e-01,-1.244587303000016298e+00,-6.057789250254447255e-01,2.017495906402481942e-01,-6.717000322667618373e-02,9.183098760353318457e-02,-3.330348722164468978e-01,1.702279262117491476e-01,1.477636668891751492e+00,-1.614989174288637974e+00,-2.547975866064738248e+00,3.640272890124505167e-01,-5.135644255390463542e-01,6.939295380546057768e-01,-1.592133243831955758e-01,-1.335700327510471075e+00,-4.657508733996322814e-01,-4.268731504023048906e-01,6.305120316808532355e-01,-6.524165572159099091e-02,-8.278679799640438208e-01,-2.003388268465467803e+00,2.494168413650693861e+00,8.598359957757768512e-01,1.632867372942986561e+00,1.762788024761255068e+00,-8.103919885403816359e-01,2.906058722641143288e-01,-5.787555465805087618e-01,1.149231410618832605e+00,-2.375252536276774240e+00,-8.153891114896034964e-02,1.010400710829892468e+00,1.112278488761089035e+00,-4.832387252588412618e-01,5.441660373906717085e-01,9.467032440649535419e-01,1.541035279412314773e+00,3.756813882341504263e-01,-4.360779447281432075e-01,7.557680128489049354e-01,-1.312526789242298042e+00,6.019054759806901078e-01,1.169868470373801317e-01,7.459191969138705414e-01,-1.086050832817906597e+00,2.852978506569445294e+00,8.365004471642104589e-01,-5.389688204617255618e-01,8.135536985473847960e-01,2.186888008960455210e+00,9.080953460066697458e-01,5.422456745168857672e-01,-1.726123253374303168e+00,3.874874033282701968e-01,6.102608975527546997e-01,1.122728048631572578e-01,-7.936377307367302736e-01,-4.304739316107226155e-01,-1.054315409140036852e+00,-7.470904957192862073e-01,-2.859111591336892522e-01,3.390229619218747548e-01,4.656836760194025260e-01,-4.335517118767325817e-01,-7.966024726821031576e-01,5.434121468357082374e-02,-3.055997474052537521e-01,-1.927009551401551724e+00,1.636564001861887663e+00,-6.685570750391843509e-02,-6.615679818507551602e-01,-1.948440261568200160e+00,1.459758461046292422e-01,8.249605595092467381e-01,-1.614995060533800375e-01,7.520882318033533798e-01,-7.479014221832747111e-01,-7.485843977922359560e-01,-2.155724455638425852e-01,4.392042858556705065e-01,-4.627523373490812775e-01,1.698496044562882445e-01,8.123177251455968029e-02,-1.028372862924515907e+00,1.632699837249961705e+00,-1.239717142886665568e+00,4.361048381705815435e-01,-1.481980111493318431e-01,8.821167279117875237e-01,5.115886030632835757e-01,-1.345139776784874508e+00,5.939808519990285030e-01,-1.073297371981933201e+00,-7.384368155703253667e-01,2.159276036631388174e-01,-4.115787393932205940e-01,1.876767431470781622e-01,-1.394299768422440744e+00,1.133043557005475099e+00,8.773653191820377506e-01,1.379686292291299576e+00,-6.437022334857628314e-01,2.890906512719823018e-01,1.626276422961779433e+00,-3.979706223192268633e-01,3.486705386403293194e-01,7.116339572170585770e-01,-5.056398550890338628e-01,1.195044375316076879e+00,1.030655171059977615e+00,-1.621960613235259308e+00,5.180164194369399899e-01,-1.278462813579166690e+00,5.358789417123364096e-01,-7.016382991976006789e-01,9.373812241701934278e-01,-2.791158189176468629e-01,-1.192106450848786414e+00,7.962959773395611451e-01,-6.703728943301429100e-01,-1.167058967849814444e+00,1.375270697851233681e+00,1.834836005540101955e-01,1.205588705694953022e+00,-4.944920291653610578e-01,5.651173472927373265e-01,-8.194973210378596606e-01,7.625694835771336111e-01,-6.970709463798395733e-01,-7.992433488462359348e-01,2.622202535240417909e+00,3.967766702033785897e-01,7.202035015837592036e-02,3.003567489663444001e-01,-1.815535785592500284e-01,-6.486727793922337781e-01,-1.305660439527462635e-01,-1.497949982267106517e+00,2.516118111200395524e-01,7.892497183276532546e-02,-3.869774270329534582e-01,1.737625637888779995e-01,-8.485468741087905109e-02,1.742266913590772848e-01,4.185183531988122541e-01,-9.011637791738920100e-01,-6.058767870937159516e-01,-5.482759752051892255e-01,-1.039229210412359938e+00,-1.511405403420461369e+00,-1.004171764908791120e+00,-7.867162421450487608e-01,2.453838916147876303e-01,1.105561756787159178e+00,-1.086842335111015023e+00,5.598756859807776376e-01,1.909457947664096045e+00,1.061360546515327241e-01,1.005172342134271535e+00,-9.733272899374187936e-01,1.362014865951126419e+00,-1.041829277620978544e+00,-6.884522567881169730e-03,8.120447099321682627e-01,3.057102945563823226e-01,-5.733621376775933642e-01,-8.030988018904725578e-01,-9.900115281542286594e-01,5.253636807444677093e-01,-6.944273493023190857e-01,-6.649548109090159809e-01,8.006944021428503699e-01,1.801841414883830428e+00,-1.829310278944654700e+00,1.501512974726597172e+00,5.134258016482862175e-01,-1.969918181257559020e+00,-3.365508417221250159e-01,-1.891390083460197769e+00,-1.025646456943768214e+00,-2.749667634747585687e-01,-1.096110716357686865e+00,-9.920662129821944397e-01,-1.457882403112110481e+00,-5.457197700125788753e-01,-7.205208506724128936e-01,-5.208556271443535168e-01,1.398539899009631826e+00,5.934983648260843125e-01,-9.653739691938725276e-01,2.343174843584950207e+00,-8.635056762464597968e-01,3.920702945246488935e-02,-5.966684742652262896e-01,3.214563912888734887e-01,-8.614876564673427106e-01,-4.334818538309135882e-01,-5.494907374957581636e-01,-5.891429742512468426e-01,-1.306772941245734065e+00,1.028723161009953202e+00,1.188090076148088592e+00,5.975044764941488118e-02,7.968685536129722635e-01,1.049938629226232267e+00,1.200642428518786442e+00,-5.226427303125327217e-01,-1.253299415669258121e-01,-4.267952996656116382e-01,6.287214104663153558e-01,-4.040461512397114929e-01,-1.696540637576987587e+00,1.334597410564575259e-01,-4.664098944981329153e-01,-1.383137803903622176e+00,1.539195261813123845e-03,-2.377231054605640770e-01,6.995204695327525424e-02,-1.920409710520013302e+00,-1.517078038014152641e+00,-1.334070900256299153e+00,-1.679780702466914688e+00,-1.499269449563808809e+00,-1.362046953567038088e+00,-1.279967722712439526e+00,-5.507394800082598962e-01,-8.719344154663605240e-01,4.987420019505970359e-01,6.413278122291875549e-01,5.892841375604943588e-01,-1.436083915469494876e+00,-6.227936894823703495e-01,-5.419677117402709188e-01,-4.823194608570069986e-01,1.205653074731611207e+00,8.466987860546326683e-02,1.615193911973743512e-01,2.959445258108600041e-01,-7.703032493040811168e-01,4.535300848878430213e-01,-1.473745439645449906e+00,6.917778633813624900e-01,-5.154041437363023892e-01,-1.875329191006234464e-01,-3.164112047286828378e-01,-1.316769287436933222e+00,-1.089348475130058613e+00,-3.729135027515582124e-01,-1.130176009685817773e+00,8.224559992004780717e-01,-3.087214925368633622e+00,-8.036656592304022295e-01,-2.879518086063770355e+00,5.191695230597638266e-01,-2.901286171753238108e+00,-3.469598998842939874e+00,-1.221925189081455976e+00,-7.528461683832861351e-02,-2.583454715650386202e-01,-1.162768581663677026e+00,6.412901259399500509e-01,9.544725528845846574e-01,-7.639257026405409379e-01,5.543990885066482077e-01,4.148712214591688263e-01,1.388950508296176389e+00,-1.421723089000440088e-01,8.470698294001324236e-01,-1.997726748034593380e-01,-2.547688318203473301e+00,-8.574344042818964340e-01,7.522997501226248440e-01,-1.315151795298047599e+00,-2.813345451480053216e-01,-2.118408984783965165e-01,6.920302104676090416e-02,-1.013617544142047189e+00,-1.598836783036526321e-01,-5.417196387035461136e-01,-5.538740613825879899e-01,-3.413447057439801258e-01,-4.503286923393423069e-01,-3.588306167905314092e-01,-5.907505858854374958e-01,-2.549196021065808226e-01,-4.554927334976451303e-01,-4.514626242666751055e-01,8.382455404001714072e-01,-2.540919674153660601e+00,-4.589611462402553577e-01,-6.368555142143417225e-01,-1.726266336781647093e+00,-9.242910313517375132e-01,2.166012997318393363e-01,-1.189546828125578770e+00,9.268813627663821664e-02,-2.933570045953701189e-01,-1.735226322020148704e+00,-1.244391518978208655e+00,-5.898429447180481011e-01,-5.268711372177646846e-01,5.552741574698948357e-01,-2.330572656724972713e+00,-1.168196519608428074e+00,-1.774350706147688472e-01,-1.959023523961412439e+00,-2.532645881220424444e-01,-1.015090428744803264e+00,-1.258338331027991863e+00,-7.545347699633995209e-01,-1.058120631344856788e+00,1.186236089308189801e+00,3.508618236232413090e-01,-1.021166651451314467e+00,1.846900952705301732e-02,1.792960617368238585e-01,7.357410587418949932e-02,3.939272158565703674e-01,-8.181479335777118445e-02,-2.236278807526662415e+00,-4.351615334934333390e-01,1.661067730529523168e+00,-2.132876914617253539e-01,-1.332990314337897164e+00,-4.147737763111341014e-01,5.927990888047312001e-01,-1.483968766711338594e+00,-1.246988335806846093e+00,-1.441650625292778765e+00,-1.302454341079307687e-01,-2.429350351088248594e+00,1.016555443120712221e+00,-1.808071510348350897e+00,-3.891038081246407931e-01,4.739473359106994299e-01,5.047694199755545785e-01,-1.105725757751153671e+00,-2.508915270116890639e+00,1.138799272428562270e+00,-7.057373440821729238e-02,9.772300243220645444e-02,1.207943676780829367e+00,6.341488579417218219e-01,9.607005753487113386e-02,-3.141268326780699005e-01,-1.641309898240722820e+00,-1.428904365617611916e+00,-1.869315969638878916e-01,6.254406231940802183e-04,-1.340696543631805904e+00,-4.537253712146334383e-02,5.963692582629827044e-01,9.710557616225533595e-01,4.264155552933777266e-02,-6.648839987266309537e-01,-2.116227592214777742e-01,-1.463939740543072743e+00,-8.149038084165292073e-01,8.131050692040967531e-01,2.071188271277910053e-02,-1.301010685254715193e+00,1.109794373030917214e+00,1.622262946207750023e+00,-1.416196442513897980e+00,-4.857594952477099493e-01,8.967618782246057352e-01,6.734935736515973437e-02,-5.997808810438012284e-01,1.296437071271422381e-01,-2.101800433032669779e-01,-1.683721988988676754e+00,-1.812565287612122766e+00,-1.569974770635670369e+00,1.528370252212828649e-02,-8.668713088970514402e-02,-6.521319179401121602e-01,-3.722918452287251601e-01,6.999281436307609461e-01,-1.868288145698175251e+00,-5.566144410425939437e-01,-1.135560924131496785e+00,3.222776613787793898e-01,6.800030873639316686e-01,1.032660849434545280e+00,3.805342570899296062e-01,9.010892205428752133e-01,-1.566220545044017864e+00,-6.088225666759161658e-01,-1.544544220640610144e+00,1.762731485869561743e+00,-5.709176472681878334e-01,4.145552770984444746e-01,-1.441454231132110742e-01,1.303775348696905034e-01,-9.955615513722056997e-01,1.620815929446039749e-01,-4.329393030624226896e-02,-1.359853433358271912e+00,2.593532458491764614e-01,2.042235254818800527e+00,2.536616014858912860e-01,1.940584787918147924e+00,-7.950289424873392685e-02,-8.810260354623352663e-01,-8.613487201422590500e-01,-2.326832203400457932e-01,-5.475726029493508534e-02,-3.372366162514169319e-01,-2.342503619722282160e+00,-1.519205976399806479e+00,2.997368690709377725e-01,-9.486543470553863155e-01,2.287567080525904906e-01,5.188171198112681015e-01,-9.801627464565972059e-02,-6.083159495934727934e-01,-8.164149632127923328e-02,-2.131403564480704116e+00,-4.948849653296076290e-01,-2.336517316565616120e-01,-8.075280274571864370e-01,7.167917772629756046e-02,5.738192066851751649e-01,6.550498775833369924e-01,-6.703646125629173502e-01,-2.431175727928529817e-01,-8.325756923679340504e-01,-8.177260390115284050e-01,5.754082809859623060e-01,1.923062077577043782e-01
-4.221325038716708944e-01,4.149155467926010088e-01,3.290428283775331808e-01,-4.907036521219625969e-01,2.429727009881822372e-02,-9.325466656704416435e-01,-4.050991573502844001e-01,-1.802545630133447041e+00,4.228324397735739870e-01,7.633808194319333662e-01,-8.081831786414382934e-01,1.616337985320801807e-01,9.506630223122689571e-01,-2.244821254611751582e-01,-2.337230954225567037e-01,7.530864835053534267e-02,-1.271784822931924630e+00,-1.607399583587801661e+00,-1.615140194251578842e+00,9.689631002521306158e-01,2.175811115964976228e+00,-7.921668465563748152e-01,-6.482601003965859920e-01,-4.120083030579521077e-01,-3.767923795437352341e-01,-2.602220439783854200e+00,-4.295844337041412331e-01,-3.470350159920457256e-01,5.982168735192837650e-01,-1.674840549528485156e-01,-3.818635327898379228e-01,4.932277427000529221e-03,-1.123626929230379767e+00,-6.445544986180489211e-01,5.187936304438774959e-01,-5.224554906223111139e-01,-5.939198450949919605e-01,-8.419915692624567738e-01,-6.513118779410128623e-01,-3.118542263518829571e+00,-1.732325781177523005e+00,-3.135345311653315314e-01,6.236821258222606801e-01,-5.148773998270068653e-01,-1.074950252048961996e+00,-1.164996614260686902e+00,-1.030321694920925957e+00,-8.579697286352595542e-01,-1.225200577068330299e+00,2.269979412683170994e-01,-7.400411317891693042e-01,-8.029177713303716768e-01,-8.212600366386983985e-01,-4.617458635324520611e-01,-2.601411370873215834e+00,-5.549811459914816281e-01,-1.077143187682048087e+00,-5.097140811195977061e-01,-8.649852836541632728e-01,-1.750216928575892839e+00,-2.588881790324363830e-01,-1.386243711645324783e+00,-1.778370023009534950e+00,-5.474558126595164831e-01,-2.626006764634964963e-01,1.566597652469426061e+00,-8.532236168014619704e-01,-1.131388408079472968e-01,1.894803419503334752e-01,-1.224043553253995498e+00,4.345502096416060112e-01,-1.813233067362349571e+00,-2.673683127788484271e-01,9.273546554228776495e-01,2.341069768894044889e-01,1.030305741477961279e+00,-1.021204241501829202e+00,4.331630591593253476e-01,1.891562183831111854e+00,-1.769877317892194712e+00,-8.459373201575095536e-01,-7.996206024588071726e-01,-2.278666197456145348e-01,1.358926739292699803e+00,4.690775591464431127e-01,1.400492046041903915e+00,5.157189970599032058e-01,8.898709712372376845e-01,-1.721123358559558669e-01,-9.325032442032009650e-01,6.391489395659372130e-01,9.038674158243080736e-01,-4.567194193254574541e-01,1.219816525170722699e+00,-6.360401719887407435e-01,-2.362034565613486237e+00,6.793544294139388651e-01,5.342372459628574183e-02,-1.489372424577665166e-01,4.560302442974710768e-01,8.642492368059592200e-01,-1.831598015949007729e+00,1.087294685690890717e+00,6.510611930071542597e-01,8.540738412422385073e-01,-7.023758725734079444e-01,-3.716798636965198965e-01,3.547771682884167666e-01,1.662369422584816514e-01,7.082158598193656340e-01,2.711879448282422111e-01,-1.222193714242787443e+00,-7.134206593018840303e-01,-8.757318862870663856e-02,2.249696509929413057e-01,1.062676993354476851e+00,-2.649626379687304856e-01,6.064730298049693102e-01,-6.006651618463010323e-01,1.048655227024521297e+00,-1.045706006064945459e+00,-1.533308642587154713e+00,-8.432493769640641013e-01,5.655172444001826948e-01,-3.632089398659142654e-02,-3.163358641983669006e-01,-1.540370941790160375e-01,-4.337167143956766058e-01,2.068389662451558753e+00,5.089967961818774311e-01,-2.290524799072711559e+00,-1.080642940683308240e+00,1.483788863788746970e-01,1.224224765283369321e+00,4.719063955588594372e-01,-2.062529460691476579e+00,-5.177478588744026666e-01,-5.587085395328750259e-01,-6.492636486618098557e-01,7.627624274675856020e-01,-1.026303110539115826e+00,-2.128115541205711114e+00,3.925168105402674149e-03,2.092802179206926516e-01,8.247295514308040643e-01,7.619552832992739777e-01,-7.478342174360355088e-01,6.064396860860647998e-01,1.900585657381475890e+00,-8.034899952156027148e-01,5.975629170930372158e-01,-6.488491461225575074e-01,1.147491983076452504e+00,1.438204060617133795e+00,-3.448255814413829778e-01,6.734443893581060214e-01,-1.942797908151696618e-01,1.832089514501090699e+00,4.416778685750910594e-01,-6.706690561685331176e-01,-2.475519935903653490e+00,-7.302483095029976834e-01,-9.478383192861737638e-02,-1.568598681375294457e-01,1.332895824712145183e+00,6.434952211536609790e-01,-1.661371612719988233e+00,-3.635683939920292818e-01,9.953825908941249523e-01,4.554457405554808158e-01,1.567813698682130941e+00,9.070439078404634037e-01,-1.848609421796021612e+00,9.608974910905886402e-01,-9.306216400757690854e-01,1.579552160503816527e+00,1.475408064951261089e+00,9.035703968438011380e-01,-9.362320853121941511e-01,1.252294514716873364e+00,-3.285026899212660778e-01,8.985885936681564656e-02,-1.811109503235444340e-01,3.567696123630083593e-01,8.460672656050758356e-01,-2.047000282200764687e+00,-1.295444877913833670e+00,4.795345555905029533e-01,-6.918054285811369164e-01,-8.810939521073819503e-01,-2.662374417220890813e-02,-8.148946627721759262e-01,1.526871257560124429e+00,-1.636816987704456938e-01,-2.131194677493075673e-01,6.212157337949698599e-01,-1.909075320363241568e-01,-1.956320818049532617e+00,-2.013112156285301879e-01,4.289738017805977965e-01,-8.464106708334087070e-01,1.525090584588618903e+00,-6.142886291030126289e-01,1.206058960905470157e+00,-7.944316593490299283e-01,8.057887920859878594e-01,2.895089959533803659e-01,-1.310218929041040148e-01,5.839588408803108276e-03,6.066645000301477131e-01,-7.745544000995548961e-01,6.822834630576856130e-01,-1.215073039719081621e-01,-1.121133242949582387e-01,1.233403262761870955e+00,8.638507855227480769e-01,1.219545690117418202e+00,1.095978972332559032e+00,6.598918241872033796e-01,-6.671518971240204543e-01,-1.599516719162301204e+00,9.121229141267120921e-01,-1.514773094837496226e+00,1.313208452507407920e+00,6.269547054485107296e-01,1.185760503842470337e+00,-9.683986899565029116e-01,-2.187370281209585876e+00,5.296512122809305945e-01,-1.439327498751339640e-01,7.841986419913680173e-01,9.749252787254363284e-01,-4.272039896628039846e-01,1.447623038181105881e-01,1.295857982443849199e+00,1.972816380914498735e+00,1.449606905865890027e-01,-9.274144577852453386e-01,-1.280798468777436805e-01,2.580307235664502485e+00,-8.213864505412152850e-01,-4.530344691196462326e-01,-5.621919233653778214e-01,1.047785002181126579e+00,-4.506489066456971226e-01,4.900169738773559915e-03,-1.235615190661878637e+00,8.834806712911390525e-01,9.934520394445762737e-01,1.150389617620690030e+00,-1.867587810708844609e+00,-7.931588767918424931e-01,-5.869873025124925370e-01,9.195225844932843756e-04,-1.875824868809450319e-01,-2.041109080719653246e+00,1.977310065171012377e-01,-1.122847716520446459e-01,-7.769757513089710077e-01,8.140742626721743369e-02,5.537034954758123240e-01,-4.449177813728807940e-01,-7.964141578912136143e-01,2.030846431404689789e-01,1.079429657301133938e+00,-1.978927634738335328e+00,-6.150274695934439262e-02,-5.459039097195862444e-01,-4.270937783282108269e-01,-1.995369767436289576e+00,5.257490715096216904e-01,-4.453330861362998494e-01,-2.227212729298235772e+00,-9.308723156007809862e-01,1.140851605035926863e-01,-1.696361697018489156e-01,-5.607563190951315724e-01,1.469528220693841591e+00,4.483779289833982329e-01,-5.937066857814528031e-01,-2.619571424231302917e-02,-1.071712152603425672e+00,-1.618208265889840902e+00,-4.546765275004471807e-01,5.790093229987864909e-01,-7.062395371572023350e-01,-1.995178830679060489e-01,-1.421543961684368362e-01,1.117090110414556414e-01,-1.203943493339282994e-01,-2.303886507231948100e-01,-9.958445150643009391e-01,4.168917381554661933e-02,-2.283428075901776211e+00,-3.298536313598621206e-02,-8.704692558867245245e-01,1.118259139549546921e+00,9.389459267942902310e-01,1.893867595360983203e-01,-1.433810584066793847e+00,-1.973941342732203341e-01,1.384157752889061621e+00,3.906232894882971044e-03,6.545144542593248627e-01,-2.465694451074540994e-01,-1.091045085261440839e+00,1.063525840132261563e-01,5.389820634122661352e-02,1.008683653726432317e+00,-1.520180979349422978e+00,-3.199578033943317190e-01,1.754479270695623594e-01,-3.871079992576195727e-01,5.849280177115542267e-01,-1.260970648228886049e+00,-8.169290414064716011e-01,1.845024117053694068e+00,1.253474384053748780e+00,7.227575757194024675e-01,-1.108993887528277433e+00,1.607752598641021269e-01,-9.852719035535154601e-01,-1.106928917727498574e+00,-1.098280129255644999e+00,-2.272174371334982901e+00,1.509751068464750601e+00,-2.236781875474113113e-01,-2.398676128704462229e-01,-1.152853907352191065e+00,-1.223171451021957346e+00,1.537853112061201427e-02,4.630772254054512649e-01,-5.483951382713188050e-01,1.246514798624047404e-01,5.912310189074491129e-01,9.107862666923836059e-01,-1.049277991164410784e+00,-2.231886275327362057e+00,-1.453388584082734303e+00,1.353816522358658458e+00,-1.219822572746752209e+00,5.222827665550626719e-01,-7.181076653461506698e-01,9.496309894686134623e-01,-4.646638613098817011e-02,2.274903336010714872e-01,1.166377620969327289e+00,1.023606559583922326e+00,-4.321009648531737302e-01,-1.193492703284384948e+00,-9.289537088923585095e-01,1.407401754479800093e-01,3.529414039071502446e-02,-6.976658489228261366e-03,-2.060844007825381130e+00,-9.141881894093930594e-01,-9.472104911371588276e-01,-1.995996546690953721e+00,1.129994974279335401e-01,-1.238107072391855468e+00,-1.072118763554223003e-01,-1.456638248536145319e+00,3.143998705807473648e-01,-4.936172073352444456e-01,3.073047984304547176e-01,-1.497944109462041151e+00,-7.908626375649411289e-01,-4.791736091619499538e-01,5.067647146672297209e-01,-9.165094620045879381e-01,-2.843892432548711935e-01,1.251723359875089869e+00,9.848777095705746332e-01,-1.780520256834484394e-01,-1.857335902350601087e+00,-1.848891096812891766e+00,-1.925494154482859654e+00,8.057576675350820450e-01,-3.481388334550062497e-02,-1.195375755059953971e+00,9.849422125950843543e-02,-7.033483723856879255e-01,-8.165684002907130923e-01,-9.741597424036386732e-01,6.742892752965877756e-01,-5.102906554981783138e-01,-5.502313405022357662e-01,1.017104802635457661e+00,2.393378708616020312e+00,1.161009750742381330e+00,-3.490211489441781556e-02,5.671907430946876438e-01,-2.550306511762281403e-01,-1.210527279261239153e+00,-2.052890687459349994e-01,7.888286213399606228e-02,-1.270358646455630458e+00,2.764100464541838220e-02,-1.026110802653967591e+00,-3.255544479779822198e-01,5.690918828887573389e-01,-1.622112519322931545e+00,-2.399385288445513298e-01,2.909485807125113954e-01,-2.779144200033384138e+00,-3.413068354765016847e-03,-8.089101312969778634e-01,5.035893705524344816e-02,-2.678502791380672418e-02,-1.982423496641526062e-01,-1.651560391133180428e+00,-1.292251565098296640e+00,6.484818883218552710e-01,-1.249777424215931187e+00,-3.515058072416369916e-01,-3.497885688323703057e-01,-1.678880315945138646e+00,-8.472821018624554501e-01,-8.451956011384095246e-01,-1.370015944886195713e+00,-2.808458202282330674e-01,-3.022594403637903770e-01,-1.715715172266271571e+00,2.685877349122737789e-01,1.801509416618470028e-02,-1.256256283323957668e+00,-1.486278273168019304e+00,9.080915512696275949e-01,-1.811416726879033212e-01,-1.569096555508077362e+00,-2.268539109019408473e-01,9.525821750240567320e-01,-1.576335714363295892e+00,-7.965842365941074865e-01,3.809290288642904199e-01,3.838309210373330171e-01,1.696767987504896047e-01,1.172265288501941782e+00,1.738813153718391513e-01,1.331820878962417298e+00,-3.943458042750483394e-01,1.035787168383558887e+00,-1.229815222334758262e+00,-1.523354783038533444e+00,-1.313483134875000902e-01,-5.602213524205630346e-01,-2.184906692958463736e+00,-2.040157755584287358e+00,2.172621721726170352e-01,-9.522335849099837768e-01,-4.724659930695811194e-02,6.056121020729701154e-01,3.623731267721078120e-01,5.082584619628489619e-01,5.353175755442680650e-01,-9.820085732200855011e-01,-1.973156825717188034e-01,-6.188934125846894396e-01,-7.516473543334087903e-01,-1.211941945055749370e+00,-7.239326867996116466e-01,4.075323292097883521e-02,-2.922023685514101299e-01,2.126223628829246870e+00,-1.006182734214567942e+00,-1.076460521260669267e+00,3.304700300440443356e-02,6.109544417842225350e-01,-7.246637079163693596e-01,-1.265819657072551951e+00,-2.213627395949383292e+00,-1.278631013810439532e+00,3.182350620179416056e-01,1.294002315558471228e+00,-2.298907763473275745e-01,1.310858787158332428e-01,-2.796836994104010543e-01,-1.363494060853464696e+00,-1.791262735378440052e+00,-1.216112100215342329e+00,3.289413612048930902e-01,1.511357195399245734e+00,4.780062373763802053e-01,6.552363142123046602e-01,-2.027947830007010566e-01,-9.451520663766561636e-01,-1.958919931054969865e+00,-7.564815257800442394e-01,1.576906390182513107e+00,-1.487587294244141045e+00,-1.875193088915063644e+00,-5.454520111349865363e-01,-6.962666643205978056e-01,-1.461057851123739537e+00,-8.564336095547002703e-01,-1.057196357125181896e+00,7.844832173023426058e-01,-7.635769381981506454e-01,9.871309570912156772e-01,1.390770946945064424e+00,-8.685450064041961848e-01,1.476958683680963613e+00,1.652454587003854947e+00,7.052795521933252765e-01,-4.273472836575227807e-01,1.227959296122338728e-01,-2.279465138392808010e-01,5.228361937531015302e-01,-1.744076659791024664e+00,6.836320940804464508e-01,-3.001618282437523266e+00,-9.916787389047233559e-01,8.573726625768308685e-01,-1.778619307368946689e+00,-1.395941860259649392e+00,-2.054447613599340028e-01,-6.460225054496933073e-01,-1.388095077444589931e+00,9.471827855522451101e-01,-1.074835344461429337e-01,1.501486870547270036e-01,2.028080437045643170e-01,6.428746374795489549e-02,2.724836413647797162e+00,3.518641184581393633e-01,1.635027207826377504e-01,3.443241229940472437e-01,-1.328707639468978963e-01,1.048222801023033224e-01,6.938973029698476402e-01,-2.320728672924428082e+00,-1.389517985593181348e-01,1.693517246549235966e-01,-5.711958217706821772e-01,6.513062577054741231e-01,1.834517816860470329e+00,1.099889622430025415e+00,-3.602849366955768740e-01,-2.572003107852598891e+00,1.790834066018355486e+00,-8.494949506734105968e-03,-1.172120696281654384e+00,3.690901710143402181e-01,1.508683998465437881e+00,-1.055913734687782490e+00,-2.166241417484980614e-01,5.704962504039362559e-01,2.151129022980359906e+00,1.298646679490223388e+00,5.315572143300476560e-01,4.618585830869889053e-01,-3.341964236960811019e-01,5.771720522354462091e-01,-4.424168299278468108e-01,-1.496329888807181041e-01,5.628266457814670165e-01,2.239931408806777657e+00,-8.575196856237715659e-01,-3.277300764752316131e-01,8.185980787522191271e-01,-6.910121604083822033e-01,-2.073867475760879042e+00,-6.784988345660264430e-01,-2.464498429514159483e-01,-2.719750059924497809e-01,-1.695094305002908586e+00,1.252940990340317029e+00,-9.120782421740301071e-01,-1.000912561189303496e+00,-4.668273360665800009e-01,-4.114528113512839758e-01,8.437905661512411504e-01,-3.491860939944517184e-01,-7.621670096538099570e-02,-7.410315121503538993e-01,7.559004716541301017e-02,1.085599335179724623e+00,-4.511830215072299421e-01,-1.445264295308841929e+00,-9.054534585663813751e-01,-9.547583251109917901e-01,-1.988095100505303803e+00,-4.929406187532275885e-02,-5.643522940715282044e-01,-6.956411131944477688e-01,-4.797122467745302821e-01,1.562521684534516675e+00,5.152503449071590413e-01,3.763274091616158334e-01,1.708320789511731164e+00,-1.184963327627410884e-01,5.200334199876917307e-02,-7.410542205975211294e-01,4.369064401342254156e-01,-9.948527937443275571e-01,-1.490236895381390758e-01,-7.023030868109927383e-01,-4.288471766324545298e-01,-1.470873046035406695e+00,-5.551253573321316415e-01,2.064805711856821657e-01,2.327582543864036957e+00,1.174091191787950850e+00,1.931305168528175131e-01,-1.034741145068416524e+00,9.812630908419793796e-01,1.650214590211340759e-02,-9.135163839780163775e-01,-8.689975089710945122e-01,-5.068310870095729115e-01,6.417113686061316491e-01,-9.037032736579880821e-01,4.347807551308906504e-01,2.242334531031304756e-01,-6.070848391014679324e-01,-9.028400779811314170e-01,-1.086302450145466780e+00,7.393462478594395870e-01,1.956032840012438545e-01,1.198268768087986436e+00,-6.525433603933592508e-01,1.347867790368123764e+00,1.140935970646685282e+00,-5.029215484415385795e-01,1.002097674968384533e+00,-6.728546696324543275e-01,-3.478391494854014554e-01,-1.298081552106935765e+00,6.335594038821397156e-01,6.946058365884627550e-01,-3.775749219790721090e-01,-4.877435454977195328e-01,-7.628761428838489733e-01,-5.631514367560704892e-01,6.949942930396089125e-01,-2.962567404346305167e-01,-1.685695232680742284e-01,1.696564986061331326e-01,6.773566823223381439e-01,-8.251916733477703270e-01,-1.077179766230315527e+00,1.810486418286647137e+00,-5.990569911276013571e-01,1.558383462438857947e+00,-1.364316416982759017e-01,-2.496549284071487573e+00,6.650472315698395809e-01,-1.792689624730873232e-01,-2.094275825411337610e+00,-5.734608439874891439e-02,-9.065829449864766243e-01,1.584474608835273191e-01,-8.501237164165138804e-02,-2.232848756624068454e-01,2.429469978283360643e-01,1.380463045707016334e-01,5.796804618239913554e-01,-6.792400816264573260e-01,2.463010681796243551e-01,-7.378312527375409102e-01,-1.291995628578753996e-01,-1.100718800135435549e+00,-7.759542441941474911e-02,-8.448032913660669108e-01,-2.038091539352373804e-01,-1.375107397642042040e+00,4.885739352815732239e-02,-7.943023821171372179e-01,-5.308291093899285551e-01,-6.752279054329011210e-01,3.507611838030720575e-02,1.071596327916929159e+00,1.142701989448422051e+00,-4.123488634001785669e-01,8.311916701467552127e-01,-7.737344218525828987e-01,-7.623435243888618817e-01,-6.156566722989442741e-01,7.767510208293723073e-01,-3.633498755711538908e-01,-1.590305548174970607e-01,-5.074949189385423720e-01,-3.232670142310306027e-01,-3.457685621477724625e-01,-6.117624911283271461e-01,-1.546575744476639702e+00,1.707142056487633563e-01,-1.204038974789922944e+00,1.058158864167245833e-01,-2.086679429734808799e+00,-7.002086579489937845e-01,4.989889794972556247e-01,9.718450754741493613e-02,-1.086380825830814301e+00,7.698854986878925777e-01,-5.331446926511106826e-02,2.452370950189941001e-01,-1.433994399301104616e+00,-4.240187577048581402e-01,1.445678968197402492e+00,1.134237378211441910e-01,-7.131781063090579798e-01,6.660261648374607990e-01,-6.215810705902938826e-01,-1.363569622588497454e+00,1.379627828247697918e+00,-2.164471616985016666e+00,-6.199358780023594973e-01,1.168515314737012201e+00,7.676401290915245701e-01,1.807699572987835790e+00,1.059948402434389481e+00,4.580676021379093688e-01,3.693098619245999137e-01,1.907739115911095240e+00,-1.993474399087748483e-01,-5.051425816271503527e-03,-1.310173731576766532e+00,-1.210679462868979206e+00,5.784005614620527647e-01,-1.142206139855431957e+00,-1.084643191033966669e+00,-1.791438221153701882e+00,2.366344254231995958e-02,-1.416849244844337941e+00,2.646739050809463034e+00,5.280561609719935934e-01,1.267760373332424528e+00,1.132871662038316546e-01,-4.973143453836077477e-01,-8.223031146853363449e-01,-3.646035368411540412e-01,1.602762593329554619e+00,1.377738103384232415e+00,-1.454983770331798709e+00,-1.794736517338215931e+00,1.369002148985807299e-01,-2.594542176976596948e-01,-4.041704243291736193e-02,-4.512984133858727320e-01,-3.810095027350408614e-01,4.520785064066813463e-01,-1.415637588759858456e+00,1.008353373476059245e+00,-9.122159664832579784e-01,1.078857637888227750e+00,-5.329370525343183340e-01,8.495491833272930116e-01,-1.236344681588817718e+00,5.153428706045243279e-01,-1.330410119268005786e+00,-1.328688426057293093e+00,9.364465933011167920e-01,-4.138864432865785314e-01,-7.664732072462631107e-01,4.102890038948044937e-01,-1.327864217630537524e+00,-1.368439921009026561e+00,-1.937210282901528746e+00,2.114977603781528437e+00,-1.185230534729942775e+00,-2.008761024276988660e+00,-7.522462727715413244e-01,-4.261221176312228187e-01,-8.896773533678082879e-01,9.999978034003851324e-01,-1.398222638621235747e+00,4.453322386782103126e-01,1.015194732992268589e+00,2.003432730571853781e+00,1.342970178835527051e+00,-1.172759132099133517e+00,-9.232698396204568336e-01,-3.344436948275316901e+00,-4.114883744262658460e-01,8.355092423380535704e-01,-6.621998867001128719e-01,-7.632188948786743365e-01,-1.254533849519509525e+00,1.352134531570364784e-01,4.480047159626399100e-01,-2.229636214986510989e+00,2.095127178943447521e-01,1.598927727066713489e+00
