4.043036825357821384e-01,-8.261505790844148045e-01,3.438432171666990222e-01,-4.642970267996595624e+00,4.611088870848818466e+00,-5.370862248535116734e+00,2.217377803701952033e-01,-9.532221811827423785e-01,-4.951493143479476222e-01,-1.551907156967563317e+00,-1.480255267305809364e+00,-1.365350414732291462e+00,-8.987346739581227872e-01,4.333345319947625174e-01,6.104832343519255744e+00,-4.470828852082726179e+00,1.450776126553972256e+00,-1.433603694227344461e+00,6.977212126003701220e-01,-1.236777073632433943e+00,-2.120751010759456712e+00,-2.693462414096984503e+00,-1.097325746619440823e+00,-1.666670428990246089e+00,3.841533343826926128e-01,-3.203651057665736768e-01,-1.214408453861732573e+00,-3.225358746249210595e-01,-4.249892209734769111e-01,-9.116587020147992604e-01
3.915464823299351083e-01,1.968069714617656008e+00,-8.774161979445173343e-03,6.010827824125174246e+00,-1.829717472197430528e+00,1.708234625160200526e+00,-2.158856125629917688e+00,9.451648138930172083e-01,-5.106615517658149583e-01,2.822173843830702911e+00,2.016796257264298620e-01,2.358848884500350351e+00,1.110831333729862980e+00,7.572269828168110006e-01,-9.734403916733942452e+00,7.893269070616563354e+00,-4.000978240053228774e+00,4.105616273043802167e+00,-2.166896538830695107e+00,1.177021212614806522e+00,-8.022255788158346723e-01,-5.426958586428374254e-01,1.845281072171994996e+00,2.242664525013413179e+00,-5.497701035848090445e-01,-1.024427840387665128e-01,-2.052605300064729743e+00,7.464725643866449989e-01,5.058450186359153555e-01,1.704203121322195535e+00
9.536988709448407375e-02,-1.306029945953901317e+00,6.108089384144806955e-01,-4.240824212896755263e+00,-2.428005193783499660e+00,-3.666642449889166766e+00,-4.456877655833847429e-01,5.331584718169211055e-03,1.498000537904605745e+00,-1.242908632037711403e+00,-1.308217962785892086e+00,-3.870344655566050340e-01,-3.711691990018819887e+00,1.018819058551898138e+00,5.792656917967284436e+00,-1.445568016079164630e+00,1.498643690233912931e-02,-9.869554513898516346e-01,2.999706066586728670e-01,1.046397244585703490e+00,-3.593856067072965788e-01,2.569077852550067931e-01,-6.511160916005189758e-01,-1.488373460854767627e+00,-1.769663444691530918e+00,4.593260152046071965e-01,2.472959833481602754e+00,-1.850999718364627344e-01,4.832226491181507155e-01,-1.495512061429835837e+00
-4.071560948422979775e-01,-2.679252325903718202e+00,-3.111523274951948359e-01,-3.172537034675566581e+00,3.266135701519855328e+00,2.175895881393856701e+00,1.128933197774814712e+00,-2.462674183896384150e+00,-2.014114052961688828e-01,-5.216806572726015112e+00,-3.185433705040103369e+00,-1.388711241504559268e+00,7.346866000619323156e-01,-9.311004634484170150e-01,4.193474284930376328e+00,-3.618444959125758587e+00,-6.551808932069020930e-01,-2.496463370210705079e+00,9.656170857665730134e-01,-7.871457307120667268e-01,1.540038594465757138e-01,8.942699645581191070e-03,-2.033572352214344292e+00,-2.399288762097846472e+00,4.477802869449840628e+00,-8.627993525895204519e-01,4.466782816092812247e+00,-9.651457251734875120e-01,1.331673618198237763e-01,-1.921636883915915250e+00
